-0.000698 -0.001477 0.001377 -0.000256 0.000405 0.001565 -0.000475 0.000109 -0.000485 -0.000939 -0.000811 -0.001242 -0.001400 -0.001225 -0.000611 0.001517 0.000778 0.001438 -0.001007 0.001070 -0.001133 -0.000540 -0.001456 0.000674 -0.000446 -0.000253 0.000186 0.001405 0.000613 -0.000519 0.001613 0.001312 -0.000699 -0.000963 -0.000485 -0.003487 -0.001590 0.011197 0.119326 0.131476 0.138429 -0.108104 -0.138349 0.073046 0.072638 0.065376 -0.000925 -0.001055 -0.003633 -0.001455 -0.000078 -0.000497 -0.001446 -0.000205 -0.001573 0.001089 0.000365 -0.000053 0.001560 0.000708 0.000142 -0.001181 0.008579 0.066925 0.258535 0.705727 0.736574 0.643697 0.499440 0.543062 -0.587950 -0.573346 -1.028324 -0.949341 -1.318944 -0.827589 -0.819751 0.155895 0.053712 0.783176 0.732212 -0.001188 0.001270 0.001025 0.000535 0.000545 0.001581 -0.001445 0.242897 -0.195965 -0.210969 -0.371315 -0.208831 -0.314677 0.099911 -0.065384 -0.400289 0.360804 1.016352 0.861074 0.666991 0.626755 0.556781 0.159964 -0.791297 -0.582839 0.311979 0.409797 -0.803965 -0.563339 -0.564613 0.000099 -0.000375 0.002792 -0.023758 -0.362371 -0.080321 0.064629 0.470986 1.049151 0.894629 0.763586 -0.065777 0.186307 -0.167400 0.486583 0.402083 0.080817 0.315295 0.664775 0.493582 -0.424534 -0.120935 -0.814834 -0.718494 -0.020130 -0.503981 -0.408741 -0.032095 0.325154 0.000044 -0.001095 0.621218 0.616190 0.618321 -0.730271 -0.106839 0.306786 0.148668 -0.298814 0.156559 0.162284 0.148721 0.116665 -0.079894 -0.147409 0.261238 0.207769 -0.336431 -0.353364 0.492448 0.794575 0.187772 0.396362 -0.599715 -0.242042 0.200759 0.143827 -0.000717 -0.000233 -0.087876 -0.940931 -0.563164 -1.078014 -0.235699 0.429999 -0.016244 0.140811 0.250944 0.342927 0.575967 0.385905 0.364626 0.105875 0.217858 0.063891 -0.008190 0.116579 0.074469 0.359831 0.002334 0.238306 -0.451779 -0.109230 0.344709 -0.436083 -0.001114 -0.142391 -0.062246 -0.285345 -0.217036 -0.374034 -0.068474 0.408317 0.139428 0.202731 0.165458 0.026867 0.064275 0.551911 0.486870 0.448201 0.500461 -0.273792 -0.176368 0.202302 0.299880 0.360986 0.203076 0.154783 -0.151343 -0.291061 -0.720912 -0.884562 0.003042 -0.164238 0.006844 -0.377863 -0.011062 0.009446 -0.409821 -0.236309 -0.103168 -0.081995 0.254037 0.436448 0.050524 -0.064505 0.413503 0.400395 0.217163 -0.028365 -0.000155 0.314766 -0.042016 -0.105418 0.381576 0.251207 -0.437478 -0.236146 -0.944028 -0.776414 0.000874 -0.114170 0.892209 -0.569345 -0.193921 0.901895 0.183635 0.136342 -0.197096 -0.084442 -0.119194 -0.055063 -0.171637 -0.274292 -0.425285 -0.417604 0.212855 -0.139200 0.280573 0.210191 -0.118642 -0.045991 0.121154 0.311659 -0.476173 0.412483 0.361960 0.519293 -0.000742 -0.054386 0.833887 0.227726 -0.592029 0.476870 0.582156 0.493494 0.128313 -0.307688 0.022473 -0.390118 -0.125653 -0.041542 -0.087486 0.027782 0.104074 0.286361 0.430215 -0.125021 0.005808 0.241209 0.048587 0.391560 -0.479267 -0.201635 0.438503 0.526931 -0.103327 -0.077250 -0.631461 0.283299 0.003364 -0.039520 0.323007 0.176053 -0.124515 -0.584795 -0.049028 0.141556 -0.340565 -0.840169 -0.791643 -0.265342 -0.195397 -0.263430 0.124315 -0.633167 0.156761 0.261073 -0.063418 0.280306 -0.198502 -0.068912 -0.168592 -0.094289 -0.105025 -0.128283 -0.262549 0.062128 -0.530018 -0.977036 0.437384 -0.272122 -0.052066 0.223812 0.070632 -0.623293 -1.355816 -1.340547 -0.675881 -0.515665 -0.213667 -0.101658 -0.403170 -0.415829 -0.036572 0.089790 -0.265911 0.112052 0.025181 -0.313743 -0.148482 -0.040052 -0.000835 -0.100618 -0.023957 0.572006 -0.180303 -0.592213 -0.603162 -0.461121 -0.166228 0.154322 -0.016119 -0.904271 -0.982789 -0.366438 -0.274456 -0.527201 -0.223517 -0.452906 -0.370212 -0.257287 -0.157859 0.265415 0.177243 -0.100505 0.143566 0.050139 0.330029 0.462087 -0.001342 -0.158730 -0.167817 0.708981 0.268055 0.152075 -0.720423 -0.488729 -0.427259 -0.628379 -0.528461 -0.688798 -0.236345 0.073421 -0.249061 -0.299298 -0.394709 -0.832291 -0.667231 -0.544659 0.094584 0.507882 0.164119 -0.260502 0.032349 -0.156329 0.687093 0.447555 -0.000751 -0.136802 -0.371651 0.269853 -0.406354 -0.408928 -1.086747 -0.421467 -0.312668 -0.487304 -0.611092 -0.525054 -0.386847 -0.266783 -0.029383 -0.395976 -0.431542 -0.733225 -0.914839 -0.434959 -0.135723 0.592438 -0.484478 -0.515970 0.034069 -0.273338 0.688718 0.601204 0.000598 -0.120019 -0.359614 -0.101182 -0.108996 -0.371152 -0.536601 0.255599 -0.013769 -0.318249 -0.188304 -0.618429 -0.181508 0.058659 -0.084157 -0.348857 -0.173043 -0.632067 -0.889156 -0.478377 -0.244042 0.054936 -0.467099 -0.564965 -0.041142 -0.047136 0.779608 0.608738 -0.000649 -0.096743 -0.376765 0.430784 0.716161 -0.158228 0.004598 0.806869 0.284146 0.393932 0.610932 -0.426653 0.014570 -0.456376 -0.497075 -0.377689 -0.366744 -0.962785 -0.510634 -0.181607 -0.243820 -0.624061 -0.631820 -0.068970 -0.171494 0.790968 0.507899 0.783046 0.000968 0.029092 -0.483801 -0.172838 0.045102 -0.215739 -0.011921 0.776535 0.274240 0.546671 0.449275 0.038816 -0.014292 -0.314714 -0.591178 -1.058165 -1.625533 -1.048230 0.240250 -0.198694 -0.208994 -0.228319 0.051481 -0.188271 -0.284477 -0.050580 0.775888 0.495048 0.000304 0.006275 -0.091747 -0.755806 0.012999 0.053561 0.358962 0.541992 0.207201 0.297009 0.278169 0.720215 0.106249 0.324106 -0.806446 -1.534594 -0.456621 -0.210224 0.088688 0.064649 0.141071 0.107682 0.116059 -0.482613 -0.523257 -1.100799 1.047363 0.184219 0.001552 0.350197 0.084878 0.279952 0.065974 0.835026 0.748198 0.233385 0.387614 0.623868 0.200206 0.307537 0.273837 0.522169 -0.115231 -0.094918 0.496170 0.102369 -0.221966 -0.172735 -0.038688 0.005939 0.085328 0.323415 -0.190386 -0.502559 0.453193 0.000868 -0.003792 0.513791 0.570915 0.429689 0.313598 0.388021 0.236187 -0.055588 0.097229 -0.047157 -0.190193 0.174724 -0.175140 0.289632 1.043154 1.078430 0.752473 0.473360 0.098550 -0.055041 -0.215774 -0.327315 0.191705 0.765779 0.950910 0.902240 0.383275 0.093546 -0.002781 -0.003454 1.084602 1.129142 0.481622 0.129561 -0.120826 0.039439 0.548781 0.306095 0.074720 0.323027 0.331067 0.373752 0.782462 0.528095 0.521969 0.424101 0.842669 0.651611 0.221279 0.106630 0.548180 0.965619 0.711750 0.975180 0.388094 0.117913 0.000676 0.001005 0.059714 0.647771 0.265273 0.120402 -0.220997 -0.406400 0.012505 0.230164 0.145638 0.379604 0.555492 0.378882 0.318471 0.389300 0.252152 0.584886 1.006845 0.599440 0.488833 0.551212 0.414727 0.892900 0.328508 0.606872 0.039828 0.001233 0.001445 0.001462 -0.022500 0.361758 0.909686 0.617427 0.325969 -0.358385 -0.019089 -0.145601 -0.164009 0.192645 0.528873 0.319672 0.451131 0.607354 0.468654 0.964005 0.945016 0.090266 -0.032656 0.465417 0.638944 1.113137 1.053736 1.029622 0.001078 -0.001006 0.001423 0.000283 -0.013644 -0.683563 -1.378675 -1.478300 -0.966776 -0.340973 -0.211695 -1.420328 -1.385964 -0.720898 -0.213163 0.290543 0.253553 0.099353 0.297170 0.793695 0.262224 -0.285447 0.974433 0.924088 0.501940 0.132518 -0.107550 -0.001538 0.000653 -0.001204 0.001580 -0.000173 -0.001435 -0.000164 -0.008951 -0.117326 -0.205843 -0.333344 -0.260060 -0.272274 0.543763 0.260227 0.332520 0.076837 0.020615 0.119358 -0.962296 -0.746811 -0.754982 -0.362724 -0.661047 -0.752537 -0.158760 -0.158911 0.000233 0.000524 -0.000728 -0.000160 -0.001513 -0.000334 -0.001301 0.000840 0.000398 -0.000868 -0.003148 -0.003209 -0.001589 -0.005566 -0.014895 -0.031832 -0.084614 -0.109938 -0.091773 -0.057201 -0.043692 -0.035288 -0.028477 -0.020164 -0.012886 -0.200648 -0.205432 -0.195234 0.000462 -0.001272 -0.000013 0.000539
-0.001208 0.001185 0.000866 0.000499 -0.000520 -0.001239 -0.001008 0.000843 0.001626 0.000061 0.001281 -0.001033 0.573376 0.630420 -0.000514 -0.001021 0.001421 -0.000510 -0.001419 0.001184 0.001371 0.001368 -0.001355 -0.001580 0.001227 -0.000576 0.001461 -0.001273 -0.000637 0.000984 -0.001073 0.000950 0.000923 0.001615 0.140371 0.180365 0.251573 0.296186 0.197227 0.181854 0.966912 1.015625 1.412389 0.495951 0.226733 0.166151 0.331267 0.628672 0.578835 0.084016 -0.030879 -0.029619 0.000252 -0.000896 -0.000459 -0.001594 0.000122 -0.000511 0.027339 0.256862 0.524925 0.418305 0.160171 0.597358 -0.352449 -0.125881 -0.035799 1.551196 0.329493 0.381272 0.403361 0.842803 1.159771 0.894680 0.655602 0.529854 0.245110 -0.341616 -0.123152 0.278479 0.007135 -0.000252 0.001632 -0.001582 -0.001421 -0.000768 0.044933 1.025173 1.108571 -0.056615 -0.620336 -0.305347 -0.305202 0.474704 0.254141 -0.992560 -0.766907 0.267665 0.158572 0.210549 -0.086062 0.182929 1.274554 1.891977 1.257285 0.471981 -0.382041 -0.192529 0.884758 0.893393 0.971567 0.001228 0.001256 -0.002210 -0.101557 0.850710 -0.565875 0.154998 0.130966 -0.162893 -0.079246 0.417010 0.399042 0.277233 -0.290915 -0.436952 0.265270 0.487544 0.325197 -0.267790 0.433168 0.497995 0.165726 0.851179 0.496582 0.414560 0.689872 0.907796 1.101382 0.000841 -0.000125 -0.000398 -0.197488 -0.265675 -1.214786 0.116480 0.013646 -0.342884 0.140502 0.689640 0.513863 0.064625 -0.388118 -0.106312 0.088704 0.127092 0.429401 0.475816 0.579249 0.033929 0.269859 0.544521 0.997305 0.283888 0.102263 0.026032 0.755786 0.001977 -0.000297 0.001273 -0.324287 -1.207797 -0.515853 0.177865 -0.266457 -0.098876 0.088351 -0.283433 -0.020353 0.144504 0.274758 0.044641 0.251127 0.420499 0.409161 0.490535 0.639043 0.388105 0.832635 0.506408 0.470019 0.010769 -0.000185 0.495068 0.752451 0.073198 0.001057 0.014189 -0.378875 -1.255597 -1.086829 0.509878 -0.362240 -0.245182 0.066621 -0.011014 0.154410 -0.062285 0.176357 0.153466 0.667368 0.261577 0.393457 0.335065 0.491811 0.359163 0.598105 0.032269 -0.271225 -0.469591 0.181540 0.820973 1.133850 0.042593 0.001353 0.017939 -0.533774 -1.150735 -0.924909 0.404540 0.227854 -0.144413 0.089776 0.001108 -0.005444 -0.017138 0.215217 -0.088095 -0.669913 -0.721835 -0.940861 -0.711425 -0.338514 -0.908608 -0.865571 -1.140284 -1.425598 -1.393302 -0.628139 -0.506147 0.907516 0.016702 0.001597 0.007747 -0.770876 -0.464223 -0.398272 -0.408294 -0.136397 -0.059034 0.046234 -0.086024 -0.148572 -0.069646 0.251856 -0.890503 -1.385014 -1.997430 -2.024325 -2.107372 -2.578978 -3.543926 -2.425702 -2.339927 -2.132784 -1.213620 -0.778541 -0.704184 0.724813 0.101707 0.000763 -0.023248 -0.317527 -0.104403 -0.292246 -0.973115 0.009773 -0.485919 0.093729 0.051718 -0.433972 -0.394515 0.009359 -0.389365 -0.728924 -0.321901 0.107439 -0.410097 -1.176415 -0.774070 -1.558421 -2.008434 -1.870862 -1.672489 -1.270839 -0.516030 0.576430 0.105765 0.012205 -0.067754 -0.036133 -0.482821 -0.577661 -0.405852 0.318761 -0.325968 -0.426133 -0.128919 -0.143687 0.181664 0.083410 -0.112445 -0.057575 0.107532 0.382982 0.229416 -0.065293 0.043241 -0.749858 -1.106872 -0.712253 -0.657920 -0.552436 -0.584519 0.453995 0.191666 0.014548 -0.040534 -0.056047 0.404789 -0.402459 0.111746 0.366538 -0.049970 0.032101 0.348630 0.063176 0.468782 -0.002926 -0.293963 -0.060154 0.158810 0.196212 -0.179496 0.194481 0.082150 -0.035450 -0.312438 -0.538402 0.548794 0.074822 -0.291983 0.203670 0.194495 -0.000073 0.006008 0.023487 0.493872 -0.163657 -0.113678 0.099718 0.155376 0.308303 0.117318 0.240730 0.145082 -0.013348 -0.131659 -0.185332 0.361806 -0.238089 -0.309385 -0.258183 0.134145 0.024493 -0.096429 -0.312631 0.307401 0.550355 0.113670 0.083810 -0.138005 0.744752 0.027784 -0.241893 -0.019962 0.909695 -0.245781 0.502583 0.311363 0.493125 -0.001934 0.482951 0.163055 -0.159304 -0.582373 -0.200752 -0.033795 -0.310617 -0.419224 -0.049069 0.014180 0.036501 -0.580965 -0.559197 -0.047825 0.974685 0.161100 -0.280178 -0.413332 0.567230 0.013647 -0.226473 0.558151 -0.302918 0.158163 0.280686 -0.192427 0.116910 -0.011568 -0.061160 -0.049378 -0.125182 -0.957732 -0.455565 -0.120604 -0.439712 0.038182 0.161702 0.009491 0.103318 -0.010620 -0.435014 -0.234598 0.691859 0.129680 -0.848547 -0.268133 0.009008 0.012688 -0.382581 1.095362 -0.093183 -0.148620 -0.456290 -0.456478 -0.074798 -0.065820 -0.394535 0.045192 -0.034685 -0.276988 0.158080 0.520648 0.230249 0.238952 -0.015610 -0.024287 0.174639 0.052060 0.265384 0.122568 0.526333 0.349628 -0.463675 -0.297919 -0.001528 -0.055079 -0.713132 0.252579 -0.416751 -0.097195 -0.092592 -0.161354 0.091098 -0.445237 -0.204183 0.416123 -0.237951 -0.572856 -0.169041 -0.176355 -0.310636 -0.120751 0.144860 -0.125129 0.308546 0.424297 0.527304 0.251009 0.745825 -0.165307 -0.760063 -0.521218 -0.000216 -0.150328 -0.404606 0.269999 -0.096881 0.295129 -0.283532 0.088897 0.090113 -0.079922 -0.063996 -0.536458 -0.813148 -1.230926 -0.139190 0.149471 -0.127293 -0.136274 0.153842 -0.412727 -0.084197 0.409904 -0.057750 -0.241541 0.724053 -0.092013 -0.832756 -0.406151 -0.001012 -0.037759 0.003555 0.195765 0.231042 -0.228937 -0.487245 -0.169691 0.127640 -0.180817 -0.099177 0.278895 0.520790 -0.137913 0.116839 0.153973 0.203327 0.292114 -0.050978 -0.186202 0.398007 0.190883 0.346794 -0.098244 0.893418 0.206884 -1.073967 -0.156650 0.001349 -0.093769 -0.169508 0.719438 0.790988 -0.205622 -0.604978 -0.409312 0.248443 0.728428 -0.080672 -0.318454 -0.047835 0.040403 0.193482 0.588788 0.438196 0.220956 0.173553 0.081744 0.111834 0.561102 0.675525 -0.252555 0.143435 0.263479 -0.840297 0.012021 0.000719 -0.021972 -0.837170 0.838512 0.766973 0.360053 -0.090524 0.339997 -0.123247 -0.090340 0.150955 0.288504 0.431195 0.193844 0.369780 0.480104 0.252613 0.488339 0.580953 0.237217 0.547308 0.559975 -0.041993 -0.076040 -0.133082 0.379565 0.596270 0.011799 0.000542 -0.013930 -1.029658 -0.185563 0.240586 0.097850 0.151450 0.037517 0.109956 -0.217018 -0.252308 0.152373 0.120762 -0.219098 0.106168 0.112523 0.088012 0.329561 0.141453 0.063009 -0.221770 -0.360614 -0.328570 0.094760 -0.790251 -0.003624 0.747680 0.009940 -0.001616 0.001525 0.419385 0.538151 0.431498 -0.509503 -0.057017 -0.109799 0.483853 0.166153 -0.100804 -0.057525 0.246465 0.030357 0.120727 0.184165 0.154577 -0.369675 -0.404106 -0.242085 0.186477 -0.136403 0.233488 -0.155736 -0.864313 -0.091594 0.732904 -0.000495 -0.000778 -0.001525 -0.034031 0.302679 0.313892 0.419942 0.310935 0.071965 0.217764 0.610635 0.300843 0.315768 0.290136 -0.185777 0.154262 0.418942 -0.395444 0.222828 0.093317 -0.136055 0.334038 -0.229265 -0.368717 -0.838533 -0.132543 -0.133544 0.001286 -0.001065 0.000366 0.001502 0.000144 0.328947 -0.481453 -0.133883 0.529249 1.063033 0.652058 0.375030 -0.279920 0.249024 0.975242 0.151324 0.484649 0.535657 0.248959 0.202279 0.480423 1.422545 1.305501 0.682648 1.114387 0.643554 0.025622 -0.014885 0.000343 0.000750 -0.001109 0.001432 0.000806 0.001148 0.001387 -0.000539 -0.001364 -0.000835 -0.009413 0.221796 0.324076 0.344145 0.252198 0.760695 0.242707 -0.077429 0.452764 1.160777 1.392014 1.085765 0.729397 0.159629 0.180522 0.429982 0.000091 -0.000396 -0.001328 0.000698 0.000904 -0.001070 -0.000408 -0.000579 -0.000115 -0.001431 -0.000815 -0.001099 -0.001187 -0.003676 -0.009345 -0.007075 0.000133 0.026991 0.063558 0.045531 -0.010180 0.040905 0.076747 0.126962 -0.494010 -0.641793 -0.638432 -0.001598 0.000971 -0.000895 -0.001618 0.000438
0.000836 -0.000548 0.000155 0.001085 0.000074 -0.001601 -0.000857 -0.000612 -0.000633 -0.000468 -0.000807 -0.001050 -0.071702 -0.084271 0.007841 0.002354 -0.000262 -0.001584 -0.001430 0.000053 -0.001201 -0.001428 -0.000190 0.000829 -0.000460 -0.001154 0.000766 0.000660 0.000901 0.001424 0.001465 -0.000129 0.001854 0.014446 0.010556 0.010979 0.007759 0.023479 0.234984 0.273000 0.003010 -0.027865 0.063022 0.044711 0.147165 0.110628 0.107368 0.065461 0.114070 0.101038 0.006038 -0.000588 -0.001389 -0.000923 -0.001588 0.000819 -0.000843 -0.001120 0.005373 0.007189 0.021504 0.257364 0.166625 0.302508 0.400769 0.261315 0.401010 0.494227 0.532596 0.166633 0.033062 -0.106219 -0.009014 -0.042256 -0.005276 0.033472 0.113147 0.038373 0.005375 0.021654 0.016983 0.005874 0.001519 0.001078 0.000052 0.001360 0.001026 0.009137 0.151857 0.371899 0.399134 0.265647 0.289435 0.162182 -0.043620 -0.088422 -0.141204 -0.431333 -0.488835 -0.489192 -0.248566 -0.099819 -0.218696 -0.268603 0.200076 0.063014 -0.022540 -0.033612 0.000171 0.002643 -0.011586 0.000364 -0.000408 -0.000292 -0.003693 0.009097 -0.033199 0.280577 0.026786 -0.055573 0.104421 0.268844 -0.004183 -0.020185 -0.081116 -0.315825 -0.352891 0.056938 0.162438 0.631728 0.684440 -0.060165 -0.727571 -0.538359 -0.587214 0.147400 0.017366 -0.211475 -0.201970 0.000875 -0.000969 -0.001027 0.007273 -0.336929 0.004875 -0.041845 -0.099834 0.032650 0.066624 -0.115526 0.022409 0.008541 0.035451 -0.204042 -0.007454 0.236115 -0.011170 0.200155 -0.585774 -0.922026 -0.941641 -0.788356 -0.516026 -0.567784 -0.395831 0.002739 -0.168189 0.001700 0.001509 0.000814 0.040637 -0.017285 0.505640 -0.015931 0.096045 -0.318122 -0.106640 -0.493595 -0.458724 -0.107857 -0.292217 -0.546338 -0.706927 -0.994158 -1.131382 -1.690511 -1.420643 -1.288935 -0.507740 -0.124141 -0.770335 -0.719646 0.281265 0.605105 -0.346262 0.223841 -0.002858 0.497594 0.520598 0.073703 0.681532 0.288145 0.263233 0.165410 -0.146980 -0.564126 -0.687701 -0.519004 -0.879384 -1.410603 -1.661867 -0.948675 -0.978768 -1.300451 -0.870616 -0.645341 -0.672625 -0.716984 -0.534464 0.303801 0.265854 0.222973 -0.301598 0.639984 0.002536 0.700720 0.261993 0.312268 0.510140 -0.007915 -0.094888 -0.513677 -0.579845 -0.496244 -0.345337 -0.285947 -0.526285 -1.145630 -1.310619 -0.867454 -0.887817 -0.780823 -0.278821 -0.323972 -0.425655 -0.540082 0.044207 0.280533 0.096628 0.203149 -0.635070 0.504400 0.460553 0.793737 0.353178 0.544299 0.317716 -0.135923 0.083226 -0.577977 -0.312060 0.036868 0.066359 0.233096 0.006919 -0.447597 -0.429001 -0.048287 -0.046220 -0.221958 -0.158726 -0.573844 -0.225873 0.153710 0.097644 0.278537 0.051351 0.220232 0.371525 0.066750 0.479119 0.589631 0.844078 0.070559 0.196678 0.019959 0.161428 -0.181876 0.133673 0.302618 0.261918 0.136430 0.174760 0.135367 0.160043 0.205150 0.220421 -0.076006 -0.097406 -0.098384 0.250268 0.304907 0.635189 0.674607 0.288651 0.984682 0.733038 0.031594 0.177179 0.240237 0.407597 0.388337 0.239682 0.033551 -0.265096 -0.171646 -0.120957 0.097699 0.156073 0.274014 0.372307 0.463273 0.482802 0.315876 0.669094 0.815111 0.666896 0.522460 0.240658 0.367579 0.555049 0.977418 1.030678 0.076054 -0.430046 -0.006262 -0.012099 0.365799 0.385460 0.765687 0.240837 -0.036166 -0.253915 0.124074 0.098759 0.259919 -0.176794 -0.082438 -0.174061 -0.063926 0.284685 0.496209 0.759798 0.655229 0.745071 0.363893 0.442423 0.269269 0.640051 0.380765 0.003625 -0.497305 0.350929 -0.022188 -0.001319 0.359599 0.625278 0.736366 0.480878 0.764607 0.017924 -0.046344 0.211638 0.112037 -0.004654 -0.029240 0.301438 0.350614 0.133657 0.073425 0.017974 -0.039418 0.113306 -0.166363 -0.137880 0.347657 -0.055997 -0.056881 -0.199341 0.096619 0.840889 -0.014622 0.000516 0.080162 1.089440 0.583602 0.300342 0.286611 -0.340198 -0.393210 -0.082421 0.000203 0.150901 0.136637 -0.013424 -0.261705 -0.591336 -0.557881 -0.574800 -0.381144 -0.339825 -0.161097 -0.139107 0.198794 0.222938 -0.012436 -0.328500 0.195355 -0.031582 0.014212 0.124988 0.001237 0.322805 -0.374988 -0.229600 -0.181802 -0.358371 -0.096659 -0.071125 -0.494990 -0.294269 -0.286381 -0.463426 -0.832903 -0.773250 -0.316521 -0.545848 -0.105880 -0.170911 0.244872 0.207454 0.565261 -0.027435 -0.426965 -0.392700 0.064249 -0.008763 0.022278 0.136625 0.009928 0.359257 -0.121581 0.479687 0.356010 -0.134924 0.172927 -0.065321 -0.381409 -0.319124 -0.690185 -0.819221 -0.217785 -0.256828 -0.073901 -0.248478 -0.268106 0.170512 0.312544 -0.030039 0.609511 0.206449 -0.001113 -0.683891 -0.198311 0.018630 0.130086 0.000523 0.008951 0.314310 -0.013843 0.795517 0.201146 0.020438 0.100289 -0.143245 -0.165612 -0.144514 -0.046355 -0.595736 -0.367867 0.087517 0.101526 -0.326110 -0.189301 0.089924 -0.011685 0.121103 0.385374 0.027322 -0.293151 -0.775422 -0.243082 0.019758 0.132654 0.465214 -0.000919 0.595118 -0.421176 0.624996 -0.078509 -0.498943 -0.366847 0.096157 -0.416777 -0.095675 0.524504 0.212948 0.215632 0.298941 -0.408112 -0.204938 0.395833 0.081576 -0.172845 -0.253239 -0.064208 -0.044142 -0.172233 -0.847942 0.004617 0.024501 0.023338 0.001371 0.131037 1.044266 -0.399789 0.205919 -0.593895 -0.044062 0.076086 -0.022494 -0.327093 0.042678 0.401763 -0.029577 0.105428 0.082091 -0.114513 0.049831 0.467732 0.159239 -0.251977 -0.087901 -0.154951 -0.679812 -0.306521 -0.781004 0.006572 0.015237 0.016433 -0.001528 0.006309 0.457979 -0.464670 -0.025608 -0.914609 -0.060943 -0.193698 -0.299305 0.081016 0.302823 0.290497 -0.197902 -0.156778 0.059939 -0.352238 -0.297648 0.251743 -0.168980 -0.267443 -0.129858 -0.634633 -0.822645 -0.411961 -0.564244 -0.028743 0.013528 -0.000766 0.001015 -0.001505 -0.067537 -0.191162 -0.426280 -0.632370 -0.010868 -0.263615 0.023699 0.287806 0.405555 -0.076254 -0.312767 -0.304952 -0.357852 -0.612636 -0.380131 0.300218 0.318378 -0.378527 -0.336859 -0.527147 -0.180803 0.197248 -0.560999 -0.008095 0.008677 -0.001403 -0.001113 0.000560 -0.017599 -0.157581 -0.292972 -0.649362 -0.518701 -0.123877 0.350087 0.880549 0.357511 0.027838 0.138797 0.134734 -0.174868 -0.066178 0.139711 0.286644 0.477712 -0.182163 -0.137565 -0.243273 0.076198 0.373281 -0.659786 -0.002291 0.008391 0.001258 -0.000782 -0.001053 -0.006056 0.139116 0.230156 0.076432 -0.456733 -0.131267 0.260909 0.481381 0.390547 0.381706 0.568936 0.208453 0.077872 0.155515 0.013289 0.344602 0.382432 -0.310007 -0.078613 -0.223023 0.046738 -0.414806 -0.308059 0.017589 0.002736 0.001037 0.000188 0.000075 -0.001532 0.182231 0.461032 0.466818 -0.107703 0.507620 0.259827 -0.282833 0.042954 0.105387 0.199853 0.116158 -0.194794 0.082020 0.221633 0.451143 -0.309477 -0.538514 -0.151255 -0.315861 -0.190709 -0.173145 0.158211 0.014924 0.000984 0.001574 -0.000791 -0.001177 0.000603 0.003664 0.262070 0.279560 0.464536 0.618459 -0.287177 -0.622446 0.277503 0.018213 0.065554 0.069830 0.303849 0.080356 0.421695 -0.079765 -0.925385 -0.368063 -0.453953 -0.197653 0.100609 -0.039829 0.013701 0.000538 0.000817 -0.001556 -0.001458 -0.001326 0.000497 0.000994 0.065266 0.854386 1.047457 0.821488 0.329330 -0.153611 0.367508 0.758542 0.167699 0.463954 0.317812 0.195063 -0.064558 0.686374 0.355120 0.066400 0.025492 0.469468 0.625166 0.314930 -0.000948 0.001257 0.000883 0.000600 0.001486 0.001048 0.000967 -0.000602 0.229801 0.520232 0.625326 0.661610 0.669862 0.508846 0.181699 0.218591 0.858625 0.651911 0.044009 -0.566273 -0.445044 -0.191824 -0.000489 0.020572 0.195660 0.469750 0.484058 0.116446 -0.000683 0.001188 0.001332 -0.000205
0.001051 -0.000376 0.000600 -0.001249 -0.000306 -0.000317 0.000890 0.000497 0.000630 -0.001251 -0.001006 0.000806 -0.026780 -0.037044 -0.015811 -0.001094 -0.001509 0.000518 -0.000079 0.000615 0.000321 -0.000224 0.001278 -0.000402 0.001416 -0.001620 0.000619 0.000894 0.000321 0.001568 -0.000440 0.001415 -0.000906 -0.008391 -0.509557 -0.540120 -0.365261 -0.361439 -0.140958 -0.240718 -0.691840 0.008551 0.275342 -0.745981 -0.480755 -0.094149 -0.036298 -0.504176 -0.479827 -0.033133 -0.020623 -0.011234 -0.000115 -0.001657 0.000081 -0.001254 -0.001611 -0.000716 -0.003741 -0.793087 -0.930272 -0.474891 -0.488092 -0.525894 -0.358329 -0.365769 -0.392385 -1.475388 -0.243098 -0.127332 -0.257984 -0.837223 -0.570820 -0.286622 -0.546057 -0.579275 0.018225 0.420494 0.471708 -0.397893 -0.130468 0.148850 -0.000361 0.001671 -0.000030 -0.001624 -0.005184 -0.816783 -0.836409 -0.513117 -0.192494 -0.158623 -0.417163 -0.485883 0.340786 -0.216489 -0.890864 -1.043832 -0.098008 -0.059083 -0.152959 -0.167192 -0.407356 -0.573202 -0.155773 -0.149117 0.097371 -0.142524 -0.208871 -0.093628 -0.375490 -0.001346 0.001446 -0.001534 -0.040663 0.722577 0.810429 -0.265892 -0.069554 0.474496 -0.103855 -0.361906 0.444148 0.333598 0.796387 0.788778 0.478268 0.041582 -0.014585 -0.375855 -0.242705 0.446403 0.367808 0.395139 0.473331 0.007191 0.445045 0.185079 -0.792337 0.000169 0.001671 0.000944 0.000358 0.772060 -0.047463 -0.112574 0.036199 0.421227 -0.121274 -0.356771 0.373281 0.076266 0.058152 -0.176723 -0.092680 -0.442503 -1.097912 -0.463406 0.130792 0.659274 1.080422 0.485226 0.339901 0.405738 0.603847 0.523428 -0.202916 -0.138791 0.000970 -0.000485 0.028381 0.333070 -0.256357 0.264116 0.180148 -0.420590 -0.482878 0.007450 -0.205672 -0.025071 0.082883 -0.295489 -0.130278 -0.393777 -1.010295 -0.516503 -0.298597 0.076118 0.463847 0.359879 0.874203 0.862639 0.487740 0.219196 0.120673 -0.688385 -0.000721 0.040418 0.154987 0.755466 -0.282800 -0.325526 -0.010442 -0.023199 0.066488 0.193454 -0.034761 0.423880 0.433573 0.679721 0.148383 -0.327260 -0.898453 -0.141154 0.197306 0.419067 0.026780 0.012973 0.714233 1.178772 0.513769 0.225312 0.150130 -0.813934 0.053413 0.454097 0.716355 0.672689 -0.304345 -0.457848 -0.641252 0.289109 -0.105828 -0.017861 0.425262 0.311708 0.427969 0.645632 0.215286 -0.483716 -0.648384 -0.124273 0.331504 0.081248 0.135189 0.109458 0.637104 0.777240 0.369464 0.489477 0.334542 -0.272410 0.457477 0.605443 0.833595 -0.194568 -0.889726 -0.665369 -0.534689 -0.149366 -0.283810 -0.147327 -0.006804 -0.107411 0.016081 0.329774 0.201931 -0.979109 -0.666545 0.202597 0.398931 0.100848 0.397524 0.190188 0.031744 0.217888 0.474153 0.385325 0.152647 0.161605 0.483296 0.234103 0.030230 0.082658 -0.805447 -0.694909 -1.109164 -0.449205 -0.218150 -0.403296 -0.259648 0.056765 0.001562 0.210920 -0.408048 -1.596173 -0.659021 0.730918 0.418267 0.068285 -0.025934 0.010014 -0.282787 -0.094787 0.179674 0.482706 -0.009197 0.487837 0.216959 -0.026400 -0.241726 -0.045481 -0.747334 -0.140845 -0.148285 -0.237034 -0.241297 -0.346532 0.371015 0.357558 0.377146 -0.129605 -0.990773 -1.889613 -0.073119 0.687923 0.219654 -0.325401 -0.411856 0.162638 -0.675781 -0.447153 -0.308450 0.484268 -0.361223 -0.035406 0.040101 0.254552 -0.056439 0.044339 -0.157361 0.826802 0.034356 -0.008767 -0.165352 0.129877 0.595496 0.468924 0.740970 0.246392 -1.610389 -1.085584 0.011582 0.328818 0.110625 -0.548650 -0.493719 -0.539790 -0.499921 -0.222654 0.224841 -0.076580 -0.114379 -0.038733 0.000792 0.612468 0.454736 0.044469 0.353113 0.895885 0.100262 0.108788 0.513808 0.317130 0.376987 0.405897 0.693767 -0.739493 -1.746649 -0.952289 -0.174260 0.476087 -0.074538 -0.788656 -0.567664 -0.723561 -0.351117 -0.185409 -0.050225 -0.276313 -0.136341 -0.024702 -0.016232 0.594643 0.576980 -0.042617 0.192694 1.115988 0.207973 0.443818 0.446323 0.695278 0.393823 0.414953 0.338530 -0.901081 -0.970980 -0.666068 -0.162150 0.263631 -0.232230 0.089332 -0.207827 -0.305431 -0.430957 0.119714 -0.239102 -0.332101 -0.144801 -0.017233 0.028892 0.021522 1.019518 0.709634 0.294007 0.456128 0.031767 0.327962 0.448626 0.437350 0.443300 0.272915 0.186030 -0.079240 -0.507050 -0.707272 -0.424629 0.075903 -0.123639 0.077858 -0.211221 -0.389515 0.049411 0.276241 -0.907419 -0.854841 -0.640044 0.233410 0.057724 -0.013460 0.283412 0.684296 0.173166 -0.122774 0.101468 0.258357 0.435583 -0.101653 -0.087803 -0.301387 -0.405951 -0.248006 -0.413465 -0.149183 0.040332 0.310999 0.260827 -0.208413 -0.160850 0.190075 -0.122306 -0.125283 -0.378303 -1.076249 -0.435435 -0.705400 -0.000195 -0.012265 0.283570 0.248898 0.204624 -0.406103 0.091238 0.386111 0.053997 0.100525 0.143379 -0.134511 -0.289826 -0.414664 0.023063 -0.028535 0.375276 0.397838 0.809529 0.607139 0.451635 0.487930 0.402709 0.058209 -0.238464 -0.560019 0.525045 -0.738773 0.596654 0.004422 0.112760 0.378321 0.102169 0.141394 0.116485 0.606643 0.220153 0.007631 -0.618752 -0.388983 -0.287845 0.085151 0.200995 0.077171 0.509585 0.345876 0.535448 0.394797 0.621926 0.457500 0.106389 -0.077727 -0.270365 -0.089762 -0.104068 -0.495129 -0.000525 -0.441989 0.250897 0.657385 0.154246 0.235138 0.245658 0.201373 0.411242 0.024584 -0.172770 -0.144394 -0.304771 0.229254 0.322891 0.143752 -0.005258 -0.113275 0.040922 0.029151 0.106527 0.610929 -0.344821 -0.497554 -0.106896 0.084002 -0.526788 -0.029594 0.001088 -0.052736 0.219130 -0.282225 -0.541653 -0.489078 0.429822 0.003576 0.193158 -0.252035 -0.229662 -0.471618 0.202190 0.180880 -0.240535 -0.071775 0.183225 0.020510 0.265148 0.529309 0.078149 -0.002509 -1.142188 -0.406595 -0.021539 -0.767657 -0.462662 -0.000192 -0.000040 -0.059561 0.237612 -0.517911 -1.048904 -1.027597 -0.829613 -1.135787 -0.711008 -0.918589 -0.815563 -0.250015 0.191233 -0.054474 -0.392542 0.062053 -0.000825 -0.333974 -0.392735 0.277436 0.028943 0.055088 -0.293246 -0.099087 0.643060 -0.489969 -0.370580 -0.000024 0.000027 -0.004702 0.024666 -0.578190 -0.779184 -0.685026 -0.921703 -1.948032 -1.427970 -0.693229 -0.023319 0.330995 0.152613 -0.276038 -0.312659 -0.164575 -0.290482 -0.436769 -0.336699 0.239289 0.198304 0.488312 -0.059753 -0.098127 0.342278 -0.192437 -0.171116 -0.001604 -0.001190 0.000858 -0.019405 -0.066018 0.092011 -0.233598 -0.923576 -0.391700 -0.090658 -0.370983 -0.011358 0.143218 0.018558 -0.049840 -0.072119 -0.016315 -0.059301 -0.316540 -0.051478 -0.117517 -0.104388 0.398286 -0.820251 -0.897607 -0.416797 -0.138798 -0.087103 0.000917 0.000809 -0.000532 0.053465 -0.088528 0.376101 -0.150006 -0.467716 -0.212657 -0.351695 -0.096188 -0.013610 0.087522 0.103223 0.463781 -0.187484 -0.174024 -0.008540 -0.272730 -0.573511 -0.401782 -0.339488 -0.578572 -1.121936 -0.615822 -0.644390 0.377952 0.000865 0.001111 -0.001674 0.000269 -0.124738 0.003699 0.398103 0.223800 -0.165870 0.082865 0.473798 0.445310 0.240387 0.452313 0.394361 0.112843 -0.197479 0.078422 0.400515 0.073630 0.263052 -0.374779 -0.662549 -0.176194 -0.728418 -0.239189 -0.579747 0.015841 0.000938 0.000762 0.001670 -0.000142 -0.000406 0.001329 0.012287 0.601646 -0.085045 -0.117856 -0.742653 0.156443 0.181785 0.083347 0.134983 -0.329252 -0.701838 -0.023754 -0.083764 -0.769725 -0.666665 -0.648377 -0.586732 -0.457868 0.328158 0.020585 0.132575 0.001644 0.000977 0.001658 -0.000154 0.000838 -0.001234 -0.000155 0.002539 0.072935 -0.306480 -0.224152 -0.149677 -0.032258 -0.537923 -0.615044 0.193165 -0.028204 -0.180607 -0.624950 -0.694247 0.302511 -0.111960 -0.087065 0.770643 0.851971 0.799173 -0.044306 -0.001042 0.000471 -0.001386 0.000128
0.001221 -0.001527 -0.000321 -0.000258 -0.000818 -0.001612 0.001129 0.000203 0.000484 -0.000257 0.001591 -0.000711 -0.000846 0.001529 0.001429 -0.001158 0.001543 -0.000919 -0.000287 -0.001162 0.000891 0.001052 0.001284 -0.000144 -0.000552 0.000570 0.000865 0.001410 -0.001324 0.000457 -0.000138 -0.000897 -0.000069 -0.001299 -0.001241 -0.002010 -0.002369 -0.003068 -0.001202 0.001490 -0.000750 0.000815 -0.001032 -0.000241 -0.001531 -0.000635 0.001410 -0.000260 -0.000001 0.000779 -0.000127 -0.000899 0.001180 -0.001479 -0.001476 -0.001238 0.000707 -0.000338 -0.001230 0.083317 0.081460 0.043646 -0.001198 0.013649 -0.211365 -0.033468 -0.068409 0.568292 0.714887 0.473956 -0.138941 0.321153 0.325167 0.528528 0.874543 0.667149 0.001532 -0.001793 -0.001368 0.001239 -0.000132 0.000958 -0.000679 -0.001453 -0.001164 -0.000838 -0.000863 0.119169 0.155157 -0.108220 0.774818 0.384647 0.496596 1.181426 1.133425 1.279090 0.676522 -0.070135 -0.826969 0.358011 0.111502 -0.774926 -1.213512 -1.287379 -0.999338 -0.814151 -0.342975 -0.091822 -0.440093 -0.410938 0.000627 0.000908 -0.000697 0.001168 0.000946 0.615924 0.137926 -0.410239 0.577172 -0.083232 -0.149612 0.190058 0.028796 -0.060783 -0.073868 -0.443633 0.148346 0.186317 0.433499 -0.203334 -0.421090 0.873149 1.031026 0.478601 0.550038 -0.401315 -0.193877 0.256593 0.110801 -0.000621 -0.001392 0.001277 0.000108 -0.861990 0.303903 0.165924 -0.086358 -0.207021 0.084811 0.229988 -0.321002 -0.182109 0.228927 0.288232 -0.211930 -0.555208 -0.241463 -0.153237 -0.439454 -0.161081 0.275975 0.270877 -0.090129 0.203200 -0.008003 0.893337 0.647559 -0.307590 0.000731 0.000116 0.342326 0.462718 1.579831 1.162202 -0.247989 0.658082 0.822649 -0.054455 -0.119889 0.226033 0.294343 0.246185 0.226710 0.011754 -0.054877 0.169905 -0.182765 0.148784 -0.349784 0.123477 -0.530439 -0.176091 0.484996 0.765966 0.394844 -0.092457 0.015847 0.294792 0.305028 1.178631 1.256347 -0.077513 -0.047834 0.769239 0.105891 0.351203 0.465361 0.106690 -0.219655 -0.048443 -0.327998 -0.307357 0.033060 0.045553 -0.038027 -0.238444 -0.340733 -0.081029 -0.060675 -0.218859 -0.230473 0.506786 0.343826 0.482810 0.030253 0.532872 0.028282 0.222776 0.447551 0.019712 -0.456990 0.258443 0.045898 0.412450 0.516201 0.120231 0.337328 0.002589 0.079599 0.392153 0.273206 0.239554 -0.031356 -0.263372 0.051908 0.190978 0.046669 0.358289 0.017277 0.506358 0.182672 0.138186 0.375722 0.841954 -0.752487 -0.279571 0.322501 0.311571 0.108363 0.294179 0.130849 0.588786 0.286568 0.365954 0.471880 0.450732 0.163205 0.388643 0.004520 0.131536 0.372405 0.084347 0.316278 0.281313 0.348378 0.891588 0.378618 0.606877 -0.614479 -0.204732 0.388025 0.696930 -0.791782 -0.372024 0.041655 0.254000 -0.226924 -0.175006 0.173429 0.162924 0.122775 0.749565 0.217004 0.294100 -0.577756 -0.313084 -0.126929 0.065921 0.206622 0.454456 0.632760 0.370267 0.452122 0.608773 0.169932 0.002072 -0.575194 0.119588 0.213176 0.269890 0.247495 -0.109032 -0.497882 -0.279136 -0.122418 -0.406406 -0.588626 0.069705 0.117317 0.708228 0.140299 -0.706118 -1.620769 -0.609653 -0.258975 0.009341 0.248804 -0.036680 0.483203 -0.118436 -0.357987 -0.311656 0.679472 0.211155 0.622102 0.121061 0.099561 0.322123 -0.356277 -0.474218 -0.398070 -0.240793 -0.181511 0.266377 -0.167315 0.033621 0.474442 0.482555 0.120657 -1.423543 -1.943818 -0.360277 0.108355 0.078631 0.221969 -0.412439 -0.001252 -0.343580 0.004126 -0.442415 0.451990 -0.234161 0.704227 0.007902 -0.001476 0.554687 0.446303 -0.051914 -0.754616 -0.138773 0.175720 0.097178 0.395615 0.408402 0.394504 0.680286 -0.233815 -1.476535 -1.568751 -0.522486 -0.051817 -0.028753 -0.310109 -0.618103 0.101521 0.012940 -0.239388 -0.312777 0.259524 -0.455812 0.622735 0.002631 0.013526 0.542268 0.669147 0.599710 0.161468 0.433099 0.277716 0.003014 0.274080 0.513086 0.618055 0.568963 -0.951883 -2.552212 -1.021388 0.065495 -0.048947 -0.032489 -0.147511 -0.356668 -0.038495 -0.552048 -0.400216 0.485701 0.046688 0.097804 0.005537 0.000789 0.180146 -0.007374 0.069102 0.528611 0.405049 0.298387 0.153487 0.657097 0.399682 0.616711 0.175525 -0.373815 -2.147751 -1.637806 -0.211941 0.156062 -0.065632 -0.169912 -0.200551 -0.148567 -0.235503 -0.366192 0.070536 0.524131 -0.284184 0.177347 0.067353 -0.025601 0.206542 0.000820 -0.145428 0.564493 0.385905 0.348196 0.006889 0.308703 0.669280 0.322460 0.249302 -1.517871 -2.179518 -0.610109 0.556342 0.212724 -0.273976 0.023359 -0.105564 0.123947 -0.512348 0.236568 0.213769 0.454913 0.086572 -0.286277 0.296639 -0.009838 0.001307 0.043210 -0.329479 0.207014 -0.381158 0.403259 -0.203057 -0.358427 -0.371975 -0.407447 -0.724829 -1.809164 -1.647341 -0.408839 0.080435 -0.026390 -0.165687 -0.126507 0.310667 0.171844 0.140401 0.152454 -0.212112 0.771657 0.048468 -1.211833 0.393387 -0.019274 0.734551 0.046885 -0.160143 -0.434108 -0.827222 -0.600760 -0.712898 -0.400858 -0.681182 -0.514028 -0.658668 -0.954485 -0.739255 -0.282091 -0.266464 -0.252742 0.142196 -0.014647 0.070057 -0.702534 0.076847 -0.119178 0.013790 0.411669 -0.950431 -0.978082 -0.035669 -0.000324 0.000530 0.779792 0.530060 -0.643572 -0.202560 -0.547943 -0.544852 -1.016136 -0.368378 -0.813901 -0.866849 -0.130339 -0.496712 -0.506252 -0.204511 -0.316598 -0.120616 0.075692 -0.647778 -0.664792 0.073628 -0.377351 -0.123489 0.013126 -0.846791 -0.318224 0.066449 -0.000018 -0.000417 0.120236 0.548057 0.388673 -0.233329 -0.481677 -0.555183 -0.297137 -0.783285 -1.118312 -0.244099 -0.030325 0.015177 -0.492004 -0.194679 -0.254658 -0.025972 -0.012757 0.082965 0.163868 -0.032600 -0.329511 -0.498859 -0.144837 -1.038766 -0.255536 -0.040552 0.035335 -0.002113 -0.011677 -0.062240 0.122730 -0.636206 -0.145669 0.043303 -0.150363 -0.281302 -0.121113 0.720628 0.441894 0.236230 0.239633 0.000750 -0.231430 0.250278 -0.051518 0.623595 0.687742 -0.143945 0.101706 0.041713 0.337827 -0.263178 -0.331128 -0.195668 -0.090898 -0.002559 -0.004468 -0.485428 0.075077 -0.331050 0.276178 0.871725 0.228933 0.388873 0.285767 0.111312 0.378261 0.261831 0.663554 0.037926 0.371775 0.097326 0.136448 0.367306 -0.037992 -0.441545 0.235630 0.216641 0.174200 -0.420933 -0.296144 -0.005346 -0.102577 0.001481 -0.000863 0.045878 0.322203 0.328602 0.041435 0.818700 1.278994 0.211529 0.430320 0.107528 0.182187 0.196550 0.244826 0.076124 0.176476 -0.003680 0.201776 -0.225644 -0.137794 -0.211477 0.258188 0.104716 -0.012436 0.517035 -0.464214 -0.004865 -0.000405 0.000286 -0.000363 0.673519 0.425065 1.135592 0.581638 -0.067112 0.039831 0.242825 0.246737 0.120894 -0.109067 -0.087641 -0.257959 -0.141677 0.029011 -0.217346 0.335708 -0.045366 0.138075 -0.283474 0.809491 0.233325 -0.189522 0.869871 -0.077195 0.000789 0.000668 0.001174 0.000363 -0.052993 0.032962 -0.296079 -0.443765 0.090233 0.215443 0.904351 0.604879 -0.169270 0.108332 0.535188 0.285834 0.102920 0.020940 0.430051 0.364354 0.573267 0.735302 0.550838 0.500993 -0.213692 -0.191999 0.654979 0.000937 0.000833 0.000932 0.000439 0.000466 0.001124 -0.000199 -0.469589 -1.211655 -1.222919 -0.709440 -0.125430 -0.148688 -0.818208 -0.850707 -0.135963 0.481603 -0.027123 0.257043 0.594160 0.035902 0.723326 1.676672 0.830932 0.491182 0.568610 0.267324 -0.115985 0.079684 -0.000705 -0.000951 0.000918 -0.000355 -0.000153 0.000749 0.170336 0.418938 0.743657 0.649983 0.936435 1.080373 0.497912 0.068896 0.784114 0.277499 0.229717 -0.532369 -0.265241 0.975540 0.213628 -0.284691 0.109431 0.976610 1.280078 0.810336 -0.000869 -0.001506 -0.000016 -0.000604
0.000189 0.000416 -0.000630 0.000837 -0.000792 -0.000129 -0.001517 0.001237 0.001280 0.001407 0.000084 0.000516 0.000129 -0.005498 -0.006090 0.000217 -0.001554 0.000716 -0.001609 -0.001637 -0.000005 -0.000517 0.001546 -0.000360 0.000156 -0.000443 0.000780 0.000018 -0.000635 0.001031 -0.001515 0.000892 -0.001676 -0.012782 -0.388389 -0.425409 -0.030429 0.017136 0.063302 -0.000979 0.001018 -0.005365 -0.007563 -0.316233 -0.332442 -0.155831 0.019170 -0.000989 -0.001486 -0.000587 0.000556 0.001354 -0.000603 0.000217 0.001298 -0.000660 0.000836 0.001164 0.000264 -0.000469 0.001095 -0.308139 -0.450096 -0.630079 -0.214090 -0.312717 -0.260715 -0.341060 -0.156310 0.307626 0.430838 0.522818 0.413758 0.325684 -0.011364 0.223730 0.498986 0.469427 0.519647 0.022844 -0.000492 0.001289 0.000889 -0.001468 -0.001580 0.001058 -0.000336 0.009310 0.135629 0.003048 0.019527 0.070105 -0.721885 -1.129314 -0.993212 -0.424232 -0.008172 -0.230594 -0.125965 0.370768 0.376620 -0.108100 -0.194486 0.057573 0.001275 0.424515 0.527547 0.992758 0.001604 0.001803 -0.000841 0.001235 -0.001445 0.001051 0.002950 0.016542 0.394652 0.523335 0.413757 0.682368 -0.010722 -0.433529 -0.466183 -0.556131 -0.267878 -0.442176 -0.419621 0.486479 0.318386 -0.071719 -0.087971 0.080843 -0.414579 -0.404417 0.029600 0.224252 0.035984 0.044651 0.001143 0.001111 0.000694 0.001156 0.001074 -0.156463 -0.255553 0.364012 0.402255 0.424076 0.228139 -0.346110 -0.568325 -1.375823 -1.484894 -1.175027 -0.637136 -0.905964 0.083949 0.590463 0.399492 0.151371 -0.061501 -0.073973 0.112593 0.480190 -0.064775 0.225643 0.217731 -0.000195 0.000074 -0.000094 0.275588 -0.468095 -0.236842 0.281288 0.953131 0.410545 0.296327 -0.061794 -0.910001 -1.568163 -1.599659 -1.020311 -0.869602 -0.346698 0.551672 0.273502 0.484661 0.508493 0.304759 0.099499 0.384561 0.880649 0.166402 0.142508 0.107930 -0.000656 0.002799 0.142730 0.488629 0.314948 0.242505 1.066687 0.569790 0.309346 0.032849 -0.203435 -0.743120 -1.209610 -1.010160 -1.012759 -0.643273 0.164116 0.446883 0.297649 -0.111759 0.279139 0.648778 -0.033087 0.145504 0.079856 0.088425 0.398230 -0.099763 -0.000765 0.006127 0.045808 0.659113 0.395282 0.675426 0.963568 0.277734 0.462141 0.392341 0.435082 -0.280495 -1.063123 -0.976152 -0.720526 -0.285436 -0.051506 0.657399 0.523412 0.093075 -0.330885 0.113660 0.009061 -0.533429 -0.295878 -0.372827 0.043335 -0.073189 0.000122 0.007728 0.421340 0.615574 0.585230 0.201907 0.428962 0.261380 0.348389 0.631946 0.382103 -0.509278 -0.825132 -0.707051 -0.743927 -0.275913 -0.389082 0.114908 0.343767 -0.087692 0.048533 0.172318 0.132602 -0.425924 -0.121043 0.106793 0.955564 0.182867 0.001343 0.009954 0.432281 0.698420 0.464406 -0.189000 0.654743 -0.056701 0.462794 0.856891 0.291631 -0.532599 -0.637426 -0.717629 -0.690091 -0.791768 -0.894055 -0.327665 0.243030 0.138261 0.050247 0.039181 0.167784 -0.002795 -0.038498 0.258146 0.950004 0.483370 0.001440 0.080969 0.215525 0.226309 0.494974 -0.443376 0.507516 0.016887 0.299712 0.851302 0.613043 0.192207 -0.394563 -0.603508 -0.413896 -0.631319 -0.457818 0.285160 0.240542 0.398023 0.086065 -0.117806 -0.172517 -0.103484 -0.026438 0.008610 0.684649 0.035065 -0.000912 0.075911 0.301409 0.155075 0.350204 -0.397056 0.388272 0.136663 0.423894 0.320962 0.547443 0.401153 -0.530355 -0.842453 -0.753046 -0.610393 -0.299661 -0.207622 -0.036885 0.296861 0.089487 0.163601 -0.205403 0.006902 -0.440003 -0.391890 0.427736 0.012330 0.000916 -0.000109 0.424900 0.276917 0.043945 -0.000473 0.179114 0.101623 0.264604 0.476801 0.211504 -0.092073 -0.272404 -0.195225 -0.078549 -0.258547 -0.265979 -0.269262 0.109667 0.249510 0.009036 -0.065664 -0.188256 0.103184 -0.336546 -0.346773 -0.025516 0.136822 -0.001301 0.000159 0.249347 0.070501 -0.179771 0.334194 0.256549 -0.076920 0.236247 0.236673 0.239987 -0.024038 -0.162253 -0.137449 -0.224101 -0.205517 -0.042200 -0.019115 0.263052 0.053238 0.394917 0.040409 0.052807 0.146514 -0.205042 -0.668700 0.048880 0.314007 0.000912 -0.000769 0.058132 0.522104 0.110077 0.513409 -0.228777 -0.379652 0.037840 0.095332 -0.198686 -0.031330 -0.026627 -0.018618 0.094119 -0.127692 -0.171336 -0.265211 0.178078 0.040723 0.187266 -0.210607 -0.196480 0.282642 0.075895 0.008748 0.393018 0.207240 0.000688 -0.001035 -0.001165 0.301875 0.030054 0.121467 -0.195041 -0.244759 -0.087127 -0.019399 -0.464452 -0.188523 0.266194 0.148529 -0.116352 -0.255181 0.055933 -0.256009 -0.330833 -0.281564 0.108542 0.296018 0.324018 0.183120 -0.110960 0.294236 0.944265 0.206037 -0.001664 -0.001466 -0.000599 0.638923 -0.408272 0.214976 -0.135030 -0.130622 0.215357 0.178112 -0.095071 -0.212045 0.013047 -0.073073 0.208331 0.236009 0.382515 0.090637 -0.172726 0.259589 0.119516 -0.004414 0.224391 -0.155701 -0.136185 0.168574 0.829371 0.207532 -0.001559 -0.000394 -0.000107 0.654376 -0.195622 0.035812 -0.262680 -0.182997 -0.197720 -0.158979 -0.053352 -0.260657 -0.446039 -0.250322 0.049208 0.395284 0.274532 0.088759 0.022195 0.107683 -0.275886 -0.323966 -0.009772 -0.375662 -0.311831 0.009937 0.262143 -0.167278 -0.001250 -0.000643 -0.000176 0.061122 -0.382708 -0.381416 0.052267 0.023907 -0.015679 -0.098914 0.041088 -0.431435 -0.783597 -1.067761 -0.284296 0.215485 0.289112 -0.026550 0.253774 0.051027 -0.072161 -0.041470 0.066179 0.094219 0.572771 0.438951 0.249884 0.008852 0.001572 0.000943 0.001065 -0.192626 -0.228796 -0.696106 -0.188630 0.023520 0.197090 0.327874 0.002236 -0.238617 -0.550554 -0.618429 -0.485424 -0.145567 0.457720 -0.267992 0.057769 0.273276 0.279098 0.044978 0.224478 0.365973 0.774565 0.599483 -0.071939 -0.001450 0.000874 -0.001222 0.001295 -0.051980 0.010387 -0.559591 -0.508866 -0.207410 0.486987 0.099779 -0.165026 -0.311973 -0.232230 -0.403844 -0.640231 0.056010 0.572204 -0.421469 -0.037087 0.075411 0.251473 0.061739 0.327150 0.426154 0.757820 0.747795 0.165860 -0.001453 -0.000940 0.000276 0.000671 -0.001815 -0.003961 -0.121811 -0.240539 -0.615939 0.086735 0.105463 -0.165806 -0.273809 -0.485431 -0.664214 -0.482075 0.435801 0.506148 -0.483549 -0.289007 -0.150812 -0.100235 -0.224847 0.340226 0.326909 0.465318 0.644905 0.391369 0.000424 -0.000125 0.000134 -0.000046 -0.003409 -0.018927 -0.098151 -0.430053 0.155058 0.026035 -0.054806 0.035551 0.036795 -0.338118 -0.543363 -0.318497 0.561850 0.739836 0.183047 -0.045244 0.069047 -0.173578 -0.315738 0.394707 0.022847 -0.062027 0.085010 0.512312 -0.001609 0.001406 0.001130 -0.001428 0.001066 0.168449 0.246078 -0.785940 0.161746 0.343741 0.433507 0.123980 0.135695 0.190500 -0.451068 -0.100975 0.041127 0.376455 0.456409 0.244581 0.340832 0.123958 0.575023 0.450708 -0.062688 -0.242912 -0.235489 0.259268 0.001026 -0.000219 0.000017 0.001209 -0.002960 0.093813 0.171421 -0.152959 0.298117 0.856923 0.625209 0.535691 0.063671 0.081433 -0.663533 -0.205119 -0.578562 0.246968 0.417863 0.821591 0.856292 0.091641 -0.443453 -0.211731 -0.019899 -0.290229 0.117177 -0.141023 0.001235 0.001275 -0.000124 0.001228 0.000170 0.001173 0.001541 0.004161 0.106290 0.519336 0.774428 0.607567 0.314978 0.004901 -0.561343 -0.507483 -0.280268 -0.146293 -0.436231 -0.438993 -0.270389 -0.383840 -1.071807 -0.569429 -0.109500 -0.450092 0.000471 -0.000248 0.001018 -0.001351 -0.000806 -0.000599 -0.000057 -0.000396 -0.001281 0.001451 0.001096 0.002088 0.001172 0.006115 0.276079 0.319127 0.204781 0.398512 0.568464 0.593921 -0.032225 0.083825 -0.140091 -0.516043 0.216141 0.376945 0.512382 0.298562 0.000399 0.000120 0.000755 -0.001267
-0.001336 0.000492 0.000169 -0.001328 0.000407 -0.001399 -0.001399 -0.000604 -0.000334 0.000887 0.001381 -0.001139 0.048264 0.072812 -0.001292 -0.001208 0.000426 0.001358 -0.001616 -0.000441 0.000823 -0.001292 0.000415 -0.000250 -0.001564 0.001625 -0.000102 0.001401 -0.000504 0.001638 0.001457 -0.000151 0.000604 -0.001442 -0.288286 -0.282960 -0.167878 -0.138490 -0.061092 -0.184585 -0.227864 -0.111391 -0.066892 -0.342714 -0.360115 -0.374684 -0.156969 -0.064170 -0.071308 -0.085955 0.001893 0.024456 -0.000603 0.000064 0.000151 -0.000837 0.000985 0.000839 -0.005786 -0.000279 0.001087 0.000134 -0.224387 -0.308492 -0.323737 -0.224854 0.125699 0.059950 0.096311 -0.779035 -0.643820 -0.033225 -0.242681 0.008836 0.307009 0.066245 0.016609 -0.072167 -0.009948 0.014133 0.001042 -0.000522 0.000936 0.000549 -0.001461 -0.000113 -0.005513 -0.005990 -0.000425 0.002936 -0.262328 -0.324351 -0.761481 -0.723065 -0.667316 0.103126 0.138006 -0.548548 -0.560965 -0.726541 -0.942490 -0.247144 0.620148 0.422268 0.213215 -0.013402 -0.006404 -0.007196 -0.002739 0.000013 0.000617 0.000141 0.000380 -0.001465 -0.000607 0.772516 0.778984 0.301875 0.064195 -0.443336 -1.015865 -1.203280 -1.008688 -0.449070 -0.159916 -0.024149 -0.614934 0.076115 0.129450 -0.089845 0.267602 -0.643350 -0.398208 -0.292101 -0.363265 0.027053 0.005052 0.002893 0.002888 -0.001334 -0.000673 0.001591 0.000968 0.481145 0.042647 0.181563 0.122091 -0.026088 -0.216944 -0.556401 -0.872394 -0.501015 -0.287360 -0.164933 -0.470287 -0.341906 -0.676600 -0.221212 -0.749500 -0.739247 -0.702766 -0.833506 -0.997167 -0.525849 -0.034634 0.001255 0.001680 0.000053 -0.000882 0.014228 -0.050315 0.446526 0.512539 -0.702813 -0.113583 0.704553 0.717178 0.276705 0.186972 -0.307296 -0.012171 0.285844 -0.191334 0.116684 -0.219270 0.234829 -0.224867 -0.837897 -1.402352 -1.622351 -1.468453 -0.938797 -0.520671 -0.085284 -0.095359 -0.093899 0.016357 0.641728 0.479641 0.366966 0.185602 -0.913449 0.190931 -0.111151 -0.085275 0.137757 -0.134917 -0.446695 0.215851 0.860126 0.392519 -0.105200 -0.035092 0.183300 -0.288781 -0.480199 -0.239873 -0.896757 -1.735424 -1.630833 -0.773387 -0.492348 -0.196144 -0.092920 0.025783 0.123876 0.647998 0.430439 0.529038 -0.444246 -0.495299 -0.317830 -0.039297 0.055931 0.360856 0.891741 0.388823 0.449902 0.125492 -0.126630 0.097115 0.081120 0.129017 -0.372962 -0.101977 -0.319150 -0.980153 -2.015269 -1.073478 -0.412914 -0.523825 -0.010543 0.285967 0.464072 0.706984 0.349290 0.110164 -0.122939 -0.001511 -0.094746 -0.149727 -0.018136 0.208495 0.627493 0.384964 0.209018 0.056075 0.200085 0.414254 0.400263 0.543932 -0.043341 0.174517 -0.539279 -0.734018 -1.150835 -1.033176 -0.370569 -0.532737 0.081565 0.295709 0.418010 0.132280 0.329871 -0.282240 0.191429 0.326316 0.013104 0.264058 0.369538 -0.175365 0.083508 -0.254654 0.379702 0.332384 0.098943 0.517111 -0.001099 0.219603 0.033281 0.109508 -0.480162 -0.977664 -0.544794 -0.550161 -0.342321 -0.264154 0.096391 0.230784 -0.459272 0.664418 0.447965 -0.210189 0.220894 0.289043 0.569421 0.588395 0.272832 -0.224945 0.273293 0.142618 0.081503 0.524833 0.559969 0.224675 0.126962 0.470463 0.227831 0.215819 0.099123 -0.008606 -0.380582 -0.043175 -0.312797 -0.266482 -0.006487 0.197176 0.016560 0.079768 0.428122 0.215807 0.286139 0.055393 0.073961 0.189950 -0.050746 -0.517028 -0.428750 -0.855821 -0.542216 0.098443 0.570071 0.077442 0.148858 0.417108 -0.007918 0.329825 0.236568 -0.419057 0.059404 0.266404 -0.333892 -0.786984 -0.053471 -0.074909 0.017808 -0.165438 0.267040 0.730574 -0.033023 -0.016110 0.338803 0.050886 -0.375549 -0.190163 -0.225420 -0.301228 0.158374 -0.024737 0.131170 0.159180 0.396578 0.324138 -0.131367 0.589537 0.740662 -0.209448 -1.052793 -1.111589 -0.913034 -0.868268 -0.057154 -0.681953 0.153268 0.107155 0.708483 0.337100 -0.440828 -0.413223 0.065734 -0.400160 -0.346909 -0.040644 0.136096 0.097131 0.100690 -0.221740 -0.043190 -0.267913 0.175716 0.485252 0.218622 0.413656 0.171994 -0.745875 -1.337619 -1.728022 -1.009714 -1.092487 -0.047817 -0.361248 0.041123 -0.510764 0.556532 0.527625 -0.322646 -0.388482 -0.251381 -0.097038 -0.258324 -0.058117 0.073720 0.143399 -0.121464 -0.099842 0.088148 -0.190321 0.311321 0.243203 0.353091 0.492373 0.733690 -0.034217 -0.536723 -0.729875 -0.878015 -1.235024 -0.958176 0.110705 -0.010138 -0.345852 0.272962 0.600661 -0.239397 -0.597420 -0.067786 0.069371 -0.026581 0.359390 0.644664 0.277824 0.054729 -0.191741 0.353718 -0.080865 0.188123 0.318308 0.292349 0.353175 0.494346 0.018631 -0.129924 -0.736797 -1.481073 -1.220486 -0.874984 0.000751 -0.014273 -0.084806 -0.142681 -0.041326 -0.176354 -0.577398 0.115458 -0.108770 -0.179490 0.398891 0.228231 0.319969 -0.148255 0.086431 0.493254 -0.057311 0.325755 0.468777 0.136533 -0.131339 -0.525657 -0.253697 -0.995719 -1.587156 -1.787174 -1.305768 -0.833777 0.477748 0.007862 0.034245 -0.314481 -0.292128 0.285387 -0.006797 0.131135 -0.108242 -0.041051 0.500144 0.927486 0.358668 -0.632169 -0.057383 0.034775 -0.289669 0.309028 0.081803 0.157662 -0.333271 -0.744952 -0.482496 -1.157799 -2.108336 -0.740371 -0.724397 -0.502147 0.000249 0.469972 -0.166098 0.054586 0.615314 -0.090854 -1.210644 -0.270782 -0.515915 -0.596003 -0.653253 -0.411070 -0.447959 -0.936435 -0.067832 0.171220 0.011306 -0.077339 0.007795 0.313333 -0.390190 -0.726146 -0.628312 -0.532389 -1.198812 0.370183 0.023805 0.010468 0.000315 -0.212856 0.118696 0.550938 0.763476 -0.043536 -0.682073 -0.073213 -0.646674 -1.261695 -1.622685 -2.326012 -1.477637 -0.873663 0.040602 -0.128959 -0.146652 -0.177905 -0.300609 -0.286161 -0.421920 -0.448042 0.202580 0.097542 -0.442613 0.259206 0.075259 0.000573 -0.000839 0.020669 0.667636 0.902555 1.204774 0.757221 0.161105 -0.488530 -0.748253 -0.935350 -0.929539 -0.927276 -0.624920 -0.548151 0.025575 -0.148655 -0.318230 -0.691586 -0.523127 -0.368800 -0.229738 -0.160385 0.125834 -0.528778 -0.196961 0.661434 -0.143220 -0.000457 -0.000856 -0.004321 0.845664 0.648207 0.882152 0.037601 0.504597 0.030365 0.136775 -0.244751 0.201484 -0.235894 -0.117611 -0.445507 0.077657 -0.160156 -0.279521 -0.295833 -0.569164 -0.336056 0.107668 -0.136323 0.292506 -0.209282 -0.555535 0.234451 -0.288433 -0.001443 -0.000550 -0.000506 0.698044 0.117394 -0.116228 -0.055400 0.271810 0.153088 0.470147 -0.320319 0.288447 0.690888 0.372399 0.163088 0.114065 -0.404073 -0.411547 -0.204388 -0.434428 -0.446268 0.132540 0.174420 0.667150 0.434872 0.071154 0.619214 -0.217685 -0.000005 0.000998 0.000422 -0.100774 0.550863 0.167849 -0.040328 0.230841 -0.149007 -1.164114 -0.844010 -0.535404 0.422485 0.387873 0.035685 -0.177140 -0.405014 -0.340459 -0.164120 -0.576197 -0.535121 0.282119 -0.163606 0.150815 0.333328 -0.275369 -0.397493 -0.563031 0.001148 0.000491 0.000662 0.520016 0.342046 0.572936 0.532315 0.127001 -0.036836 -0.414607 0.248454 0.156009 0.284763 -0.095848 -0.041958 0.385482 0.093006 0.808207 -0.151137 -0.394489 -0.178589 -0.056149 -0.952982 -0.586113 -0.597484 -0.757860 -0.300024 -0.566365 0.001652 0.001496 -0.001422 -0.001348 0.000988 0.723619 0.780161 0.542642 -0.326610 0.029075 0.883163 1.018783 0.745518 0.239976 0.112624 1.050653 0.116264 0.801927 0.498899 0.317519 -0.110451 0.605290 1.367694 0.924515 1.006198 0.467142 0.000905 -0.001503 -0.001273 0.000112 0.001433 0.001343 0.001661 0.000730 0.047764 0.627026 0.666993 0.762208 0.486930 1.137284 1.272741 0.822118 0.627768 1.637868 0.716057 0.712131 1.160225 1.339387 1.071796 0.823398 1.007904 0.999095 0.126349 0.001128 -0.001652 0.001323 -0.000958
-0.000789 -0.000225 0.001253 0.000696 -0.001134 0.001227 -0.000526 0.001200 -0.000025 0.000783 -0.001020 -0.000633 0.000369 0.006248 0.005402 0.001540 0.000431 0.001289 0.000351 -0.001498 0.001489 -0.001348 -0.000944 -0.001033 -0.000190 -0.000610 -0.000190 0.000676 -0.001359 0.001501 0.000589 -0.001556 0.001256 0.001592 -0.035552 -0.040526 -0.005420 -0.001800 0.364634 0.373009 0.266698 -0.584635 -0.710579 -0.121489 0.476330 0.856824 0.160032 -0.223083 -0.217331 -0.003875 -0.001257 0.001002 -0.001352 0.000717 -0.001385 0.001596 0.000514 0.001353 -0.000944 0.000951 0.000760 0.015770 -0.000744 -0.128875 0.148348 0.271717 0.237820 -0.561957 0.360595 0.034465 0.013083 -0.478366 -0.020506 0.055677 -0.332507 -0.617610 -0.925387 -0.285189 -0.475578 -0.501956 -0.072293 -0.000251 -0.001617 -0.001413 0.000452 0.001357 -0.027032 0.596562 0.638464 -0.332960 -0.159516 -0.793422 -0.701144 -0.858681 -1.006349 -0.492242 -0.160782 -0.401929 -0.966443 -1.262365 -1.305324 -0.836666 -0.487992 -0.284385 -0.555559 0.235507 0.304814 -0.741713 -0.894913 -0.519662 0.001152 -0.000700 -0.001343 0.000583 -0.024332 0.984054 0.859813 -0.730422 -0.221072 -0.381117 -0.335839 0.074178 -0.713496 -1.125690 -0.607898 -0.371228 -0.154972 -0.520556 -0.662769 -0.533383 0.094851 -0.190122 0.001573 0.076236 0.257176 -0.094134 -0.462102 -0.503304 -0.321582 -0.213909 -0.001555 0.000319 0.526510 0.745065 0.273352 0.223989 -0.007780 -0.775113 -0.405234 0.386038 -0.190617 -0.565013 -0.485394 -0.345820 -0.057662 -0.111853 0.115452 -0.190817 0.211574 0.318227 0.120042 0.224272 -0.136511 -0.370610 -0.163527 -0.514150 -0.359626 -0.211962 -0.001308 -0.007001 0.479048 0.413909 0.954825 0.208067 -0.328780 -0.275450 -0.340140 -0.000974 -0.201307 0.221551 0.483726 0.096020 0.231837 0.031342 -0.014730 -0.081750 -0.005428 0.357109 0.225000 0.528123 0.197317 -0.108538 -0.321763 -0.030328 -0.383986 -0.001433 -0.000483 -0.018200 0.483239 0.538478 0.386488 0.366595 0.244265 0.380516 -0.311654 0.028511 -0.153068 0.064565 0.021701 0.059031 -0.351741 -0.273871 -0.108758 0.116341 0.258420 0.314798 0.058616 0.259256 0.422687 -0.349722 -0.005252 -0.254123 -0.162059 -0.007525 -1.136074 0.478764 0.041613 0.229605 -0.278128 0.137738 0.532409 0.418600 -0.003313 0.137106 0.312092 0.028362 -0.001297 -0.335428 -0.225754 -0.030754 -0.018317 0.258132 0.224108 0.382761 0.108254 0.116483 0.101251 0.529789 -0.431407 -0.573509 0.206106 -0.004315 0.259886 0.762535 -0.351394 0.284889 -0.040127 0.257478 0.371242 0.139095 -0.243925 -0.042043 0.000037 0.023807 0.493697 0.064988 -0.324947 -0.176341 0.066577 0.500718 0.349955 0.087357 -0.004492 -0.131835 0.275698 0.588559 -1.219138 -0.589831 -0.069122 -0.004065 0.275935 0.564236 -0.328198 0.168282 -0.268780 0.281660 0.489516 0.029914 -0.003455 0.079439 -0.042569 0.120358 0.170781 0.404705 -0.405231 -0.288043 -0.177566 0.657144 0.166196 -0.066161 0.075357 0.229609 0.422680 -0.293203 -1.108087 0.166465 -0.053894 0.004536 0.094473 -0.362743 1.077399 0.496716 -0.304728 0.707207 1.121273 0.034836 0.141376 0.116734 -0.002173 -0.051416 0.329544 -0.178038 -0.561315 -0.609302 0.001285 0.226020 -0.285456 -0.169260 -0.080191 -0.424333 -0.041284 -0.518734 -1.123806 -0.212659 -0.163558 -0.001165 0.008928 0.357422 1.232136 0.013807 -0.466451 0.031035 0.518355 -0.096865 -0.665353 -0.391706 0.051480 -0.316727 -0.279268 -0.679283 -1.573097 -0.749570 0.203346 -0.003628 0.020614 -0.331685 -0.698115 -0.340255 -0.785111 -0.606851 -0.649957 0.013694 0.039245 -0.000843 0.001544 0.401507 0.450353 -0.874899 -1.095054 -0.286658 -0.618072 -0.629996 -0.974105 -0.887089 -0.803214 -0.866588 -1.034644 -0.958775 -1.170745 -0.283317 -0.009611 -0.067969 -0.154812 -0.394993 -0.479615 -0.305997 -0.693515 -1.072491 -0.500424 0.301954 0.161585 -0.000568 0.001007 -0.723235 -0.628013 -0.766031 -1.079330 -1.432264 -1.300305 -1.041160 -1.952266 -1.221382 -1.282712 -1.224402 -0.838556 -0.964505 -0.632634 -0.492035 -0.397511 -0.159482 -0.039141 0.168849 -0.438562 -0.765889 -0.520613 -0.855985 -0.174798 0.107908 0.365207 0.000577 0.000379 -0.728998 -0.746097 -0.092858 -1.058114 -1.876795 -1.391852 -1.375891 -0.712695 -0.304760 -0.105932 0.135477 -0.085979 -0.184566 0.007512 0.199664 -0.028993 0.233912 -0.074438 -0.248535 -0.542716 -0.013901 -0.493323 -0.310551 -0.003695 -0.002930 0.570033 0.003778 -0.000540 -0.711201 -0.807275 0.035814 -1.090576 -0.790798 -0.008009 0.278378 0.172066 0.891356 0.703286 0.508291 0.367340 0.012389 -0.055434 0.504540 0.680520 0.074195 0.039473 -0.404918 -0.248417 0.270100 -0.275012 -0.280303 -0.174809 0.354836 -0.202968 0.134688 0.001013 -0.636260 -0.341407 0.760083 -0.186975 0.031570 0.715694 0.424893 0.693863 0.483528 0.218632 0.508327 0.222226 -0.029705 0.188631 0.449455 0.072355 -0.369492 -0.100845 -0.028361 0.420496 0.391417 -0.051846 0.093853 -0.228887 0.770121 0.450435 0.780595 -0.001236 0.048724 -0.219719 0.499325 0.432844 0.683913 0.727921 0.581083 0.170924 -0.306330 -0.154793 -0.086256 -0.052202 -0.140164 0.334444 0.073641 0.023274 0.143722 0.407282 0.528154 0.631992 0.296737 0.440724 0.101497 0.136020 0.943417 0.744236 0.608236 -0.000325 0.208872 0.468057 0.080660 0.369470 0.349443 0.304102 0.172740 0.312951 0.028551 0.087484 0.418924 0.429626 0.128353 0.275764 0.421839 0.132339 0.101353 0.063578 0.610844 0.481725 0.065060 -0.041312 0.687766 0.590700 0.835348 0.788054 0.109568 -0.000466 0.506031 0.623761 0.436222 0.579481 0.078139 0.000625 0.347888 0.596046 0.288919 0.382970 0.363953 0.310262 -0.136213 -0.003038 0.167105 0.263019 0.145102 0.357344 0.280196 0.326481 0.183060 -0.016205 0.472896 0.372459 0.670217 0.740423 0.000237 0.001164 0.590400 0.621862 0.360522 0.571235 0.390987 -0.226832 -0.298018 -0.084195 0.276630 0.562027 0.259429 0.072085 -0.304503 -0.252595 0.413170 0.326358 0.399858 0.404716 0.613174 0.639637 0.840297 0.761412 0.839297 0.649913 0.944949 0.106355 -0.000601 0.000759 0.000871 0.572618 -0.459409 0.232551 0.383599 -0.106901 0.025208 -0.222251 0.388083 0.157121 -0.266367 -0.336672 -0.143033 -0.006772 0.154339 0.124125 0.092595 0.438955 -0.189197 -0.589397 0.204493 0.602117 0.531545 0.486449 0.560243 0.127582 0.001463 -0.000505 0.001449 0.041362 -1.159616 -0.130449 0.066207 0.432003 0.604745 -0.354883 -0.408224 -0.314537 0.019761 0.027488 0.000994 -0.052190 -0.275774 -0.114237 -0.686046 -0.775140 -0.546422 -0.651202 -0.581450 0.059028 -0.037274 -0.206484 0.115571 0.376347 0.000514 -0.001529 -0.001309 0.525372 -0.652325 0.700330 0.490668 0.030685 0.047010 -0.115036 0.302398 0.012908 -0.006234 -0.057880 -0.474663 -0.209279 -0.755834 -0.681678 -0.835691 -1.422446 -1.511002 -1.074424 -0.349817 -0.263947 -0.374523 0.191790 0.460379 0.601567 -0.000734 0.000325 -0.001412 -0.046547 1.059148 -0.188066 -0.001544 0.016493 0.589599 0.473693 0.136431 -0.393528 -0.496903 0.041823 -0.361554 0.306644 0.489217 0.274701 -0.720819 -1.401739 -0.468251 -0.382070 0.561256 -0.461311 -0.793645 -0.578428 0.597150 0.605672 0.000906 0.001259 0.000926 -0.000151 -0.000894 -0.996602 -0.780137 -0.204314 1.099876 1.960662 1.470434 -0.166005 -1.153913 -1.390713 0.641813 0.072890 -0.180266 -0.096802 -0.977284 -0.957072 0.251193 -0.111221 -0.057318 0.018561 0.589267 0.001077 0.130451 0.001131 -0.000545 -0.000474 -0.000698 -0.000365 0.000946 0.107771 0.161583 0.121610 0.075178 0.150067 0.569197 1.502957 1.789146 2.122224 2.095342 1.493654 1.160731 0.943223 0.671268 0.092465 -0.074026 -0.092389 -0.309901 -0.332423 0.000568 -0.001500 0.001377 -0.001114 0.000502
-0.000001 -0.000030 0.001552 -0.000914 0.001256 0.001008 -0.001147 0.000047 0.000505 -0.001296 0.001335 0.001661 -0.001118 -0.000966 -0.001662 0.001033 -0.001201 -0.000022 0.000747 0.000055 -0.000620 0.000407 -0.000738 -0.001359 0.000804 -0.000818 0.000953 0.001238 0.000022 -0.000800 -0.000940 -0.000948 -0.000550 -0.001120 0.000503 0.007826 0.007440 0.059084 0.069417 0.037612 -0.043992 0.416478 -0.372660 -0.150400 0.226318 0.665446 0.409618 0.005130 0.008675 0.003488 0.000353 -0.001636 0.000736 0.001526 -0.000280 -0.001298 -0.000020 -0.001575 0.006187 0.001005 -0.020720 0.030828 0.059871 0.246520 0.189206 0.126532 0.164036 0.265819 0.897937 0.624578 0.848465 -0.013530 -0.838528 -0.891802 -1.105322 -0.787896 -0.737742 0.367069 0.579218 0.707518 0.731194 0.434096 0.000262 0.000584 0.000521 0.001197 -0.386509 -0.495172 0.125892 0.842992 0.545114 0.260664 -0.623921 -1.048400 0.235400 -0.438091 0.404946 0.622961 0.037009 0.161082 0.361197 0.749620 0.652987 -0.437377 -0.091691 0.811968 0.950834 1.646369 1.098209 0.440633 0.102995 0.001123 0.000873 0.001338 -0.341368 -0.517868 0.472016 0.891789 0.772549 0.088956 0.342995 0.754011 0.768778 0.087676 0.969300 0.241998 0.438548 0.390093 0.822073 0.699377 0.212856 0.220912 0.493925 0.378719 -0.193788 -0.278712 0.817656 0.733120 0.693901 0.217326 0.000815 -0.001115 -0.261434 0.855755 1.669282 -0.754392 0.207144 0.323314 -0.025919 0.051118 0.246113 0.147635 0.364317 -0.051135 0.166373 0.333848 0.297809 0.286812 -0.351191 0.408447 0.533791 0.332128 -0.358987 -0.732582 0.357326 0.950622 0.710099 0.032834 -0.000221 0.140664 -0.651816 -0.522763 -0.323623 -0.806111 0.126038 0.134641 0.181883 -0.081592 -0.074122 0.126557 0.250043 0.154720 0.236876 0.767405 0.305448 0.513562 0.129041 0.080593 0.040763 0.086595 -0.056660 0.459423 0.046461 0.274250 0.265983 0.483586 -0.016306 0.527816 -0.647916 -0.615605 0.497096 0.106548 -0.283527 -0.389358 0.193650 0.021933 0.221634 -0.051144 0.234720 0.308604 0.137408 0.680999 0.244605 -0.180438 0.202586 -0.124852 -0.384395 0.288269 0.399353 0.568903 0.514941 -0.187961 -0.318294 0.740855 -0.015172 -0.147378 -0.140051 0.326708 0.643935 -0.344092 0.384636 0.277792 -0.207244 0.069790 0.249917 0.127318 0.262134 0.227531 -0.105332 -0.358765 0.000169 -0.014796 0.014296 0.120998 -0.147455 -0.171219 -0.077464 0.324578 0.292701 -0.263960 0.642150 1.088100 -0.012004 -0.623155 0.353824 0.628719 -0.305525 -0.657150 0.002732 0.023784 0.135812 0.098935 0.357277 0.103354 -0.228013 -0.071743 -0.105871 -0.420903 -0.318402 -0.116979 -0.156998 -0.071594 -0.202121 0.193251 -0.038771 0.775642 0.532883 1.130539 0.372795 -0.993755 0.001105 -0.542717 -0.008267 0.302237 0.463887 -0.123454 0.486556 0.134694 0.261668 0.050720 0.466039 0.203972 0.080343 -0.102399 0.200878 -0.699356 -0.386345 -0.278485 0.434316 0.010190 0.451074 0.541741 0.449920 1.703873 0.171062 0.299962 -0.091212 -0.880468 -0.207613 0.125904 -1.179241 0.803190 0.913822 0.554962 0.310908 0.071522 -0.271916 0.279668 -0.021956 -0.078327 0.028111 0.253699 0.233966 0.054890 -0.338030 -0.315078 -0.173880 0.030678 0.089838 0.030568 0.169062 -0.108735 -0.316255 0.560529 1.246899 -0.454052 -0.213660 -0.050090 -0.793514 1.147045 0.491466 0.409577 -0.230765 -0.079737 -0.657839 0.068931 -0.351333 0.088919 -0.352842 0.072670 0.359654 -0.088140 -0.328188 0.232767 -0.587306 0.029692 -0.227440 0.341162 -0.480913 -0.847561 -0.744572 -0.921679 -0.162042 -0.229396 0.315810 -0.711684 -0.732708 1.244808 -0.803478 -0.220193 -0.045905 -0.173416 -0.234582 -0.072580 -0.935073 -0.393908 0.061117 0.531919 0.296094 0.224757 0.042489 -0.180008 -0.286541 -0.168411 -0.346291 -0.820014 -0.554158 -0.754514 -1.153960 -0.657306 0.101885 0.215875 0.073097 -0.458245 -0.538509 0.186565 -1.318354 -0.689335 0.243406 -0.587326 -0.343377 -0.323035 -0.374841 0.179981 0.095802 0.597154 0.444490 -0.020189 -0.331000 -0.235859 -0.256261 -0.878268 -0.981892 -0.843725 -1.462079 -0.880050 -1.060974 0.077297 -1.131108 0.032938 0.010984 0.412262 0.310944 -0.021893 -1.273392 -0.899289 -0.150889 0.031668 0.108676 0.246069 -0.130842 0.141351 0.055381 0.581155 0.709448 -0.146534 0.003368 -0.450854 -0.166974 -0.495578 -0.679870 -0.751305 -0.451838 -0.474246 -0.355343 0.227714 -0.821026 0.401875 -0.007329 0.362399 0.599937 0.022746 -0.422948 -0.999276 -0.426270 -0.091648 -0.117946 0.510520 0.573534 0.045228 -0.136975 -0.115220 0.442428 -0.158104 0.096685 -0.055903 -0.487954 -0.336508 -0.324972 0.038219 -0.232261 0.660566 -0.020947 0.679172 -0.380845 0.413289 0.001320 0.304687 0.637088 -0.907409 0.470931 -0.637639 -0.159529 -0.045803 0.373241 0.158957 -0.083504 -0.127952 -0.178799 -0.223277 0.009643 -0.196798 0.252357 -0.218747 -0.364344 -0.209606 -0.110328 0.188505 0.018885 0.382147 -0.177223 -0.757208 -1.148250 0.697601 0.610646 -0.072516 0.583874 -0.808861 0.405556 0.245316 0.128059 0.244941 0.137143 -0.352388 -0.122908 -0.225007 0.121763 0.065562 -0.319509 -0.211436 -0.176933 -0.672215 -0.368042 -0.075313 0.373789 -0.008760 -0.040530 -0.073556 -0.499100 -0.144014 -1.371712 -0.333250 -0.101645 -0.435529 -0.284212 -0.535464 0.306665 0.455542 0.162535 -0.073984 -0.363914 -0.411233 -0.250446 -0.813833 -0.492997 -0.026559 -0.663625 -0.559184 -0.181030 0.204340 0.105833 0.126170 0.068478 0.182786 0.273378 0.140129 -0.155590 0.725901 0.700722 -0.448564 -0.001303 -0.016442 0.040868 0.082241 1.300363 0.547529 0.036515 0.259837 -0.264863 -0.306884 0.074952 -0.093479 -0.283916 -0.102589 -0.468164 0.054586 0.106242 0.307464 0.485714 0.436501 0.667334 0.435152 0.497433 0.565818 0.239093 0.826531 0.396531 0.069815 -0.227372 0.038380 0.551362 0.756301 1.112454 0.038333 0.477942 0.408336 0.068476 0.266895 0.045908 0.342253 -0.031855 0.129508 0.145232 0.263615 0.022677 0.641641 0.232537 0.523665 0.111940 0.146949 1.193843 0.459717 -0.509233 0.395891 -0.519345 -0.010692 -0.225116 -0.140143 0.798014 0.947180 0.613559 0.276882 0.576083 0.674223 0.156570 0.125629 0.195043 0.762993 0.382544 0.332012 0.290783 0.422271 0.066515 0.404986 0.167829 -0.117641 0.371107 0.329553 0.275157 0.558619 0.741558 0.318756 -0.186397 -0.017069 -0.000610 0.001535 0.651367 0.857063 0.251779 -0.099548 -0.478095 0.198143 0.467650 0.337650 -0.041697 0.364230 0.327481 0.585509 0.075995 0.428828 0.578023 0.709641 0.266547 0.029056 0.940168 0.381521 1.400127 1.662544 0.740562 0.753067 -0.505734 -0.001633 -0.001505 -0.000517 0.464561 0.501787 -0.193389 -0.752926 0.453214 0.380420 0.791236 0.426649 -0.079249 0.235092 0.821092 0.272470 -0.268263 -0.174217 0.319279 -0.233540 0.021986 0.016706 -0.164865 -0.232895 -0.156353 -0.306182 0.654935 0.363086 0.156263 -0.000269 0.001610 0.000354 -0.034086 -0.930715 -1.586401 -1.036311 0.742551 0.946939 0.471736 0.189405 0.626503 -0.056950 0.567284 0.782875 0.272493 1.112021 0.841198 0.464898 0.130405 0.453117 0.790470 0.843120 -0.246438 -0.207868 0.975035 0.180494 0.283421 -0.000708 0.000232 -0.000458 -0.000818 0.021216 -0.642188 -0.748544 -0.618748 -0.001993 -0.252858 -0.427844 0.764359 0.581700 0.409236 0.207478 0.157867 0.118204 0.589377 1.198403 1.092926 0.100482 0.603009 0.578728 0.053239 -0.426715 0.027010 -0.207165 0.001582 0.000823 0.001205 0.000832 -0.000980 0.000140 -0.041524 -0.052411 -0.330338 -0.503685 -0.486770 -0.788212 -0.694596 -0.468117 0.193079 0.107687 0.467814 0.217497 0.213527 0.222695 0.553497 -0.121182 -0.331540 -0.234040 -0.042897 -0.137480 0.001027 -0.000585 0.000101 0.000155
0.000059 0.000513 0.000371 0.000382 -0.001467 0.000046 0.000065 -0.001365 0.001184 -0.001359 0.000299 -0.001241 -0.126933 -0.139196 0.001917 0.000476 0.000541 0.001670 -0.001112 0.000244 0.000434 0.001395 -0.001233 0.001510 -0.001339 0.001120 -0.000822 -0.000303 -0.000045 -0.000462 0.001139 -0.000727 0.000497 0.007754 0.093982 0.103704 -0.171856 -0.100107 -0.049708 0.104371 -0.086061 -0.093832 -0.154579 -0.252105 -0.238525 -0.223996 -0.002976 -0.464341 -0.487141 -0.522288 -0.247865 -0.226146 0.000848 -0.000464 -0.001189 -0.000891 0.001615 0.000301 -0.000346 0.106166 0.036975 -0.057825 0.069454 0.353490 -0.232745 -0.360853 -0.331603 -0.121415 -0.164766 -0.163757 -0.370356 -0.533969 -0.719226 -0.789281 -0.178196 -0.492698 -0.594339 -0.550734 -0.417482 0.067821 0.413594 0.420056 -0.000641 -0.000270 -0.000570 -0.000907 -0.003314 0.106062 0.108000 -0.161152 0.092150 -0.216164 -0.142437 -0.654688 -0.932540 -0.810619 -0.521695 -0.465814 -0.841329 -0.770660 -0.893689 -0.865567 -0.889476 -0.442007 -0.645279 -0.525991 -0.738096 0.036711 0.418013 0.419557 -0.001140 0.000236 0.000888 -0.001279 -0.005194 -0.004787 -0.422754 -0.400649 -0.629405 -1.019564 -1.306320 -1.041610 -0.941417 -0.978892 -0.734108 -0.946633 -1.178791 -1.272440 -1.228026 -1.304300 -1.086558 -0.592012 -0.442015 0.380430 -0.120397 -0.957751 -0.550871 0.002896 -0.266418 0.001475 0.000580 -0.000811 -0.004636 -0.565333 -0.870589 -0.761813 -0.827740 -0.788524 -0.855729 -0.887517 -1.110116 -0.553915 -0.134568 -1.103526 -1.884120 -1.456850 -0.654196 -0.442559 0.016962 -0.974908 -0.963836 -0.027847 -0.151424 -0.732451 -0.632323 -0.205955 0.572465 0.001530 -0.001201 -0.000815 -0.035146 0.169852 0.331944 0.016266 -0.384589 -0.207633 -0.164146 -0.354853 -0.482568 -0.260517 -0.458963 -0.383483 -0.706124 -1.146666 -0.704282 -0.453038 -0.095192 -0.338216 -0.621723 0.171320 -0.377768 -0.543656 -0.099690 -0.731523 0.387014 0.111380 0.008208 0.536008 0.352756 0.590099 0.630189 0.467980 0.487956 1.011579 0.515782 0.297971 -0.067125 -0.572217 -1.179069 -1.002883 -0.814375 -0.848532 -0.766964 -0.550755 -0.630625 -1.028831 -0.580408 0.067189 -0.299303 -0.526798 -0.575072 -1.095259 -0.456136 -0.130722 -0.064188 0.916427 0.800295 0.133159 0.546138 0.811991 0.683369 0.626939 0.902453 0.132648 0.191860 -0.155875 -0.576402 -0.629059 -0.494940 -0.128471 -0.440305 -0.495630 -0.367506 -0.532853 -0.503018 0.193741 -0.167730 -0.279362 -0.295043 -0.770216 -1.161287 -0.324591 0.361691 1.173071 1.549705 0.346485 0.793535 0.456234 0.196881 0.266482 0.381157 0.277557 0.452193 0.495156 0.817526 0.500505 0.728003 0.238766 0.088825 0.074616 -0.344592 -0.552715 0.350027 0.139870 -0.008995 -0.212345 0.155682 0.022818 0.700378 1.067728 0.369967 0.802030 0.490178 -0.471512 0.530579 0.466741 0.560214 0.246714 0.212503 0.375258 0.098379 1.005156 0.633932 0.546729 0.539528 0.479541 0.349597 0.090398 0.349529 0.262072 0.314382 -0.176902 -0.213497 0.385997 0.607617 0.282288 0.664940 0.915932 0.180136 0.748190 0.160022 -0.516499 0.172327 0.087467 0.270943 -0.118659 -0.060392 0.181279 0.277999 0.653907 0.311994 0.647314 0.798655 0.390718 0.040367 0.036725 0.222440 0.247088 0.018439 -0.852999 -0.634843 -0.082192 -0.165054 -0.027062 -0.573433 0.691225 0.051128 0.631512 -0.028614 -0.297924 -0.133601 -0.326547 -0.893726 -0.316567 -0.171318 -0.011813 -0.621701 -0.396878 -0.054089 0.655097 0.885276 0.197921 0.134998 -0.164106 -0.116178 0.164446 -0.147263 -0.307180 0.292863 -0.135481 -0.307210 1.190203 1.212917 0.962832 0.001416 0.572278 0.812844 -0.408802 -0.401796 -0.203237 -0.552406 -0.206695 -0.521998 -0.275397 -0.267732 -0.003053 -0.637624 -0.204324 -0.052817 -0.215709 0.178608 -0.086865 0.137797 0.017627 0.342195 0.587312 0.524388 0.344397 0.728320 1.007987 1.414655 0.779321 -0.000018 0.057401 0.486832 -0.433678 -0.687401 0.047181 -0.443423 -0.615110 -0.303441 -0.617795 -0.108637 0.207102 0.284314 -0.184725 0.063395 0.099989 -0.011533 0.057716 0.241722 0.478107 0.578614 0.343950 0.419878 0.968019 0.614142 -0.168191 1.032616 0.622505 0.052949 0.000114 0.723125 -0.180222 -1.147698 0.445002 0.006743 -0.803835 -0.390033 0.004228 0.259064 0.383451 0.290942 0.302630 0.197952 -0.292796 -0.440093 -0.082448 0.169567 0.473871 0.502391 0.487385 0.663435 0.404474 0.569257 -0.435854 0.756426 0.069772 0.083112 0.010393 0.567644 -0.086827 -0.252371 0.089226 0.025516 -0.113416 0.037546 0.548004 0.185350 0.093253 -0.289189 -0.312352 -0.035555 0.050648 -0.040778 0.517135 0.008777 0.287597 -0.080173 0.277381 0.555797 0.303762 0.258672 0.036280 0.870181 0.412079 -0.000994 0.010721 0.779334 0.232507 0.448847 0.530909 0.080723 -0.336312 -0.504332 -0.308975 -0.108077 0.284689 0.036319 0.222430 0.490741 0.335522 0.008977 0.433718 0.020871 0.096505 0.449460 0.550170 0.679246 0.325818 0.138014 0.267288 0.218541 0.335553 0.688679 0.007462 0.427710 0.318041 0.524814 0.510698 -0.028870 -0.116181 0.327856 0.070641 -0.271268 -0.020272 -0.185846 0.038071 0.193062 0.144418 -0.064430 0.002144 -0.082550 0.256534 0.317732 0.368929 0.663940 0.416312 0.333346 -0.105711 0.716034 0.639426 0.001545 1.149733 0.964433 0.466023 0.492706 0.369707 -0.219041 -0.139375 0.264795 -0.004845 -0.232358 -0.329367 0.325278 0.154055 0.094600 -0.259056 0.067336 0.195368 -0.065317 -0.065165 -0.496349 -0.459021 -0.662578 -0.690278 0.259353 -0.095970 0.539213 -0.001397 -0.000552 0.689577 1.347415 1.405074 1.040985 0.597262 -0.511208 -0.292797 -0.237607 -0.180113 -0.284912 0.113141 0.191052 0.159548 -0.192803 -0.278691 -0.093466 -0.063915 -0.475830 -0.726976 -0.754604 -0.621750 -0.530748 -0.402177 0.352853 0.115915 0.503647 -0.000366 -0.000173 -0.001163 0.961080 1.045824 1.309391 0.350296 0.027532 -0.747774 -0.503555 -0.246193 -0.417114 -0.041914 -0.270621 -0.076824 -0.530730 -0.348923 0.145140 -0.184931 -0.343587 -0.200564 -0.527015 -0.869776 -0.483121 -0.624856 -0.174461 -0.013633 -0.002169 0.000628 0.000711 0.000664 0.476685 -0.040658 0.434347 -0.140923 -0.051201 -0.453521 -0.196988 -0.353382 -0.551411 -0.158515 -0.013208 -0.406284 -0.124881 0.329371 -0.180855 0.065184 -0.525595 -0.243096 -0.797263 -1.087942 -0.539881 -0.632530 0.512070 0.489497 -0.005736 0.000568 -0.001253 -0.001240 -0.014537 -0.268058 0.534408 0.665203 0.475673 0.279433 0.218591 0.048634 -0.190733 -0.116210 -0.213398 -0.022011 0.178571 0.011966 -0.272152 -0.240278 -0.883882 -0.009368 -0.937036 -0.879620 -0.344261 -0.848152 0.359448 0.010313 -0.012744 0.001430 0.001502 0.001083 -0.013111 0.735049 0.653125 0.655787 0.180792 0.298783 -0.183445 -0.002161 0.149132 -0.162979 -0.475495 0.033772 -0.001441 -0.042089 -0.058750 -0.070072 -0.365878 0.485209 -0.247137 -0.419832 -0.217210 -0.277256 0.502661 0.058926 -0.008421 0.000736 0.000945 0.000505 -0.003002 0.745492 0.597400 -0.106110 0.037462 0.204690 0.475868 -0.378180 -0.019258 -0.546436 0.108817 0.385346 -0.098345 -0.872727 0.248014 0.425126 -0.187541 0.153152 -0.062752 0.355368 0.062311 -0.028525 0.441955 -0.000531 -0.000986 -0.000103 0.001163 -0.000110 -0.000880 -0.019711 0.017472 -0.123930 0.049096 0.802635 0.325786 0.417191 0.073774 -0.092032 0.475193 0.850049 -0.249786 -0.220271 -0.174045 0.068170 -0.382100 0.658838 0.505311 0.306608 0.672797 0.706419 -0.006054 0.098538 0.000990 0.000787 0.001576 -0.000288 0.001512 0.000239 0.212138 0.432897 -0.278000 -0.315656 -0.299408 -0.141641 0.126711 -0.455617 -0.600155 0.130939 0.224934 -0.100214 -0.105824 0.434075 -0.143703 0.033243 -0.410254 0.391440 0.653036 0.927195 0.000204 0.000247 -0.001236 0.000972
-0.001391 -0.000758 0.001511 0.001349 0.000881 0.001630 0.001352 0.000318 -0.001188 0.001550 -0.001346 -0.000144 -0.001021 0.000690 -0.000494 0.000772 0.000888 -0.001632 0.000084 -0.001315 -0.001453 0.000701 0.000943 -0.000801 -0.000402 -0.000127 -0.000745 -0.001460 -0.001067 0.000511 -0.000688 0.000964 0.001590 -0.001671 -0.001321 0.001461 0.036782 -0.114591 0.028558 0.040935 0.023867 -0.560286 -0.702070 -0.653489 -0.663608 0.497055 0.040492 -0.423236 -0.632631 -0.603335 0.012462 0.009975 -0.001200 -0.001400 -0.000296 0.000506 0.000455 0.000418 -0.001166 -0.000322 0.036495 0.008539 0.040954 -0.016931 0.091322 -0.087491 0.014743 0.275656 0.571622 -0.111644 0.144191 -0.415430 -0.902763 -0.654692 0.166680 -0.091728 -0.867342 -0.862963 -0.715384 -0.373812 0.359586 0.000205 -0.001195 -0.001335 0.001522 -0.001166 0.723031 0.717609 0.082402 0.372318 0.423202 -0.214834 0.217514 0.320071 0.454472 0.417613 0.744019 0.530608 0.037987 0.106201 -0.009222 -0.381162 -0.068343 0.043043 0.362760 0.968598 0.976459 0.828138 -0.110357 -0.570554 0.000376 -0.000951 -0.000226 -0.000267 0.735950 0.711571 0.032794 0.086598 0.197008 0.946764 0.708304 0.196499 -0.017128 -0.565083 -0.151714 -0.096865 -0.133283 0.341100 0.267905 0.513135 0.184975 0.060902 0.519355 0.513027 0.671424 0.126914 -0.074460 0.183659 0.488288 -0.701265 0.000260 0.001603 0.853992 0.579125 0.019581 -0.543237 -0.452115 -0.139525 0.829318 0.141365 -0.513511 -0.188288 0.170708 0.571493 0.163963 0.071016 0.236696 -0.232315 -0.194541 0.070531 0.003366 0.264297 0.303097 -0.674373 0.221042 0.772995 -0.069262 -0.738348 0.000825 0.001698 -0.182781 -1.157855 -0.633976 -1.337981 -1.504436 -0.664296 -0.235291 0.044860 -0.076626 0.095434 0.012840 -0.281215 -0.365352 -0.255742 -0.323008 -0.120961 0.116515 0.317437 0.027713 0.495821 -0.424244 0.263973 0.041746 0.869199 -0.268804 -0.221144 -0.006939 0.510453 0.158605 -0.820336 0.147406 0.280147 -0.494600 0.331583 0.005321 -0.129037 0.094019 -0.495696 -0.346038 -0.407638 -0.453211 -0.153205 -0.194007 -0.177830 0.404220 0.094529 -0.331100 0.289744 0.770511 0.060855 -0.344245 0.069875 0.016816 -0.451685 -0.880559 0.567710 0.305511 -0.093660 0.135392 0.493956 0.372092 0.252854 0.203390 -0.377845 -0.186196 -0.218878 -0.170501 -0.064169 0.119519 0.093082 -0.042713 0.180793 0.049197 -0.062490 0.067154 -0.188217 0.504822 0.599055 -0.367540 -0.750948 1.147313 -0.100371 0.191822 0.723531 0.381054 0.429916 0.140629 0.887002 0.412066 -0.101716 0.058205 -0.231205 -0.218629 -0.279723 -0.125846 0.299686 0.253718 0.224414 0.239802 0.178480 0.116937 -0.414397 0.312514 -0.188574 0.179888 0.470276 -0.299873 0.644224 1.216864 0.057828 0.209734 0.744313 0.229148 0.628702 0.354385 0.586732 0.821051 -0.218682 0.050715 0.004330 0.706517 0.654407 -0.193702 -0.075335 -0.475672 -0.060650 -0.113429 -0.032475 0.041818 0.019065 0.118578 0.293496 -0.208034 0.063464 0.473590 0.694384 0.846612 0.004754 -0.025830 0.131011 -0.161166 0.711068 0.573036 0.517290 0.349471 0.504830 0.272965 0.576866 0.345030 0.384041 0.047907 -0.579301 -0.340340 0.233291 -0.048362 -0.263134 -0.141770 0.125897 0.338419 0.039643 -0.270046 0.111249 0.393858 0.582109 0.587484 -0.160392 -0.080935 0.416286 0.011918 0.479869 0.275940 0.156641 0.011920 0.629169 0.766366 0.522326 -0.014815 -0.126414 -0.014725 -1.409920 -0.652540 -0.198953 -0.039481 -0.310915 -0.234361 -0.167254 0.003439 -0.278010 -0.184785 -0.223279 0.622284 0.910594 0.416230 0.651119 -0.032169 0.724908 0.404319 0.670886 0.229696 0.033015 -0.371349 0.187283 0.250644 0.269264 -0.097121 -0.148607 -0.969900 -0.796915 -0.011867 -0.310279 0.095854 0.060734 -0.067481 -0.356539 0.046585 -0.225383 -0.026428 0.096255 -0.161100 0.311870 1.047948 0.787167 -0.000715 0.466356 0.841817 0.776661 0.555363 -0.396632 -0.129410 -0.387026 -0.217286 -0.350582 -0.550071 -1.492584 -0.897565 -0.373522 -0.146967 -0.064514 -0.336631 -0.201043 -0.329349 0.073068 -0.352490 -0.294940 0.180786 0.179367 -0.252790 0.396120 0.922211 0.735749 0.082838 0.003855 0.341493 0.409169 -0.357247 -0.827240 -0.581660 -1.091504 -1.609539 -1.368370 -1.169605 -0.511204 0.010939 0.372746 0.303990 -0.005085 -0.384110 -0.402729 -0.293507 0.055785 -0.130229 -0.763697 0.189788 0.637281 0.924697 0.078553 0.623660 0.005496 0.090113 0.012100 0.380501 0.352397 -1.064041 -1.872490 -2.031686 -2.591273 -2.308146 -1.139783 -0.655366 -0.075404 0.482057 0.451668 0.105016 -0.120786 0.004109 0.173224 0.205970 0.409797 -0.611856 0.047894 0.103775 0.317038 0.397023 0.358505 0.534445 0.015710 0.001445 0.071932 0.461168 0.023797 -1.717673 -2.027036 -2.067293 -1.283933 -0.570756 0.074996 0.172792 0.685888 0.451392 0.646034 -0.015672 0.136679 0.287158 -0.135481 -0.110966 0.055687 -0.273203 0.348881 -0.043526 -0.003034 0.603168 0.125111 -0.147222 0.012589 -0.053275 -0.019296 0.396187 -0.460100 -1.420522 -1.412021 0.001127 0.063479 -0.103358 0.278867 0.544432 0.229655 0.487575 0.395773 -0.078775 0.415338 0.084857 -0.278119 -0.473944 -0.504503 -0.077883 -0.145606 -0.344973 0.093403 0.420445 -0.104052 -0.245842 -0.241833 -0.104096 -0.019168 0.600787 -0.048346 -0.929831 -0.696402 0.044845 0.166944 0.412730 -0.001697 0.309130 0.482752 0.494237 0.508938 0.390330 0.335193 -0.074199 0.022470 -0.558932 -0.133267 -0.685054 -0.368868 -0.815926 -0.084156 0.041998 -0.855015 0.186803 -0.212243 -0.000579 0.336611 0.592981 0.623705 -1.095322 -0.048359 0.501038 0.565370 0.621062 0.337262 0.353049 0.406190 0.380830 -0.044540 -0.137185 0.416117 -0.168148 0.047623 0.240066 -0.426010 -0.553568 -0.261097 -0.533171 -0.289153 0.077139 0.597607 0.078512 -0.027361 -0.172266 0.436680 0.575833 0.081654 -0.348831 -0.017897 0.598041 -0.151961 -0.010758 0.298088 0.399684 -0.076681 0.376589 0.213615 0.040741 0.122560 0.129926 0.385569 0.644674 0.422816 -0.314769 -0.300729 -0.227601 0.460974 0.160799 0.727037 0.245017 -0.000903 -0.168659 -0.086823 0.977815 -0.000941 0.426278 -0.088920 -0.037751 0.361057 0.202980 0.197529 0.337020 0.196461 0.207602 0.239627 0.228632 -0.154384 -0.203804 0.180654 0.475792 0.098360 -0.148441 -0.047859 0.141336 0.706203 0.169521 0.805981 0.182627 0.001660 0.001601 -0.001401 0.019828 -1.341483 -0.411474 0.547956 0.393706 0.314874 -0.166591 0.215448 0.291571 0.342267 0.098987 0.334896 0.071726 0.053479 0.229699 0.070295 0.216347 0.336049 0.481441 1.051994 1.035571 1.009943 0.380197 0.979405 -0.000861 -0.001138 -0.000378 -0.000050 -0.597008 -0.629521 -0.396550 0.559819 0.138276 -0.936176 -0.720195 -0.201687 0.121759 0.371668 0.204083 0.714310 0.870511 0.774449 0.129548 0.471769 0.632758 1.014677 0.530667 1.063132 1.055649 0.919791 0.939502 0.865664 0.073089 0.001354 0.000258 0.000155 -0.144008 0.511844 -0.709687 -0.672041 0.452790 -0.000730 -0.152008 -0.535941 -0.130429 -0.071375 0.480220 0.596990 0.401557 0.422872 0.578586 0.630145 0.394892 0.262713 -0.031203 0.059952 -0.500347 -0.825693 -0.354700 -0.316284 0.045087 -0.000804 -0.000437 0.001529 0.000116 -0.040566 -1.144386 -0.567271 -0.294492 0.427733 0.484428 -0.280620 -0.423229 -0.522844 -0.433861 0.515115 -0.230989 -0.088188 -0.074179 -0.376014 -0.315759 0.119559 -0.220473 -0.231537 -0.059552 0.465965 -0.166713 -0.133406 0.001469 -0.001340 -0.001035 0.001244 0.000443 -0.000095 0.077956 -0.046214 -0.349673 -0.412722 -0.412300 -0.118915 0.199144 -0.409868 -0.505470 0.359226 -0.216435 -0.872795 -0.682720 -0.458774 -0.681957 0.395101 -0.105290 -0.536147 -0.531898 -0.001102 -0.000530 -0.001085 -0.000341 -0.001040
-0.001117 -0.000563 -0.001543 0.000605 0.001267 0.001406 -0.000702 -0.000999 0.000460 -0.000173 -0.000765 0.000482 0.033143 0.075985 0.088556 0.028067 0.000497 -0.000857 -0.000257 0.001522 0.000371 -0.000855 -0.000532 0.000393 0.000221 -0.001059 0.000919 0.001502 0.000077 -0.000426 -0.000327 -0.000726 -0.000975 -0.000703 -0.001324 0.005164 0.051529 0.063839 0.303622 0.305089 0.248147 0.798454 0.436315 0.149420 -0.015870 0.137853 0.414462 -0.192956 -0.162241 0.030981 0.019972 0.013105 0.000230 0.000359 -0.000439 -0.000345 0.001021 0.001408 0.004468 0.000739 0.003440 0.055194 0.163779 0.324701 0.539314 0.673772 0.849939 0.943129 1.321881 0.457859 -0.030227 -0.240087 -0.343251 -0.196535 -0.660704 -0.717811 -0.652678 -0.170827 -0.134246 -0.259107 -0.269076 -0.247518 -0.000286 -0.000575 0.000700 -0.001000 -0.031561 -0.089918 -0.030435 0.292420 0.649386 0.384338 0.968567 0.876029 0.873134 0.849479 1.167293 0.782997 0.400058 0.137939 0.509691 0.361232 -0.735970 -0.597140 -0.051121 0.155773 0.347811 -0.126967 0.189386 0.362236 0.289422 0.001426 -0.000741 0.000696 0.075989 -0.154373 0.062446 -0.219266 0.274402 0.916025 0.659379 0.885439 0.844752 1.379622 1.646985 1.074552 0.553789 0.210789 -0.072444 -0.282477 -0.311030 -1.020123 -0.804908 -0.655268 -0.371129 0.134878 0.367043 0.358908 0.047123 -0.034026 0.000542 -0.001577 0.120576 -0.055781 0.607030 0.063080 1.020864 0.475426 -0.097563 -0.024767 0.127207 0.000626 0.074737 -0.145258 -0.665060 -0.597818 -0.386709 0.084313 0.285645 0.078265 -0.064467 0.008639 0.231520 0.056063 -0.282289 -0.219425 -0.658106 -0.048303 -0.001314 -0.009712 0.534200 -0.618542 0.666062 -0.203322 0.522166 0.095612 -0.643210 -0.532829 -0.088679 -0.567569 -1.046267 -0.808208 0.066346 0.220305 0.127979 0.200798 0.238215 -0.058123 0.151529 -0.137509 -0.300297 -0.651243 -0.756824 -0.192373 -1.016090 -0.186288 0.000750 -0.018270 0.532321 -0.631235 0.615917 -0.160253 -0.099887 -0.286077 -1.004076 -0.638645 -0.370662 -0.569527 -0.643028 -0.133121 0.413268 0.381869 0.022098 -0.318652 0.210085 0.056485 0.540995 0.543893 0.458930 -0.753396 0.061004 0.258975 -1.174226 -0.644795 -0.433827 -0.036650 0.537786 -0.085059 -0.082667 -0.263089 -0.979821 -1.048382 -0.667978 -0.571395 -0.365404 -0.099206 0.155871 0.220610 0.320901 0.404382 0.340219 -0.146371 -0.044059 0.382809 0.043016 -0.108354 0.376585 0.120374 0.121987 -1.067552 -1.103087 -0.533896 -0.035612 -0.146899 0.494659 0.203799 -0.310221 -0.547733 -1.039963 -0.822691 -0.658848 -0.230719 -0.012159 0.177449 0.407932 0.147963 -0.360706 0.200962 0.112758 0.311816 -0.039448 0.031919 -0.491453 -0.138491 0.513183 0.030623 -0.526340 -1.549725 0.190622 0.443220 -0.036499 -0.021764 0.283642 -0.511244 -0.431502 -0.283570 -0.927815 -0.360576 -0.170561 -0.239181 -0.087508 -0.016848 0.110331 -0.783339 -0.926087 -0.119673 -0.065774 0.004973 0.044462 -0.036010 -0.555519 -0.012482 0.109383 -0.139108 -0.085543 -0.471244 -0.338101 -0.377070 -0.033973 -0.364734 0.220208 -0.377410 0.187539 0.123917 -0.326735 0.223825 -0.052298 -0.294733 -0.523385 -0.311047 -0.422816 -0.370016 -0.331581 -0.104315 0.002215 -0.024231 -0.060469 0.324890 0.053827 0.177950 0.301037 0.365063 0.575426 0.366118 -0.773965 -0.624790 -0.019927 -0.070697 0.174243 -0.299651 0.619719 0.184917 0.581720 0.277828 0.242328 0.050629 -0.117711 0.180766 -0.104433 -0.213473 -0.133549 -0.276642 -0.418257 -0.137209 0.261249 0.250731 -0.087579 -0.115816 -0.350380 0.064914 0.175232 0.653260 -0.209271 -0.094929 0.103957 -0.318202 -0.237909 -0.306295 0.429705 0.220967 0.525384 0.315331 0.147132 0.211491 0.424523 0.298805 0.332586 0.293146 -0.010485 -0.399504 -0.212344 0.236431 0.172133 -0.183656 -0.592716 -0.725348 -0.629531 -0.893418 -0.860580 -0.054840 0.443569 0.005767 -0.030410 -0.293922 -0.337745 -0.054424 0.507773 -0.171016 0.202343 0.197856 0.313672 -0.006584 -0.065574 0.254783 0.134494 0.125624 -0.211739 0.045398 0.466268 0.103918 0.039602 -0.534352 -1.390899 -1.318301 -0.847319 -1.142904 -0.813521 -0.377763 0.409538 0.005544 -0.067920 -0.007116 -0.035507 -0.546191 0.152977 0.310106 0.302846 -0.325484 0.131971 0.227963 0.145515 -0.062805 -0.200972 -0.013277 0.142165 0.675466 0.416695 -0.020974 -0.063684 -1.046788 -1.629621 -1.491280 -1.085846 -0.545718 -0.733565 -0.423048 0.379598 -0.002415 -0.059547 0.047893 -0.012140 -0.509024 0.068843 0.380429 0.158945 0.197754 0.004850 0.280220 0.158101 0.120709 0.115321 0.346749 0.307618 0.505616 -0.171179 -0.335406 -0.521016 -1.255519 -1.415735 -1.120380 -0.552277 -0.410160 -0.696259 -0.753617 0.434454 0.004820 -0.001267 -0.039410 -0.120192 0.310816 0.274919 0.717543 0.351175 0.179021 0.148714 0.013380 0.074736 0.157963 0.479429 0.420913 0.540518 0.184911 -0.437834 -0.515320 -0.836717 -0.851794 -1.051091 -0.823246 -0.732607 -0.549471 -0.563419 -0.165675 0.610337 0.567933 -0.023999 -0.058367 -0.223312 0.938142 0.649075 0.405415 0.299460 0.107186 0.527245 0.542364 0.425559 0.433690 0.297217 0.349527 -0.010058 -0.175077 -0.193813 0.049215 -0.631290 -0.382422 -0.452245 -0.029987 0.571166 0.834991 0.093841 0.246747 0.807149 0.367319 0.021076 -0.091236 -0.608914 0.818458 0.204596 0.109054 0.006394 -0.111359 -0.069094 0.258709 0.468965 0.404554 0.374270 0.280879 -0.074773 -0.133305 0.115368 -0.058682 -0.619008 -0.307503 -0.465389 0.192867 0.715761 0.714832 0.189583 0.040198 0.637025 -0.013903 -0.000280 -0.019606 -0.540616 0.667324 -0.207790 -0.391598 -0.363046 -0.259788 -0.292781 -0.405381 -0.172038 -0.009716 -0.239499 -0.220024 -0.161466 -0.059431 0.176227 0.150336 -0.820616 -0.671639 -0.117469 0.196438 0.889111 0.278718 -0.003450 -0.018803 0.598693 0.020244 0.003320 -0.005796 -0.408398 0.583347 0.515152 0.007771 -0.181000 -0.023667 -0.523813 -0.017859 -0.218170 -0.267422 -0.320224 -0.427581 0.102270 0.224301 0.153270 0.183941 -0.007932 0.528714 0.498603 0.590957 0.369187 0.220709 0.237975 -0.040517 -0.079927 -0.008067 0.002950 0.001122 -0.048009 0.261545 -0.045340 -0.566490 -1.081091 -0.562028 -0.658200 -0.498916 -0.086527 -0.500663 -1.006200 -0.465112 0.219076 0.060070 -0.048386 0.020095 0.325681 0.707417 0.482024 0.625594 0.052258 0.530238 0.544836 0.565608 -0.225277 -0.008027 0.000571 -0.000461 0.086173 -0.210103 -0.747110 -0.774808 -0.793700 -0.944339 -0.656424 -0.602356 -0.622079 -1.548668 -1.260653 -0.409687 -0.103986 -0.025223 -0.131161 0.221987 0.138501 0.617355 -0.117089 -0.005519 0.520604 0.946116 0.651360 0.407610 0.044740 -0.001064 -0.000826 0.000286 0.002071 -0.159613 -0.365863 -0.653668 -0.425311 -0.817319 -0.580734 -0.551381 -0.561217 -0.966859 -0.360605 0.188938 -0.303018 -0.341072 0.009209 0.378086 0.130825 0.684967 0.044538 -0.111785 -0.210727 -0.123018 0.142955 0.617026 0.555643 0.000538 0.000667 -0.000239 0.424319 -0.257562 0.060185 -0.534005 -0.250944 0.094217 -0.098668 -0.058620 -0.241672 -0.136579 0.234081 0.647946 0.021985 -0.086137 0.496338 0.181408 -0.329005 0.440893 1.277999 1.174009 0.619773 -0.415966 -0.263326 0.559373 0.556036 -0.001040 0.001020 -0.000359 -0.001511 0.307339 1.096852 0.214373 0.102074 0.200688 0.061002 -0.236995 -0.377950 -0.177179 0.350878 -0.080342 0.350326 0.719611 0.705296 0.493798 0.319323 1.093876 1.606488 1.050315 0.510211 -0.084934 0.081206 0.001101 0.000476 0.000041 -0.000232 -0.001503 0.000792 0.000643 0.000689 0.000051 -0.040962 -0.011794 -0.061387 -0.039474 0.237182 0.722928 0.803049 1.000824 1.127576 0.808755 0.747547 0.645287 0.861116 0.591267 0.495286 0.086302 -0.047229 -0.010780 0.000951 -0.001068 0.000165 0.000280
0.000796 0.000872 0.000008 -0.001316 -0.000798 -0.001159 -0.000216 0.000198 0.000634 0.000959 0.000575 -0.000060 0.001058 0.000016 -0.000955 0.000542 -0.001439 -0.000528 -0.000123 0.000804 -0.001611 0.000717 0.000149 0.001002 -0.000589 0.001201 -0.000290 0.000909 0.000683 0.001490 -0.000279 0.000785 -0.000068 -0.001265 -0.001410 0.000990 0.000392 0.001099 0.000767 0.001013 -0.000423 0.000377 0.001630 -0.000363 0.001473 0.000802 0.000956 -0.000943 -0.000008 0.001511 0.000332 -0.000871 -0.000951 -0.000442 0.000416 -0.000110 0.000487 -0.000576 0.000329 -0.001137 -0.001432 -0.001297 -0.000429 0.000004 0.001431 0.000573 -0.000685 -0.000665 -0.000018 -0.000992 -0.001805 -0.001628 -0.001584 -0.003177 -0.003895 -0.000781 0.000557 0.000442 0.000893 0.000072 0.000841 0.001000 0.001225 -0.001299 -0.000279 -0.001503 -0.000767 0.000919 -0.001260 -0.000617 0.000026 -0.001455 0.000781 0.000527 0.001185 0.001158 0.000682 0.000228 -0.003244 -0.001271 -0.002243 -0.002866 -0.002829 0.000195 0.001514 0.000421 -0.001112 0.000137 0.001640 -0.000065 -0.000453 -0.001012 0.001601 0.000813 -0.000590 0.000854 -0.001247 0.001380 -0.000333 0.000767 -0.001645 -0.000694 0.000783 -0.001236 0.002751 0.001758 -0.003776 -0.003228 -0.004043 0.001437 0.003708 0.002672 0.002365 0.000072 -0.001634 -0.000647 -0.001601 -0.001308 -0.001374 0.001122 -0.001081 0.000316 0.001368 -0.001207 0.000429 0.001127 0.000365 -0.000569 0.000922 -0.001741 -0.004205 -0.002964 -0.002398 -0.001323 -0.001934 -0.003512 -0.003853 -0.003216 -0.001821 -0.004225 -0.003490 -0.001377 0.004324 -0.000628 -0.001346 -0.001505 -0.001574 0.000623 0.001558 -0.001087 0.000038 -0.000817 0.000076 0.000610 -0.003782 -0.002750 -0.002759 -0.002961 -0.002775 -0.002210 -0.001557 -0.002203 -0.001755 -0.003795 -0.001734 -0.002289 -0.003107 -0.001660 -0.001957 -0.001418 0.001896 -0.000849 0.000342 -0.001150 0.001059 -0.001161 -0.000794 -0.000450 0.000419 -0.000270 0.001212 -0.001615 -0.002496 -0.002762 -0.004369 -0.002378 -0.003214 -0.001411 -0.002117 -0.002244 -0.001946 -0.002739 -0.002191 -0.003449 -0.001629 -0.002555 -0.002234 -0.002678 -0.001156 0.001200 -0.001218 0.000866 -0.000149 -0.001179 -0.000356 0.000218 -0.000290 -0.000267 0.000210 -0.001230 -0.004077 -0.004046 -0.002647 -0.002896 -0.002077 -0.004043 -0.002820 -0.003262 -0.001821 -0.001426 -0.004453 -0.003451 -0.002928 -0.001608 -0.004481 -0.003894 -0.002332 0.000355 0.000328 -0.001422 -0.000761 -0.000631 0.000052 -0.000742 0.000909 -0.000174 0.001322 -0.003904 -0.004109 -0.001725 -0.001709 -0.002920 -0.003398 -0.001754 -0.001822 -0.002830 -0.002765 -0.002976 -0.004091 -0.002128 -0.003175 -0.003682 -0.001769 -0.003229 0.003928 0.001115 -0.001599 -0.000436 -0.000504 -0.000216 0.001414 -0.000259 -0.000034 0.001586 0.001243 0.000118 -0.003498 -0.002095 0.004299 0.002924 -0.004298 -0.003862 -0.003264 -0.001476 -0.001745 -0.004131 -0.002372 -0.003514 -0.002590 -0.003426 0.003354 0.003338 0.003201 0.003800 0.001649 0.000541 0.000396 -0.000215 -0.000575 -0.000477 0.000901 0.001551 -0.001510 0.001290 0.001880 0.002899 0.003855 0.004427 -0.004179 -0.003092 -0.002564 -0.003007 -0.002614 -0.001630 -0.003933 -0.004041 -0.002944 0.002167 0.001409 0.003280 0.004369 0.003092 -0.001114 -0.000572 0.001072 -0.001032 -0.000833 -0.000902 0.000384 -0.000077 0.001210 -0.001568 0.001214 0.002580 0.002650 0.001675 -0.003381 -0.002521 -0.001456 -0.001904 -0.003341 -0.002686 -0.001934 -0.001746 -0.003664 0.003710 0.001543 0.002728 0.001497 -0.000541 -0.000517 0.001208 0.000444 -0.001324 0.001479 0.000525 -0.000056 -0.001173 0.000007 -0.001508 -0.000482 0.001505 0.002921 0.002802 -0.003974 -0.003614 -0.001302 -0.001606 -0.002998 -0.004182 -0.001154 -0.003449 -0.001428 -0.003785 0.003862 0.003545 0.002061 0.001356 0.000028 -0.001143 -0.000734 0.000454 -0.000991 0.001657 -0.001094 0.000232 -0.000616 -0.000654 0.000653 0.002398 -0.002119 -0.002112 -0.003033 -0.002241 -0.001557 -0.003329 -0.003832 -0.003081 -0.004418 -0.004147 -0.003578 -0.002723 -0.004187 0.003858 0.003826 0.001957 0.000446 0.001476 -0.000211 -0.001623 -0.001318 0.000563 0.001615 -0.000743 -0.001515 0.000320 0.000245 -0.000724 -0.003011 -0.002236 -0.002059 -0.002025 -0.003326 -0.001661 -0.002031 -0.002711 -0.003496 -0.001412 -0.004306 -0.002121 -0.002134 0.002948 0.003750 0.001758 0.000072 -0.001311 -0.000751 0.001397 0.000540 0.000548 -0.000416 0.001573 0.000474 0.001421 -0.000891 -0.004300 -0.004118 -0.003846 -0.001916 0.004192 -0.003785 -0.003083 0.003092 0.001167 0.001853 -0.003853 -0.001382 -0.001348 -0.004222 0.003952 0.004486 0.003131 0.000426 0.000414 -0.000032 0.001416 -0.001642 0.001009 0.000050 -0.001624 -0.001243 0.000720 -0.001780 -0.004131 -0.001922 -0.001785 -0.004097 -0.003703 -0.004334 0.002152 0.002436 0.001994 0.001389 -0.003629 -0.001322 -0.001897 -0.002652 0.002153 0.004388 0.004378 0.001220 -0.000603 -0.000616 0.000496 0.000782 0.000571 -0.000121 -0.003753 -0.003041 -0.001402 -0.004062 -0.001611 -0.001691 0.002105 -0.003284 -0.003996 -0.001321 0.004042 0.003205 0.004317 -0.003885 -0.002616 -0.003099 -0.004133 -0.003952 0.002375 0.003481 0.001114 -0.000226 -0.000505 -0.001186 -0.001087 0.000595 0.000619 -0.000695 -0.001391 -0.001304 -0.002167 -0.002442 -0.003637 -0.004442 -0.002057 -0.003002 -0.004059 -0.003623 -0.003240 0.001860 -0.003798 -0.002018 -0.001413 -0.003437 -0.002975 -0.002316 0.004448 0.002601 0.001276 -0.001154 0.000288 -0.000381 -0.000733 0.000713 0.001648 0.001027 0.001295 -0.001166 -0.004337 -0.002992 -0.004096 -0.001288 -0.003514 -0.003886 -0.003078 -0.003242 -0.002393 -0.001891 -0.001679 -0.001165 -0.002289 -0.003417 -0.001396 0.003368 0.004100 -0.000809 0.000276 -0.000983 0.000979 0.001211 0.000731 -0.000769 0.001075 0.001207 0.000099 -0.001643 -0.001258 -0.003836 -0.001160 -0.003647 -0.003557 -0.002549 -0.003467 -0.004399 -0.002090 -0.002820 -0.001817 -0.002609 -0.003570 -0.002922 -0.001647 0.003728 -0.001413 0.000119 0.001484 0.000180 0.000747 0.000427 -0.001221 0.000620 0.000757 0.000274 -0.001320 0.002510 -0.002856 -0.001943 -0.002621 -0.003671 -0.003496 -0.004001 -0.002651 -0.003201 -0.003644 -0.002787 -0.002640 -0.003565 -0.003805 -0.002480 -0.001998 0.001290 0.000573 -0.000364 -0.001418 0.001247 -0.001536 -0.000663 0.000369 0.001027 -0.000164 0.001307 -0.001446 0.004263 0.003432 -0.003545 -0.002764 -0.002355 -0.001796 -0.002804 -0.004076 -0.004277 -0.002208 -0.002014 -0.002118 -0.004415 -0.004450 -0.004151 -0.001487 0.000466 0.001000 -0.001511 -0.000837 -0.001172 -0.001471 0.000287 -0.001138 -0.000286 -0.001486 0.000866 -0.001504 0.001407 -0.000127 -0.003697 -0.001673 -0.001406 -0.003488 -0.004429 -0.002447 -0.002185 -0.001527 -0.002817 0.003486 0.004343 0.001666 -0.000012 0.001625 0.000232 -0.000332 -0.000098 0.000432 -0.001514 0.000526 0.000191 0.000088 0.000159 0.001415 0.000296 0.000088 0.000112 0.000899 -0.000042 0.001482 -0.000001 -0.000746 0.001620 0.000017 0.001623 0.002546 0.003989 0.003256 0.003662 0.001604 -0.000327 -0.000964 -0.000543 -0.001369 0.000580 0.000502 -0.001021 -0.000884 0.000770 -0.001619 -0.001213 0.000871 0.000124 -0.000058 -0.001233 -0.000004 -0.001015 0.001495 -0.000733 -0.001532 0.000353 -0.000621 -0.000452 0.000609 0.000070 0.000356 0.000311 0.001650 0.000907 0.001038 0.000317 -0.000424 -0.001096 0.001465 0.000221 0.001194 0.000523 -0.001256 0.000342 -0.000070 0.000630 0.000212 -0.001350 0.000342 0.000351 0.001024 0.001274 0.000618 0.001014 0.000422 0.001182 -0.001505 -0.000733 -0.000290 0.001228 -0.000831 0.000514 0.000494 -0.000740 -0.000265 0.001560 0.000873 -0.000946 0.000124 0.001578 0.001437
