0.640697 -0.418236 -0.252198 -0.451906 -0.024844 -0.307229 -0.357234 -1.091223 -0.121565 0.062458 -1.059185 0.003480 0.000669 -0.935667 0.000626 0.143525 0.686567 -0.394445 -0.674772 0.002157 -0.705732 -0.047257 -0.228728 -1.600160 -1.120476 0.088370 -0.016552 -0.363991 -0.723308 -0.311436 -0.001198 -0.641576 -0.635689 -0.855337 0.194235 -0.870313 -0.641106 0.001571 0.454544 -1.204934 -0.687020 -0.914961 -0.275369 0.002963 0.001488 -0.993427 -0.272777 0.001657 -0.126219 -1.443205 -0.006292 0.002946 0.078540 0.526821 -0.001522 -0.369795 -0.276094 -0.570683 -0.001218 -0.087232 0.662850 -0.106147 -0.294847 -0.545106
-0.183010 0.075610 -1.917459 -1.360064 0.624967 -0.627245 -1.010832 0.171526 -0.088943 -1.196341 0.105385 -0.356337 0.005306 0.006805 0.000133 -2.624782 -1.908496 -0.280214 -0.982203 -0.005455 0.847137 -0.237762 -0.195388 -0.489024 -0.551355 -0.887593 0.002686 0.041152 0.221280 0.546978 -0.005731 -0.847301 -0.825276 -1.199294 0.644639 -0.118082 -0.212551 -0.005913 -0.531034 0.194160 0.827547 0.776467 -0.726448 -0.000290 -0.004834 -0.862283 0.005178 -0.001172 0.208022 -0.159717 0.000847 -0.003238 -0.601934 -0.374308 -0.003777 -0.056863 0.219573 0.286135 -0.004859 0.108265 -0.142044 -0.044781 -0.147093 -1.056637
0.549803 -1.070217 -1.048216 -0.426841 0.288691 -0.180193 -0.320314 0.356665 -0.024320 0.306755 0.404620 0.467834 -0.004768 -0.128827 -0.007263 -0.762616 0.122390 -0.526067 -0.290874 0.001931 -0.989448 -0.445652 0.363943 -0.752414 -0.825601 -0.245417 -0.006764 0.319787 -0.701028 -0.150342 -0.005790 -0.757118 0.022669 -0.395794 -1.004046 0.519553 0.178582 0.005535 -0.377570 -0.977815 -0.793029 0.173773 -0.019095 -0.002959 -0.000565 -0.842012 -0.623611 -0.008607 0.237928 -0.723018 0.000951 -0.001432 -0.237121 -0.113308 -0.007906 0.473113 -0.309469 0.426463 0.004445 -0.478692 0.383119 -0.016847 0.692082 -1.201634
-0.120891 -0.853346 -0.853892 -0.155507 -0.183330 -0.738015 0.138555 -0.398531 0.024360 0.248369 -0.018397 -0.050159 -0.002061 0.550523 0.000843 -0.845742 -0.797064 0.438805 -0.832257 -0.002547 -0.693733 -0.541985 -0.287415 -0.817146 0.462255 -0.777513 0.007377 -0.315322 -0.827829 -0.379893 -0.007426 0.467257 -0.106555 -0.285865 -0.555840 0.251041 0.629839 -0.002453 -0.424065 0.400570 -0.969516 0.050772 0.173261 0.001424 0.004502 -0.447060 -0.896454 0.004620 0.462543 0.311876 -0.001315 0.004305 0.860174 0.097545 -0.002697 -0.478704 -0.622043 -0.953665 -0.002866 -0.926320 -0.772653 0.021710 -0.090350 -0.662359
-0.989783 -0.973042 -0.732851 0.764401 -0.824070 0.519178 -0.222680 0.129759 -0.741362 -1.054366 -0.665497 -0.248723 0.002761 -1.422402 -0.000262 -0.011375 -0.619228 -0.729675 0.089617 0.000966 -0.064250 0.243355 0.616042 0.550988 -0.019172 0.155770 -0.010110 -1.030244 0.273322 0.504380 0.002377 -0.892634 -0.437855 0.231115 -0.440656 -0.855571 -0.229900 -0.002506 -0.893401 0.014630 -0.701998 0.409904 -0.720144 -0.003165 -0.001418 -1.236709 0.265848 -0.000653 -0.635703 -0.718954 -0.006205 -0.000753 -0.771532 -0.188085 0.001636 0.373314 0.371925 0.195808 0.001418 0.450183 -0.448781 0.017522 -0.463239 -1.037613
-0.149652 0.741304 0.596151 -0.431108 0.133803 -0.226278 -0.485229 -0.125649 -0.188643 -0.238918 -0.265224 -0.131256 -0.007855 -0.332993 0.002744 0.209641 -0.626822 0.231678 -0.934787 -0.004461 0.132405 -0.139005 0.138412 -0.627338 0.436986 -0.585692 0.001899 -0.118067 -0.801179 -0.448847 -0.002929 0.413659 0.383421 0.107695 -0.608581 -0.567023 -0.694286 -0.000061 0.361570 0.248836 0.506841 -0.660404 -0.336164 0.004642 -0.000367 0.630418 -0.880225 -0.008253 -0.475150 0.338642 -0.000672 0.002526 -0.485832 -0.022234 0.000912 -0.356591 0.066839 -0.855510 0.002557 0.070424 -0.424901 -0.032542 -1.039641 1.033772
-0.068572 0.377671 -0.350994 -0.379711 0.488592 0.188835 -0.460520 -0.881158 -0.041140 -0.936361 -0.463142 -0.400820 -0.005082 -1.075128 0.001634 -0.499560 0.000271 -0.479874 -0.383408 0.002532 0.735326 0.701101 -0.499374 -0.913464 -1.079446 0.534417 0.012504 0.718894 -0.405380 -0.010691 0.000918 -0.173021 0.180280 -0.492340 -0.800203 -0.556470 -0.549415 0.000240 -0.745019 -2.042082 -0.927801 -0.962845 -0.929168 -0.005396 0.001955 0.445958 -1.183719 0.001158 -0.966195 -1.557286 -0.002749 0.002482 -0.339001 0.171893 -0.001883 -0.076297 -0.062492 -0.392740 0.003886 0.620009 -0.462844 0.018578 -0.456830 -0.454924
-0.435763 0.148378 0.652593 0.534137 0.456365 0.073164 0.202887 0.431326 -0.543842 0.407418 0.174241 -1.029256 -0.000787 0.266989 0.000759 0.031315 -0.297227 -1.151373 0.541045 -0.002679 -0.652353 -0.322003 -0.313771 0.228344 -0.942403 -0.967916 -0.006918 -0.868635 0.356422 0.105797 0.000703 -0.537437 -0.692518 -0.353704 0.072894 0.473162 0.154643 0.000378 0.020295 -0.683133 -0.106614 -0.518860 0.095604 -0.001480 0.002616 -0.337409 0.053844 -0.001839 0.315973 -0.106478 0.002911 0.002441 -0.065401 -0.755597 0.001413 -1.044002 -0.196966 0.013187 -0.005575 -1.273248 0.070880 0.028386 -0.058583 -0.246162
-0.996981 -0.478151 -0.464095 -0.637045 -0.925832 -0.806002 -1.056198 -0.774175 0.631970 -0.622165 0.234508 -0.367400 0.005074 -0.384250 -0.003297 -0.667325 -0.327678 0.149553 -1.079248 0.005627 -0.697368 -0.067449 -0.331100 -0.914680 -0.359472 -0.469592 0.006458 0.155043 -0.349191 -0.419898 0.001921 -0.557530 -0.073113 0.428060 -0.283295 -0.628332 -0.024159 0.002790 0.243899 -1.078920 -0.846806 -0.338245 0.268994 -0.006876 -0.007507 -0.183642 -0.899751 -0.002911 -0.505651 -0.731933 0.005602 -0.002099 0.109847 -0.356603 0.001660 -0.682744 0.293132 -0.949138 -0.002138 -0.542508 -0.334521 0.067842 -0.650656 -0.333672
-0.366310 -0.475959 -0.767200 -0.293275 -1.124234 -0.741557 0.360187 -0.450575 -0.206695 -0.489153 -1.021939 0.249601 0.006411 -1.116957 0.001933 0.387531 0.121314 -0.548193 -0.256807 -0.002400 -0.426890 -0.891724 -1.003522 0.548615 0.389379 0.287892 -0.014337 -0.256790 0.337345 -0.785221 -0.001230 -0.274256 0.213479 0.047720 0.235070 -1.628599 -0.778501 0.000675 -0.045822 0.295878 0.125288 -0.565363 0.278406 0.005050 0.000522 -0.222244 0.301985 0.000411 -0.838252 0.501608 -0.002866 0.002621 -0.727796 -0.664780 -0.007274 0.118851 -0.961549 -0.096935 -0.007458 -0.758402 0.150380 -0.004519 -1.093469 -0.012017
