-0.018674
-0.020882
-0.126264
0.550914
-0.002449
-0.104192
-0.309583
0.029419
0.550253
-0.045316
0.029805
-0.097443
-0.002958
-0.075368
0.324222
-0.050466
0.912618
-0.001735
0.417568
-0.178059
0.138758
-0.018598
-0.241684
-0.002782
-0.988946
0.023136
-0.332064
-0.002609
-0.190261
0.049631
0.457797
-0.098581
-0.117313
0.155442
-0.133850
-0.002018
-0.134045
0.120053
-0.296653
-0.002429
-0.013295
-0.283252
-0.001764
-0.030978
-0.114719
-0.010559
-0.088881
-0.214756
-0.732643
0.198770
0.031184
-0.009570
-0.003398
-0.162386
-0.012052
-0.064924
-0.649681
-0.002183
-0.008341
-0.155746
0.036895
-0.001600
-0.068768
-0.576132
-0.003297
0.271887
-0.657883
0.269306
-0.001741
0.048158
-0.293387
-0.576263
-0.249184
-0.605705
-0.002906
-0.367542
-0.003200
0.261027
-0.972958
-0.002204
0.002619
0.119818
-0.015673
-0.087539
-0.002764
-0.459291
-0.006552
-0.126308
-0.011856
-0.235192
0.412185
-0.241263
-0.071351
-0.402528
-0.531430
-0.010643
-0.039439
-0.011110
-0.201595
-0.004921
0.198905
-0.473201
-0.037552
-0.012346
-0.044773
-0.083841
-0.158326
-0.057943
-0.125948
-0.011835
-0.277000
-0.001994
0.059703
-0.025101
0.007305
-0.065236
-0.003709
-0.030303
-0.035278
-0.024309
-0.001915
-0.832923
-0.388530
-0.002222
-0.015230
-0.325816
-0.142628
-0.065212
