-0.001343 0.000339 0.000785 -0.000702 0.001196 -0.000592 0.000552 0.001300 -0.000768 -0.001241 -0.000976 -0.000451 -0.000015 -0.000306 0.000066 -0.000258 -0.001087 -0.000816 -0.000914 -0.000486 0.000914 -0.000619 0.000044 0.000978 0.000679 -0.000395 0.000230 0.000014 0.001150 0.000605 -0.000632 -0.001007 0.001259 0.000595 -0.029248 -0.030423 -0.028690 -0.015417 -0.004415 -0.003605 -0.002636 -0.006113 -0.002892 -0.004367 -0.003982 -0.001956 -0.000714 -0.000946 -0.001209 0.001397 0.000593 -0.000716 0.000066 -0.000917 -0.000866 -0.001267 0.001330 -0.000268 0.001259 0.016665 0.016045 0.000079 -0.029828 -0.030224 -0.013762 -0.004964 0.003038 0.010872 0.023182 0.003842 0.001054 0.005322 0.017186 0.023451 -0.012544 -0.013263 -0.014115 -0.016513 -0.001411 0.000833 -0.000792 -0.001026 -0.000360 0.000486 -0.001313 -0.000149 -0.000487 0.016069 0.014293 -0.015481 -0.030027 -0.022957 -0.001266 -0.007077 -0.009799 -0.000591 -0.002818 -0.010618 -0.004815 0.003063 0.022304 0.020360 -0.000283 -0.008657 -0.009049 0.001268 0.000757 -0.003940 -0.004296 0.000452 -0.000727 0.001286 -0.000487 0.001222 -0.000557 -0.001126 -0.000944 -0.001664 -0.002515 0.000688 0.005993 0.007577 0.021538 0.019823 0.006975 -0.002270 -0.002923 0.002236 0.015829 0.014060 0.007363 -0.000685 -0.005870 -0.000862 -0.011926 -0.015634 -0.005500 -0.000288 -0.000960 0.001344 0.000511 -0.000047 -0.000034 0.003503 -0.010394 -0.002914 0.004246 0.014373 0.007458 -0.000441 0.011692 -0.003738 -0.009377 -0.011494 -0.010022 -0.005021 -0.000941 -0.004223 -0.010146 -0.009522 -0.000687 -0.014848 -0.017497 -0.019148 -0.008897 -0.003452 -0.001035 0.000160 0.000065 0.000894 0.000172 0.005384 -0.004517 0.002449 0.005297 0.000787 -0.000560 -0.007244 -0.010265 -0.007238 -0.007777 -0.008619 -0.012753 -0.011571 -0.015095 -0.015419 -0.008099 -0.004840 -0.009103 -0.012195 -0.020752 -0.020509 -0.023814 -0.006102 -0.000499 -0.001275 0.000494 -0.000693 0.001379 0.003937 -0.003014 0.003176 -0.004229 -0.012408 -0.005371 -0.010820 -0.009088 -0.001456 -0.003827 -0.009114 -0.009151 -0.013685 -0.015809 -0.014923 -0.009942 -0.004799 -0.002596 -0.002392 0.003654 -0.023780 -0.022969 -0.003695 0.001159 0.000405 0.000553 -0.001020 0.000500 0.005667 0.001073 -0.008712 -0.017114 -0.022495 -0.006502 -0.007739 -0.008222 -0.003860 -0.005782 -0.007364 -0.012034 -0.006675 -0.005662 -0.003121 0.006841 0.004415 0.003013 0.006395 0.009409 -0.028951 -0.021155 -0.004422 0.000908 0.000110 0.000979 0.001232 -0.000362 0.014757 -0.006101 -0.016731 -0.036002 -0.034583 -0.008575 -0.008076 -0.001154 -0.003675 -0.013209 -0.017996 -0.020891 -0.018376 -0.015893 -0.014933 -0.004730 0.001779 0.013904 0.011227 0.008860 -0.020151 -0.022671 -0.004598 0.000177 -0.000439 0.000327 -0.000775 -0.000860 -0.002815 -0.006205 -0.018250 -0.024078 -0.029212 -0.011778 0.000556 -0.005591 -0.014395 -0.024494 -0.026238 -0.026190 -0.020278 -0.015613 -0.012540 -0.014604 -0.006144 0.008841 0.004885 0.007560 -0.010783 -0.017627 0.000285 0.000425 0.001404 -0.001134 0.001268 0.003018 -0.010493 -0.000399 -0.014839 -0.017770 -0.013594 -0.001834 -0.004286 -0.004509 -0.016830 -0.018373 -0.013965 -0.016939 -0.012526 -0.012880 -0.012220 -0.016693 -0.013101 -0.008114 0.000444 -0.000539 -0.010837 0.002399 0.002129 -0.000697 -0.000335 0.000722 0.000759 0.003627 -0.007068 0.004951 -0.015189 -0.018814 -0.013717 -0.003379 0.005704 0.005058 -0.004010 0.000106 -0.006153 -0.012744 -0.008135 -0.009440 -0.013832 -0.019297 -0.026238 -0.018279 -0.001814 0.006671 0.000362 0.008965 0.006665 -0.001391 -0.000322 0.000086 0.000089 0.000965 0.003530 0.004438 -0.005793 -0.013522 -0.009810 0.001768 0.002964 -0.001901 0.000261 -0.001357 -0.005917 -0.005746 -0.003986 -0.006797 -0.015030 -0.020931 -0.019608 -0.016756 -0.002485 0.000688 -0.004832 0.012110 0.004146 0.013931 -0.000916 0.000939 0.000093 -0.000875 0.001309 0.026679 0.011636 -0.010601 -0.006083 -0.004350 -0.000937 0.002079 0.002763 -0.006595 -0.008137 -0.002176 -0.005224 -0.012332 -0.015502 -0.011963 -0.011429 -0.006122 -0.003352 -0.006769 -0.004959 0.018523 0.018817 0.016110 0.000964 -0.000917 0.001010 0.001066 0.021468 0.035364 0.006527 -0.004195 -0.003276 -0.001625 -0.005102 -0.006427 -0.009115 -0.012039 -0.014181 -0.012273 -0.011757 -0.005654 -0.002031 -0.008688 -0.002363 -0.007993 -0.012286 -0.012333 -0.003725 -0.005089 0.003476 0.004428 -0.000305 0.001015 -0.000458 0.000312 0.033256 0.029935 -0.002280 0.002762 -0.004647 -0.004634 -0.005316 -0.012769 -0.018080 -0.020720 -0.025061 -0.023929 -0.003113 -0.001894 0.004925 0.006960 0.001843 -0.005356 -0.013941 -0.008176 -0.006524 -0.008020 0.004663 0.002513 0.001237 -0.000378 0.001113 -0.004544 0.037292 0.022878 0.004412 0.003710 0.003370 -0.005624 -0.012635 -0.020554 -0.023744 -0.028005 -0.027115 -0.020153 -0.015208 -0.003827 0.005600 0.000918 -0.001584 -0.003486 -0.008995 -0.009086 -0.009087 -0.015551 0.006943 -0.000706 -0.001029 -0.000683 -0.005069 -0.003601 0.032571 0.018375 0.004433 0.009479 0.012220 0.003936 -0.008320 -0.020428 -0.024547 -0.026762 -0.020180 -0.011226 -0.005365 -0.000984 -0.004212 -0.005159 -0.000049 0.002236 0.001907 -0.005003 -0.015104 -0.018764 0.007021 0.000466 0.000034 0.001179 -0.010269 0.001474 0.025127 0.021919 0.010637 0.004131 0.010102 0.003148 -0.009353 -0.013556 -0.021265 -0.017474 -0.009802 -0.008823 -0.006417 -0.006951 -0.008684 -0.006358 0.003202 0.011577 0.001267 -0.008291 -0.018352 -0.011279 0.003638 0.002370 0.001058 -0.000793 -0.003970 0.002806 0.011372 0.021097 0.005599 0.006236 0.008449 -0.010736 -0.014913 -0.012674 -0.004369 -0.005744 -0.010633 -0.007054 -0.011824 -0.011160 -0.009195 -0.008560 0.003246 -0.004899 -0.013388 -0.017268 -0.018576 -0.007936 0.002929 0.001247 -0.001356 0.000205 -0.002903 0.001961 -0.007078 0.013314 0.006087 0.002864 -0.002378 -0.014824 -0.020628 -0.018229 -0.014710 -0.009628 -0.011572 -0.020942 -0.015629 -0.007594 -0.002409 -0.009384 -0.017147 -0.011215 -0.008182 -0.009086 -0.004330 0.004270 0.002260 0.001174 -0.001029 0.001314 -0.000089 0.002902 0.002664 -0.006919 0.002644 -0.002884 -0.013047 -0.008634 -0.010798 -0.017893 -0.019483 -0.021651 -0.019620 -0.014258 -0.015793 -0.017938 -0.019442 -0.018306 -0.021169 -0.024886 -0.013149 -0.008296 -0.001920 0.002521 0.017036 0.016537 -0.000757 -0.000623 0.000807 0.000982 0.007928 0.002282 -0.005768 -0.008637 -0.013691 -0.015999 -0.015639 -0.011292 -0.008484 -0.013100 -0.019658 -0.023909 -0.021405 -0.015403 -0.016034 -0.019346 -0.023339 -0.022903 -0.021595 -0.003248 -0.001816 -0.000098 0.016032 0.014620 -0.000682 0.000990 -0.000974 -0.000101 0.001187 -0.002529 -0.005541 -0.005233 -0.010147 -0.008707 -0.001538 -0.006950 -0.018813 -0.024721 -0.026350 -0.021181 -0.012175 -0.013374 -0.017357 -0.008205 -0.013965 -0.014641 -0.006319 -0.006974 -0.006493 0.000740 0.000895 -0.000686 -0.001143 0.001048 -0.000246 -0.001402 -0.000421 0.003744 0.004118 -0.001065 -0.005920 0.005830 0.005674 0.009355 0.011399 0.003015 0.000452 0.004059 0.006206 0.001834 -0.001666 -0.002519 -0.004464 -0.009885 -0.011061 -0.006770 -0.000190 0.000634 0.000675 -0.000802 -0.000480 0.000715 -0.000283 0.000883 0.000952 -0.001089 -0.001370 -0.003055 -0.002461 0.010061 0.018626 0.020323 0.005964 0.000723 -0.001170 -0.006007 -0.001997 -0.003036 -0.000162 -0.004307 -0.004370 -0.001140 0.003040 0.001244 -0.000203 -0.000659 0.000376 0.000340 -0.001214 0.001094 0.000755 0.000904 0.000472 0.000071 -0.000947 0.000880 0.003559 0.003576 -0.000305 -0.001306 -0.000563 0.001136 -0.002764 -0.002436 -0.001930 -0.004223 -0.001460 0.005416 0.003153 -0.001534 -0.003117 0.000785 0.000163 0.001124 -0.000405 0.000350 0.000023
-0.001153 -0.000361 -0.000843 0.000413 -0.000125 -0.001301 0.000832 -0.000539 -0.001255 0.001093 -0.001258 0.001210 -0.000273 0.001031 0.000594 0.000930 -0.000875 -0.000231 0.000261 -0.001168 0.001235 0.001069 0.001048 -0.001190 0.000933 -0.000852 0.001400 -0.001155 -0.000756 -0.001089 0.001091 0.001158 0.000784 0.000937 -0.000720 0.000791 0.000205 0.000346 0.000297 0.000022 0.000178 0.000393 -0.001165 0.000391 -0.000728 0.000683 0.000288 0.000649 -0.000595 -0.001073 0.000526 0.000876 -0.000861 -0.000823 -0.000845 0.000511 -0.000575 0.001245 -0.000024 -0.001357 -0.000215 0.000442 0.006311 0.074969 0.034144 -0.230774 -0.074188 0.113881 0.082690 -0.121614 -0.037783 0.050539 0.082520 0.084472 0.069474 0.032380 -0.001547 -0.001977 0.003357 0.033782 0.001087 -0.000527 -0.000216 -0.000650 -0.001117 -0.000363 -0.000624 0.000019 -0.023945 0.092989 -0.152669 -0.331674 -0.345513 -0.413355 -0.217138 -0.038381 0.333307 0.085630 -0.072243 -0.061243 -0.366844 -0.296250 -0.490670 -0.434140 -0.497035 -0.386441 -0.222562 -0.221619 0.022000 -0.013072 0.000233 -0.000412 0.000775 0.000743 0.001664 0.032898 -0.316401 0.247374 0.479338 0.211207 -0.285128 -0.453068 -0.530901 -0.232631 -0.217725 -0.410509 -0.431257 -0.336501 -0.158480 -0.064600 -0.183337 0.013761 0.512411 0.631117 0.601712 0.576489 0.434181 0.363485 0.085023 -0.000359 0.001065 0.000680 0.020184 -0.128726 -0.105671 0.457682 0.568127 0.350723 0.328029 0.008870 -0.093682 0.079745 -0.232782 -0.311201 -0.421546 -0.230868 0.021515 0.400429 0.130132 0.275788 0.499033 0.657081 0.673389 0.258384 0.348985 0.731775 0.189909 0.001096 -0.000116 0.009390 -0.025517 -0.259266 0.274678 0.597885 0.757129 1.170098 0.869889 0.420899 0.305358 0.268243 0.211338 -0.066046 0.090941 0.296989 0.210507 0.260751 0.467351 0.641293 0.395309 0.215822 0.015237 0.077161 -0.031431 0.446277 0.251896 0.020685 -0.000885 0.007308 -0.044861 -0.267432 -0.043014 0.336634 0.785347 1.273934 0.677261 0.232082 0.010779 -0.028796 0.022184 -0.006984 0.231980 0.275391 0.144965 -0.255932 -0.513993 -0.222590 -0.286327 -0.083438 -0.546829 -0.610924 -0.118524 0.007063 0.018571 0.018732 -0.000470 -0.000747 -0.091574 -0.252826 -0.478149 0.510544 0.778278 0.509023 0.366489 -0.281705 -0.452514 -0.252218 -0.249155 -0.397130 -1.010762 -0.795075 -0.883380 -0.751922 -0.697335 -1.098547 -0.744228 -0.257298 -1.006727 -0.895688 -0.171456 -0.256552 -0.098682 0.016222 0.001185 -0.011796 -0.122484 -0.359875 -0.138066 -0.186927 0.505138 0.535331 0.349166 -0.224669 -0.059182 0.418114 0.011247 -0.443137 -0.529784 -0.436454 -0.306243 -0.785971 -1.044566 -1.117017 -1.246763 -0.850291 -1.000955 -0.958604 -0.216379 -0.268203 -0.100419 -0.000800 0.000882 -0.034576 -0.031486 -0.315378 0.268371 -0.141643 0.040180 0.165080 0.546089 0.131026 0.395739 0.130254 0.088935 -0.178158 0.071330 -0.058727 -0.199557 -0.600989 -0.239809 -0.115526 -0.005771 0.344245 -0.406739 -1.083736 -0.367380 -0.368404 -0.099757 0.001064 -0.001916 -0.033451 -0.035429 -0.501571 0.721840 0.089974 -0.148945 -0.013025 0.275301 0.197044 -0.060021 -0.215571 -0.133656 -0.009131 0.221279 0.324258 0.122229 0.069860 0.037145 0.279732 0.571708 0.699458 0.108769 -0.228100 -0.312226 -0.358598 -0.104270 -0.000638 -0.001010 -0.008448 -0.038546 -0.552236 0.452054 0.542677 0.248148 0.317202 0.492883 0.432908 0.023795 -0.090562 -0.319462 -0.360795 -0.443918 -0.454687 -0.164613 0.064009 -0.023034 -0.021207 0.429232 0.460511 0.303083 0.167162 -0.709198 -0.349299 -0.001200 0.000048 -0.000532 -0.004889 -0.005583 -0.458726 0.585880 0.760097 0.638727 0.458394 0.331800 0.183210 0.296803 0.153609 -0.230494 -0.478426 -0.797443 -0.850289 -0.686280 -0.555340 -0.351906 -0.251431 -0.209518 -0.051897 0.578965 0.186255 -0.478252 -0.577668 -0.101790 -0.006839 0.050551 -0.008232 0.008724 -0.433279 0.835221 0.812502 0.668210 0.332708 0.013853 -0.040937 -0.040833 0.040379 0.134723 -0.099411 -0.234568 -0.327086 -0.582994 -0.608114 -0.507783 -0.446750 -0.217371 -0.049902 0.422239 0.745151 -0.356394 -0.716384 -0.111167 -0.007887 0.046213 -0.009280 0.102969 -0.330027 0.358084 0.357227 -0.198730 -0.593567 -0.597200 -0.474641 -0.118887 -0.147830 -0.261530 -0.162048 -0.021832 -0.018870 -0.393402 -0.947549 -0.365382 -0.357035 -0.456602 0.335040 0.388669 0.918535 0.058266 -0.367569 -0.114039 -0.004530 -0.000144 -0.010424 0.122025 -0.245465 -0.036605 0.007918 -0.451930 -1.308672 -0.603300 -0.383102 -0.659774 -1.158247 -0.786611 -0.444539 -0.030902 0.149488 -0.028829 -0.450429 -0.713191 -0.504172 -0.453527 0.260927 0.433494 0.679889 0.219363 -0.153599 -0.305860 -0.003756 0.000137 -0.008178 0.103430 0.281628 0.631142 -0.132489 -0.429624 -0.943032 -0.855583 -0.288565 -0.139001 -0.589690 -0.490166 -1.164219 -0.469748 -0.269506 -0.245985 -0.182375 -0.329156 -0.611800 -0.460881 0.241277 0.265468 0.604560 0.355241 0.030269 -0.100553 -0.089042 -0.004982 0.000643 0.257003 0.639647 0.504643 -0.297770 -0.772270 -0.504416 -0.602625 -0.282159 0.066432 -0.679554 -0.438453 -0.634977 -0.888109 -0.887599 -0.393250 -0.145915 -0.188189 -0.125025 -0.273805 0.327739 0.286099 0.305104 0.327145 -0.228473 -0.121435 -0.042789 -0.001146 -0.030636 0.262893 0.537386 0.418878 -0.137911 -0.510074 0.097091 0.253039 -0.276314 0.070366 -0.126781 0.083139 -0.892243 -0.785179 -0.749623 -0.473845 -0.097948 0.253911 -0.052758 0.040964 0.541107 0.391925 0.167766 -0.045232 -0.448070 -0.077855 -0.044362 -0.001322 -0.000469 0.128124 0.463244 0.447401 -0.050875 0.046276 -0.055016 0.128088 0.202340 0.149675 0.092341 0.188753 0.132241 -0.164102 -0.374929 -0.292561 -0.067807 -0.099745 -0.111420 -0.024979 0.177773 0.314039 0.219998 0.128581 -0.300941 -0.096020 -0.000885 0.000627 0.003368 -0.070411 0.118903 0.348919 0.109406 0.231953 0.173287 0.408221 0.443766 0.292808 0.058273 0.053153 0.283366 0.368817 0.060166 -0.153683 -0.251831 -0.175871 -0.027212 0.095092 0.122180 -0.047285 0.318385 0.604014 0.367319 -0.079634 -0.005930 0.000096 -0.001268 -0.051684 0.054310 -0.169816 0.051400 0.050932 -0.052183 0.280932 0.019372 0.061575 -0.003801 0.049069 0.199455 0.448343 0.492626 0.422819 0.243262 0.309681 0.189822 0.022151 0.199315 0.410359 0.505502 -0.200499 -0.261428 -0.006790 -0.011366 0.000784 0.001346 0.006362 0.042859 0.083017 -0.067343 0.032202 -0.666160 -0.240484 0.119742 -0.074238 -0.301876 -0.260556 -0.054595 0.177301 0.164420 0.273191 0.124271 0.263258 0.253654 0.446697 0.520287 0.219357 -0.511483 -0.498249 -0.033454 -0.001596 -0.001156 0.000272 0.000117 -0.009708 0.156765 -0.000043 -0.230500 -0.133543 -0.241916 -0.292740 -0.205619 0.043273 0.005964 0.111815 -0.117462 -0.158408 0.044552 0.138757 0.179648 0.435488 0.417081 0.217016 -0.022050 -0.273383 -0.400896 -0.233516 -0.040834 -0.000137 0.001103 -0.000945 -0.000334 0.008350 0.184033 0.148473 0.112811 0.239201 0.339804 0.264177 0.014150 -0.034093 -0.045526 -0.007007 0.185099 0.205647 0.207713 0.215209 0.172900 0.210388 -0.037704 -0.101309 -0.372445 -0.342579 -0.098448 -0.100977 0.000146 -0.001137 -0.001317 -0.000492 -0.000790 -0.000440 -0.000959 -0.000802 -0.000678 -0.010307 -0.007956 -0.021261 -0.020597 -0.138287 -0.195548 -0.220992 -0.466862 -0.733373 -0.806782 -0.411795 -0.166490 -0.193114 -0.373815 -0.245882 -0.405816 -0.391638 -0.134245 0.000203 0.001276 -0.000915 -0.001059 0.000460 -0.000855 0.000261 0.000392 0.001084 -0.001114 -0.002300 -0.002927 -0.002975 -0.023554 -0.030176 -0.031166 -0.021186 -0.057318 -0.058074 -0.058377 -0.094631 -0.079789 -0.064770 -0.043499 -0.217663 -0.297814 -0.298438 -0.017846 0.000368 -0.000161 0.000350 0.000234
-0.000543 0.000467 -0.000850 0.000295 0.000417 -0.000958 -0.000597 0.000935 -0.001152 -0.000208 -0.000308 -0.001241 -0.000428 -0.000423 0.000936 0.000547 0.000084 0.001240 0.001112 0.000585 0.000836 -0.000987 -0.000589 0.000935 -0.001162 -0.001272 -0.000975 -0.000458 0.000053 -0.000684 0.000449 0.000342 0.000647 0.001234 -0.001081 0.001177 -0.000734 -0.005451 -0.001284 -0.006468 -0.009430 -0.008355 0.001287 -0.004888 -0.005330 -0.007027 -0.003532 -0.004190 -0.005171 -0.003397 -0.000704 -0.001182 -0.000439 0.000499 -0.001077 0.000760 0.000570 -0.000549 -0.000615 0.000430 0.000388 0.001285 -0.001158 -0.000707 -0.000320 -0.003133 -0.006793 -0.007135 -0.008871 -0.006537 -0.002970 -0.004509 -0.005803 -0.006732 -0.003754 -0.002896 -0.008530 -0.006870 -0.002939 -0.000663 -0.001227 -0.001003 0.000064 -0.000346 -0.000395 -0.000875 -0.000210 0.000775 -0.000999 -0.000572 0.001154 -0.006307 -0.003150 -0.004478 -0.004929 -0.007413 -0.030575 -0.034418 -0.037732 -0.036136 -0.025906 -0.031743 -0.041523 -0.037743 -0.040828 -0.041149 -0.035374 0.001525 0.002226 -0.001403 -0.000251 -0.000593 -0.000715 0.000346 0.000737 0.000636 0.001344 0.005674 0.000682 0.016621 -0.002847 0.042844 0.042888 -0.024420 -0.091683 -0.108862 -0.113016 -0.052850 0.014816 0.010069 -0.028238 -0.059282 -0.078486 -0.073838 -0.067951 -0.014556 0.001172 -0.001750 -0.000152 -0.001129 0.000166 -0.000640 0.001134 0.026978 0.001879 0.001616 -0.036546 -0.056344 -0.057280 -0.030123 0.013491 -0.023672 -0.040931 -0.125823 -0.107635 -0.121927 -0.129178 -0.131372 -0.056580 0.011322 0.005805 -0.007133 -0.017113 -0.062457 0.004951 0.000312 -0.001240 -0.000064 0.001087 0.001077 -0.000732 0.082535 0.051643 -0.019422 -0.017136 -0.073496 -0.054639 -0.019670 0.025313 0.000926 -0.109839 -0.110316 -0.099967 -0.137087 -0.144243 -0.114070 -0.122107 -0.026582 -0.047335 -0.068279 -0.042367 -0.059886 0.003465 0.002542 0.000944 0.001394 0.000989 -0.022792 0.035448 0.072496 -0.029897 -0.052471 -0.029222 -0.090277 -0.061554 -0.029438 -0.018080 0.012877 -0.039209 -0.082865 -0.098290 -0.124603 -0.115865 -0.100965 -0.073853 -0.097980 -0.015985 0.000714 -0.054283 -0.084931 0.002395 0.001058 -0.000305 0.000205 -0.000446 0.023194 0.035503 -0.014331 -0.039201 -0.004802 -0.016131 -0.057165 -0.049477 0.034901 0.034840 0.001536 -0.068727 -0.102174 -0.123028 0.007664 -0.048845 -0.030639 -0.001969 -0.109593 -0.090691 -0.038988 -0.030522 -0.061399 0.003865 0.002645 -0.004364 -0.001018 0.000747 0.009229 0.014927 0.015129 -0.026410 0.001079 0.029356 -0.046310 -0.038471 0.016406 -0.053379 0.002222 -0.094289 -0.152473 -0.010725 0.007243 0.001561 -0.082810 -0.032126 -0.002069 -0.094096 -0.015330 -0.047236 -0.072349 -0.025951 -0.004698 -0.005032 -0.000087 0.000882 0.012140 0.018775 0.006899 0.009065 0.001625 0.007623 0.026480 -0.005997 -0.110807 -0.042508 -0.047147 -0.121565 -0.041745 -0.043140 -0.075345 -0.050406 -0.128728 0.008084 -0.010753 -0.078855 -0.057956 -0.067040 -0.064139 -0.030076 -0.036178 -0.001542 -0.000921 0.003712 0.022305 0.026784 -0.008715 -0.016030 -0.032582 0.029275 0.026051 0.002327 -0.182301 -0.122678 -0.083160 -0.039385 -0.049220 -0.006764 -0.026995 0.000932 -0.031590 0.023535 -0.034926 -0.053300 -0.088899 -0.090829 -0.068929 -0.037817 -0.035374 0.000852 0.004055 0.005549 0.009364 0.021323 -0.019458 -0.040877 -0.011099 0.062768 0.037307 -0.016743 -0.185783 -0.186405 -0.053918 -0.082041 -0.072763 -0.076303 -0.079112 -0.014548 -0.056411 -0.010179 -0.068114 -0.117387 -0.112528 -0.064076 -0.070459 -0.035319 0.003953 0.002697 0.005934 -0.000242 0.006185 0.011260 -0.014266 -0.029790 0.019991 0.084398 -0.000218 -0.027108 -0.186493 -0.187614 -0.111572 -0.118596 -0.108229 -0.132393 -0.109510 -0.039990 -0.054730 -0.014089 -0.146435 -0.086561 -0.117432 -0.081103 -0.070320 -0.034671 -0.002555 -0.000961 0.000715 -0.000946 -0.002437 -0.000736 -0.009060 -0.020582 0.058705 0.133872 0.026991 -0.062489 -0.074317 -0.073159 -0.140705 -0.171566 -0.148155 -0.164273 -0.156385 -0.136676 0.007466 -0.059285 -0.161479 -0.085183 -0.101269 -0.068179 -0.066076 0.000285 -0.003248 -0.000045 -0.001017 0.000435 -0.000702 0.000797 0.007698 -0.008061 -0.016768 0.108765 0.003008 0.010086 -0.002488 -0.054803 -0.151416 -0.163551 -0.181068 -0.186242 -0.161765 -0.104965 0.026647 -0.060467 -0.039662 -0.144611 -0.097571 -0.074908 -0.041167 -0.007408 -0.001203 -0.000319 -0.001067 0.000745 0.000017 -0.000338 0.006215 -0.022382 0.000911 -0.000606 -0.027085 -0.008738 0.003359 -0.005431 -0.111133 -0.183547 -0.224963 -0.170706 -0.227245 -0.082600 -0.000837 -0.066185 -0.032959 -0.123445 -0.069008 -0.040338 -0.039548 -0.019887 -0.005098 -0.001731 -0.000575 0.001398 -0.000335 -0.000755 0.004416 0.032737 -0.015885 -0.042585 -0.054252 -0.049646 -0.064909 -0.102046 -0.170954 -0.181526 -0.133575 -0.014908 -0.163660 -0.089517 -0.043045 -0.004662 -0.022118 -0.084729 -0.037331 -0.048088 -0.045770 -0.045626 -0.003130 -0.000158 -0.000092 -0.004150 -0.001223 -0.002826 0.003419 -0.043986 -0.071785 -0.034300 -0.031806 -0.035681 -0.112951 -0.082132 -0.133259 -0.086814 -0.049291 -0.025543 -0.099825 -0.103454 -0.081182 0.061143 -0.003644 -0.035494 -0.010100 -0.037647 -0.034447 -0.023548 -0.002610 0.001369 -0.000601 -0.000129 0.000788 -0.037299 -0.031550 -0.118794 -0.105537 -0.112973 -0.064520 -0.045680 -0.031097 -0.012778 -0.094836 -0.089772 -0.131492 -0.003334 -0.104231 -0.124551 0.027200 0.053071 -0.036432 -0.054517 0.034395 -0.007506 -0.001989 0.007006 0.000513 -0.000286 0.001064 -0.000596 -0.000175 -0.039952 -0.053792 -0.151391 -0.130301 -0.120407 -0.069169 -0.041072 -0.037655 -0.014074 -0.088157 -0.188830 -0.060400 -0.035726 -0.110835 -0.121897 0.042004 -0.047568 -0.083616 -0.041776 -0.017146 -0.007782 -0.011867 -0.032128 0.002097 -0.000032 -0.000187 0.001363 -0.001295 -0.038495 -0.062584 -0.145835 -0.109755 -0.117253 -0.060919 -0.003141 -0.001069 -0.000921 -0.087258 -0.174289 -0.073851 -0.056815 -0.098646 -0.004729 0.010253 -0.087974 -0.092174 -0.060098 -0.064786 -0.039423 -0.044336 0.001409 0.002333 0.001160 -0.001084 -0.000519 0.001341 0.000627 -0.055187 -0.089224 -0.098791 -0.102379 -0.049362 -0.032213 -0.005741 -0.118692 -0.177107 -0.144652 -0.045733 -0.062275 -0.079972 0.001578 -0.048278 -0.109281 -0.086402 -0.072948 -0.070681 -0.039586 -0.045862 0.002802 0.033259 0.033543 -0.000124 0.000874 0.000602 -0.000873 -0.004812 -0.025182 -0.056341 -0.088257 -0.046248 -0.123212 -0.116526 -0.119574 -0.102964 0.003506 0.031179 -0.030285 -0.072109 -0.042783 -0.071963 -0.061268 -0.086436 -0.099270 -0.072841 -0.011216 -0.008468 0.001311 0.035355 0.035645 0.000017 -0.000804 -0.001305 0.001117 -0.001272 0.016169 -0.021200 -0.032276 -0.003401 -0.096884 -0.080448 -0.107672 -0.062470 -0.008163 -0.029872 -0.072806 -0.096116 -0.117622 -0.061194 -0.065922 -0.097997 -0.070549 -0.030490 -0.027617 -0.002499 0.004341 -0.000076 0.000390 -0.001083 0.000880 -0.000638 -0.000119 -0.000452 0.000772 0.003390 0.003258 -0.011684 -0.012932 -0.051084 0.042379 0.146403 0.199986 0.128536 0.051956 0.075049 0.013026 -0.001227 -0.030628 -0.050155 -0.058571 -0.030501 -0.030496 0.005751 0.001207 -0.001240 -0.001107 -0.000145 -0.000088 0.000352 -0.000623 0.000056 -0.003099 0.001926 0.005192 0.002389 0.015033 0.017245 0.139802 0.188410 0.202934 0.115157 0.124366 0.099386 -0.004621 0.001600 -0.035199 0.001273 -0.018312 -0.034027 -0.031023 0.005754 0.000265 -0.000989 0.000606 0.000070 0.000298 0.000749 -0.001342 0.000978 0.000517 0.004948 0.002607 0.002971 0.005957 0.077340 0.094030 0.087566 0.120584 0.040223 0.053913 0.012264 -0.012525 0.028850 0.036319 0.025952 0.025137 0.004245 0.007034 0.005338 0.000606 0.000937 -0.000950 -0.001330
0.000166 0.000387 0.001073 -0.001364 0.000742 -0.000335 0.001324 -0.000953 0.001083 -0.000855 0.000155 -0.000457 0.001044 0.000819 -0.000207 0.000926 -0.001349 0.000646 0.001260 -0.000815 -0.000741 0.000343 0.000082 -0.000065 0.000566 -0.000770 0.000967 0.000084 0.000271 -0.000229 0.000921 -0.000530 0.000052 0.000214 -0.001064 -0.001428 -0.008026 -0.009458 -0.008940 0.023668 0.019727 -0.042753 -0.131961 -0.112608 -0.201792 -0.207789 -0.231343 -0.220228 -0.067679 -0.169962 -0.217030 -0.182863 -0.000695 -0.000142 -0.001389 -0.000546 0.000785 0.000866 0.001021 -0.194583 -0.187750 -0.021661 -0.017214 -0.011540 -0.008894 -0.006295 -0.611963 -0.725743 -0.722298 -0.998856 -1.195794 -1.082181 -0.742570 0.087496 0.293238 -0.675010 -0.673208 -0.641118 -0.808840 -0.622542 -0.420042 -0.137343 0.001290 -0.000473 0.000135 -0.000200 0.061755 -0.133293 -0.204096 -0.165899 -0.155461 -0.247784 -0.255597 -0.391267 -0.687487 -0.396885 -0.726745 -1.249646 -0.862839 -0.301460 -0.462342 -0.331358 0.477294 0.215702 0.670443 0.885764 0.670617 1.069284 -0.308126 -0.366227 -0.646303 0.000600 -0.001134 0.000271 0.059479 0.045864 -0.347332 -0.435749 -0.351157 -0.560349 -0.404791 -0.170027 -1.004048 -0.915268 -0.607148 -0.406290 -0.207907 -0.211880 0.178886 0.568769 0.594900 0.385687 0.482141 0.156150 0.464731 0.559478 0.086201 0.216695 0.169119 -0.215983 -0.000243 0.000205 0.042883 -0.227563 -0.950268 0.239850 0.207792 0.814707 0.726236 -0.096735 -0.738246 -0.121391 0.565607 0.275728 0.052257 -0.148905 -0.155217 0.422561 -0.221772 0.039922 0.033746 0.167199 0.361640 0.011014 0.166335 0.817081 -0.461669 -0.301905 0.001075 -0.042816 -0.159003 -0.533089 -0.665470 1.041409 0.295471 0.750582 0.512891 -0.142122 -0.488434 0.062660 0.235122 -0.162314 0.069209 -0.270595 -0.241076 -0.106710 -0.386148 0.093108 0.158812 -0.131182 -0.125605 0.381923 0.409074 -0.235562 0.483501 -0.316994 0.000864 -0.780469 -0.201621 -0.434381 0.243959 0.585362 0.267412 0.050635 -0.397523 -0.485193 0.085827 0.234366 0.172180 -0.008004 -0.583461 -0.515217 -0.242332 0.042291 0.036800 0.451016 -0.234976 -0.234917 0.055696 0.384898 0.377041 -0.116059 0.281031 -0.297659 -0.000995 -0.775702 -0.227776 -0.334369 0.446493 0.187010 0.183565 -0.095432 -0.072825 0.471031 0.288505 0.357268 0.279867 0.101875 -0.343144 -0.323244 -0.365416 -0.100063 0.120329 -0.043222 -0.372950 -0.293064 -0.012742 0.540278 0.548025 0.445542 1.388801 0.540708 -0.000602 -0.128845 0.023659 -0.023079 0.418295 0.005217 0.493922 -0.182803 -0.096637 0.537076 -0.044071 0.351284 0.461045 0.157885 -0.615950 -0.811149 -0.284975 -0.277054 -0.282661 -0.292523 -0.170032 0.102862 0.230763 0.550145 0.707798 0.915070 0.733817 -0.402137 -0.000928 -0.146492 0.042211 -0.093812 0.196679 -0.212780 0.409090 0.081336 -0.011788 0.586152 0.137203 0.372864 0.853871 0.230384 -0.439724 -0.888423 -0.600839 -0.404747 -0.662300 -0.524229 0.051871 0.147641 0.357691 0.067737 0.434782 0.379864 0.236074 -0.152349 -0.000727 -0.029889 0.049283 -0.267939 -0.680289 -0.458993 0.309388 -0.042317 0.706674 0.718840 0.300433 -0.024065 0.591706 -0.074422 -0.438468 -0.716154 -0.242047 -0.222768 -0.460576 -0.385351 -0.217505 -0.206090 0.164788 0.350596 0.622054 0.867660 1.154905 0.188417 0.001071 0.000172 -0.515494 0.528727 -0.257047 0.090980 -0.374230 -0.640621 0.338701 0.084277 0.024850 -0.007334 0.210079 0.343073 -0.009167 0.119095 0.317240 0.061191 -0.417114 -0.264365 0.498895 0.323630 0.843204 1.029559 1.049742 0.651574 0.188372 -0.482662 -0.002934 0.002153 -0.474102 -0.140601 -0.488867 -0.974976 -1.124433 -0.996024 -0.218061 0.282924 0.346082 0.317141 0.632564 0.648752 0.078065 0.566253 0.114351 0.096995 -0.198174 0.428771 1.551081 0.931131 1.085272 0.835642 0.494613 0.357529 -0.094962 -0.259233 -0.010154 -0.007218 -0.370213 -0.594148 -0.584256 -0.791554 -1.004915 -0.517215 -0.199899 -0.520765 0.326972 0.287630 0.375595 0.521891 0.420142 0.385316 -0.008816 0.235042 -0.204092 0.510395 0.681755 0.427399 -0.146484 -0.009538 0.160061 0.001039 -0.442042 -0.173992 0.000238 -0.006903 -0.370016 0.613526 0.163271 0.014393 -0.745489 -0.429390 -0.486743 -0.594075 0.459196 0.104048 0.000656 0.330510 0.617588 0.567793 0.152343 -0.302814 -0.136971 -0.042010 -0.195426 -0.217606 -0.269713 -0.398629 0.022838 -0.607051 -0.799380 0.012472 0.009711 -0.115417 -0.374382 0.712770 -0.837463 0.087288 -0.569958 -0.572779 -0.458349 -0.354122 -0.139164 -0.494300 0.117727 0.240710 0.337030 0.439903 -0.424349 -0.743231 -0.306117 -1.138881 -1.246138 -0.551010 0.110981 0.065752 -0.854559 -0.123483 -0.467379 0.039846 -0.000487 -0.168558 -0.379147 0.182996 -1.301825 -0.183794 -0.396223 -0.340841 -0.260499 -0.108402 -0.450839 -0.045238 0.467426 0.200862 -0.192404 -0.163652 -0.209403 -0.668784 -0.868388 -1.343095 -0.926313 -0.466942 -0.345026 -0.375635 -0.709759 0.245740 0.085177 0.022316 -0.060569 -0.104045 -0.210158 0.005442 -0.496694 0.080760 0.282533 -0.122165 -0.086752 -0.125183 0.038110 0.541311 0.237053 -0.329843 -0.186565 -0.423507 -0.187878 -0.517031 -0.291216 -1.270180 -0.754470 -0.619989 -0.807806 -0.329240 0.035621 0.606263 0.122588 -0.051212 0.015272 -0.264711 -0.125017 -0.149210 -0.559819 -0.515660 -0.010555 -0.013238 0.282122 -0.098340 -0.065597 -0.025289 -0.261694 -0.592879 -0.209709 -0.316243 0.009362 -0.011467 -0.296521 -0.788483 -0.650580 -0.647268 -0.724929 -0.381879 -0.346514 0.366368 -0.182495 -0.052334 -0.001074 -0.004905 -0.334558 -0.898548 -1.641506 -0.811806 0.008687 0.491278 0.604016 0.099884 0.122717 0.009977 0.080530 -0.258556 -0.325414 0.000131 -0.059611 0.039359 -0.324388 -0.142533 -0.717424 -0.664384 -0.663464 -0.291930 -0.401919 -0.340129 -0.213343 0.012176 -0.038815 -0.018114 -0.173562 -0.837937 -1.162328 -0.664819 0.192277 0.520415 0.489790 0.702340 0.254794 0.359013 0.349432 -0.157689 -0.405109 -0.238907 -0.375693 -0.318572 -0.105438 -0.480050 -1.110212 -0.877318 -0.087808 -0.312396 0.057975 -0.124981 -0.362662 -0.001404 -0.039776 -0.016370 -0.149494 -0.225692 -0.539526 -0.150295 -0.436562 0.186152 0.422120 0.294073 0.192758 0.020910 -0.061254 0.160067 0.039550 -0.477538 -0.405296 -0.312866 0.003373 -0.614020 -0.869660 -0.598193 -0.729444 -0.120380 0.338242 0.353629 -0.405034 -0.000433 0.001362 0.001152 -0.076016 -0.256264 -0.427291 -0.572077 -0.983113 -0.509408 0.216122 0.169775 0.117447 0.061155 0.593476 0.647586 0.171223 -0.415141 -0.170966 -0.469182 -0.416387 -0.527063 -0.389231 0.141830 -0.402732 -0.307519 0.078734 0.268956 -0.728615 -0.000614 0.001317 0.000466 -0.060376 -0.367025 -1.099916 -0.859527 -0.280828 -0.254051 0.202766 0.415823 0.275154 0.590275 0.486159 0.479504 0.549560 -0.083757 0.272622 -0.911695 -0.951788 0.326762 0.437733 0.643966 0.554658 -0.527589 -0.747168 -0.364552 -0.456118 0.000716 -0.000321 -0.000636 0.000239 -0.100173 -1.226405 -1.411344 -0.229779 -0.459005 -0.741698 -0.336215 0.151100 0.003348 -0.176311 -0.167846 0.257564 0.860331 0.507687 -0.896670 -0.708029 0.347285 0.622484 0.640146 0.438466 0.348619 0.723063 -0.011736 -0.018849 -0.001219 0.000646 0.000174 0.000793 -0.135246 -0.215970 -0.711393 -1.013924 -1.224477 -0.569801 -0.731171 -1.189602 -0.792317 -0.717251 -0.568887 -0.692607 -1.207009 -1.165964 0.037700 0.510468 0.142959 -0.122074 0.774992 0.670921 0.543896 0.044346 0.082915 -0.000006 0.000321 -0.001218 -0.000866 -0.001084 -0.000285 0.111157 0.122801 0.004200 -0.210042 -0.182908 0.004745 -0.074857 0.152010 0.058771 0.093647 -0.205276 0.507201 -0.006656 0.119282 0.121712 0.105189 0.001352 -0.001551 -0.008199 -0.003969 -0.000885 0.000597 -0.000171 -0.000800
-0.000360 -0.001169 -0.000979 -0.001245 0.000712 -0.001090 -0.001207 0.001169 0.001298 0.000411 0.000642 -0.001296 -0.000370 -0.000220 0.001120 -0.000084 -0.000430 0.001076 -0.001171 0.000163 0.000603 -0.000656 -0.000460 0.001026 -0.000718 -0.000127 0.000160 0.000053 0.001378 -0.001115 0.000940 0.000762 -0.000165 0.001339 0.000034 -0.001306 -0.000332 0.000916 0.000132 0.001124 0.000539 0.000665 0.001379 -0.000559 0.000628 -0.000970 0.000104 0.000926 -0.001069 -0.001104 0.001268 0.000377 0.000731 -0.000184 0.000239 -0.000098 -0.001060 0.000200 0.000818 0.000947 -0.001343 0.000423 -0.000067 -0.000788 -0.001167 -0.000797 -0.001081 0.000140 0.000613 -0.001128 -0.000650 -0.000508 -0.001041 0.000053 -0.001180 0.000019 0.001123 -0.000501 0.000000 -0.001007 0.001172 -0.000580 0.001120 0.000132 -0.001103 -0.000619 0.000103 0.001125 0.000427 0.001216 -0.000185 0.001346 -0.000980 -0.000014 0.001385 0.000553 -0.001123 0.000690 -0.001032 -0.000552 -0.000726 -0.001240 0.001023 0.001249 -0.000211 -0.000029 0.000639 -0.000457 -0.000717 0.001280 -0.000778 0.000197 0.001013 0.000103 -0.001090 0.000447 -0.001330 -0.000817 0.001396 0.000148 -0.002962 -0.002274 -0.002871 -0.000989 -0.001733 -0.003247 -0.002853 -0.001456 -0.002604 -0.002975 -0.001811 0.000619 0.000326 0.000331 0.000108 -0.000202 0.000010 0.000412 0.000190 0.000566 0.001369 0.001190 -0.000801 0.001341 -0.000353 -0.000056 0.000319 0.000613 -0.002381 -0.001641 -0.003369 -0.003482 -0.002198 -0.001928 -0.003348 -0.001987 -0.001673 -0.003302 -0.003761 -0.003271 -0.002812 -0.002280 -0.002323 0.000068 0.001334 0.000206 -0.000571 0.001301 -0.001360 0.000369 -0.000051 -0.001178 0.001015 -0.001186 -0.000787 -0.002927 -0.003220 -0.001820 -0.003381 -0.003388 -0.002796 -0.003024 -0.002126 -0.001181 -0.001310 -0.000963 -0.001778 -0.002941 -0.001585 -0.002525 0.003519 0.002359 -0.001181 -0.001394 0.001153 0.001246 -0.000035 0.000132 -0.000879 0.001235 -0.000318 0.000851 -0.002903 -0.002437 -0.002835 -0.001085 -0.003546 -0.003556 -0.003512 -0.002722 -0.003483 -0.001517 -0.003705 -0.001718 -0.003132 -0.003082 -0.003003 -0.003187 -0.002650 0.003488 -0.000939 0.000349 0.000506 -0.001361 -0.000912 0.001022 0.000187 0.000257 -0.001878 -0.003571 -0.003570 -0.002889 -0.001805 -0.001825 -0.002429 -0.003573 -0.003494 -0.001578 -0.003095 -0.001380 -0.002754 -0.002588 -0.001274 -0.001174 -0.001230 -0.002556 -0.001426 0.002402 0.001335 0.001152 -0.000900 -0.001017 -0.000644 0.001331 -0.001224 0.000572 -0.003417 -0.001911 -0.001419 0.003741 -0.001725 -0.001173 -0.003425 -0.002252 -0.001482 -0.002295 -0.002619 0.003356 -0.001397 -0.003095 -0.002930 -0.001757 -0.003345 -0.002997 -0.002803 0.002081 0.002753 -0.001133 -0.000357 0.001335 -0.000489 0.000616 0.000615 0.000150 -0.001534 0.001732 0.003569 0.002228 -0.001613 -0.003423 -0.003658 -0.002393 -0.003090 0.001597 0.002681 -0.003446 -0.001319 -0.003150 -0.001146 -0.002602 -0.002394 -0.001999 -0.001275 -0.001408 0.001406 -0.000346 -0.001097 -0.000707 -0.001262 0.000316 0.000501 -0.000721 0.002308 0.002198 0.001219 -0.002907 -0.001375 -0.001778 -0.002305 -0.002848 0.001219 -0.001473 -0.003570 -0.003672 -0.002454 -0.001605 -0.002643 -0.002359 -0.002104 -0.003761 -0.002223 0.001056 0.002610 -0.001165 0.001237 -0.000065 0.001218 0.000490 -0.000272 0.000948 0.002216 0.003314 0.002961 -0.001175 -0.001514 -0.001739 -0.001717 0.001067 0.001304 -0.001440 -0.003571 -0.001599 -0.003249 -0.001376 -0.003153 0.001324 0.002281 -0.001501 -0.003151 -0.001013 -0.001156 -0.001713 -0.001173 -0.000388 -0.001269 0.000786 -0.001286 -0.000691 0.002631 0.002853 -0.002880 -0.003279 -0.002126 -0.002959 0.001648 -0.001618 -0.002265 -0.003016 -0.001767 -0.003562 -0.003317 -0.002025 0.001189 0.003670 0.003728 -0.003596 -0.001494 -0.001610 -0.002099 -0.001838 0.000396 0.001041 -0.000595 -0.000603 0.000407 0.002014 0.002344 -0.003397 -0.001944 -0.001899 -0.001424 0.003064 -0.003087 -0.001322 -0.001101 -0.002996 -0.001767 -0.002214 -0.001194 -0.001741 -0.003028 -0.001630 -0.003379 -0.001147 -0.001654 -0.002980 -0.002778 -0.001013 -0.001350 -0.001372 -0.000811 0.000769 -0.000254 0.001116 0.002437 -0.003108 -0.003581 -0.002159 0.003542 0.001194 -0.003552 -0.001079 -0.001082 -0.001605 -0.001907 -0.002630 -0.002981 0.001339 -0.002670 -0.001728 -0.002149 -0.000989 -0.002036 -0.001662 -0.003068 0.001209 0.000796 -0.001158 -0.001343 -0.000161 -0.000350 -0.001132 -0.003450 -0.002606 -0.002571 -0.003013 -0.001998 0.002195 -0.002477 -0.003645 -0.001514 -0.003555 -0.002464 -0.002311 0.002956 0.001592 0.001309 -0.003734 -0.002874 -0.001904 -0.002934 -0.003113 -0.002451 0.001036 0.001260 -0.000905 0.000682 -0.000043 0.001025 -0.000721 -0.001836 -0.002276 -0.001010 -0.000981 -0.003591 -0.002196 -0.001166 -0.003175 -0.002517 -0.002214 -0.003042 -0.001692 -0.002779 0.003067 0.002245 0.001380 -0.001551 -0.003469 -0.002675 -0.002395 -0.001975 0.001375 -0.001286 0.000051 0.000401 0.000432 -0.000889 0.000362 -0.003476 -0.002758 -0.002236 -0.003044 -0.002509 -0.001373 -0.003368 -0.003093 -0.002299 -0.001533 -0.001109 -0.003070 -0.001110 -0.003405 0.001342 -0.001041 -0.001726 -0.003511 -0.000988 -0.002158 -0.001287 -0.000609 0.000586 0.000148 -0.001010 -0.000335 -0.000942 0.000152 -0.001238 -0.003683 -0.003220 -0.003490 -0.003184 -0.001271 -0.003644 -0.002157 -0.002600 -0.001158 -0.002671 0.001028 -0.003138 -0.001128 -0.002435 -0.002952 -0.002192 -0.002071 -0.001845 -0.002913 -0.000146 -0.000549 -0.001167 -0.000958 -0.000705 -0.000451 0.000066 -0.001133 -0.002608 -0.003121 -0.001556 -0.001393 -0.003019 -0.002508 -0.003243 -0.001171 -0.001431 -0.001160 -0.002483 -0.003552 -0.002757 -0.003451 -0.002526 -0.002033 0.001679 -0.001015 -0.002671 -0.002250 0.000549 -0.000683 0.001299 -0.000920 -0.001227 -0.000775 -0.000150 0.000243 0.001121 -0.000332 -0.002832 -0.001698 -0.003714 -0.001843 -0.003183 -0.003283 -0.001911 -0.003560 -0.001002 -0.001895 -0.001189 -0.001877 -0.002886 -0.002244 -0.002686 -0.003638 -0.001706 -0.002286 -0.000008 -0.000703 0.000225 -0.001205 -0.000755 0.000538 -0.000921 -0.001141 0.000844 0.000939 0.001098 -0.001289 -0.002854 -0.001960 -0.003005 -0.001717 -0.001411 -0.001073 -0.001016 -0.001593 -0.003362 -0.001305 -0.001094 -0.001088 -0.002262 -0.001288 -0.001097 0.000605 -0.000553 0.000715 -0.000205 0.001011 0.000593 -0.000385 -0.001228 0.001173 0.000660 -0.001329 -0.001061 -0.003731 -0.001909 -0.001714 -0.001636 -0.003228 -0.002348 -0.002460 -0.002184 -0.002448 -0.002493 -0.002832 -0.003609 -0.003669 0.000380 -0.000700 -0.000791 -0.001082 0.000580 0.000051 -0.001032 0.000358 0.000996 -0.000855 -0.000099 -0.000139 -0.000616 -0.001176 -0.003249 -0.002945 -0.003050 -0.001042 -0.002068 -0.001295 -0.001972 -0.003673 -0.001229 -0.001188 0.000373 0.002710 0.003362 0.003541 0.000662 -0.000672 -0.000726 -0.000369 0.000178 0.000921 -0.001201 0.000931 0.000130 -0.000487 -0.000358 0.000579 0.000307 -0.000920 0.000813 0.001367 0.001954 -0.002950 -0.002126 -0.001099 -0.002828 -0.002951 -0.003238 -0.001995 0.001350 0.003590 0.001633 0.001146 0.002177 -0.001280 0.001328 -0.000343 0.001049 -0.001174 -0.000857 0.000652 -0.000387 -0.001356 0.000301 -0.000837 -0.000901 0.000070 -0.001266 0.000937 -0.000046 -0.002201 -0.002126 -0.002305 -0.002844 0.000461 -0.000102 0.001222 0.000829 0.002183 0.003015 0.001241 0.003354 -0.000188 -0.000497 -0.000118 0.000214 -0.000618 0.001076 -0.000598 -0.000459 0.001376 0.000435 -0.001019 -0.001195 0.001366 -0.000398 -0.000547 -0.000010 0.001361 0.001113 0.001216 0.000782 -0.000294 -0.000152 0.000814 -0.000166 -0.000262 0.003753 0.002888 0.001709 0.001384 -0.000130 -0.000547 -0.000483 0.001293 0.001147 0.000389
-0.000187 0.000244 0.000634 -0.000345 -0.001021 -0.000738 -0.000995 -0.000445 0.001148 -0.000470 -0.000141 -0.000385 -0.000848 0.000629 -0.000939 -0.000840 -0.000666 0.001322 0.000766 0.001322 0.000953 -0.001196 -0.000852 -0.000426 0.000720 -0.000481 -0.001005 0.000430 -0.000797 0.001123 0.000641 0.001388 -0.001042 0.001194 -0.001275 0.000267 0.000075 -0.042595 -0.064188 -0.071296 -0.073476 -0.052294 -0.016789 -0.029002 -0.027519 -0.026334 0.000009 -0.001053 0.000976 -0.000048 -0.000398 -0.000777 0.000958 -0.000976 0.000457 -0.000924 0.000856 0.000652 0.000953 -0.000837 -0.000143 -0.000656 0.000696 -0.000529 -0.054384 -0.162938 0.719869 0.741726 0.409179 -0.443370 -0.329944 -0.398527 -0.480827 -0.184988 -0.205841 -0.230861 -0.172002 -0.019961 -0.009557 0.001226 -0.001016 -0.001339 0.001222 0.000382 -0.000749 -0.000986 0.440698 0.435838 0.001263 0.000445 -0.000865 0.579584 0.496833 0.566839 0.755899 0.588879 0.403940 -0.399000 -0.163732 0.051490 0.229283 0.269680 0.235972 0.420438 0.266339 -0.349593 -0.001359 0.007322 -0.001223 -0.008880 -0.000069 0.000962 0.000350 -0.000225 0.443574 0.395060 0.013469 -0.062729 -0.093721 0.489757 0.529375 0.233962 0.062804 0.048871 -0.087224 -0.334312 0.424652 0.357947 0.449115 0.345233 0.769338 0.978314 0.923576 0.495355 -0.293997 -0.473837 -0.274530 -0.275670 -0.056982 -0.062437 -0.000081 0.001150 0.471532 0.437694 -0.054332 0.114351 0.241292 0.295250 -0.212673 -0.513579 -0.851378 -0.860023 -0.902278 -0.057476 0.413484 0.301286 0.234087 -0.160064 -0.034130 0.506499 0.545464 0.182362 -0.434907 -0.341511 -0.324655 -0.123216 -0.049567 -0.070723 0.000101 0.001249 0.038299 0.036947 0.118026 -0.081542 0.003043 0.566689 -0.155022 -0.443734 -0.642930 0.106850 0.300756 -0.124039 0.070320 -0.183335 0.056495 0.047983 0.036623 0.133096 0.181874 -0.051975 -0.549583 -0.367617 -0.298899 -0.111259 0.002447 -0.007109 0.000075 -0.001122 -0.005337 0.129280 0.268305 -0.080566 -0.121129 0.175235 -0.305579 -0.219773 -0.841425 -0.136464 0.235273 -0.038713 0.188012 0.175717 0.534098 0.266686 -0.116121 -0.036872 -0.022502 -0.239734 -0.432225 -0.254829 -0.319888 -0.235957 0.005541 0.002123 -0.000675 -0.000066 0.003611 -0.005814 0.083826 -0.140037 -0.085981 0.113630 -0.582248 -0.554182 -0.473126 -0.474653 -0.447333 -0.363301 0.250367 0.582637 0.420021 0.173429 -0.402924 -0.074619 -0.052295 -0.327580 -0.517859 -0.605231 -0.283203 0.017893 -0.007874 0.002646 -0.000104 0.049569 0.007498 0.018972 0.215106 0.173547 -0.173805 -0.222261 -0.070536 -0.038037 0.394855 -0.210923 -0.500524 -0.509935 0.063956 0.528102 0.519131 -0.080265 -0.566863 -0.268964 0.002236 -0.234432 -0.270058 -0.573665 -0.076308 0.148816 -0.004520 0.000260 0.000775 0.057976 0.003772 0.011658 0.381587 0.123334 -0.072528 -0.204405 -0.341386 -0.260946 0.453417 -0.343173 -0.727714 -0.519715 0.051152 0.480282 0.365390 -0.044673 -0.529549 -0.207547 -0.381311 0.002681 0.114520 -0.159501 -0.510446 0.238876 0.376436 0.517686 -0.000033 0.054274 0.121424 0.208684 0.188489 0.056242 -0.029328 0.070047 -0.399792 -0.445657 0.144266 -0.156318 -0.399375 -0.308362 0.068835 0.322702 0.190190 -0.416209 -0.558609 0.132224 0.197363 0.013541 0.287244 0.448561 0.191822 0.169101 0.360785 0.479729 -0.001170 0.002965 0.100461 0.224816 0.212368 0.053685 -0.062505 0.148800 -0.237121 -0.110382 -0.145330 -0.468951 -0.155593 -0.263673 0.439700 0.134854 0.237351 -0.698162 -0.710396 0.049126 0.359837 0.308810 0.212187 0.211861 0.053271 -0.092527 -0.004339 -0.004309 0.226376 0.002699 0.096582 0.119083 0.332709 0.188840 -0.187859 0.077310 -0.257894 -0.247865 -0.305455 -0.332110 -0.298155 0.017294 0.557193 0.116626 -0.037107 -0.621684 -0.564382 0.021729 0.509337 0.373456 0.060877 -0.121206 0.162014 -0.024502 -0.007905 0.003603 0.001262 0.000632 0.008470 0.010010 0.113571 0.020194 -0.041358 -0.205940 -0.073112 -0.279220 -0.324374 -0.153325 -0.142281 -0.171345 0.497277 0.129642 -0.427453 -1.088232 -0.257229 0.158004 0.124555 0.179191 0.130790 0.299533 0.350931 0.319073 0.020824 0.000996 0.001093 0.001001 0.000523 0.010653 -0.073525 -0.093854 -0.208066 0.007433 -0.307491 -0.407922 -0.082268 0.152670 0.029885 -0.032453 0.057903 -0.155667 -0.702790 -0.758969 -0.603106 -0.205508 -0.146117 0.196067 0.201650 0.416278 0.661847 0.270349 0.003792 -0.000590 0.000059 0.126667 0.109352 -0.021477 -0.115990 -0.156511 -0.076739 -0.287992 -0.392312 0.185065 0.032284 0.088022 -0.086128 0.008861 -0.204163 -0.270859 -0.716652 -0.961555 -0.396556 0.240584 -0.008897 0.310346 0.008306 0.033036 0.099695 -0.148042 0.135784 0.000182 0.000104 0.198642 0.148037 -0.143594 -0.106641 -0.129950 -0.223608 -0.589484 -0.417549 0.160060 -0.237022 -0.099329 -0.010181 -0.024563 -0.115220 -0.506899 -0.977007 -0.597374 0.077099 0.661229 -0.027544 0.220201 0.027093 -0.080622 -0.119816 -0.013732 0.171805 0.004991 -0.004608 0.140775 0.106120 -0.145444 -0.095819 -0.223394 -0.342740 -0.452030 0.089597 -0.121541 -0.339227 -0.259017 -0.004593 0.024479 -0.342092 -0.915676 -0.865230 -0.273088 0.102196 0.419782 -0.315237 0.168335 -0.068702 -0.116495 -0.332705 0.183956 0.182717 0.048831 0.010124 0.016673 0.145278 0.087242 -0.242481 -0.229460 -0.274154 -0.441500 0.341729 -0.149856 -0.185622 -0.226568 0.270202 0.147811 -0.555983 -0.974199 -0.750386 -0.133525 -0.158612 0.223434 -0.195665 0.069947 -0.046146 0.029300 0.047099 -0.030860 0.158062 0.062631 -0.001230 0.000533 0.112321 0.210709 -0.257177 -0.195128 -0.558278 -0.395036 0.069485 0.039141 -0.037787 0.129241 0.319304 -0.076290 -0.329376 -0.684424 -0.310941 -0.450170 -0.349420 -0.126343 0.021921 -0.232152 0.019713 0.250162 0.453882 0.319795 0.158983 0.049581 0.102318 0.054815 -0.005088 -0.006251 -0.282670 -0.160357 -0.360388 -0.335768 -0.075358 0.375622 -0.023344 0.005902 0.269739 -0.013124 0.033050 -0.228299 -0.435806 -0.380124 -0.397315 -0.018157 0.040338 0.009018 0.124846 0.416697 0.515898 0.381170 0.548429 -0.001161 0.099913 0.053729 -0.005314 -0.009183 0.107213 -0.314185 -0.291426 -0.291063 0.167462 0.120148 -0.119943 -0.212091 -0.060279 0.067811 0.324033 -0.446122 -0.262087 -0.589035 -0.139509 0.080293 0.075872 0.033775 0.311804 0.286494 0.358644 0.451544 0.528394 -0.001229 0.000862 0.000619 -0.004311 -0.005654 -0.068649 -0.324719 -0.344705 -0.186654 0.417028 -0.113109 -0.092458 0.388983 0.156559 0.084678 -0.031716 -0.741519 0.054402 -0.151156 0.198484 0.255765 0.274846 0.521344 0.488291 0.177756 0.443027 0.230138 0.588425 -0.000082 0.001085 0.000154 -0.003154 -0.012440 -0.133058 -0.260368 -0.025572 0.242091 0.315525 -0.399379 -0.531316 0.027184 0.086464 0.099410 0.576606 -0.109416 0.156529 -0.201827 -0.079470 -0.187267 -0.096909 0.444668 0.568949 0.487688 0.259233 0.001123 -0.000269 0.000022 -0.000136 -0.001178 -0.001178 -0.006474 -0.016102 -0.108183 -0.113155 0.094089 0.036433 0.090895 -0.483923 0.050227 0.601118 0.750198 0.829722 -0.026080 -0.070297 -0.085825 -0.014267 0.063138 0.004651 -0.006166 0.256872 0.256390 -0.000300 -0.001382 -0.000546 0.000157 -0.000695 0.000234 -0.000390 0.006070 0.000305 0.001742 -0.006670 0.015090 0.023983 0.033947 0.393485 0.221238 0.104344 0.108320 -0.494145 -0.454138 -0.052397 0.047270 0.053695 0.056734 0.006443 0.012344 0.023257 0.008020 -0.001398 -0.007994 0.000869 0.000928 -0.001010 0.000841 0.000893 0.000200 0.000549 0.001074 0.002643 0.000928 0.002946 0.003397 0.007769 0.014541 -0.001108 0.003649 0.025988 0.001431 0.002943 0.051993 0.049867 0.043891 -0.000730 0.006577 0.020976 0.004613 0.001300 -0.000485 -0.000887 0.000251
-0.001279 -0.000814 0.000968 -0.000449 0.001057 -0.001259 0.001043 0.000573 0.000334 -0.001354 0.000513 -0.000492 0.000956 0.001304 0.000463 -0.000606 -0.000377 -0.001183 -0.001069 0.000586 0.000775 -0.000400 0.000926 0.001092 0.000528 -0.000198 0.000599 0.000706 -0.000219 0.000031 -0.000385 0.000258 -0.001055 -0.000574 -0.000233 -0.000243 -0.001052 0.016557 0.029140 0.036164 0.035075 0.009790 -0.004928 -0.073587 -0.073452 -0.072220 0.001276 0.002533 0.003235 0.000400 0.000960 -0.001148 -0.000621 -0.000285 0.000855 0.000346 0.000503 -0.000007 0.000881 0.000290 -0.000565 -0.004861 -0.034583 -0.091164 -0.175873 0.210587 0.072318 -0.152591 -0.030535 0.381886 0.272867 -0.051058 -0.334722 -0.112495 -0.363654 -0.116534 -0.140279 -0.216229 -0.189840 -0.005500 -0.001090 -0.000081 0.000890 0.000929 0.000192 -0.000389 -0.000686 -0.004434 -0.036439 0.160887 0.050650 0.129441 0.115176 0.485019 0.473176 -0.048415 -0.113366 0.544787 0.777082 0.726962 1.049517 0.762436 0.473299 0.191963 -0.090476 -0.176773 -0.587888 -0.225657 0.084139 0.082868 0.087646 0.000455 0.000633 0.000274 -0.001378 0.000488 0.291589 0.006186 0.399645 0.360325 0.413919 0.776773 -0.028690 0.191572 0.338735 0.645153 0.665257 0.548754 0.409465 0.179023 0.015293 -0.257080 -0.452560 -0.718007 -0.972877 0.099959 0.244246 0.366847 0.129899 -0.031578 -0.001045 0.000597 0.014742 -0.143128 -0.155216 0.057814 0.313975 -0.054685 -0.304966 -0.013328 0.150047 0.245689 0.390711 0.239537 0.052445 -0.263779 -0.220805 -0.078876 -0.335558 -0.174318 0.167841 0.498438 0.088134 0.431431 -0.553274 -0.484224 -0.057865 -0.040712 0.001101 0.000836 -0.475136 -0.615194 -0.204805 0.487724 0.411166 0.156699 -0.164770 -0.101733 0.250874 0.016305 0.134530 0.139132 -0.052424 -0.159061 -0.077512 0.178206 0.281265 0.036233 0.099921 0.334459 -0.077678 0.121902 -0.558034 -0.753132 -0.409989 -0.005849 -0.001286 -0.068149 -0.390191 -0.120983 0.174406 0.805862 0.181082 0.094977 -0.222112 0.160198 0.211953 0.131727 0.295041 0.606071 0.604124 0.315870 0.576162 0.378125 0.363343 0.289225 0.031064 0.171475 0.120229 0.139098 -0.236562 -0.725118 -0.336751 -0.578331 0.000236 -0.105331 -0.288613 -0.381965 0.084506 0.332077 0.217705 -0.024978 0.034378 -0.059548 -0.209127 0.270962 0.284681 0.197775 0.453450 0.154996 0.301219 0.219259 0.417397 0.505227 0.033752 0.073047 0.613168 0.603529 0.150154 -0.780325 -0.801569 -0.505075 0.000016 -0.077511 0.028115 0.006589 0.183674 0.507944 0.054584 -0.121027 -0.077431 0.255225 0.128941 0.013914 -0.217293 -0.369722 -0.453046 -0.220889 -0.092294 -0.483581 -0.187799 0.072141 -0.178268 0.192903 0.632715 0.239672 0.250448 -0.206435 -0.370039 0.006793 -0.000222 0.001078 -0.135666 0.339527 0.326581 0.472551 -0.105719 -0.157674 0.349442 0.263626 0.070381 -0.240869 -0.536836 -0.777972 -0.362119 0.081045 0.162113 0.107291 -0.155612 -0.538400 -0.480263 0.163848 0.536258 0.158533 0.275116 -0.321795 -0.293289 0.009647 0.003812 0.004188 -0.154266 0.003039 0.075370 -0.128179 -0.139978 0.071655 0.114042 -0.285229 -0.024709 0.103731 -0.646155 -0.932106 -0.662958 -0.082712 -0.018090 -0.102766 -0.222416 -0.448123 -0.114604 0.239284 -0.261491 0.334093 0.476900 -0.093292 -0.178774 0.005698 0.003734 0.002524 -0.180286 -0.438010 -0.007762 -0.452810 0.372770 -0.052823 -0.391805 -0.254366 -0.362053 -0.543363 -0.838386 -0.638337 -0.296020 0.009531 -0.255658 -0.466383 -0.464644 -0.143622 0.130740 -0.185929 -0.476161 0.193197 0.283360 -0.118527 -0.100359 -0.007896 -0.000013 -0.005289 -0.028866 0.405214 0.408722 -0.112112 0.132898 -0.178872 -0.669482 -0.225013 -0.168283 -1.131833 -0.743047 -0.223611 -0.003596 -0.247131 -0.641687 -0.644086 -0.684207 -0.622509 -0.261753 0.104962 -0.280080 -0.341119 0.025254 0.072310 0.189293 0.446574 0.000699 -0.000155 0.020801 0.438393 0.652378 0.328474 -0.254947 -0.360400 -0.690373 -0.412343 -0.573958 -0.583147 -0.512518 -0.034949 -0.049718 -0.259920 -0.618641 -0.913154 -0.875351 -0.587553 0.038085 0.263626 -0.196653 -0.228033 0.101811 -0.034953 0.685897 0.432578 0.000427 0.000665 -0.060318 0.030558 0.042154 0.022763 -0.627869 -0.855876 -0.541405 -0.352857 -0.404945 -0.700620 -0.767026 -0.225921 0.170688 -0.064034 -0.392153 -0.962915 -0.918242 -0.506843 0.198810 0.174224 -0.145263 -0.336363 -0.187568 0.060678 0.901099 0.663985 -0.001038 0.000868 -0.192501 -0.221099 0.263984 -0.026427 -0.553758 -0.384025 -0.273992 0.075538 0.167265 -0.411704 -0.306276 0.271292 0.021667 -0.513405 -1.106227 -1.210337 -0.989096 -0.334895 0.074683 -0.088467 -0.171889 -0.256477 -0.237232 0.404091 1.045604 0.673127 0.000931 -0.000255 -0.428678 -0.159436 0.528338 0.040781 -0.220643 -0.020617 0.177961 0.732186 0.570757 -0.082789 0.280203 0.254233 -0.561385 -1.287279 -1.744740 -1.187042 -0.761276 -0.095047 -0.190656 -0.285735 -0.192277 -0.265232 0.108441 0.926109 0.308466 0.294769 -0.000680 -0.001140 -0.209702 -0.414522 -0.070487 -0.076950 -0.195018 0.169842 0.360532 0.762009 0.587278 0.251239 0.286376 -0.455885 -1.368853 -1.530410 -1.613782 -0.924667 -0.337923 -0.162882 -0.115401 -0.215462 0.001479 -0.025933 0.583062 0.343075 0.883586 0.020852 0.000198 0.000621 -0.251749 -0.453802 -0.405481 -0.266465 -0.174902 0.261831 0.254715 0.715900 0.621491 0.519395 0.408828 -0.168206 -0.808136 -0.573090 -0.209413 -0.004332 -0.037779 0.064144 0.024036 -0.066025 -0.048135 -0.060401 0.143819 -0.431273 1.184339 0.199842 0.000922 -0.000657 -0.139410 -0.417801 -0.332246 0.045470 0.246546 0.346057 0.090824 0.588149 0.219786 0.279164 0.309457 0.000375 -0.087543 0.199511 0.630027 0.630488 -0.059377 -0.004882 -0.096116 -0.081054 -0.042838 0.038565 -0.192847 -0.535390 0.620431 -0.001147 -0.000202 0.003233 -0.071136 0.189248 0.381394 -0.275802 -0.053990 0.331603 0.126026 0.061144 0.125453 0.258688 0.136248 0.340502 0.855667 1.015125 0.883922 0.623045 0.145483 -0.178001 -0.346433 -0.327929 0.141413 0.400824 0.220658 0.802578 0.449748 0.189453 -0.001283 -0.001381 0.072578 0.312383 0.287824 -0.391197 0.016451 0.177887 0.621191 0.474051 0.016596 0.280135 0.421722 0.557181 0.688175 0.412768 0.537454 0.459686 0.585714 0.101950 0.047115 0.011101 0.166703 0.118046 0.218278 0.163363 -0.191197 0.240841 0.000793 0.000475 -0.076315 0.554352 0.107909 0.036946 0.318739 -0.033101 0.307645 0.318161 -0.005276 0.142509 0.106974 0.149989 0.071219 0.353473 0.424292 0.587296 0.592698 -0.090801 -0.256654 -0.319153 -0.086760 -0.071196 -0.231608 0.184601 -0.207897 -0.000166 -0.001400 -0.001360 -0.049320 -0.052662 0.048067 -0.281560 0.762073 0.172753 0.188485 -0.031277 -0.064779 -0.049290 0.107997 -0.024433 -0.041728 0.152550 -0.279221 -0.088635 0.403842 -0.096884 -0.284705 -0.205507 -0.170194 0.014096 -0.119098 0.036603 -0.000988 -0.000510 -0.000336 0.000565 -0.027714 0.038094 -0.238252 -0.696277 0.140056 0.679806 0.247859 -0.030707 0.043402 -0.003402 0.148153 0.192345 -0.085499 0.225994 -0.512188 -0.601838 -0.349483 -0.036991 0.107149 -0.116062 -0.347312 -0.155669 -0.027530 -0.001013 0.000802 0.001219 0.000822 -0.001138 0.000686 0.000073 -0.046063 -0.310182 -0.268949 -0.140218 -0.159663 -0.294033 -0.396411 -0.411431 -0.524681 -0.758492 -0.598051 -0.449463 -0.554213 -0.691505 -0.837913 -0.394701 -0.575516 -0.411131 -0.003552 0.039190 -0.000645 -0.000840 -0.000564 0.000439 0.001100 -0.000373 -0.000389 0.000128 -0.000146 -0.000173 0.000831 0.001759 0.007278 0.006479 0.004985 -0.053370 -0.006062 -0.125749 -0.204548 -0.033690 -0.060948 -0.091703 -0.090287 -0.020000 -0.114308 -0.047131 0.077257 0.077164 -0.000379 0.000930 0.000544 0.000211
-0.000807 -0.000748 -0.000882 -0.001082 0.000929 -0.001095 0.001399 -0.000968 -0.000339 -0.000468 -0.001165 -0.000786 -0.000189 -0.000686 0.000607 0.000666 0.000187 0.000987 0.000279 -0.001366 0.000535 -0.000358 -0.001310 -0.001096 -0.000683 0.000812 0.000150 -0.001259 0.001260 -0.000454 -0.000078 0.000404 -0.000085 0.001131 -0.001012 -0.001751 -0.009565 0.000304 0.002117 0.002469 0.002798 -0.001218 -0.001198 -0.001169 0.000002 -0.001320 0.001035 -0.001073 0.000637 -0.000734 0.000761 0.000931 0.000580 -0.000043 -0.000122 0.000903 -0.000513 0.001155 0.000227 -0.000185 0.000316 0.001208 -0.012090 -0.024448 -0.066840 -0.024599 -0.015829 0.019181 -0.067050 -0.103506 -0.077653 0.001799 -0.074079 -0.126189 -0.154696 -0.144381 -0.033284 -0.054093 -0.050046 0.000258 -0.000013 0.001029 0.000527 -0.000347 -0.001198 0.000110 -0.000759 -0.000585 0.109468 0.544243 0.690585 0.972865 1.017203 0.466447 0.441128 0.325071 -0.192119 -0.348971 -0.495362 -0.554193 -0.838255 -0.472006 -0.614653 -0.615832 -0.434686 -0.351191 -0.292486 -0.226034 -0.074655 -0.080203 -0.000410 0.001045 -0.001034 -0.000393 -0.000094 0.418236 0.018811 0.052551 -0.031808 0.250510 0.003752 -0.168924 0.500861 0.402712 0.597810 0.722326 0.459286 0.452104 0.310299 -0.028764 -0.183009 -0.463555 -0.696834 -0.338627 0.001641 -0.101526 -0.180514 -0.107030 0.000180 -0.000668 -0.000019 0.001293 0.119927 0.514012 0.680489 0.544451 0.346276 0.163610 -0.475575 -0.696376 -0.010499 0.563712 0.583376 0.263962 0.317594 0.228407 0.113995 0.277684 0.326962 0.225273 -0.313938 -0.351428 -0.501452 -0.533655 -0.296200 -0.202289 -0.115642 0.000571 -0.000335 0.000890 0.147178 0.585488 0.578772 0.434742 -0.013649 -0.294178 -0.392696 -0.375350 -0.258358 0.362206 0.367549 0.502510 0.084853 0.197970 0.025059 0.061366 0.033308 0.227986 -0.214312 -0.494519 -0.903123 -0.593960 -0.394486 -0.137184 0.102542 0.086864 0.000057 0.086449 0.158382 0.801176 0.723618 0.511074 -0.172980 -0.439620 -0.541708 -0.199485 0.118516 0.099102 -0.037821 -0.124245 -0.149899 -0.306819 -0.252258 -0.173619 -0.002099 0.019655 -0.220654 -0.475697 -0.842658 -0.603279 -0.286137 -0.068235 0.114043 -0.031988 0.000223 0.116173 0.166475 0.989046 0.592000 0.453545 0.062304 0.103330 0.111344 0.422881 0.143304 -0.839186 -0.827663 -0.718881 0.148486 0.084238 0.035034 0.385072 0.188357 0.065177 -0.474794 -1.016482 -0.801128 -0.647787 -0.147667 0.098555 0.004757 -0.017072 -0.000081 0.116534 0.040842 0.601999 0.284758 -0.060507 0.354637 0.375268 0.041448 -0.200984 -0.770326 -1.239056 -1.095031 -0.470751 0.542656 0.487478 0.437857 -0.014755 0.087157 -0.188564 -0.731292 -1.087680 -1.099666 -0.699941 -0.452142 0.197261 -0.049855 0.002169 -0.000832 0.117341 0.040088 0.509213 -0.189811 -0.274206 0.059001 -0.405412 -0.943876 -1.144096 -1.090352 -0.825288 -0.158143 0.252158 0.597173 0.158918 0.095448 -0.254101 -0.007475 -0.726805 -1.163150 -0.936182 -0.894735 -0.562957 -0.166541 0.050164 -0.071741 -0.001270 -0.000819 0.108052 0.002230 0.183725 -0.227310 -0.292851 -0.640965 -0.884030 -0.922026 -0.534058 -0.148286 0.199075 0.413683 0.265043 -0.057409 -0.359155 -0.198855 -0.248531 -0.422024 -0.760502 -0.838986 -0.834947 -0.645321 -0.711369 -0.428219 0.079563 -0.037314 -0.000878 0.001227 0.047480 0.023011 0.014385 -0.189912 -0.333328 -1.054345 -0.770168 0.054771 0.135459 0.684431 0.657109 -0.059653 -0.260452 -0.225233 -0.490165 -0.189903 -0.485862 -0.581484 -0.470556 -0.301677 -0.338691 -0.795213 -0.431180 -0.315254 -0.004739 0.261033 0.000520 0.000198 -0.000434 0.001192 -0.024249 -0.076160 -0.203336 -0.559560 -0.023165 0.314054 0.442847 0.471627 0.241626 0.115684 0.173150 -0.180604 -0.193068 -0.105935 -0.353460 -0.081382 0.003882 -0.200720 -0.511658 -0.497872 -0.272233 -0.024307 0.463022 0.038379 0.134321 -0.001308 -0.001399 -0.000534 0.034716 0.070341 0.000660 0.259239 0.925100 0.668675 0.283693 0.270959 0.432289 0.312040 0.019826 -0.246783 -0.040627 -0.431068 -0.598407 -0.677548 -0.228434 -0.025009 0.094907 -0.043637 -0.125214 0.006426 0.634929 -0.064966 0.131539 0.000620 -0.001133 0.110927 0.090436 0.053829 0.456543 0.871008 0.602525 0.336556 0.116271 -0.193922 0.020710 -0.003055 0.000521 -0.231573 -0.087705 -0.074672 -0.356834 -0.374004 -0.276415 -0.282309 -0.025509 0.236315 0.702800 0.359774 0.430196 0.176360 0.176454 -0.001006 -0.000314 0.072068 0.158414 -0.004828 0.124028 0.581340 0.643477 0.249266 0.011927 -0.111833 -0.067626 -0.206605 -0.279886 -0.323044 -0.187885 0.322286 0.145427 -0.023638 -0.237671 -0.100033 -0.037683 0.427314 0.511397 0.490987 0.376920 0.331248 0.312013 -0.000663 -0.000058 0.076366 -0.113716 -0.025643 -0.611343 -0.123347 0.295106 -0.014253 -0.409052 -0.448949 -0.385907 -0.286490 -0.625261 -0.754642 -0.136652 0.240051 0.014282 0.172777 -0.046105 -0.415939 -0.266384 0.342049 0.451146 0.045585 -0.309539 0.306823 0.314208 0.038444 0.022201 0.154009 0.157677 0.077652 -0.740905 -0.621972 0.217568 -0.147708 -0.695300 -0.183539 -0.214280 -0.267707 -0.727370 -1.192420 -0.430593 0.287332 0.051494 0.196730 -0.014403 -0.336123 0.236033 0.527335 0.414876 -0.023064 -0.296449 0.241062 0.173340 -0.000148 0.018699 0.322542 0.053401 0.077955 -0.551914 -0.716902 -0.257517 -0.662886 -0.802926 -0.412997 -0.337994 -0.297708 -0.601620 -0.447006 -0.362637 -0.080969 -0.356143 0.041251 -0.025866 0.116307 0.471454 0.774650 0.300083 -0.053776 -0.245290 0.450702 0.146885 -0.000185 0.010257 0.335884 0.069314 0.193891 -0.290035 -0.468251 -0.443436 -0.366909 -0.085090 -0.279895 -0.295550 -0.288758 -0.161774 -0.191626 -0.353344 -0.272604 -0.459547 -0.416105 -0.075426 0.059342 0.438046 0.339199 -0.031015 -0.254428 -0.314627 0.171306 0.000953 -0.000254 0.005015 0.528331 0.228461 0.565743 -0.093671 -0.497987 -0.590645 -0.571373 -0.248464 -0.142788 -0.074630 -0.057263 -0.204466 0.071102 0.191083 0.056177 -0.186116 -0.253471 -0.074455 0.058321 0.103554 -0.289450 -0.219877 -0.081679 -0.107418 0.067539 -0.000174 -0.000506 0.000972 0.390586 0.578426 0.587327 -0.228383 0.008515 -0.052405 0.036751 0.304255 0.255401 0.186123 0.209363 0.196212 -0.005882 0.166599 -0.134753 -0.022150 0.070882 0.108144 0.027165 -0.211879 -0.254546 0.064119 -0.015390 0.125117 -0.008051 -0.000143 0.000888 0.000640 -0.004739 0.564274 0.892399 0.163963 -0.244118 0.214803 0.430160 0.662574 0.457013 0.265821 0.040679 -0.223590 -0.168182 0.277588 0.154697 0.149913 -0.146161 -0.098278 -0.332969 -0.217866 -0.121449 -0.008392 0.281206 0.005728 0.006884 0.000427 0.001121 0.000050 -0.024284 0.353370 0.352629 0.492787 0.333694 0.680053 0.740610 0.952726 1.057405 0.300450 -0.022391 -0.091154 0.354504 0.372505 0.014872 0.226596 0.233270 0.055487 -0.152293 -0.142817 -0.094330 -0.061948 -0.158330 -0.087073 -0.001268 0.001204 0.000818 -0.000349 0.000980 0.204363 0.503379 0.545616 0.063487 0.058096 0.134778 0.381551 0.345064 0.145168 0.112684 0.283573 0.570118 0.326458 0.417027 -0.006704 0.030681 0.357930 -0.006503 -0.040405 -0.014830 0.035703 0.048927 0.000129 -0.000810 0.000113 0.000159 0.001169 0.000170 -0.000060 0.000913 -0.000897 -0.027120 -0.080581 0.202394 0.034927 -0.186856 -0.478335 -0.678278 -0.279765 0.474880 0.307059 0.105315 0.035252 0.199497 0.286122 0.112325 0.113029 -0.089999 -0.053787 0.001196 -0.001251 -0.000916 -0.000825 -0.000344 -0.000593 0.000519 -0.000745 -0.001118 -0.000906 -0.044065 -0.046435 -0.046038 -0.043015 -0.001025 -0.015483 -0.021269 -0.092563 -0.257104 -0.047282 -0.038661 -0.001544 -0.002738 -0.001516 -0.001228 -0.003105 -0.001961 0.000652 0.001035 -0.000630 0.001403 0.000541
-0.000653 0.000029 0.000863 0.000182 0.000802 -0.001268 -0.001271 0.000693 -0.000393 -0.000765 -0.000696 -0.001197 -0.001395 0.000986 -0.000908 -0.000116 0.000682 0.001248 0.001301 0.001368 0.000828 -0.001361 0.001062 -0.000193 0.000575 0.001132 -0.000565 -0.000038 0.000001 -0.000101 -0.001396 0.000558 0.000494 0.000098 -0.001153 -0.000369 -0.001145 -0.003094 -0.001328 -0.038438 -0.038730 -0.039850 -0.143562 -0.150025 -0.131127 -0.024236 -0.008766 0.000093 -0.005833 -0.012444 -0.011261 -0.006533 0.001181 -0.000052 -0.000151 0.000107 -0.000560 -0.000128 0.000233 0.000989 0.000849 0.000423 -0.000170 -0.002842 -0.131797 -0.254797 -0.255628 -0.185912 -0.104934 -0.010259 -0.032252 0.043109 -0.151907 -0.260614 -0.111700 -0.028179 -0.003274 -0.009265 -0.013227 -0.016701 -0.004358 -0.000486 -0.000238 -0.000909 -0.000018 -0.001325 -0.000391 -0.000027 0.001030 0.000943 0.000184 -0.009310 -0.237161 -0.342286 -0.355766 0.229132 0.376431 0.194388 -0.073746 -0.147784 -0.373243 -0.559802 -0.336420 -0.517281 -0.286465 -0.235443 -0.482009 -0.460964 -0.333391 -0.299186 0.000586 -0.000607 0.000119 0.000059 0.001385 -0.000319 -0.018669 -0.020064 -0.118223 -0.398635 -0.156359 -0.199675 -0.055877 -0.006559 -0.190469 -0.537891 -0.145820 0.200492 -0.210900 -0.743225 -0.594805 -0.530522 0.268507 0.108704 -0.051979 0.052553 0.077456 -0.140323 0.092162 -0.009749 0.000738 -0.000762 -0.000085 0.000232 0.150748 0.369989 0.294421 0.267315 0.806618 0.549418 0.148772 0.647599 0.328032 -0.104443 0.270488 -0.064825 -0.327057 -0.605458 -0.407024 0.133573 0.615025 0.246686 -0.229773 -0.115093 -0.199343 0.040583 0.490174 -0.004285 -0.000511 -0.001390 -0.000069 0.023901 0.199023 0.554193 0.081137 0.225243 0.234682 -0.058166 -0.033673 0.262820 -0.052371 0.154357 0.245020 0.007798 -0.178643 -0.012969 0.254836 0.518168 0.509770 0.350509 -0.073026 -0.146828 -0.343564 -0.145178 0.282710 0.646811 -0.001275 -0.002711 0.009853 0.100012 0.288838 0.125386 0.353757 -0.066227 -0.148560 -0.266673 -0.351147 -0.144204 -0.179430 -0.143051 -0.168474 -0.426002 -0.025712 -0.217579 -0.365080 -0.017802 0.335707 0.174469 -0.026866 -0.270068 -0.549793 -0.150148 -0.049342 0.648585 0.000675 0.087594 -0.015530 0.043312 0.111173 0.258881 0.043498 -0.422167 -0.182301 -0.217273 0.065673 0.315636 -0.008454 -0.412586 -0.686395 -0.595306 -0.238866 -0.380444 -0.367238 -0.285001 -0.451400 -0.492717 -0.605687 -0.790109 -0.385301 -0.295267 -0.495853 0.318838 -0.000639 0.071734 0.133378 0.139771 0.346573 0.067598 -0.310898 -0.203057 0.001237 0.292362 0.218920 0.363866 0.127353 0.175960 -0.291356 -0.509281 -0.103632 0.157826 0.135436 0.043318 -0.149771 -0.298557 -0.437299 -0.389342 -0.002749 0.192941 0.615425 0.311472 -0.000470 0.063088 0.096810 -0.017216 0.049636 -0.462110 -0.337212 0.018724 -0.073196 -0.171222 -0.289599 0.015211 0.109813 0.112228 -0.074759 0.102328 -0.068396 0.052306 0.367264 0.329840 0.556495 0.365627 0.308297 0.427940 0.713934 0.601734 0.939526 0.223232 -0.000684 0.017984 0.095226 0.017852 -0.171985 -0.314149 -0.310163 -0.197629 -0.027399 -0.301845 -0.198186 -0.097281 -0.237328 -0.075829 0.169361 0.183085 0.033569 -0.165824 0.202106 0.518482 0.851450 0.679066 0.735775 1.197908 1.042526 0.613159 0.743444 -0.146269 -0.000774 -0.046673 -0.162703 0.037829 -0.231124 -0.426820 -0.389698 0.066725 0.220651 0.197012 0.345926 -0.108691 -0.247373 0.063504 0.279522 -0.091585 -0.158790 -0.320936 -0.236983 -0.175033 0.221130 0.490474 1.079311 0.958296 0.771672 1.037704 1.040258 -0.093903 -0.000651 -0.032475 -0.053802 -0.116980 -0.225223 -0.306236 -0.283950 -0.043717 0.091432 0.452895 0.662051 -0.078016 0.094477 0.315884 -0.258102 -0.824983 -0.922579 -1.055965 -0.682943 -0.582101 -0.761678 -0.566000 0.142307 0.237331 0.607881 0.849694 1.003710 -0.013854 -0.000630 -0.000288 -0.057359 -0.062819 -0.179564 -0.329520 -0.314952 -0.219264 0.318383 0.022973 0.483110 0.329615 -0.074119 -0.194263 -0.481115 -0.849909 -1.140180 -1.369207 -1.298396 -1.082138 -1.061064 -0.640942 -0.641138 -0.534933 -0.030448 0.186737 -0.249809 -0.005022 0.000947 -0.001335 0.000512 0.020899 -0.204189 -0.124532 0.033714 0.121890 0.163579 0.222535 0.327069 0.406814 0.087219 -0.049258 -0.285795 -0.229624 -0.722076 -1.050752 -1.084732 -1.161901 -1.069666 -0.855462 -0.928981 -0.655555 -0.257500 -0.363758 -0.237282 -0.001279 0.003537 0.000223 0.156890 0.021792 -0.366583 -0.064689 -0.297521 -0.193546 0.233529 0.056679 0.293286 0.382902 -0.059738 0.003089 0.305876 0.191244 0.173855 -0.427839 -0.461101 -1.096188 -1.074252 -0.929958 -1.080446 -0.440888 -0.196251 -0.327128 -0.237801 0.001031 -0.000981 -0.000912 -0.000096 0.050535 -0.171671 -0.086446 -0.481283 -0.662432 0.013506 -0.002746 0.453764 0.098247 -0.608127 -0.458873 0.012912 0.075927 0.033429 0.315457 0.252831 -0.915503 -0.852447 -0.792182 -0.837425 -0.147292 -0.117340 -0.311769 -0.218243 -0.085869 -0.033642 -0.000564 0.148354 0.176814 0.165716 0.056802 -0.342575 -0.132001 -0.134650 -0.189049 0.054807 0.526622 0.194100 0.018328 -0.004034 -0.379443 0.110672 0.199955 0.178698 -0.565494 -0.259055 -0.574904 -0.318013 -0.175336 -0.132858 -0.329498 -0.129440 -0.129685 -0.000611 0.039283 0.174020 0.125409 0.327179 0.314570 -0.279331 -0.324518 -0.279725 -0.494268 -0.353941 -0.276170 -0.128417 -0.085247 -0.259849 -0.075650 0.632413 0.538369 0.449381 -0.025098 -0.404527 -0.313567 -0.133422 0.018561 -0.361464 -0.225377 -0.047304 -0.000754 -0.001398 0.001997 0.083414 0.305234 0.060086 0.153699 -0.431386 -0.497989 -0.496889 -0.415094 -0.995006 -0.770134 -0.761386 -0.413761 -0.749824 0.302925 0.660811 0.233781 -0.150433 0.078384 -0.009309 0.329610 0.296320 0.142662 -0.161624 -0.061848 0.001138 -0.000290 -0.000845 -0.001118 0.000667 0.061731 -0.028885 0.021681 -0.258789 -0.401375 -0.296183 -0.425544 -0.848416 -1.020974 -1.076568 -0.643459 -0.528755 0.286515 0.334188 0.100872 -0.035095 -0.113556 0.004119 0.378750 -0.236902 -0.286382 -0.366539 -0.055536 0.002731 0.001249 -0.001280 0.001322 0.001883 0.054163 -0.072770 0.040645 -0.348592 -0.287789 -0.077346 -0.242160 -0.891903 -0.596950 -0.385262 -0.410042 -0.166353 0.188878 0.168898 0.061212 0.086989 -0.226441 -0.315971 -0.590696 -0.468927 -0.080704 -0.110651 -0.000374 -0.001206 -0.001393 0.000590 0.001122 -0.000971 0.001587 -0.028135 -0.096634 -0.234287 -0.173591 -0.151449 0.126878 0.012406 0.023017 0.505454 0.105462 0.347872 0.267929 0.356232 0.147538 -0.105896 -0.272241 -0.349600 -0.431108 -0.350694 -0.128077 -0.029585 0.000449 0.000977 0.001310 0.000484 -0.000587 -0.000034 0.000370 -0.009352 -0.241799 -0.530549 -0.194735 -0.047230 -0.055327 0.198407 0.309460 0.426059 0.352456 0.730182 0.434522 0.415970 0.248525 0.137529 0.289443 -0.076010 -0.068796 -0.203862 -0.016675 -0.025724 -0.000368 -0.001363 0.000968 0.000453 -0.000477 0.000710 -0.000685 0.051050 -0.133216 -0.213882 -0.156179 -0.346603 0.142788 0.046593 0.036602 0.053729 0.207523 0.034462 -0.110334 -0.042088 0.095377 0.117999 0.003624 -0.221279 -0.127024 -0.025039 0.003954 0.003185 0.000174 -0.000181 0.000346 -0.001249 0.000264 0.000251 0.000535 0.014440 -0.005460 -0.006449 0.003595 -0.128301 -0.085537 -0.137349 0.196475 0.214392 -0.086986 -0.175354 -0.408966 -0.373779 -0.187536 -0.075134 -0.011131 0.003552 -0.008464 -0.009047 -0.004505 -0.000088 0.000811 -0.000576 0.000712 0.000086 0.000039 -0.000542 -0.000785 0.000894 -0.000090 -0.002994 -0.013594 -0.043205 -0.028612 0.061850 0.174019 0.258756 0.261195 0.126955 0.000421 -0.258005 -0.174135 0.100743 0.043963 0.006233 0.004639 0.002744 0.001231 0.001221 0.000094 0.000758 0.000701
-0.001338 0.000687 0.000441 0.001299 -0.000575 -0.001291 0.000925 0.000356 0.000655 0.001105 -0.001253 0.001136 -0.006293 0.008651 0.044161 0.006641 -0.001091 -0.000499 -0.001022 -0.000105 -0.001393 0.000028 0.001387 -0.000180 -0.001182 -0.000747 0.001091 -0.001227 0.000830 0.000975 -0.000887 0.000951 -0.006399 -0.008429 -0.029514 -0.069565 -0.056924 -0.022107 -0.017879 -0.034017 0.000219 0.134382 0.121188 0.094981 0.114177 0.017421 -0.034821 -0.050444 -0.085109 -0.077439 -0.075583 -0.046930 0.000967 -0.000789 0.000132 -0.000593 -0.000324 -0.000912 -0.000608 -0.098616 -0.095884 0.012513 -0.041648 -0.068455 -0.058230 -0.043905 0.015880 -0.065554 0.028146 -0.228672 -0.234807 0.133958 0.492509 0.209865 0.148669 0.000296 -0.051069 -0.075551 -0.163914 -0.105738 -0.013643 0.061284 0.000146 0.000275 0.000851 -0.001126 0.001577 -0.102220 -0.144816 0.038341 0.012241 0.063563 0.199608 0.010270 -0.039934 -0.214659 -0.103231 -0.171149 -0.002400 0.147849 0.164553 0.118137 0.089470 0.072020 0.203468 0.371402 0.300198 0.055098 0.004131 0.020570 -0.004883 0.000792 0.000652 -0.007659 0.032346 -0.057251 0.097137 0.117917 0.212032 0.183394 0.511189 0.424243 0.128916 -0.151702 -0.133858 -0.190911 -0.070110 -0.041761 0.069852 0.401242 0.423898 0.250836 0.219872 0.217529 0.490213 -0.180691 -0.283769 -0.150139 -0.011094 -0.007269 -0.000406 0.000532 0.026618 0.096717 0.143978 0.237259 0.316805 0.284088 0.388119 0.216132 -0.122387 -0.397652 -0.412027 -0.269405 -0.246624 -0.041327 0.134512 0.028566 0.215235 0.202173 0.044264 0.134133 0.264162 -0.380465 -0.241576 0.003564 0.025413 -0.007570 0.001236 -0.023012 -0.180599 -0.086344 0.131167 -0.082940 0.186912 0.349356 0.197782 0.218928 0.257428 0.191325 -0.090428 -0.157338 -0.007334 0.128562 -0.019117 -0.098406 -0.079482 0.031571 0.017123 0.116961 -0.034927 -0.079669 -0.138443 0.085484 -0.120190 -0.007188 -0.000827 -0.025861 -0.169040 -0.284148 -0.295711 -0.203895 0.050368 0.241081 0.298706 0.290242 0.302746 0.081563 -0.266562 -0.227844 0.007010 0.071380 -0.183457 -0.280613 -0.356378 -0.254130 0.238261 0.395525 0.234797 -0.281758 -0.236730 -0.258533 -0.020367 -0.006469 -0.000988 0.184824 -0.241996 -0.325692 -0.331173 -0.454068 -0.230963 -0.165467 -0.074099 0.043396 0.182308 -0.031326 -0.085500 -0.239717 -0.039133 0.050483 -0.283770 -0.490789 -0.425943 -0.134175 0.137241 0.240675 0.182700 -0.056141 -0.217926 0.013223 0.139559 -0.001216 0.000853 0.000171 -0.262952 -0.353932 -0.199182 -0.431041 0.059163 -0.065389 -0.095656 0.215447 0.354887 0.279059 0.238487 0.026640 -0.094628 -0.304674 -0.496286 -0.458801 -0.217344 0.031747 0.074933 0.121357 -0.038250 -0.257057 0.430424 0.070802 0.054708 -0.129754 -0.000882 0.000959 -0.119615 -0.246062 -0.431436 -0.308501 0.206201 -0.070905 -0.043891 0.241858 0.306646 0.175170 0.086180 -0.269608 -0.197085 -0.354195 -0.273629 -0.018628 0.057286 0.197102 -0.068047 0.071579 0.029786 0.156595 0.410391 -0.270095 0.029272 -0.114573 0.000599 -0.073314 -0.153335 -0.230058 -0.624373 -0.494219 -0.304608 -0.308544 -0.231974 -0.276394 -0.138669 -0.222523 -0.389544 -0.332998 -0.131668 -0.143238 -0.211759 -0.580087 -0.281524 -0.054020 -0.161158 0.009888 0.166838 0.099725 0.051372 0.283237 0.104241 -0.094345 -0.001027 -0.141979 -0.141683 -0.203795 -0.802272 -0.632180 -0.480784 -0.227509 -0.146990 -0.421673 -0.145605 -0.129875 -0.339509 -0.183522 -0.034832 -0.102640 -0.267214 -0.459168 -0.356109 0.066827 0.376411 0.283540 0.312969 -0.303435 0.008806 0.289367 0.190977 0.242020 -0.000873 -0.148477 -0.147386 -0.080656 -0.625046 -0.317647 -0.117462 0.128828 -0.113878 -0.326228 -0.400488 -0.334657 -0.118380 0.093732 0.128938 0.216885 -0.018380 -0.248471 -0.266084 -0.061068 0.332311 0.043680 -0.120993 -0.144633 0.104492 -0.054202 0.386434 0.312340 0.000338 -0.279052 -0.261848 0.151014 -0.111386 -0.116822 0.150378 0.236918 0.044980 0.107772 -0.067668 0.084253 0.259860 0.220275 0.293598 0.272433 -0.009194 -0.365171 -0.439603 -0.319302 -0.485945 -0.601470 -0.329548 -0.106831 0.078804 -0.137123 0.221507 0.266031 0.000669 -0.228771 -0.063714 0.197617 0.113411 0.020730 0.131195 0.169419 0.263938 0.439777 0.536449 0.215539 0.099562 0.004058 0.020902 -0.027407 -0.121729 -0.258189 -0.265493 -0.448943 -0.854873 -0.698979 -0.182441 0.078553 -0.027313 -0.214679 0.253479 0.361327 0.001395 -0.199307 -0.061089 0.338678 0.122886 0.136755 0.170249 0.252125 0.280049 0.353135 0.282959 0.148802 -0.023472 -0.126780 0.187529 0.295809 -0.064606 -0.077526 -0.233151 -0.289685 -0.373688 -0.140533 0.259196 0.454270 -0.131549 0.301188 0.580106 0.593558 -0.000601 -0.157674 -0.014431 0.501656 0.375507 0.443064 0.381688 0.205332 -0.034441 -0.003128 -0.023072 0.060169 0.018118 0.058224 0.153056 0.089913 -0.232206 -0.161996 -0.135397 -0.023315 -0.196461 -0.010159 0.406439 0.554238 0.394988 0.758774 0.675569 0.675038 0.000880 -0.031210 -0.077088 0.391236 0.272458 0.483513 0.320661 0.102786 -0.163216 -0.137243 -0.210733 -0.218432 -0.228934 -0.032413 -0.030595 0.051481 0.125597 0.180408 0.221444 0.163649 0.246565 0.356029 0.642710 0.689334 0.949177 1.018307 0.565805 0.459411 -0.000994 -0.024381 -0.087775 0.388920 0.295832 0.550611 0.189439 -0.100270 -0.431647 -0.458534 -0.184974 0.011614 -0.109049 -0.276068 -0.324406 0.255962 0.337304 0.294740 0.328320 0.181931 0.187615 0.348969 0.613937 0.777811 0.819055 0.619631 0.447687 0.040310 -0.000409 -0.025197 -0.081737 0.478951 0.475511 0.544717 0.174987 -0.212005 -0.475745 -0.214644 -0.191535 -0.299667 -0.591730 -0.701463 -0.701026 -0.401420 -0.210878 -0.189222 0.060797 -0.145925 -0.103516 0.031568 0.109061 0.326032 0.339824 0.346513 0.786655 -0.001166 0.000449 0.010134 -0.008545 0.444992 0.408209 0.292078 0.067911 -0.167597 -0.336095 -0.466073 -0.486947 -0.237705 -0.249217 -0.515902 -0.570665 -0.371613 -0.193940 -0.030346 -0.139406 -0.228338 -0.000135 -0.000730 -0.131866 -0.089908 -0.122198 0.137828 0.413135 0.000198 0.001228 -0.000171 0.049785 0.152719 0.358744 0.316766 0.131388 -0.056673 -0.158612 -0.117132 0.001033 0.137393 -0.141556 -0.244130 -0.274875 -0.183693 -0.474439 -0.335877 -0.252560 -0.149915 0.115271 0.390063 -0.093760 -0.056459 -0.060948 -0.082246 0.136195 -0.000028 0.000052 -0.000590 0.272509 -0.157036 0.152485 0.212063 0.050159 0.052974 -0.159613 -0.163563 -0.045919 0.309786 -0.154737 -0.430993 -0.314183 -0.464191 -0.740460 -0.677398 -0.357858 -0.135877 0.157428 0.124187 -0.020714 -0.051812 -0.009884 -0.057771 0.113512 0.001030 -0.001197 0.000304 0.000102 -0.238482 -0.369513 -0.244455 -0.228253 -0.323658 -0.174601 -0.407339 -0.550321 -0.355574 -0.646372 -0.259394 -0.215926 -0.355303 -0.448619 -0.496548 -0.239278 -0.137630 -0.117152 0.180973 -0.140630 -0.064236 0.322840 0.296548 0.305555 -0.000133 -0.001211 0.000213 0.000677 -0.145735 -0.134144 -0.403741 -0.361333 -0.401372 -0.320845 -0.193720 -0.043347 -0.205660 -0.164067 0.026071 -0.044992 -0.203500 -0.206028 -0.033664 0.073154 -0.094865 -0.094793 0.104665 -0.245670 0.247045 0.385337 0.302003 0.305866 -0.000599 -0.000119 0.000167 0.000274 -0.000726 -0.298225 -0.296240 -0.379227 -0.199939 -0.242834 -0.159842 -0.321764 -0.258328 -0.216666 -0.200004 -0.191308 -0.336339 0.034221 0.287317 0.191837 -0.085462 -0.218877 -0.241282 -0.271606 -0.156952 -0.027749 -0.000641 -0.000268 -0.001378 0.000158 0.001141 -0.000671 0.000528 -0.000591 0.000318 -0.025780 -0.027101 -0.026518 -0.025421 -0.023852 -0.024557 -0.025160 -0.025142 -0.006794 -0.002769 -0.002286 -0.048873 -0.050849 -0.054138 -0.115232 -0.195042 -0.011141 0.001926 -0.000528 0.000792 -0.000350 0.000660
0.000453 -0.000501 -0.000119 -0.000505 0.000855 -0.000285 -0.000833 0.001015 -0.000106 0.000426 -0.000147 -0.000945 0.373323 0.474155 0.032007 0.001420 0.000302 0.000790 0.001050 0.001268 -0.001263 -0.001374 -0.000345 0.000858 -0.000853 0.000423 0.000087 -0.001230 0.000063 0.000705 0.000399 -0.000979 0.005737 0.009796 0.427505 0.495358 0.426680 0.398674 0.500337 0.331869 0.785769 0.808122 0.181017 -0.029004 -0.044399 0.208234 0.662706 0.462202 0.385280 0.034880 0.056726 0.066788 -0.000106 0.001315 -0.000260 0.001233 -0.000041 -0.000486 0.062279 0.212252 0.410834 0.266489 0.398172 0.956189 0.527493 0.435868 0.768311 1.307369 0.536470 -0.057100 0.371562 0.777285 0.463031 0.692783 0.871910 0.766832 0.614466 0.990261 0.531482 0.088877 0.276055 0.088826 -0.000241 0.000600 -0.000009 0.000554 -0.635799 -0.378162 0.248407 0.769621 0.887157 0.476699 0.426034 0.547673 0.413243 0.203340 -0.250286 -0.259212 -0.140175 -0.587960 -0.059229 0.440285 0.144215 0.289030 0.085943 0.507660 -0.252361 -0.426467 0.433605 -0.019920 -0.001255 0.001269 -0.000338 -0.000482 -0.618139 -0.634214 0.396750 0.347519 0.764612 0.012830 0.238825 0.525135 0.413018 -0.203730 -1.069230 -0.829719 -0.316310 -0.472160 -0.067102 0.764859 0.158765 0.464512 0.563372 0.067397 -0.629320 -0.429315 -0.078939 -0.763553 0.000229 -0.001194 -0.000384 -0.000993 -0.597500 -0.289135 0.170138 0.070081 0.369122 0.135984 0.581711 0.409029 -0.274016 -0.788043 -0.737096 -0.467506 -0.332959 -0.073322 -0.104311 0.219457 -0.016095 -0.161801 0.931153 -0.113928 -1.099619 -0.322516 -0.004704 -0.162991 -0.146363 -0.001355 -0.000208 0.000390 0.108205 -0.384794 0.142972 -0.043575 -0.098775 -0.177361 0.027420 0.271198 -0.235167 -0.169836 -0.066819 -0.203411 -0.261372 -0.192322 0.121248 0.314046 0.043239 -0.839784 -0.326041 -0.693899 -0.720289 -0.752614 -0.042869 0.287548 -0.402165 -0.215042 -0.001273 0.001184 -0.078968 -0.596712 -0.333506 -0.689547 -0.054663 -0.065929 -0.040565 0.061921 0.052917 0.530786 0.375637 0.103867 -0.286249 -0.273424 -0.339921 0.248285 -0.055350 -0.949584 -0.905557 -0.874738 -0.776472 -0.910263 0.565923 0.646666 -0.211031 -0.398888 0.204182 0.094878 -0.260880 -0.959224 -0.691559 -0.387493 -0.173371 0.184868 0.156449 -0.159455 -0.277020 0.303472 0.137260 0.225862 0.190061 -0.296378 -0.591915 -0.574426 -0.380130 -0.248723 -0.297865 -1.069555 -1.092875 -0.376150 0.210574 -0.092802 0.142513 -0.200178 -0.000337 -0.485442 -0.245523 0.584971 -0.421106 0.133044 -0.284951 0.137317 -0.232371 -0.398270 -0.265263 -0.079857 -0.169273 -0.024212 0.480776 -0.142581 -0.696253 -0.899829 -0.955107 -0.604356 0.058711 -0.596864 -0.856680 -0.891669 -0.508271 -0.696255 0.028517 -0.377192 -0.000018 -0.443305 -0.396712 0.152002 -0.370628 0.526394 0.042390 0.109949 0.115081 -0.152127 0.055877 -0.278273 -0.287817 0.116845 -0.067157 -0.453410 -0.929779 -0.564063 -0.446911 -0.262995 -0.603045 -0.493201 -0.642405 -0.501032 -0.120089 -0.055340 0.073786 -0.357963 -0.000108 0.454268 -0.472293 -0.576349 -0.311640 0.107826 0.042988 0.276561 0.234718 -0.127581 -0.241860 -0.308621 -0.321726 -0.348012 -0.264792 -0.533684 -0.389466 -0.022572 0.044772 0.091597 0.362247 0.060236 0.010270 0.146052 0.363864 0.373746 0.197999 -0.434884 0.000856 -0.081332 -0.674044 -0.656854 -0.357560 -0.094630 -0.031784 0.108923 0.020107 -0.312107 -0.002839 0.051961 -0.406328 -0.544776 0.077915 -0.166350 0.316785 0.090018 0.109381 0.372102 0.725236 0.124171 0.233957 0.197026 0.689873 -0.446160 -0.072845 -0.315446 0.001328 -0.086694 -0.603641 -0.263294 -0.547191 -0.230719 -0.176484 -0.406702 -0.526321 -0.436698 -0.234295 -0.406701 -0.470247 -0.183404 -0.196960 0.227612 0.778312 -0.090650 0.356898 0.457355 0.397082 0.555782 0.386599 0.143883 -0.069913 -0.236796 0.834459 0.845815 0.000921 -0.355257 -0.133811 0.128495 -0.078351 -0.227059 -0.458970 -0.155589 -0.438713 -0.437957 -0.012626 -0.259254 -0.267196 0.369014 0.319596 0.672304 0.643722 -0.224952 0.172193 0.145809 0.267115 0.769936 0.598651 0.217939 -0.330715 0.168049 0.552833 0.550200 0.001184 0.000280 -0.275129 -0.152517 -0.034481 -0.120230 -0.194327 0.009245 -0.213415 -0.632097 -0.110307 -0.155564 0.325844 0.889761 0.152369 0.077531 0.271807 -0.161184 0.220874 0.534188 0.566722 0.433021 0.031084 -0.116329 -0.285203 0.380107 0.239565 0.309257 0.001220 -0.048649 -0.358432 -0.279586 -0.134163 -0.016070 0.150810 -0.086356 -0.337861 -0.460649 0.141269 0.357542 0.385789 0.220243 0.142940 0.282114 0.546942 0.398968 0.354207 -0.006721 0.009889 -0.127761 -0.250640 -0.136547 0.267936 1.226948 0.778268 0.012494 -0.000924 -0.248455 -0.428645 -0.560703 0.010335 -0.592896 0.091539 0.049491 0.028835 -0.238034 0.344201 0.559633 0.198581 -0.082072 -0.315151 0.067529 0.435869 0.238256 0.174336 0.268884 0.409766 -0.258605 -0.560729 -0.360512 0.088021 0.888730 0.355612 -0.057912 -0.000488 -0.217605 -0.389224 -0.847015 -0.603797 -0.423858 -0.126931 0.194665 0.150484 0.074632 0.653836 0.316469 0.442269 0.029437 0.271832 0.464865 0.302927 0.434727 0.159229 0.410609 0.063540 -0.080104 -0.029902 -0.050568 0.155245 0.119020 -0.145640 0.733884 0.001307 -0.293666 -0.540849 -0.361519 -0.752327 0.096112 -0.501362 0.295784 0.329379 0.743930 0.839734 0.738891 0.519276 0.082525 0.414956 0.686171 0.283168 -0.069694 -0.296169 -0.466341 -0.447176 0.025390 0.001780 -0.217999 -0.560447 -0.319480 0.530637 0.027815 -0.001058 -0.293182 -0.303591 -0.288808 -0.804681 -0.689880 -0.636267 -0.356439 -0.110333 0.231221 0.830814 0.660338 0.354712 0.117591 0.403555 0.596083 -0.487998 -0.656839 -0.297627 -0.923984 -0.426547 -0.042777 -0.158150 -0.220742 -0.483447 -0.260680 0.693184 -0.002044 -0.051608 0.028268 -0.233149 -0.587262 -0.901505 -1.009443 0.007079 -0.168872 -0.395047 0.066123 0.395456 -0.063386 0.179631 0.041408 0.266278 -0.223455 -0.426068 -0.435035 -0.663365 -1.197401 -0.887254 -0.462264 -0.511968 -0.618581 -0.842546 -0.096830 0.654628 0.000243 -0.053193 -0.025049 -0.202260 -0.170662 -0.396942 -0.548412 -0.554135 -0.342173 -0.547337 -0.423410 0.135125 -0.429400 -0.205960 0.020059 -0.273052 -0.338934 -0.835594 -0.924368 -0.973862 -1.190573 -1.247772 -0.992010 -0.566005 -0.733508 -0.731886 -0.069200 0.429379 -0.000889 -0.001300 -0.000485 -0.058280 -0.168876 -0.470558 -0.371928 -0.441742 -0.320552 -0.560305 -0.212817 -0.491704 -0.544556 -0.586973 -0.943563 -1.638129 -1.693420 -1.992084 -1.582899 -1.261233 -1.364801 -1.397982 -0.702335 -0.584420 -0.750751 -0.732260 -0.077878 0.233593 0.001306 -0.000192 0.000239 -0.000638 -0.129741 -0.515934 -0.604087 -0.680850 -1.340676 -1.119670 -1.019815 -0.635705 -1.051160 -1.570934 -1.984776 -1.768605 -0.899932 -0.355147 -0.673372 -0.646712 -1.014002 -0.657107 -0.336714 -0.369263 -0.495002 -0.766422 -0.096372 -0.001013 -0.000845 0.000033 -0.000855 -0.000371 -0.001270 -0.111564 -0.900491 -0.635011 -1.009061 -1.222778 -1.567642 -0.668114 -0.643898 -0.464108 -0.699560 -0.378031 -0.617841 -0.813323 -0.456987 -0.553582 -0.576694 -0.332520 -0.449671 -0.675708 -0.563640 -0.362172 0.001280 -0.000861 0.000906 0.000664 -0.000157 -0.000306 -0.000976 -0.013019 -0.013622 -0.016107 -0.018161 -0.351021 -0.467386 -0.239316 -0.417855 -0.310825 -0.275815 -0.314520 -0.501516 -0.416152 -0.209805 -0.307859 0.038943 0.107584 -0.060310 -0.010047 -0.002226 -0.000998 0.000811 0.000557 -0.000820 -0.000621 -0.001321 -0.000686 -0.000614 -0.000461 -0.000252 0.001383 -0.006275 -0.074488 -0.039771 -0.011433 -0.021888 -0.035512 -0.042749 0.020545 0.002429 0.000925 -0.003859 -0.003122 0.001046 0.002695 -0.003173 -0.003407 0.001341 -0.001064 -0.001186 0.000383 -0.000559
-0.000151 0.000686 0.000238 0.000289 0.001241 -0.001238 -0.001009 0.000573 0.001343 0.000002 -0.000441 -0.001191 0.001111 -0.001358 -0.000006 -0.001155 -0.000060 0.000526 0.000447 -0.001175 0.000835 -0.000967 -0.001207 -0.000663 -0.001057 -0.000700 0.000905 0.001289 -0.000024 -0.000284 0.000380 -0.000901 0.000966 0.001215 -0.001399 0.000982 -0.001278 -0.000649 -0.003473 -0.002292 -0.001089 0.000498 0.003399 0.000972 0.000746 -0.004338 0.001325 -0.004154 -0.004521 -0.005171 0.000556 0.000666 -0.001080 0.000601 0.001032 -0.000430 0.000039 -0.000500 0.001273 0.000841 -0.000092 0.000715 0.036276 0.018936 0.000690 -0.000373 -0.004854 -0.003749 -0.003694 -0.004918 -0.001781 -0.029570 -0.039802 -0.018442 -0.002330 -0.002217 -0.008837 -0.007532 -0.002886 -0.000335 -0.001352 -0.001317 0.000451 -0.000252 -0.000081 -0.000610 0.000105 -0.001308 -0.000655 0.000206 -0.024866 -0.021123 0.055897 0.037076 0.090687 0.003738 -0.061464 -0.065198 -0.073389 -0.084348 -0.075568 -0.078844 -0.032556 0.053796 0.024643 -0.007342 -0.001350 -0.000122 -0.000793 0.000000 0.000049 -0.000767 0.001210 0.000242 0.000929 0.000626 0.030918 -0.041478 -0.107790 -0.057207 0.067015 0.283028 0.483562 0.316299 -0.016477 0.011967 -0.067662 -0.130905 -0.196485 -0.155239 -0.224570 -0.071233 -0.118611 -0.109276 -0.038603 -0.019162 0.168434 0.170870 -0.000752 0.001189 -0.000967 0.000196 0.000686 0.100772 0.164601 0.034054 -0.118463 -0.336254 0.015578 0.014358 0.056724 -0.057348 -0.406100 -0.319908 -0.208318 -0.295828 -0.547896 -0.471577 -0.508336 -0.547004 -0.462768 -0.020379 0.063719 0.486475 0.260677 0.224163 -0.030343 -0.000496 0.000057 -0.000078 0.015270 0.168251 0.369168 -0.115979 -0.544922 -0.542783 -0.121693 -0.135411 -0.218547 -0.148070 -0.106703 0.023650 -0.057044 -0.131167 -0.202843 -0.034516 -0.103403 -0.708681 -0.904864 -0.571748 0.020905 0.454096 0.367442 0.318916 0.010486 0.000479 -0.000140 0.034464 0.104619 0.424295 0.006734 -0.127499 -0.534806 -0.416947 -0.526532 -0.513970 -0.223906 -0.138033 -0.194792 -0.128765 -0.202268 -0.209441 -0.179606 -0.038362 0.011405 -0.050332 -0.254376 0.050296 0.525879 0.639558 0.043058 0.043340 -0.001443 -0.000491 -0.000169 0.124652 0.515513 0.436962 0.120843 -0.276437 -0.588596 -0.554637 -0.304242 -0.050948 0.067041 0.100519 -0.172001 -0.315128 -0.272768 -0.266607 -0.271151 -0.000474 0.254411 0.139176 0.042373 0.348255 0.615015 0.364933 -0.456678 -0.152443 -0.014447 -0.001076 -0.008839 0.419281 0.598603 0.740602 0.016717 -0.458849 -0.558815 -0.141273 0.054088 0.079074 -0.042188 -0.170167 -0.126583 -0.064627 -0.170419 -0.205614 -0.085848 0.152942 0.251909 0.157036 0.035047 0.204336 0.304175 -0.028278 -0.341169 -0.096493 -0.166516 -0.003223 -0.006065 0.434064 0.550501 0.811392 0.088121 -0.356532 -0.013017 0.109500 0.002599 -0.029918 -0.129468 -0.074653 0.006771 0.073955 0.115384 0.198592 0.299650 0.158366 -0.064263 -0.141136 -0.018185 -0.233006 -0.278474 -0.517275 -0.413680 -0.251697 -0.148367 -0.004579 0.035085 0.476274 0.930344 0.464236 -0.048584 0.178512 0.307193 0.111240 0.053022 0.159633 0.204325 0.409343 0.593758 0.200511 -0.221034 0.119455 -0.251272 -0.470103 -0.393913 0.224520 0.194547 0.076274 0.132731 0.139598 -0.490736 -0.006374 -0.145555 0.004832 0.005340 0.418841 0.927496 0.375875 0.664266 0.621532 0.277138 0.050928 -0.053702 -0.021932 -0.077452 0.212462 0.239146 -0.201420 -0.079329 -0.206971 -0.413725 -0.268742 -0.028646 0.189517 0.224133 0.151689 0.265244 0.334192 -0.129349 0.038604 -0.127504 0.005872 -0.000367 0.284704 0.632777 0.350400 1.010393 0.695721 0.075899 -0.358400 -0.252296 -0.415729 -0.672662 -0.892518 -0.688588 -0.468277 -0.436182 -0.366657 0.052384 -0.120394 0.171520 -0.000701 0.093641 0.205871 0.421802 0.114186 -0.258800 -0.170680 -0.058562 0.000349 0.000359 0.089082 0.611075 0.472962 0.779888 0.462950 -0.300126 -0.487341 -0.282054 -0.225745 -0.241309 -0.179579 -0.139165 -0.139008 0.079527 0.226568 0.266310 0.269960 0.323913 -0.531961 -0.521595 0.153278 0.245039 0.076488 -0.202031 -0.248087 -0.065568 -0.001081 -0.000886 0.001775 0.388219 0.638787 0.814726 0.420674 -0.217504 -0.469708 -0.240432 -0.232777 -0.432759 -0.504840 -0.318311 -0.054808 0.151114 0.393278 0.159254 0.006205 -0.175195 -0.312515 -0.355147 0.162703 0.356559 -0.052071 -0.693660 -0.269879 0.004124 0.000239 0.001399 -0.000759 0.236244 0.473672 0.662520 0.701321 0.429464 0.015441 -0.119252 -0.129248 -0.288767 -0.274341 -0.044902 0.116734 -0.127476 -0.221585 -0.167440 -0.344315 -0.268855 -0.092977 -0.431202 0.214110 0.300523 0.001829 -0.741416 -0.175308 0.000866 -0.000676 -0.000627 0.000279 0.023866 0.205135 -0.146700 0.347260 0.316432 0.275943 0.475398 0.430934 0.465114 0.481699 0.337294 -0.027010 -0.379167 -0.581499 -0.593185 -0.524927 -0.220337 0.051183 -0.095230 -0.165742 0.482223 0.328510 -0.431778 -0.011225 0.000249 -0.001378 0.015051 -0.005822 0.003531 0.081242 0.102319 -0.306315 -0.030999 0.013929 0.289987 0.452632 0.089487 -0.447509 -0.759636 -0.776508 -0.689354 -0.753255 -0.829027 -0.255877 0.032750 -0.020440 -0.149417 -0.102135 0.336861 0.497986 -0.131695 0.076214 0.000580 -0.000919 -0.008559 -0.007569 -0.007866 -0.030860 0.064602 -0.308905 -0.562981 -0.639753 -0.523155 -0.482391 -0.602463 -0.543489 -0.388752 -0.121160 -0.349749 -0.433886 -0.257312 0.058505 0.281005 -0.062184 -0.036337 -0.059938 0.441397 0.472752 0.020856 0.088548 0.000712 -0.000659 0.001283 -0.000256 0.001665 0.031757 0.014428 -0.098041 -0.430575 -0.496564 -0.329847 -0.409681 -0.611493 -0.624261 -0.528868 -0.603985 -0.038571 -0.356528 -0.051681 0.232444 0.118857 -0.351699 -0.079598 -0.013929 0.657340 0.592961 -0.195464 0.087807 -0.000071 -0.001304 0.000833 -0.001047 0.000739 0.093674 -0.102458 -0.309962 -0.510459 -0.656691 -0.502315 -0.417994 -0.404097 -0.302143 -0.354451 -0.398752 -0.090590 -0.450874 -0.075615 0.134672 0.048485 -0.113155 -0.165818 0.152094 0.286698 0.297695 0.084978 0.079953 -0.000243 0.000945 -0.001188 0.000514 -0.000825 0.226631 -0.076869 -0.263034 -0.284991 -0.592412 -0.410146 -0.304579 -0.134604 -0.219491 -0.415458 -0.263844 -0.003629 -0.000831 -0.132308 0.162468 -0.262703 -0.231896 0.020172 0.253497 0.428860 0.453984 0.166590 -0.001317 -0.001179 0.000516 0.001061 0.001280 -0.000558 -0.004824 -0.151096 -0.040161 -0.160240 -0.197952 0.279873 -0.059739 0.023602 -0.265756 -0.409582 -0.480710 -0.107048 -0.068911 0.119684 0.101086 -0.529800 -0.231764 -0.116127 0.207724 0.395564 0.293412 0.091991 0.000371 0.001401 -0.000739 -0.000966 -0.001070 -0.001080 0.000893 -0.123466 0.070462 0.103551 0.048606 0.369216 0.128237 -0.083329 -0.060987 -0.199168 -0.284308 0.060956 0.152348 0.392864 0.246363 -0.228317 -0.107730 -0.173422 -0.396107 0.177444 0.227979 0.182108 -0.004078 -0.001880 -0.001258 -0.000835 0.000312 -0.000754 0.001084 -0.087710 0.107906 0.072629 0.126708 0.176754 0.031589 -0.238549 0.044480 -0.088521 0.294348 0.366562 0.540334 0.793727 0.469220 0.181583 0.025823 -0.076199 0.150461 0.378140 0.220440 -0.134479 -0.001035 0.000483 0.000563 -0.000488 -0.000758 -0.000033 0.000026 0.187568 0.211205 0.280434 0.095944 0.140316 0.045069 0.352952 -0.054691 0.281502 0.440797 0.567553 0.799476 0.736546 0.198092 -0.089888 0.109352 0.032920 0.358296 0.517707 0.527463 0.000676 -0.000996 0.000317 0.001157 0.000767 -0.001358 -0.001367 -0.000743 0.000315 0.027128 0.044526 0.068178 0.061434 0.026144 0.160519 0.228256 0.491624 0.837823 0.904159 0.620115 0.660129 0.588187 0.197932 0.304344 0.354946 0.368206 0.360597 0.140677 -0.000437 -0.000989 -0.000469 -0.000394
0.001292 0.001351 0.000657 -0.000804 0.000160 0.000889 0.001055 0.001207 0.001199 0.000135 0.001294 -0.001061 0.000781 -0.000529 0.000475 0.000697 -0.000331 0.000338 -0.000433 0.001275 -0.000763 0.000469 0.001023 0.000454 -0.000280 0.001049 0.001170 0.001188 -0.000540 0.000166 0.000912 -0.000308 0.001088 -0.000790 0.000707 -0.001018 0.000125 -0.000929 0.001251 0.000621 -0.000702 0.000645 -0.000042 -0.000057 -0.000638 -0.000810 0.000728 0.001014 -0.001227 -0.000302 0.001166 0.000489 -0.000306 -0.000979 -0.000934 -0.001037 -0.001074 0.000274 0.000655 0.000620 -0.000001 0.000116 -0.000879 0.000084 -0.001069 0.000745 0.001378 0.000136 -0.001297 -0.000476 -0.000843 0.000483 -0.001401 0.000408 -0.001113 0.000536 0.000819 -0.000609 -0.000387 -0.000093 0.000473 -0.000001 -0.000955 -0.000642 -0.000873 -0.000918 0.000810 -0.000467 0.000593 0.001029 0.001145 -0.000952 -0.000058 -0.001083 0.001255 0.000716 -0.000209 0.000602 -0.000441 0.000679 0.000455 -0.000589 0.001654 0.001663 0.002527 0.003387 -0.001068 0.001220 -0.000257 -0.000514 0.000737 -0.000695 -0.000874 -0.000558 0.000837 -0.000282 -0.000055 0.000401 -0.001301 -0.000873 0.000190 0.001168 0.000907 0.001212 -0.004566 -0.003926 0.000167 -0.002923 -0.003194 -0.001685 -0.001491 0.002277 0.001781 0.002527 0.001293 -0.000062 -0.000520 -0.000002 0.000483 0.000914 -0.000516 0.000708 0.001010 -0.000862 -0.001225 -0.000608 0.001156 -0.001508 0.000076 0.000563 0.001185 0.000731 -0.004299 -0.004427 -0.003119 -0.002927 0.001356 -0.004000 -0.001449 -0.002189 -0.003060 0.001644 0.003023 -0.000403 0.001100 -0.000767 -0.000094 0.000975 0.000583 -0.000651 0.001222 -0.001259 0.000549 0.001299 0.000273 -0.001469 -0.000219 0.002763 0.003571 0.003086 0.002268 0.002375 -0.002913 0.001470 0.000038 -0.003278 -0.004030 -0.001205 -0.003751 0.002474 0.001602 0.000793 0.001079 -0.000777 -0.000640 0.001266 0.000647 -0.001228 0.000744 0.000083 -0.000435 0.001165 0.001864 0.002733 0.001659 0.001360 0.002570 -0.002874 -0.003217 -0.003321 -0.003698 -0.002293 -0.001464 -0.003979 -0.003744 -0.003277 -0.003193 -0.002395 0.003531 -0.000703 -0.000875 -0.000740 -0.000298 -0.000911 -0.000578 -0.000721 0.000790 -0.000378 -0.001414 -0.002475 -0.001101 -0.002005 -0.002438 -0.001404 -0.003233 -0.003022 -0.001711 -0.002580 -0.002203 -0.003422 -0.002662 0.000095 -0.003234 -0.001622 -0.001713 -0.001983 -0.001691 -0.003584 0.001372 0.000571 0.000851 0.000357 0.001301 -0.000062 0.000261 -0.000095 -0.001814 -0.002300 -0.001477 -0.001483 -0.001553 -0.001950 -0.002260 -0.002754 -0.001677 -0.001377 -0.001623 -0.002205 -0.002791 -0.003086 -0.002298 -0.002698 -0.001212 -0.002714 -0.002834 -0.002046 0.002520 0.000044 0.000076 -0.001037 -0.001292 0.000851 -0.000025 0.000624 -0.002946 -0.003169 -0.001010 -0.002220 -0.002421 -0.001272 -0.001608 -0.002418 -0.002870 -0.001311 -0.003576 -0.003521 -0.003002 -0.002511 -0.003821 -0.001509 -0.001626 -0.002064 -0.002872 -0.001959 0.003579 0.000262 0.000849 -0.000887 -0.000265 0.000635 -0.000214 0.001020 -0.003355 -0.003443 -0.002077 -0.002651 -0.002793 0.002994 -0.003300 -0.002965 -0.002742 -0.002084 -0.003320 -0.003530 -0.002606 -0.001879 -0.003122 -0.001447 -0.001892 -0.001403 -0.003461 -0.001993 0.001965 -0.000416 -0.000490 -0.000236 -0.000007 0.000572 -0.000617 0.000388 -0.002457 -0.002209 -0.001951 -0.003635 0.002713 -0.001297 -0.002378 -0.003539 -0.001679 -0.002912 -0.001998 -0.002982 -0.004696 -0.002695 -0.002050 -0.001496 -0.003156 -0.003437 -0.001079 0.002988 0.003461 0.000983 -0.000377 -0.001134 -0.001009 0.000374 0.000422 -0.001272 -0.001570 -0.002661 -0.003536 -0.002558 -0.002964 -0.002478 -0.003497 -0.003059 -0.003584 -0.003391 -0.004045 -0.003321 -0.002348 -0.001757 0.002168 -0.003536 -0.003395 -0.002082 -0.001794 0.001246 0.001343 0.000170 -0.001217 0.000088 -0.000114 -0.000808 -0.000833 -0.003561 -0.003191 -0.001642 -0.002999 -0.003136 -0.002355 -0.001557 -0.002487 -0.003245 -0.005468 -0.000708 -0.000092 0.003604 -0.002452 0.001959 0.003387 -0.002464 -0.001082 -0.002408 0.002567 0.001765 0.003659 -0.000505 -0.000187 0.001278 0.000744 0.000317 -0.000703 -0.002615 -0.001237 -0.001060 -0.002249 -0.001425 -0.001520 -0.001709 -0.001050 0.000381 0.001052 0.001205 0.000444 -0.002887 -0.003273 -0.002416 -0.003689 -0.002814 -0.001147 -0.001832 0.003058 0.002001 0.003436 -0.001177 0.000188 0.000815 0.000711 -0.000210 0.000292 0.000575 -0.003277 -0.002203 -0.001682 -0.001107 -0.003112 -0.002505 -0.003607 -0.000817 -0.000808 0.001744 -0.002324 -0.001387 -0.003322 -0.001023 -0.001981 -0.003656 -0.001621 -0.001261 0.002086 0.002733 0.002670 -0.001287 0.001115 0.000954 -0.000603 0.000687 -0.000786 0.000016 -0.001897 0.001793 0.001099 0.003004 -0.003572 -0.001900 -0.003499 0.001293 -0.004197 -0.003117 -0.003400 -0.003364 -0.003770 -0.002139 -0.003402 -0.003200 -0.002211 0.001898 0.001418 0.001230 0.003545 -0.000232 -0.001391 -0.000487 -0.001116 -0.000672 -0.000185 -0.000796 -0.001240 0.003399 0.002494 0.001233 0.003189 0.001816 0.001158 0.000254 -0.001329 -0.002622 -0.002215 -0.001122 -0.002114 -0.001733 -0.003004 -0.001785 0.003519 0.002659 0.000982 0.002831 0.003045 0.001190 -0.000059 0.000405 0.000722 0.001076 0.001402 -0.000495 0.001303 -0.001042 -0.003425 0.001234 0.003412 0.002607 0.001330 0.000257 0.002587 -0.001383 -0.002148 -0.002060 -0.002128 -0.002702 -0.002652 -0.001982 0.003733 0.002592 0.003770 0.002884 -0.000913 -0.000941 0.000995 -0.001343 0.001268 -0.000385 0.000661 -0.000048 0.003194 -0.001865 -0.002279 0.001957 0.001985 0.001658 -0.000095 0.000448 -0.003449 -0.002816 -0.002302 -0.002454 -0.002051 -0.002113 -0.002948 -0.001872 0.001138 0.002057 0.002568 0.001864 0.000202 -0.001131 0.001298 0.000120 0.000868 -0.000191 -0.000715 -0.000145 0.003067 -0.003309 -0.001115 -0.001119 -0.003208 -0.004347 -0.004123 -0.002645 -0.001651 -0.000992 -0.002145 -0.003577 -0.002996 0.001751 -0.004761 -0.000046 0.001298 0.002121 0.000284 0.002424 -0.000429 0.001115 -0.000730 0.001191 -0.000654 -0.001379 -0.001300 -0.000721 0.003044 0.001677 -0.003348 -0.002795 -0.003151 -0.003290 -0.003685 -0.001917 -0.002011 -0.002853 -0.004190 -0.004831 0.000128 -0.000812 0.000713 -0.000089 0.002233 0.002195 -0.000631 0.000743 -0.000851 -0.001177 -0.000057 0.000248 -0.001369 -0.000355 -0.000712 0.000109 -0.001055 -0.003205 -0.002105 -0.002501 -0.003662 -0.001623 -0.001686 -0.002924 -0.002723 -0.002888 -0.005479 -0.000646 0.001699 0.000007 -0.003140 -0.002730 -0.000609 -0.000334 0.000601 0.000218 -0.001332 -0.000325 -0.000954 0.001162 0.000410 0.001404 -0.001058 -0.001323 -0.000217 -0.001903 -0.002269 -0.002129 -0.002261 -0.001944 -0.001989 -0.002690 -0.003020 -0.003034 -0.002547 -0.002841 -0.000534 -0.001763 -0.002620 -0.002793 0.001158 0.000324 0.001320 -0.001147 -0.001316 -0.001300 -0.000810 0.001267 -0.000896 0.000405 -0.001325 -0.001220 -0.000231 -0.000182 0.001214 -0.002827 -0.002975 -0.003646 -0.002655 -0.003024 -0.001895 -0.001073 0.000910 -0.000089 -0.000207 -0.001224 -0.002444 -0.001208 -0.002946 0.000323 0.000261 0.001018 -0.000794 -0.000814 -0.000494 -0.000861 -0.000353 -0.001365 -0.001201 0.000481 0.000693 -0.000751 -0.001080 0.000549 -0.000439 -0.001149 -0.001194 -0.001495 -0.001483 -0.000427 0.000188 0.000668 -0.000938 -0.003130 -0.002151 -0.001738 -0.003269 -0.000674 0.000127 -0.001244 -0.000288 0.000682 0.000589 -0.001333 -0.001142 -0.000443 -0.000924 -0.000600 0.000083 0.000747 -0.001294 -0.000909 0.000332 0.001298 -0.000388 -0.000045 -0.000292 0.001103 -0.000513 0.000015 0.000418 -0.000831 -0.001000 -0.002610 -0.001343 -0.000265 0.000269 0.001154 -0.000670 -0.001383 -0.000757 -0.000732
