0.013055 0.001220 -0.006341 -0.157372 0.002712 -0.249221 -0.043772 0.455150 0.113260 0.443200 0.326231 0.379625 0.002981 -0.054390 -0.289407 0.006714 -0.581467 0.005431 0.508923 0.269454 -0.064775 -0.001871 -0.111628 0.002471 0.075410 -0.386002 -0.009438 0.001711 1.042341 -0.014830 0.127479 0.842860 -0.066741 -0.121184 0.571700 0.002901 -0.532845 -0.396815 -0.176811 -0.002816 -0.002023 -0.609896 0.004135 0.000207 0.583757 -0.008276 -0.181814 0.075870 -0.117572 -0.000997 -0.016188 0.001137 -0.001641 -0.399368 -0.005156 -0.009377 0.134699 0.003917 -0.000721 -0.262194 0.155417 0.003239 -0.024576 0.131174 0.005810 -0.456668 0.159379 -0.180712 -0.003008 0.167300 0.002802 -0.299021 -0.175072 0.563236 0.002021 0.279616 0.005234 0.698517 0.043269 0.000470 0.170251 -0.072084 -0.007334 -0.057937 -0.001250 0.109218 0.241727 -0.043192 0.000507 0.024481 0.476630 -0.069615 -0.004655 -0.322073 -0.287193 0.002639 -0.006967 -0.005110 0.081013 -0.003241 0.083041 -0.679996 -0.195692 -0.005840 0.200335 -0.004613 0.151030 -0.008380 -0.005788 -0.007759 0.400202 -0.000308 -0.400197 0.003746 0.011314 -0.301953 -0.003464 0.009280 -0.010967 -0.357459 0.005760 -0.052900 -0.016762 -0.000963 -0.011345 -0.255874 -0.202046 -0.003220
0.000860 0.539949 -0.013996 0.020672 0.000465 -0.229990 0.218621 0.174384 -0.070283 -0.066429 -0.102847 -0.069971 0.002365 -0.301788 0.204944 -0.027066 -0.371578 -0.000575 0.117240 -0.000244 -0.310150 0.009299 -0.129526 0.000911 0.256933 -0.035530 0.128822 0.000282 -0.007994 -0.117524 0.419050 0.345971 0.168905 -0.118836 0.150344 0.004298 0.074045 0.084820 -0.446373 -0.003994 -0.007675 -0.165366 0.001213 -0.005831 0.716380 -0.005001 0.154701 0.219548 -0.100202 0.306688 -0.043384 -0.004257 0.004004 -0.199693 0.000361 -0.006591 0.091135 0.000999 -0.007182 0.031825 0.086239 0.000780 0.003535 0.116103 -0.005247 -0.185297 -0.324190 0.480453 0.000114 -0.209955 -0.027257 -0.111638 0.292209 -0.145918 -0.001362 -0.083964 -0.002906 0.145826 -0.122142 -0.000772 0.587885 -0.319391 -0.005304 0.014237 0.000720 -0.036937 -0.003192 -0.096930 -0.003698 -0.492557 -0.049352 0.122971 -0.022239 0.124253 -0.143185 -0.008758 -0.008570 -0.008633 -0.278042 -0.003731 0.205003 -0.008249 -0.144942 -0.009105 -0.012724 -0.008020 0.169349 0.007036 -0.002303 -0.002769 -0.074708 0.000647 -0.052889 0.000817 0.277365 0.149424 -0.002755 -0.004148 0.011363 -0.422797 -0.000146 -0.114909 0.034828 -0.002406 -0.002294 -0.336961 -0.507372 -0.008511
-0.030073 0.149743 -0.070779 0.186359 0.003600 0.020618 -0.051297 0.150210 -0.073540 -0.186708 -0.470644 0.674184 -0.004161 -0.670102 -0.106067 -0.011433 -0.296554 0.002575 0.209587 0.005919 0.080099 0.021200 -0.140508 -0.001483 0.078811 0.524364 0.073671 0.000869 -0.324827 0.078534 -0.453764 -0.535691 -0.102444 -0.312284 -0.410783 -0.000685 -0.689195 0.169732 0.497626 0.003870 0.000883 0.127163 -0.001665 0.001282 0.064178 0.004575 0.246131 -0.434906 -0.493738 -0.196465 -0.160539 -0.000259 -0.001328 -0.246760 -0.002719 0.012399 -0.697266 -0.000170 0.003929 -0.062632 -0.500367 -0.003064 0.017939 -0.993959 0.003323 0.396085 -0.684096 -0.195031 0.002497 -0.055554 -0.937767 0.386701 -0.650534 -0.191161 0.000668 -0.571190 -0.000964 -0.889663 -0.285904 -0.001381 -0.514026 -0.189004 0.001076 0.815354 0.001044 -0.372092 0.204318 0.427868 0.000115 -0.036451 -0.267429 -0.111412 0.002262 -0.286981 0.159398 0.014005 0.029373 -0.010983 0.173422 -0.000441 -0.561306 0.330430 -0.042947 -0.004824 0.382984 0.025860 0.086787 -0.061812 -0.041258 0.030757 0.256254 -0.000702 0.141225 0.018377 -1.008334 -0.758235 0.001091 0.011433 -0.028381 0.613265 0.000241 -0.117132 0.307923 0.005369 -0.000941 0.837347 0.250661 -0.065166
-0.012733 0.038700 -0.002911 -0.320083 -0.001551 0.510779 0.102066 0.233397 -0.077367 0.062196 -0.113150 0.088791 0.001780 0.273342 -0.312894 -0.018900 0.158684 -0.001023 0.307319 -0.052990 -0.380250 0.001713 0.259325 -0.001706 -0.435852 -0.255220 -0.134873 0.002980 0.501716 0.156691 -0.083754 0.555557 -0.006311 -0.384258 0.593183 0.000838 -0.139223 -0.318319 -0.266066 -0.001873 0.001910 -0.232726 -0.000464 0.005230 0.168688 -0.006215 -0.716593 -0.050693 0.314593 -0.375716 -0.273282 -0.005283 0.000060 0.011192 0.005194 0.005762 -0.096958 -0.002012 -0.022151 -0.640229 -0.260207 -0.003447 -0.001639 -0.271987 -0.000282 -0.768387 -0.289919 0.051386 0.000884 0.220798 -0.078850 0.277687 0.126092 0.411140 0.003552 0.147819 -0.000885 0.589731 -0.153752 -0.001561 -0.152438 -0.799899 -0.002372 0.443366 0.000499 -0.159414 0.496846 0.063779 0.002037 -0.221803 -0.418405 -0.070085 0.015053 -0.554670 -0.128335 -0.001242 -0.005798 0.011031 -0.115473 0.003177 0.368565 -0.474347 -0.219476 -0.008243 -0.149449 0.015518 0.161432 -0.009554 0.092901 -0.009943 0.081595 0.000288 -0.542089 0.002521 0.271547 0.063864 -0.003341 -0.021270 -0.019468 -0.649381 0.000316 -0.464510 0.742674 -0.003246 0.014357 0.182030 0.015063 -0.043912
-0.008911 0.107329 0.010400 0.482893 -0.000279 0.034102 -0.100204 0.280363 -0.431122 -0.099471 -0.625183 0.022382 -0.004710 -0.471400 -0.711985 0.010495 -0.546420 0.003913 -0.800763 0.121545 0.477818 0.019992 -0.875717 -0.004480 0.300417 0.251212 0.184918 -0.004148 -1.141692 0.208060 1.008535 -0.738946 -0.324101 -0.272748 -0.649059 0.000100 0.294343 0.355304 0.298018 -0.004252 -0.001992 0.285621 -0.004159 -0.006487 -0.282025 0.000858 0.212096 0.270665 -0.402963 -0.618138 -0.575595 0.000179 -0.001547 0.805271 -0.003784 0.030969 -0.372827 -0.004122 0.002653 -0.459076 -0.816970 0.000399 -0.005104 -0.702491 0.007529 0.456658 -0.207676 -0.625684 -0.005757 0.491671 -0.776591 -0.308049 0.034327 0.140240 -0.004160 -0.375078 -0.004264 -0.519702 0.298659 0.001111 -0.649052 0.828765 -0.003516 -0.085056 -0.004774 -0.713355 0.127007 -0.401161 -0.003633 -0.600121 -0.345341 -0.226056 0.019570 -0.247658 0.215634 0.008179 -0.018406 -0.006946 0.513355 0.000158 -0.419921 -0.003136 -0.926906 -0.002743 0.186508 -0.004812 -0.471523 -0.009762 -0.080771 0.006963 0.071445 -0.001454 -0.853478 -0.004015 -0.763253 -0.157511 -0.003937 0.001561 -0.015461 0.143659 -0.003998 -0.056295 0.152049 0.001719 0.005226 -0.031716 -0.149617 0.095933
-0.000035 0.014404 0.032909 -0.475007 -0.000547 0.091543 -0.176997 0.126470 0.490682 -0.061604 -0.273573 -0.093096 -0.000875 -0.099291 -0.577653 0.030619 -0.385372 -0.002513 -0.336428 -0.002977 0.259843 -0.002586 -0.342020 -0.001139 0.222082 0.249116 -0.094606 -0.001894 0.073660 -0.264721 -0.287749 -0.310008 0.115357 -0.055278 0.002673 -0.000940 0.177688 -0.149219 -0.278258 0.002526 -0.001719 -0.300159 -0.002066 -0.002889 0.139895 -0.004399 -0.041709 -0.044191 -0.359318 -0.017594 -0.176905 -0.002637 -0.000838 0.133917 0.001164 0.036779 -0.531167 0.002892 -0.001545 -0.142149 -0.193165 0.001042 -0.004977 -0.096207 0.001471 -0.097662 0.483590 -0.103247 0.002686 0.003458 0.035167 -0.518863 -0.126277 -0.157595 0.002459 -0.118973 0.002749 0.277635 -0.221368 -0.001393 -0.007224 0.740983 0.000718 0.050188 0.001319 0.283580 0.129647 -0.197986 -0.001580 -0.191757 -0.142996 0.002066 -0.005440 0.678162 -0.568984 -0.003393 -0.000135 -0.002018 0.169377 -0.002338 -0.134790 -0.582280 -0.176514 0.014762 -0.047671 -0.021882 0.025916 -0.032119 0.004413 -0.008135 -0.188920 -0.003011 0.123883 -0.007585 -0.105307 0.066598 -0.001531 -0.005212 -0.007091 -0.179663 -0.000512 -0.048914 -0.379780 0.003070 -0.005355 -0.112498 -0.139085 -0.050791
-0.002323 0.166278 0.001831 -0.196826 -0.004334 0.604298 -0.210588 0.033191 0.277093 -0.131843 -0.118412 0.016282 0.002198 0.376081 -0.601000 -0.001579 -0.685006 -0.001176 0.309322 -0.005892 -0.125908 -0.003667 -0.209851 -0.005028 0.037050 -0.487791 0.523297 0.003405 0.169881 0.027684 -0.184076 0.603724 0.564955 0.444545 0.775432 0.001199 -0.083511 -0.208447 -0.290284 0.000609 -0.005717 -0.092626 0.003926 -0.011483 0.251900 -0.002199 0.394364 0.108200 -0.289248 -0.177554 -0.056341 0.008203 -0.000406 -0.237451 -0.005195 0.025760 -0.068106 0.001671 0.003705 -0.452290 0.402201 0.005067 -0.017309 -0.417518 0.006581 0.048162 -0.082685 0.319236 0.000338 0.091369 0.057332 0.308236 0.271237 -0.126612 0.002591 0.095327 0.003402 -0.233771 -0.174616 0.004444 0.023950 -0.117354 -0.006719 0.263254 0.000789 0.262759 0.488644 -0.278692 -0.005591 0.111765 -0.212943 0.277692 -0.006931 0.670560 -0.576025 -0.008499 -0.001045 -0.012499 0.044385 -0.003029 -0.227353 -0.443837 0.291478 0.009645 -0.210516 -0.003731 -0.334599 0.000065 0.018642 0.020083 0.251943 -0.004451 -0.039205 -0.001403 0.181875 -0.139828 -0.000345 -0.032766 -0.013646 -0.123709 -0.000499 0.179313 -0.159852 0.004353 -0.018051 0.028259 0.295355 -0.003163
-0.005680 -0.004677 -0.001138 -0.004763 0.000581 -0.000288 -0.004582 -0.000334 -0.000520 -0.002912 -0.005801 -0.004449 -0.000285 0.000543 -0.027736 -0.004562 -0.099226 -0.000239 -0.003282 0.000893 -0.003441 -0.003594 -0.015352 -0.003485 0.000137 -0.003987 -0.001387 0.003373 0.000443 -0.018473 -0.007082 -0.002709 -0.006277 -0.002320 -0.002988 0.002292 -0.027314 -0.006300 -0.001496 0.000117 -0.004142 -0.022374 0.002112 -0.004870 0.000141 0.001278 -0.003342 -0.006002 -0.010655 -0.000301 -0.004516 -0.002232 -0.000206 -0.002338 -0.002373 0.001062 -0.005434 -0.003713 0.000055 -0.004602 -0.003226 -0.003684 0.000093 -0.007781 0.003394 0.000137 -0.001559 -0.004251 -0.004260 -0.003223 -0.003315 -0.005503 -0.014440 -0.002750 -0.000210 -0.000102 0.000122 -0.002689 -0.080231 -0.004135 -0.005372 -0.000849 -0.004653 -0.004652 -0.000392 -0.004228 -0.002801 -0.002660 -0.004516 -0.011238 -0.016353 -0.003381 -0.002965 -0.102880 -0.001595 0.000952 -0.002286 -0.008922 0.000496 -0.003059 -0.023570 -0.001021 -0.011939 -0.000650 -0.002114 0.000019 -0.002474 0.000248 -0.001705 0.005714 -0.009209 -0.005782 -0.004629 -0.003207 -0.005514 -0.022413 0.000827 0.002516 -0.005642 -0.003685 -0.000126 -0.001742 -0.000376 -0.000667 -0.007928 -0.004978 -0.004775 -0.000713
-0.005529 -0.162865 -0.003338 -0.135301 0.000192 0.082541 -0.039819 0.068487 0.010424 -0.135477 -0.106935 -0.030904 0.003234 -0.108556 -0.045051 -0.014947 -0.243298 -0.000306 0.091990 -0.020263 -0.202633 -0.018282 -0.091106 -0.002671 -0.042982 -0.162782 0.054381 0.001312 -0.018184 0.057143 -0.204138 -0.013804 -0.011039 -0.017742 0.005687 0.002584 0.025444 -0.020999 -0.284105 0.000394 -0.004795 -0.141558 -0.000695 -0.019877 -0.052032 -0.001677 0.034160 -0.020714 -0.127298 -0.012343 0.020244 -0.001153 -0.001760 -0.197455 0.002696 -0.004567 -0.021089 -0.002031 -0.011800 -0.128635 0.009429 -0.002744 0.021186 -0.282712 0.001263 -0.044769 -0.070508 0.009213 0.000086 -0.146803 -0.116073 -0.034849 0.055974 0.000594 -0.001622 -0.183401 -0.001997 -0.062847 -0.076552 -0.001698 -0.079342 -0.001259 -0.003325 -0.034173 -0.002614 -0.065519 -0.024384 -0.173070 0.001251 -0.040917 -0.138771 -0.013378 0.020999 0.072314 -0.036460 -0.037934 0.033017 0.000395 -0.168839 0.001015 -0.124991 -0.100637 -0.011122 -0.000848 -0.106139 -0.046939 0.056997 0.061721 0.015681 0.008810 -0.100933 0.000157 -0.111868 -0.003753 -0.023063 -0.104354 -0.003013 -0.020083 -0.003600 -0.126958 -0.000815 0.027633 -0.077828 -0.001104 -0.009689 -0.076823 0.007093 -0.004543
-0.006931 -0.262406 -0.030997 -0.090211 0.005497 -0.058393 0.374763 0.131590 0.248859 0.507853 -0.239359 0.551365 -0.002768 0.033105 -0.351973 0.024573 -0.185956 0.002826 0.494744 -0.009084 -0.029889 -0.001625 -0.013991 0.001322 -0.047203 -0.234253 -0.239604 -0.002659 0.374553 -0.137568 0.166911 0.672308 0.092625 0.024180 0.823942 -0.000165 -0.065772 0.091229 -0.357764 0.002749 -0.001142 -0.047069 -0.000782 -0.010409 -0.126107 -0.009196 -0.172016 0.062392 -0.273969 0.020317 0.051202 0.006763 -0.000840 0.034790 0.003160 -0.006914 -0.551256 0.002123 -0.017859 -0.069337 -0.008543 -0.002261 -0.009111 -0.069559 0.003900 -0.112421 -0.118262 0.899488 -0.000010 0.071933 0.329529 -0.233982 0.020350 0.404530 0.000744 -0.114555 0.000430 0.290870 0.037828 0.005374 -0.243578 0.071678 -0.005921 -0.154328 -0.003038 -0.443776 0.455756 -0.086771 -0.001734 -0.577914 -0.040242 0.043306 0.014499 -0.198885 -0.474412 0.000194 -0.003845 -0.007039 0.076468 0.000676 0.222192 -0.296985 0.072586 -0.002646 0.542197 -0.031335 -0.176840 -0.069727 -0.013474 0.005116 -0.045379 0.001488 0.094667 0.003732 0.209641 -0.265992 0.002645 0.033713 0.020046 -0.136094 -0.000982 0.003546 -0.118964 0.001402 0.004474 0.299591 -0.353836 -0.028696
0.003916 -0.048604 0.002781 -0.493470 0.002735 -0.259918 0.071827 -0.173657 -0.072329 0.471679 0.044352 -0.117126 -0.000769 -0.200476 -0.443880 -0.011909 -0.436345 -0.001707 -0.068065 -0.011611 -0.261377 -0.001795 0.295531 -0.001885 -0.305427 0.050082 0.269001 0.001175 -0.047796 -0.139240 0.116683 0.108856 -0.094748 -0.086863 -0.023575 0.003276 0.110143 -0.223346 -0.601097 0.005446 0.000309 -0.356908 0.000923 -0.002124 0.308778 -0.004126 0.000484 -0.176279 0.084081 0.517309 0.055390 -0.001885 0.001694 0.185018 0.000659 -0.008844 0.249660 -0.003247 -0.002539 0.194491 -0.022461 -0.002691 -0.008749 -0.036489 0.003793 -0.061560 -0.265704 0.345498 0.006217 -0.003694 -0.045666 0.202801 0.297717 -0.231297 0.004404 -0.200463 0.004152 0.140650 -0.151924 -0.002716 0.104294 -0.207842 0.001921 -0.256022 -0.001355 -0.016978 -0.312948 0.015207 0.001487 -0.314382 -0.675332 -0.176862 -0.004478 -0.203433 0.061864 -0.004075 0.002437 -0.006012 -0.136516 0.001151 0.749209 0.125790 0.162715 -0.000704 0.146477 -0.017002 0.063178 -0.038495 0.002538 -0.028138 -0.048623 -0.007130 -0.198517 -0.000047 0.173558 -0.372575 -0.002940 -0.004073 -0.014014 -0.089639 -0.004216 -0.170552 -0.451797 0.002409 -0.009200 -0.078372 -0.170400 -0.000044
0.002727 0.067804 -0.000913 0.150052 0.001794 0.500601 -0.099393 -0.353074 0.176059 0.270220 -0.044246 -0.151830 -0.005772 -0.349365 -0.300531 -0.010648 0.029625 -0.004479 0.046686 0.054256 -0.602554 -0.005640 -0.281656 -0.003869 -0.231451 -0.338793 -0.190762 0.000272 -0.242184 -0.243934 0.565700 0.199196 0.066080 0.640112 -0.103362 -0.004333 -0.340090 0.181416 -0.386343 0.003193 0.000421 -0.539228 -0.001862 0.000139 0.340085 -0.000730 -0.329380 -0.160929 -0.323518 -0.450861 0.007028 0.004813 -0.000797 0.149510 -0.004003 -0.001456 0.303264 -0.005037 0.002066 -0.087301 -0.274009 -0.003343 -0.008939 -0.307595 0.001468 -0.514010 0.334397 -0.158490 -0.000314 -0.170574 -0.141617 -0.097115 -0.008993 -0.024119 0.002735 0.005644 -0.000162 -0.510281 0.508782 -0.002508 -0.384224 0.169323 -0.002701 -0.625943 -0.001207 -0.258207 0.556716 -0.383651 -0.001393 -0.146972 -0.103220 -0.033980 0.009335 -0.220206 -0.317297 0.006261 0.001438 -0.005315 0.042128 -0.001600 0.304664 -0.771894 0.061869 0.002045 -0.242947 -0.049659 0.193427 -0.002020 0.007205 0.006892 -0.421886 -0.011204 -0.555370 0.012972 0.218723 -0.202214 -0.003361 -0.007752 -0.007229 0.027102 0.000588 0.294733 -0.112064 0.001331 -0.015989 0.179487 0.039410 0.027012
0.000206 -0.142933 -0.004401 0.173052 0.005712 0.150159 -0.147308 0.024862 0.871578 0.129014 -0.071382 -0.117809 0.003422 -0.038256 0.008426 -0.001467 -0.318821 0.003565 0.179186 0.064423 -0.224217 0.000398 -0.215368 0.001237 -0.199238 0.147983 -0.173630 0.003462 -0.029644 0.116834 -0.229170 -0.030038 0.304640 0.423855 -0.100799 0.005495 0.150246 -0.193687 -0.015772 0.002356 -0.002822 0.055102 -0.003245 0.007407 0.059451 -0.004963 -0.131463 0.267982 -0.267754 -0.188167 0.148770 0.002832 -0.005752 -0.150733 0.002580 0.008036 -0.408309 0.000738 0.009945 -0.121455 0.319939 -0.002425 -0.005778 -0.492233 0.000708 -0.255935 -0.415220 -0.132755 0.003389 -0.177593 -0.046148 -0.118240 0.398466 0.035433 0.002926 0.061234 -0.004879 -0.205543 0.035729 0.004802 -0.055411 -0.243841 -0.005608 -0.448203 0.000642 0.177259 0.022742 0.116938 -0.005411 0.188023 -0.646138 0.177816 -0.000409 0.118491 0.031317 0.000628 0.011075 0.002034 0.084694 0.002671 0.455599 0.007290 0.386834 0.003829 0.130828 -0.005210 0.195171 -0.009026 -0.038867 0.000979 0.535480 0.005197 -0.117646 0.003217 -0.073195 -0.152666 0.000881 0.009351 0.006852 0.032445 -0.002847 -0.118820 0.028453 -0.000686 -0.013515 0.055049 0.223599 -0.006316
0.001524 -0.128267 -0.002894 0.003836 -0.001027 0.592783 -0.129883 -0.282270 0.353490 -0.294839 -0.875973 0.464542 0.000055 0.578847 0.068645 -0.028453 -0.299088 0.000409 0.386699 0.057683 -0.700166 0.006448 -0.404799 -0.004850 0.811034 -0.025819 0.840402 0.003253 -0.794392 0.414700 -0.356761 0.099091 -0.326083 0.410947 -0.050863 0.000280 -0.423051 -0.213482 0.169808 -0.002859 0.007838 0.524762 -0.005682 0.037347 0.120620 0.000263 0.773013 0.101488 -0.068431 0.171521 0.026999 0.005602 -0.002961 -0.208729 -0.001426 -0.041700 0.277836 -0.002995 0.015701 0.353280 0.912145 -0.005522 0.046790 0.051678 -0.000541 0.517247 0.051362 0.424683 -0.001543 -0.404663 0.373240 -0.384224 -0.501206 0.152644 0.001490 -0.186231 0.004698 0.159565 -0.139159 -0.001406 0.543286 -0.286674 0.001720 0.170473 0.005057 -0.757192 0.642822 0.217614 0.003489 -0.019765 -0.817400 0.247202 -0.005341 0.194055 -0.216808 -0.008582 0.038431 -0.009676 0.416641 0.005224 0.506550 -0.009706 0.314555 0.003773 -0.544951 -0.038699 -0.036708 -0.011903 0.028438 0.005733 -0.371926 0.004067 0.175401 0.007937 -0.011647 0.677234 -0.002705 -0.025535 -0.026254 -0.263884 -0.000908 -0.332091 -0.016592 0.000235 -0.007670 -0.209718 -0.520509 -0.020435
0.022359 -0.185914 0.070743 -0.403391 -0.000966 -0.266905 -0.216147 -0.866452 -0.079964 -0.138207 0.305739 0.180692 0.005036 0.163505 0.155644 0.009407 0.126839 -0.000193 -0.263418 0.001308 0.591272 -0.000960 -0.319716 -0.001621 -0.259630 -1.662389 -0.173706 0.000838 -0.117157 0.256682 0.212745 -0.131101 0.798852 -0.436937 0.046609 -0.000415 0.499067 0.643509 -0.579435 -0.003068 0.006698 -0.825006 -0.000294 -0.029874 0.305250 0.002045 0.022037 0.003982 0.123094 -0.047826 -0.879417 0.000062 -0.002568 0.457725 0.011553 -0.050375 -0.571981 -0.004848 0.000187 -0.699829 -0.563128 -0.005504 -0.024773 -0.489070 -0.006226 -0.712340 -0.385024 -0.191531 -0.001757 -0.090313 -0.772225 0.042430 0.608658 -0.157307 -0.000911 0.152789 -0.000420 0.024474 -0.175470 -0.004189 -0.014821 -0.146606 -0.005560 -0.200119 0.001603 -0.031438 -0.218013 -0.194725 0.002464 0.103013 0.488321 -0.406700 -0.036624 -0.681591 -0.802452 0.005464 0.010658 0.002524 -0.567456 0.001804 -0.208710 0.225685 -0.281493 0.006556 -0.204604 -0.068022 0.502631 -0.016701 -0.042375 -0.036282 -0.339590 -0.009616 0.416240 -0.006829 -0.530535 -0.491017 0.003222 0.027809 0.008519 -1.071773 -0.003425 0.239306 0.025990 -0.003022 -0.018055 -0.872379 0.254871 0.001797
0.006503 -0.006380 0.002544 0.104457 0.005472 1.148906 -0.122221 0.033610 0.008384 -0.133335 -0.214423 -0.020972 -0.004462 -0.157227 -0.293718 0.017458 -0.233543 0.002573 0.251347 -0.006819 -0.421046 0.006437 -0.360130 -0.000773 0.064853 -0.098254 0.366312 -0.000805 0.176040 -0.051484 0.162921 0.069934 0.161373 0.095470 0.208917 0.004011 0.001859 -0.085433 -0.682226 -0.002631 0.000078 -0.146328 0.003227 -0.010618 0.176914 -0.001377 -0.064074 0.240222 0.017371 -0.154733 -0.065718 0.005129 0.000677 0.224779 -0.003850 0.040938 -0.190625 -0.004820 0.002735 -0.358392 -0.292217 -0.002752 -0.023704 -0.324909 0.000193 -0.161070 -0.019262 -0.104590 0.000559 -0.363058 0.126435 -0.228738 -0.108580 -0.328271 -0.005815 0.040289 0.003109 0.166398 0.291092 0.003432 0.213808 0.043410 0.002788 -0.153574 0.001127 0.237894 0.312941 -0.074794 -0.006132 0.035402 -0.341238 0.041568 -0.001985 0.567236 -0.071719 0.000494 0.004957 -0.007039 0.167241 -0.001974 -0.004327 -0.333036 0.114350 0.001714 -0.334093 -0.005071 -0.239019 -0.034667 -0.002049 -0.002171 -0.205812 0.006151 0.019576 -0.005160 0.108554 -0.133284 0.006025 -0.004296 -0.009218 -0.155859 -0.000476 0.159902 0.011397 0.001263 -0.011597 -0.017693 0.098681 0.002036
0.013839 0.098280 0.007411 -0.048392 0.002555 -0.122256 -0.085237 -0.042095 0.087169 -0.103025 -0.146907 0.289653 -0.000617 0.125156 -0.039925 -0.023517 -0.300265 0.002500 0.030288 0.021943 -0.232769 -0.001527 -0.144955 -0.001875 0.144239 -0.071094 -0.060793 -0.002729 -0.176247 0.171446 0.065092 0.128664 0.070233 0.126552 0.098019 0.001434 0.017580 -0.184248 0.328049 -0.003102 -0.003763 0.012347 -0.003225 0.006143 0.156098 -0.019520 -0.119171 0.159915 -0.000735 0.225964 -0.020210 0.002949 0.002269 0.294649 0.000690 -0.052505 0.151827 -0.002079 -0.009334 0.171222 0.291614 -0.000632 -0.003264 -0.089633 0.003471 0.222802 0.181338 0.207240 -0.000511 -0.120075 -0.000148 -0.280068 0.132216 -0.056962 -0.000821 -0.053766 0.002047 0.182704 0.034503 -0.001856 0.223620 0.036304 0.005476 -0.333618 -0.001825 0.010524 -0.011518 0.093403 -0.007401 -0.263206 -0.275595 0.148688 0.025144 0.014201 -0.303734 -0.010671 -0.015610 -0.000363 0.212544 -0.002230 0.062177 0.187718 -0.035894 0.004106 0.030856 0.005339 0.060489 -0.023213 0.000840 0.007444 0.156904 -0.000563 -0.123527 -0.008693 -0.006753 0.368291 -0.002995 0.007310 -0.016476 0.042022 0.001017 -0.254201 -0.097242 0.001966 -0.006261 0.160985 0.011201 -0.008481
-0.007953 0.272310 0.074060 -0.160025 0.003119 -0.533319 0.219601 0.357214 0.628453 0.137789 -0.479239 0.063913 -0.001124 -0.461371 0.403653 0.010983 -0.158686 0.001248 -0.112164 0.016030 -0.253720 0.008045 -0.297048 0.001634 -0.081365 0.758102 -0.171970 0.002657 -0.080544 -0.354112 -0.184869 0.134226 0.237456 0.515572 -0.160178 -0.005840 -0.330465 -0.043942 0.048255 -0.001100 -0.008771 -0.287503 0.000828 0.014712 0.155538 0.002032 -0.124697 0.527861 0.075332 0.329009 0.301015 0.001885 -0.004733 -0.094432 -0.006221 0.015340 0.390309 0.002085 -0.001095 0.145277 -0.103453 -0.002684 0.030582 0.118489 -0.004762 0.086223 0.506465 0.238520 0.003092 -0.320505 0.175015 0.192237 -0.590655 -0.195682 0.002101 0.330944 0.005819 -0.339681 -0.030763 0.000962 0.302320 -0.186053 -0.005009 0.232119 -0.005419 0.464524 -0.490057 0.416870 0.004695 0.430271 -0.123652 0.288625 -0.002155 -0.538304 0.855112 0.001350 0.089479 -0.000958 0.146467 0.003471 0.157442 -0.088269 0.445378 0.014429 0.062845 0.043768 0.252468 0.004825 0.026747 0.014628 -0.127882 0.001577 0.189897 -0.003631 -0.521670 -0.503833 -0.000406 -0.031966 0.012679 0.789593 -0.002611 -0.108604 -0.364067 0.005793 0.006825 0.028134 -0.205377 -0.067674
0.001082 0.364478 0.038951 0.016569 0.001048 0.933189 -0.051594 0.358072 0.144961 0.362844 0.261465 -0.126292 -0.001830 -0.562322 -0.328847 0.000103 -0.215127 0.004606 0.362511 0.003022 -0.100718 -0.003478 -0.465308 -0.005150 -0.726474 0.055735 -0.122593 0.003334 0.065257 -0.194219 0.180986 -0.437369 -0.356136 0.381856 0.225588 -0.001200 0.323039 -0.230027 -0.198058 -0.001041 0.001680 -0.355642 0.000006 0.003889 0.003794 -0.002312 -0.110616 0.215214 -0.124405 -0.256559 -0.308386 -0.000974 -0.000104 0.116902 -0.001246 -0.003435 -0.185828 -0.002489 -0.003587 -0.381361 -0.188768 -0.001972 -0.001485 0.062231 -0.003152 -0.143194 -0.333348 -0.256396 -0.003005 -0.444776 -0.172651 -0.150733 -0.103012 0.016961 0.001436 -0.045438 -0.000167 -0.351578 -0.063768 0.002315 0.202762 -0.191962 -0.000032 -0.332724 0.000443 -0.194141 0.405444 0.315799 0.000725 -0.125406 -0.287261 -0.078736 -0.000103 0.712098 0.393022 -0.004709 -0.026217 -0.005244 -0.198991 -0.002955 0.013463 -0.053801 -0.035348 0.003312 -0.134791 -0.002291 -0.126963 0.024203 0.003222 -0.005355 -0.355974 -0.003401 0.260539 -0.003066 0.045653 -0.270452 -0.001728 0.000476 -0.023307 -0.266745 -0.003029 -0.149141 0.290936 -0.002987 0.000736 0.090129 0.086500 -0.001732
0.003871 0.467516 0.036542 -0.022813 -0.003528 0.065237 0.014837 -0.003974 0.198935 -0.060126 -0.276559 0.520443 0.003735 0.624976 -0.058067 0.001264 -0.642539 0.001020 0.089235 0.044728 -0.356603 -0.002965 -0.402093 0.002831 0.163038 -0.172853 0.200561 -0.001210 0.483223 0.049467 -0.675924 -0.089393 0.084656 0.164908 -0.162170 0.004144 -0.321903 -0.218740 0.123179 0.000170 -0.001144 -0.442293 -0.000058 -0.014126 0.511850 -0.000096 0.243462 0.376863 0.135225 0.022695 0.054472 0.003084 0.003699 -0.252511 -0.000148 -0.046191 0.171380 -0.000937 -0.006752 -0.130233 -0.001456 0.002221 0.000708 -0.175955 0.003065 0.206075 -0.074310 0.058141 0.002429 -0.161030 0.184098 0.170327 -0.128248 -0.158800 0.002052 0.112834 0.000280 0.252200 -0.039028 -0.000037 0.222037 -0.078412 -0.004590 0.163294 0.001637 0.314018 -0.140732 -0.371575 0.004528 -0.445070 -0.863885 0.426906 -0.015810 -0.086343 -0.120098 -0.002987 0.001785 -0.005967 0.082552 -0.001051 0.480648 -0.101043 0.216889 -0.001037 -0.289368 0.075905 -0.354886 0.007992 -0.041260 0.002211 -0.386354 -0.000996 0.067250 -0.003359 0.277122 0.489804 0.002946 0.003222 -0.018098 -0.180725 0.004878 0.082305 -0.578704 0.003651 -0.007565 0.152417 -0.117478 0.073056
-0.011093 0.702978 0.017778 0.206533 0.002652 -0.177252 -0.122072 -0.288243 0.613943 0.317699 0.305502 -0.228609 -0.005184 0.138354 0.807510 0.025302 0.081802 0.002309 -0.300226 -0.016139 0.033515 -0.016484 -0.100240 0.004080 -0.493487 0.226542 -0.109622 0.002020 -0.290223 -0.473225 0.460919 -0.193940 0.447780 0.492300 0.070601 0.000079 0.125677 0.605972 -0.121871 0.003497 0.001542 -0.367479 0.002309 0.001460 -0.068789 -0.002673 -0.693482 0.840066 0.237864 0.416440 0.365965 0.001121 -0.004944 -0.468488 -0.011216 0.020086 -0.320342 0.002236 -0.005430 0.562079 0.225540 0.002117 -0.023471 -0.396456 0.006102 -0.339100 -0.462612 0.224907 0.000385 -0.150370 -0.301399 -0.577826 0.424240 -0.257211 0.000350 -0.031485 0.001755 0.170539 -0.034814 0.004152 -0.292506 -0.286849 0.010664 -0.092548 0.004892 -0.969197 -0.555953 -0.170743 0.003457 0.014106 -0.120721 -0.033020 -0.040774 0.344551 0.179081 -0.002502 0.014679 0.003596 -0.311291 0.001739 0.585746 -0.067465 0.947369 0.001283 0.032212 0.030394 0.328546 -0.014075 -0.004212 0.041455 -0.003726 -0.006730 0.677471 0.005769 -0.489802 0.018356 0.001059 0.020854 -0.015258 0.325302 -0.003826 -0.096190 -0.771444 -0.000519 0.000156 -0.028723 0.458298 -0.042322
0.002119 0.025476 -0.001320 -0.021989 -0.000061 -0.022838 0.018787 0.000315 0.002179 -0.059224 -0.020448 -0.003103 0.002942 -0.061873 -0.028436 -0.008405 -0.072693 -0.001075 -0.023968 -0.002309 -0.069620 -0.003271 -0.031688 -0.001015 -0.024076 -0.013107 -0.003276 -0.001986 -0.017961 -0.012420 -0.056635 -0.066731 0.000246 0.005229 -0.000460 0.000654 -0.071936 -0.031783 -0.058711 -0.002718 -0.005426 -0.054427 0.003128 -0.000426 -0.054125 0.000354 -0.041192 -0.015057 -0.041861 -0.052089 0.000924 0.000091 0.000810 -0.005709 -0.000854 -0.027881 -0.052597 0.002532 -0.001979 -0.032309 -0.033910 0.002610 -0.011511 -0.108780 0.003400 -0.092985 -0.042997 -0.044548 -0.002198 -0.066814 -0.036204 -0.008099 -0.002534 -0.022181 -0.000380 -0.010303 0.002017 -0.044798 -0.061626 0.002782 -0.030087 -0.064535 0.000104 -0.004863 -0.003044 -0.006791 -0.033777 -0.010612 -0.003049 -0.055189 -0.025693 0.018851 -0.004694 0.016926 -0.038831 -0.002740 -0.001898 -0.001969 -0.005824 0.002906 0.000328 -0.015200 0.007947 -0.001341 -0.011861 -0.004029 -0.007782 -0.001127 -0.002773 -0.004432 -0.011374 0.002487 -0.067847 0.000984 0.011999 -0.025940 -0.000220 0.000191 0.002105 -0.041237 0.002261 0.034087 -0.037863 -0.000587 0.001014 -0.026322 -0.001617 -0.000590
0.007120 0.118573 0.055356 -0.357687 0.002396 -0.360647 0.732472 -0.151462 -0.138430 -0.111747 0.019766 0.158159 0.002095 0.429556 -0.678827 -0.033970 -0.107741 0.001698 -0.723167 0.010074 -0.179994 0.004696 0.199855 -0.004160 0.091334 -0.804168 -0.581677 0.003616 -0.298977 0.119338 -0.218323 0.047877 -0.053551 -0.082892 0.174230 0.005553 -0.151013 0.320315 -0.256098 0.001421 0.005997 -0.354929 -0.001370 0.023971 0.346322 0.004714 0.085922 0.308801 0.497754 0.442475 0.644636 -0.009727 -0.000220 -0.367226 0.014469 0.021235 -0.905096 0.001517 0.011026 -0.025787 -0.238599 0.003281 -0.024951 -0.351290 0.002908 -0.715384 0.336645 0.144022 0.001620 0.246442 -0.884226 0.168490 -0.220815 -0.138265 0.003883 0.170770 0.000379 -0.482530 -0.363517 0.005483 -0.752816 -0.477697 -0.001110 -0.169813 -0.004924 -0.665685 0.176042 0.146916 -0.010929 0.004339 -0.265065 -0.013960 0.014047 -0.304296 -1.019823 0.003212 0.029030 0.008217 -0.417357 0.001877 -0.211744 0.475538 -0.052009 0.010632 -0.005840 0.050176 -0.492543 -0.018908 0.133151 0.026074 0.623057 -0.007323 -1.004501 -0.009085 -0.217681 0.177985 -0.002197 -0.010254 0.004425 -0.752021 -0.000214 0.340000 0.411495 0.000320 -0.002240 -0.480266 -0.232749 -0.020284
-0.000849 -0.051405 -0.006909 -0.014945 -0.004989 -0.022150 -0.024786 -0.017773 -0.062370 -0.048849 -0.031047 -0.015687 0.004981 -0.029597 -0.049172 -0.017247 -0.071867 0.000084 -0.073691 0.004182 -0.066108 -0.022300 -0.004964 0.000737 -0.036362 -0.094657 -0.009061 -0.002233 0.001380 0.015361 -0.070054 0.005507 -0.040911 -0.018082 0.021411 -0.002056 -0.027074 -0.028935 0.003552 0.000332 0.001789 -0.033832 -0.001153 -0.021179 -0.020088 -0.002673 -0.025157 0.017833 -0.046446 -0.046072 -0.006714 -0.003048 0.005033 -0.126180 0.002053 -0.007829 -0.060221 0.002759 0.000669 -0.026613 -0.002389 -0.000380 0.022439 -0.061619 0.000345 -0.020063 -0.030782 -0.025700 -0.000479 -0.002238 -0.015569 -0.037773 -0.026865 -0.018654 0.003168 -0.003377 0.000969 -0.001876 -0.064753 0.004556 0.010669 -0.057434 0.005257 0.001639 -0.002785 -0.035898 -0.011396 -0.036262 0.008877 -0.043415 -0.038490 0.001554 -0.009782 -0.054645 -0.009645 -0.017887 0.004487 0.012254 -0.068063 0.000640 -0.035961 -0.042992 -0.036998 -0.004793 -0.015655 -0.009307 -0.024252 -0.005675 0.001936 -0.008570 -0.011157 0.003753 -0.037292 0.007793 -0.031514 -0.043671 -0.000781 -0.003489 -0.004565 -0.122812 -0.000911 -0.044400 -0.008852 0.000639 -0.003520 0.009520 -0.030392 0.006355
-0.003285 -0.013681 0.005827 -0.012821 0.002390 -0.006992 -0.010732 0.001349 -0.023125 -0.035781 -0.017524 0.005851 -0.002422 -0.020796 -0.019532 0.003332 -0.065005 0.005403 -0.017880 0.006120 -0.007447 0.003232 -0.047859 -0.000717 -0.013947 -0.025309 0.009018 0.001246 -0.023365 -0.023858 0.004435 -0.011546 0.009357 -0.013132 -0.027246 0.000832 -0.012536 -0.003300 -0.015752 0.003723 0.001399 -0.009646 -0.000128 0.011736 -0.004101 0.007139 -0.008010 -0.007557 -0.030299 -0.011507 -0.022217 -0.000238 -0.002567 -0.011118 0.004340 -0.006695 -0.015049 0.002982 0.001208 -0.030065 -0.007309 0.000972 -0.013750 -0.013747 0.005131 -0.008729 -0.036025 0.000451 0.004491 -0.024577 -0.025454 -0.006388 -0.016900 0.007835 0.001286 -0.017426 -0.002563 -0.030767 -0.010573 0.000520 -0.020819 -0.004538 -0.002114 -0.008131 0.000344 -0.003451 0.009598 -0.016281 -0.003191 -0.067435 -0.070112 -0.014745 -0.013549 0.009196 -0.003611 0.015274 0.001582 -0.009908 0.000551 0.003346 -0.020444 -0.002290 -0.030552 -0.002320 -0.016958 -0.017845 0.011588 -0.007004 0.005301 0.003306 0.000274 0.006523 -0.000971 0.003261 -0.013322 -0.001543 -0.003551 -0.002235 0.002546 -0.009263 0.000114 -0.013912 -0.015328 0.002395 0.001570 -0.030377 -0.017516 -0.007382
-0.003099 -0.104746 0.001252 -0.052188 -0.005141 0.034517 -0.042712 0.086632 -0.021167 0.001112 -0.024975 0.016051 0.000572 -0.049828 -0.130732 -0.006585 -0.254449 -0.000035 0.009773 0.010638 -0.098270 -0.003166 -0.079659 -0.003390 -0.025916 -0.185563 0.012621 0.001902 -0.048829 -0.018010 0.016276 -0.028016 -0.007619 0.028019 -0.088117 0.004324 -0.066566 -0.151713 -0.173258 0.000423 0.000261 -0.091737 -0.004207 -0.007148 0.019599 -0.004592 -0.097354 0.073413 -0.127641 -0.010092 -0.012533 -0.002994 -0.001764 0.007392 -0.003982 -0.010272 -0.078091 -0.001134 0.000522 -0.072377 0.027853 -0.000989 -0.016024 -0.105189 0.002622 -0.045754 -0.130542 -0.086824 -0.002033 -0.140298 -0.141831 -0.090468 -0.077041 -0.081672 0.003579 -0.117348 -0.005083 -0.002883 -0.080815 -0.000037 -0.045684 0.013354 0.010387 -0.034357 0.000722 -0.163113 -0.014391 -0.144702 -0.003398 -0.190503 -0.059490 -0.103814 -0.007002 -0.112514 -0.019303 0.001739 -0.043362 -0.013060 -0.007381 0.001010 -0.085277 -0.060800 -0.115127 -0.000078 0.008447 -0.074496 -0.050615 -0.039863 -0.005368 0.002999 -0.013440 -0.004638 -0.150841 -0.003966 -0.052090 0.003521 -0.004093 0.002349 0.012164 -0.098446 -0.000141 -0.115737 -0.092246 0.004022 -0.013479 -0.041951 -0.050693 -0.002804
-0.002822 0.362881 -0.005560 -0.579174 -0.001730 -0.098924 -0.326513 0.283590 0.455007 -0.339435 -0.262883 0.285466 0.004550 0.200584 -0.542698 0.000730 -0.397412 -0.001107 -0.094179 0.138884 0.071546 0.005866 -0.277097 -0.002216 -0.546964 -0.576778 -0.202877 0.004961 -0.258583 0.517382 -0.340307 0.165193 0.076367 -0.096760 -0.140665 -0.000876 -0.303268 -0.047242 0.084475 0.000977 -0.004088 -0.239292 -0.000977 -0.014189 0.057901 0.001130 -0.304055 0.106214 -0.271145 -0.458707 -0.158069 -0.001060 0.002381 -0.203772 0.003695 -0.003715 0.070281 -0.000406 0.006983 -0.025724 -0.398493 -0.001769 -0.004683 -0.331642 0.000940 -0.216124 -0.311416 -0.068525 -0.000051 -0.164675 0.247702 -0.399300 -0.221692 -0.152209 0.000483 -0.058924 -0.004911 -0.365864 0.064597 -0.005605 -0.366945 0.480800 0.001163 -0.089787 0.004012 -0.215924 -0.183920 -0.531236 -0.010248 -0.367765 -0.364661 0.407366 -0.015087 -0.018362 0.056673 -0.008483 -0.008225 -0.006425 0.508428 0.004170 0.124363 -0.408345 0.354658 0.002910 -0.206995 0.003621 0.276719 -0.009197 -0.002517 0.006392 0.337980 -0.007685 0.481880 0.005189 -0.089736 0.040588 0.000251 -0.003619 0.005987 0.022421 -0.000163 -0.036099 -0.012531 -0.000570 -0.013379 0.175090 0.276563 -0.005572
-0.002561 -0.264953 -0.002254 -0.322409 0.000971 0.001067 -0.185360 -0.242379 0.068313 -0.081022 0.251352 -0.040323 -0.003002 -0.031658 0.047324 0.002583 -0.141356 0.000531 -0.263911 0.063946 -0.096310 -0.010252 0.368746 -0.000149 0.140360 -0.415103 0.100548 0.000319 -0.169291 0.347636 -0.046344 0.035951 -0.021894 -0.261729 0.315744 -0.005243 -0.062970 0.039754 -0.413058 0.004467 0.005224 -0.008156 -0.003359 0.021072 0.206701 -0.001286 -0.535480 0.180024 -0.196717 0.252742 -0.044804 0.003970 -0.002667 -0.131731 0.000081 0.034176 0.073886 0.003460 0.001531 -0.310270 -0.184320 -0.004886 0.000675 -0.077156 -0.004945 -0.069872 0.100314 0.303083 0.002710 -0.483392 -0.492299 -0.114630 -0.026444 -0.100209 -0.002963 -0.049538 -0.002337 -0.137208 -0.296879 0.003882 0.036787 -0.103197 -0.015625 -0.252691 0.000672 0.157641 0.047007 -0.167800 0.006295 -0.287258 -0.091391 0.108767 -0.021925 0.002302 0.110962 -0.010866 -0.017382 0.007415 -0.528413 -0.000471 -0.223052 -0.198013 -0.135533 -0.004099 -0.072686 -0.011841 0.262028 -0.008337 -0.003296 -0.024372 0.674897 0.002125 -0.315548 -0.007470 -0.450328 0.302641 -0.001043 0.003501 -0.015909 -0.134570 0.002818 -0.147946 0.053210 -0.002231 0.017903 -0.223470 -0.104413 -0.016602
0.012675 0.140995 -0.007201 -0.044209 0.000476 -0.138559 -0.279869 -0.166753 0.125696 -0.479617 -0.407546 -0.105559 0.000482 0.183962 0.154250 -0.003126 -0.424837 -0.005373 0.342796 0.001037 0.190913 -0.005915 -0.338874 -0.000126 0.367211 -0.222297 -0.040976 0.000696 -0.417692 0.067257 0.092556 -0.301758 -0.162762 -0.035880 -0.263332 -0.005691 0.037823 0.103286 0.050966 0.000366 -0.000083 -0.410389 0.005176 -0.005664 -0.171280 -0.003389 0.144836 -0.100794 -0.263309 -0.229718 0.006869 -0.003661 0.002690 0.362337 -0.000117 0.005104 -0.701897 -0.002807 0.005173 -0.461235 -0.127536 -0.001294 -0.002223 0.104171 0.000628 0.138384 0.224899 -0.090696 -0.004816 -0.386807 -0.360347 -0.340873 -0.317970 -0.543629 -0.003847 -0.089537 -0.003752 -0.051382 -0.223300 0.005167 0.246851 -0.485836 -0.003582 -0.590135 0.004163 -0.269702 0.194725 -0.224269 0.004431 -0.323027 0.094743 -0.061323 0.001373 -0.218581 -0.370030 0.002766 -0.001532 0.000242 -0.161037 -0.000774 -0.432950 -0.008574 0.053024 0.004509 0.029301 0.040251 -0.453856 0.026251 -0.004774 0.000900 0.199884 0.000191 0.019040 0.003504 -0.473962 0.154875 -0.003321 0.001166 0.015500 -0.578153 -0.001303 0.032575 0.133837 -0.001244 0.009424 0.477780 0.219214 -0.006015
-0.003520 -0.056447 -0.001876 -0.054095 -0.000986 -0.039374 -0.006972 -0.020643 -0.013358 -0.002216 -0.001012 -0.010035 -0.000921 -0.022492 -0.020735 -0.005361 -0.044927 -0.001568 -0.006799 -0.006600 -0.043660 -0.000562 -0.021866 -0.000513 0.001463 -0.040825 0.001436 0.002240 -0.009209 -0.018884 0.005608 -0.020634 -0.001261 0.008211 -0.012979 0.001045 -0.007904 -0.004864 -0.025281 0.003684 0.000831 -0.060949 0.005248 0.001126 -0.015446 -0.008194 -0.021316 0.025072 -0.043649 -0.024610 -0.015856 0.002978 0.003739 -0.027816 0.000547 -0.004138 -0.018903 0.005626 0.006975 -0.017820 -0.003320 0.005028 -0.004592 -0.011486 0.000841 -0.021315 -0.008068 0.009577 0.004008 -0.012631 -0.033902 -0.025144 -0.025056 0.015509 0.001141 -0.022630 -0.000087 -0.019337 -0.029954 0.000620 -0.019824 0.006512 -0.004078 -0.022626 -0.004355 -0.024405 -0.041813 -0.019713 -0.002567 -0.052522 -0.035211 -0.024784 0.001740 -0.031177 -0.040456 -0.000188 0.003383 0.006650 -0.012681 -0.001886 -0.005471 -0.020267 -0.002756 0.002187 -0.058957 -0.007208 -0.021048 -0.008479 0.013527 -0.000575 -0.015207 0.000478 -0.050163 -0.006378 -0.022621 -0.015981 -0.004259 0.001255 0.008008 0.010504 0.004837 -0.013205 -0.027026 -0.005280 0.007262 -0.029526 0.005795 -0.004424
0.001653 -0.441691 -0.009293 -0.378069 -0.004462 -0.385064 0.110868 0.614048 -0.152278 0.061575 0.495532 0.091438 -0.000820 0.223464 0.108359 -0.006288 -0.142054 -0.001843 -0.145613 -0.001583 -0.126112 0.008947 -0.162649 -0.003154 -0.158510 -0.534936 -0.200417 0.004279 0.083725 0.116071 0.146267 -0.068282 0.392648 -0.356054 0.054072 0.004317 0.474660 0.477216 0.272699 -0.002200 -0.000196 -0.586810 0.003399 0.007422 0.097030 -0.011884 0.000042 0.356006 -0.746809 0.070032 0.093534 0.002853 0.002277 0.274810 0.001528 -0.038763 -0.087045 -0.002958 0.000579 -0.440885 -0.307666 -0.000709 -0.007289 -0.005637 0.003614 0.075098 -0.373273 0.106025 -0.002309 -0.027936 -0.062319 0.020015 0.647287 0.088326 0.003522 -0.254142 0.000323 -0.298999 0.399704 -0.005383 -0.025074 -0.040106 -0.015933 -0.240043 -0.005644 0.505847 0.373667 -0.394419 -0.001970 -0.027458 -0.056252 -0.020395 -0.000641 -0.346801 -0.264400 -0.007755 0.035719 0.003839 -0.567180 0.003462 0.406951 -0.095160 -0.138275 0.004725 -0.417216 -0.005806 -0.304683 0.000118 0.002791 -0.008709 -0.001258 -0.000355 0.094047 0.000428 0.103970 -0.064562 -0.005245 0.001204 -0.017881 -0.329712 0.001380 -0.095237 -0.455231 -0.001825 -0.006021 -0.055853 -0.229231 0.002210
0.004827 -0.028498 0.017004 -0.640366 -0.000196 -0.266166 0.235053 -0.048073 -0.132320 0.238916 0.318545 -0.154122 -0.004310 0.202492 -0.270236 -0.013467 -0.090017 0.001710 0.264539 0.080461 0.197669 0.004685 -0.389530 0.004423 -0.115758 -0.612871 -0.126678 -0.002894 0.187430 0.131844 0.101365 0.628163 0.712526 -0.214568 0.023752 -0.003900 0.050499 0.402302 -0.665309 -0.002478 0.004369 -0.564659 -0.000627 -0.020459 0.156952 -0.003130 -0.188741 0.273643 -0.277350 -0.040954 0.095571 -0.002048 0.004851 -0.153046 0.014497 -0.038404 -0.021435 -0.002918 -0.018126 -0.226621 -0.115195 -0.001672 -0.006482 0.106626 -0.000802 -0.721969 0.050650 0.060342 -0.002731 0.200163 0.140938 0.025177 0.665117 0.710456 -0.002082 0.134527 0.005508 0.432810 0.403706 0.000615 -0.011666 0.617485 -0.000817 -0.042954 0.001837 -0.113811 0.069627 0.425107 0.003115 -0.383860 -0.037559 0.035364 0.012377 -0.136278 -0.431332 0.001437 0.025749 -0.002203 -0.621461 0.001037 0.094128 -0.133064 -0.122481 -0.003380 -0.135856 -0.005947 -0.061510 -0.038701 0.054193 0.038049 0.157558 -0.000697 -0.090364 -0.000217 -0.369314 0.019291 0.001644 -0.000559 -0.026285 -1.031103 0.004877 0.075531 -0.097068 0.004941 0.003491 0.059983 -0.507267 0.068493
-0.001513 -0.029415 0.028873 -0.114697 0.001038 0.002724 0.006648 -0.054999 -0.018579 -0.003151 -0.078372 0.009128 0.000808 -0.024650 -0.084514 0.031594 -0.203653 0.002779 0.019591 0.007107 -0.061879 -0.006012 -0.098714 0.004060 0.017593 -0.095238 -0.014877 -0.004158 0.012164 -0.002289 -0.061667 -0.050842 -0.012932 0.113444 -0.061938 0.000145 -0.058850 -0.015407 -0.092162 0.000438 -0.000168 -0.046642 0.004797 0.001458 -0.021639 -0.007330 -0.047424 0.000272 -0.171139 -0.152647 0.026872 0.002133 0.004957 -0.006022 -0.001835 -0.012098 -0.093068 0.004387 -0.002335 -0.139585 0.008425 -0.005465 -0.025844 -0.031422 -0.004166 -0.060246 -0.111184 -0.018167 -0.004753 -0.030286 -0.055808 -0.028336 -0.067346 -0.045466 -0.000788 0.007530 0.001669 -0.019515 -0.048149 0.002167 -0.004366 0.019238 -0.007705 -0.047101 -0.003085 0.004326 0.049289 -0.162468 0.002263 -0.076180 -0.127754 -0.057107 -0.007956 -0.004504 -0.039590 -0.006528 -0.007761 -0.003793 -0.013424 -0.002343 -0.063862 -0.073656 0.009442 0.002697 0.032361 -0.019706 0.036682 -0.014660 -0.006075 -0.002999 0.031512 0.002384 -0.144796 -0.014269 -0.044576 -0.011553 -0.000404 0.002842 0.022793 -0.054153 0.005986 0.042932 -0.035044 -0.000502 0.020558 -0.050680 0.005764 -0.000457
-0.003549 -0.141069 0.000545 -0.250023 -0.000788 0.140262 0.063650 0.051122 -0.193837 0.221022 -0.264738 0.278611 -0.000790 0.128685 0.013509 -0.007926 -0.508903 0.005576 -0.121189 -0.054652 -0.675929 0.006228 -0.178247 0.004718 -0.320164 -0.273785 0.087053 -0.005516 -0.173513 0.304320 -0.442143 -0.146134 0.214744 -0.033495 -0.110636 -0.001103 -0.072630 0.379521 0.431339 0.004827 -0.000539 -0.142602 -0.000196 -0.000309 0.405919 0.003066 -0.035138 0.032214 0.202617 0.193846 0.310021 0.001983 0.000467 -0.198977 0.005568 0.004622 -0.245046 0.002404 0.001311 0.092357 0.641307 -0.003786 -0.002563 -0.261701 -0.007233 0.336209 -0.471329 -0.057293 -0.000947 -0.132064 -0.382456 0.095281 0.211754 0.214271 -0.003204 0.180834 0.000314 0.279551 0.524454 -0.000316 0.472553 0.509040 0.008540 0.268336 -0.001014 -0.032835 0.110459 -0.089818 0.000894 -0.662689 -0.372130 0.148396 -0.011863 0.015446 -0.235104 -0.002519 -0.007068 -0.003719 0.323612 0.001241 0.025922 -0.050315 -0.180592 -0.000167 0.159416 -0.012102 -0.283455 -0.019306 0.007449 0.000437 -0.156768 0.001653 0.140103 -0.003609 0.398212 0.422092 0.005768 0.001689 0.004304 -0.388371 -0.004507 -0.669559 0.344918 -0.000374 -0.011752 0.069762 -0.329146 0.017422
-0.006050 0.090936 0.013260 0.162742 0.005749 0.146720 -0.400724 -0.041409 0.188976 -0.002272 -0.945913 -0.015348 0.004015 -0.502786 -0.061132 -0.014513 0.119644 0.001505 0.058922 -0.133730 -0.586231 -0.015714 -0.332008 0.001864 -0.077813 0.203122 -0.250665 0.001016 -0.019556 -0.207541 -0.748927 -0.548766 0.023606 -0.652595 0.193759 0.000804 -0.717175 -0.325186 0.372166 0.000081 0.001140 0.234509 -0.001772 -0.005805 0.269409 0.002093 0.408091 -0.492859 -0.409514 -0.921322 0.068951 0.004075 -0.003062 -0.893746 -0.000352 0.049196 -0.868967 0.005188 0.009309 0.083919 -0.305317 0.005290 0.007524 -0.359938 -0.007522 0.331551 -0.169491 0.020202 0.005213 -0.107522 -0.651417 0.530730 -0.470511 0.190439 -0.004981 -0.035388 0.003678 -0.190398 -0.291355 0.001330 0.195376 -0.678370 0.021586 0.427024 0.001932 0.047440 0.279500 0.129435 0.002657 0.055758 -0.767209 0.200731 0.014994 0.223248 0.242171 0.007709 0.087450 0.002725 -0.089488 -0.003669 -0.407286 -0.054295 -0.242171 -0.000339 -0.214703 -0.026556 0.527967 -0.006333 0.001843 -0.016707 -0.038309 0.002202 0.001753 0.004971 -1.254108 -0.345152 0.002446 -0.027231 -0.016922 0.116518 -0.004827 0.323740 -0.146945 0.000146 -0.012331 0.512793 -0.451898 -0.006759
0.002209 0.019472 -0.003903 -0.266230 0.001642 0.057550 -0.184930 0.089448 0.453227 -0.021899 -0.236994 -0.075374 0.003246 -0.219687 -0.088947 -0.000677 -0.386289 -0.000896 -0.430754 0.273175 0.219439 0.000284 -0.072498 -0.000899 -0.088350 -0.592961 0.010455 0.001614 0.058835 0.057227 -0.527841 -0.015162 -0.010085 -0.549717 0.138189 -0.002930 0.389141 0.193148 -0.232259 0.004106 -0.003638 0.199956 -0.003019 -0.006370 -0.161058 -0.030858 -0.179210 -0.194509 0.097197 -0.050829 -0.118760 0.005978 0.001245 -0.175935 0.003721 -0.024886 0.097731 0.004892 0.001431 -0.192820 0.329786 -0.003347 0.005031 -0.058961 0.000533 -0.117554 0.391822 -0.089040 0.001861 0.256424 -0.208536 0.277597 -0.175701 -0.006457 -0.003430 -0.372049 0.001696 -0.029085 0.199951 -0.003225 0.147085 -0.032777 -0.002182 -0.412103 0.001380 -0.404608 0.642886 0.255622 -0.008398 -0.231934 -0.532401 -0.095593 -0.006260 0.073851 0.077417 -0.000348 -0.000603 -0.012078 -0.270206 0.002576 0.021701 -0.031489 -0.276366 -0.001288 -0.084004 -0.005822 -0.132970 0.008167 0.006357 -0.004793 0.096431 -0.002700 -0.312930 -0.005182 -0.280258 0.159253 -0.004599 -0.003389 0.023926 -0.016881 -0.002700 0.147061 -0.133410 0.004443 -0.016784 0.074269 -0.103684 0.001253
0.005968 -0.235534 0.004134 -0.151032 0.001026 0.752475 0.119283 0.037951 0.544619 -0.231537 -0.221036 0.132906 -0.004053 -0.294874 0.023641 -0.002363 -0.438935 -0.005057 0.627431 -0.001668 -0.319625 -0.001794 -0.225091 -0.003246 0.112037 -0.603763 0.251485 0.004397 0.804229 -0.178574 -0.063763 0.040467 0.323958 0.507396 0.442449 -0.001046 -0.396253 -0.094340 -0.151677 -0.004403 0.002102 -0.004147 0.002011 0.005666 -0.128191 -0.000436 0.190194 -0.124597 -0.641337 -0.213513 0.362525 0.002694 -0.004936 0.323307 -0.000956 -0.005817 -0.377849 -0.001457 0.001716 -0.199849 -0.474970 -0.004249 0.002417 -0.168628 0.000176 -0.397768 -0.382317 -0.061501 -0.004328 -0.385465 0.073725 -0.039207 0.088614 0.114687 0.001748 0.279979 0.005137 -0.077592 0.317913 -0.000253 0.179544 -0.127391 -0.003511 -0.022229 -0.001161 -0.074276 0.078978 -0.239712 0.001759 0.137043 -0.248453 0.298122 0.004860 0.967265 0.166108 -0.005813 0.007648 -0.001009 0.131379 0.001367 0.141693 -0.335871 0.256785 0.000925 0.119304 -0.002245 0.209556 -0.002279 -0.003380 -0.005746 -0.127612 0.010877 0.382863 -0.000693 -0.430526 -0.393065 0.000911 -0.006263 -0.011775 0.006316 -0.000748 0.520000 -0.063567 0.001726 -0.008693 -0.297684 0.020239 0.099126
-0.001050 -0.003892 -0.001376 -0.001577 -0.002162 -0.004581 -0.004452 0.000178 -0.003183 -0.003528 -0.000014 -0.010203 -0.005798 -0.000025 -0.003182 -0.001241 -0.005139 -0.001046 -0.005364 -0.005778 -0.001224 -0.000824 -0.011819 -0.000608 -0.005603 -0.005029 -0.005845 0.002322 -0.003428 -0.004440 -0.004269 -0.002279 -0.004491 -0.007999 -0.000007 -0.003324 -0.001264 -0.004799 -0.012954 -0.004238 -0.002964 -0.017837 0.000554 -0.000947 -0.000103 -0.002525 -0.005827 -0.005275 -0.006669 -0.001552 -0.004310 -0.001529 0.001054 -0.000326 -0.004310 -0.001848 -0.015471 -0.001721 -0.002049 -0.007956 -0.000764 -0.003187 -0.004238 -0.002802 -0.003906 -0.004498 -0.004117 -0.000238 -0.002734 -0.000478 -0.004887 -0.007252 0.000209 -0.001770 -0.002925 -0.004471 0.001092 -0.003203 -0.005486 0.000488 -0.004157 -0.006317 0.000036 -0.005006 0.000617 -0.001365 -0.000949 -0.005037 -0.003432 -0.009451 -0.000495 -0.009908 -0.001093 -0.004492 -0.004452 -0.002875 -0.000548 -0.005796 -0.000845 0.000684 -0.003043 -0.000024 0.000520 -0.002300 -0.009718 -0.002579 -0.004555 -0.003464 -0.004482 -0.000088 -0.003419 0.001726 -0.000705 -0.003914 -0.004788 -0.007620 -0.004998 -0.005809 -0.000973 -0.006838 0.005765 -0.002145 -0.003285 -0.000514 -0.001487 -0.000116 0.000278 -0.000492
0.015031 -0.073460 0.045869 0.235276 0.004879 0.380870 -0.596237 -0.264455 -0.154519 -0.098345 -0.735635 0.437590 0.004187 -0.249841 -0.248882 -0.002237 0.206257 0.000527 0.852015 0.111298 0.122165 0.008485 -0.068276 -0.000043 0.360762 -0.741390 0.569830 -0.000922 -0.381244 -0.156275 0.201441 -0.092734 0.595946 0.268891 -0.326206 -0.001313 -0.222673 0.172143 0.034467 -0.000013 0.001181 -0.325372 0.000018 -0.012347 -0.106535 -0.000828 0.154069 -0.192401 -0.075643 -0.072213 -0.140607 0.002106 0.006093 0.263302 0.003605 -0.025075 -0.031169 0.002267 0.019182 -0.796625 -0.272226 -0.003631 0.025555 -0.290219 0.004288 -0.055664 -0.546049 -0.377192 -0.005535 -0.078291 -0.394030 -0.060924 0.074845 -0.042451 -0.003341 0.251086 -0.002541 -0.397243 0.399765 0.000268 0.143384 -0.169003 0.004275 -0.245941 0.003247 0.167589 0.540605 -0.248704 0.004295 0.410445 -0.650314 0.113789 0.007258 0.055987 -0.464938 0.016616 0.018112 0.004125 -0.052470 -0.000938 -0.481783 -0.698316 -0.198690 -0.002241 0.128074 -0.004512 0.093094 0.002792 -0.002750 0.000827 0.274635 -0.000703 -0.246022 -0.014102 -0.141511 -0.039937 0.002132 -0.023379 -0.022482 -0.940200 0.002175 0.580329 0.143877 0.002641 0.016209 -0.227127 0.494934 0.016356
-0.002658 -0.293394 0.011034 -0.355103 0.000964 0.634185 0.400351 0.286592 -0.861323 0.373865 0.112176 0.200967 -0.000898 0.664498 0.120319 0.000827 -0.036452 -0.005220 0.264839 -0.029887 -0.369075 0.019685 -0.821597 0.000345 0.184895 0.051373 0.445616 0.001686 -0.144353 0.094461 0.499687 0.003671 0.085970 0.157294 -0.110426 0.000088 0.035208 -0.101236 -0.603791 0.006309 -0.001606 0.074011 0.000787 0.007500 0.388579 -0.014805 -0.029798 -0.558545 -0.453228 -0.859670 0.016595 0.005485 -0.000466 0.039965 0.000816 -0.052954 0.047529 -0.000091 -0.003102 -0.576662 -0.526519 0.002157 -0.017013 0.141807 0.010470 -0.367762 0.194544 0.201371 -0.002360 0.049544 0.162027 -0.659656 -0.272479 0.545387 -0.002418 -0.071999 0.001928 0.250156 0.683248 -0.001865 -0.278176 -0.476461 -0.006910 0.308628 -0.001980 -0.101917 0.205203 -0.660819 0.001572 -0.159470 0.265851 0.212471 0.008040 0.813562 -0.203359 0.014924 -0.060886 -0.001294 0.078240 -0.003150 -0.604504 -0.580879 -0.173540 0.005347 -0.486405 -0.027847 0.172335 -0.022519 0.006279 -0.007647 -0.093731 -0.003418 -0.864454 0.002312 0.548254 -0.089172 -0.000303 0.004539 0.029773 0.226131 0.004441 0.449585 0.153286 -0.000182 0.004837 0.743514 0.618587 -0.053129
-0.006187 0.140194 -0.000316 -0.204346 -0.002979 0.048125 0.293772 -0.028322 0.384655 -0.135625 0.217547 -0.130677 0.000540 0.594049 0.479279 -0.001788 -0.135613 -0.002747 0.011700 0.130009 0.205862 -0.018998 -0.254429 -0.001030 -0.200148 -0.744550 0.213998 0.000691 0.166681 0.309640 0.131162 -0.367947 0.847795 -0.246353 0.154986 -0.003101 0.387660 0.353302 -0.174937 -0.000273 0.000123 -0.475861 0.003161 0.002982 0.280448 0.002017 0.140643 0.054126 -0.260405 -0.399594 -0.316481 -0.004486 0.002701 -0.088206 0.015919 -0.018348 -0.406517 -0.002967 -0.006143 -0.296500 0.119657 0.000296 -0.033270 -0.506925 0.004348 0.129329 -0.393225 0.074672 0.003164 -0.499643 -0.548747 0.208332 0.289305 0.111010 0.002581 0.274364 0.002017 0.455579 0.088575 -0.000402 0.460548 -0.120272 0.003926 0.307909 0.001431 -0.079610 -0.244327 -0.141838 -0.002334 -0.473421 -0.455973 0.110421 0.019296 -0.060671 -0.344976 0.011367 0.007639 -0.004097 0.014692 0.002249 0.084948 -0.261460 0.071574 0.000305 0.153685 -0.097047 -0.155190 -0.028798 0.016214 -0.018810 0.275894 -0.002960 0.016429 -0.001428 0.360284 0.154294 0.002316 0.018951 0.002064 -0.495809 -0.001250 -0.145832 -0.450808 0.000815 -0.013124 0.046860 0.326646 0.050629
-0.009186 -0.027411 0.005622 0.397598 0.004059 -0.115018 0.003413 0.093638 -0.250208 0.150003 -0.193230 -0.181372 0.001567 -0.668110 0.154512 0.015202 -0.231015 0.001356 0.035541 0.043472 -0.007720 -0.002560 -0.144026 0.001111 -0.229416 -0.649618 -0.295952 0.000592 -0.014707 0.118404 0.005452 0.086035 0.169570 -0.226630 -0.026474 -0.004385 0.437232 -0.623398 0.324565 0.000649 0.007715 -0.388824 -0.003675 -0.005223 -0.005909 0.011876 -0.027259 0.408467 0.102053 -0.278315 -0.184444 0.003099 -0.001859 0.137045 -0.002507 -0.025239 0.011433 -0.000062 -0.000285 0.178693 -0.035330 -0.003462 -0.007069 -0.341496 -0.002276 -0.761649 -0.162011 -0.083032 0.003900 -0.604967 -0.150410 0.160050 0.139809 -0.429393 -0.000306 0.333632 0.001036 -0.258607 0.108603 0.000495 -0.285698 0.073236 0.013411 0.044732 -0.004845 -0.036524 -0.074952 -0.223457 -0.002048 0.140842 0.006260 0.415168 0.004118 -0.376084 -0.395857 0.008991 -0.066057 0.000516 -0.286323 -0.002779 -0.110039 0.023488 -0.237207 -0.013553 -0.296550 -0.010117 -0.017860 -0.012697 0.028646 -0.024628 -0.218106 0.006929 -0.301031 0.004613 0.012777 -0.267089 -0.000354 -0.005766 -0.008986 -0.265062 0.003501 0.114036 -0.119014 0.003376 -0.008026 0.176730 -0.242302 0.071243
-0.004047 -0.025074 0.026599 -0.210231 -0.002082 0.036274 0.097102 -0.004639 -0.067925 -0.067718 0.045094 -0.004121 -0.004851 -0.215484 -0.113073 -0.004347 -0.325945 0.005830 0.017138 0.003699 -0.130811 0.002317 -0.087453 0.003675 -0.182963 -0.145242 0.037059 0.000556 -0.018403 0.064147 -0.032441 -0.091182 0.169780 0.107912 0.236509 -0.005307 -0.154673 -0.191552 -0.119498 -0.003949 -0.001251 -0.162532 0.004751 0.027973 0.080395 -0.003866 -0.104104 -0.027000 -0.130193 -0.044909 0.067151 0.002744 0.002249 0.064638 0.000186 -0.007624 -0.043574 -0.003170 0.011923 -0.264356 0.016394 -0.005023 0.023954 -0.284932 -0.000229 -0.025231 -0.038750 -0.015792 0.001131 -0.169201 -0.078577 -0.016999 -0.094409 -0.108356 -0.003316 0.080789 0.005345 -0.159214 -0.313800 -0.001445 -0.011971 -0.034475 0.001653 -0.082132 -0.005356 -0.198366 0.065515 -0.366857 -0.003253 -0.048718 -0.174671 -0.074735 -0.001603 0.130947 -0.164909 -0.010374 0.012465 -0.002971 0.009746 -0.002082 0.040862 -0.105833 -0.140776 -0.002225 -0.104820 -0.003802 -0.028309 -0.006341 -0.018033 0.006031 -0.047898 0.005739 -0.042624 -0.002381 -0.120376 -0.086402 -0.001538 -0.004668 0.012448 -0.107942 0.005315 0.070419 -0.077839 -0.001099 -0.000519 0.050361 0.025733 0.033528
0.000590 -0.005562 -0.002118 -0.032435 0.002377 -0.033270 -0.008581 -0.000484 -0.012239 -0.047638 -0.031393 -0.014213 0.001752 -0.025330 -0.041824 -0.005034 -0.067773 0.000819 -0.026241 -0.016377 -0.022411 -0.005519 -0.037423 0.000858 -0.056802 -0.041090 -0.024843 0.005290 -0.021785 -0.027728 -0.019717 -0.049324 -0.025372 -0.006498 0.048714 0.001800 -0.002090 0.013128 -0.044199 -0.005237 -0.006937 -0.064380 0.000843 0.006720 0.018053 -0.005225 -0.043246 -0.008298 -0.022646 -0.080360 -0.038504 0.008704 0.006032 -0.033021 0.006460 0.020124 -0.107645 0.004701 0.016173 -0.045616 -0.002416 0.002392 -0.001768 -0.022044 0.002400 -0.001891 -0.015797 -0.000124 -0.000021 -0.032566 -0.030440 -0.004659 -0.031815 -0.056210 0.000259 -0.012438 0.000717 -0.021022 -0.044985 0.005433 -0.022271 -0.024947 0.000139 -0.035224 -0.001806 -0.007859 -0.018681 -0.039100 0.002116 0.000364 -0.019172 0.036857 0.016684 -0.043710 -0.051012 -0.002830 -0.008920 0.009693 -0.008913 0.000054 0.002172 -0.074007 -0.010865 0.007891 -0.012985 -0.004447 -0.033607 -0.057730 -0.003878 -0.000516 0.007458 -0.005477 -0.030575 -0.016364 -0.044301 -0.028115 0.000229 -0.001453 0.020133 0.001745 0.005561 0.005203 -0.036136 0.000795 -0.005692 -0.026910 -0.042769 -0.007417
-0.006063 -0.075986 0.041723 0.170487 0.003173 0.973514 0.286485 0.702618 0.649613 0.132704 -0.120933 0.092777 0.003236 0.036786 0.004065 0.011843 -0.621246 0.004142 -0.134575 0.000593 -0.230995 0.001837 -0.356404 -0.000939 -0.235674 -0.257693 0.067178 -0.002561 -0.061581 -0.069694 0.136616 -0.338423 -0.073389 0.357956 -0.033292 -0.000547 -0.239764 -0.018991 0.006276 -0.000136 -0.002064 -0.066054 -0.002524 0.012649 0.498823 -0.004162 0.107424 0.125840 -0.315672 0.421001 -0.032615 -0.000787 0.000318 0.587729 0.003617 -0.004607 -0.340781 0.000898 0.011004 -0.092650 -0.042908 -0.000977 0.001834 0.318990 0.000845 0.065850 0.127995 -0.332848 0.000808 -0.141494 -0.372844 -0.171153 -0.533318 -0.350544 -0.001040 -0.257319 -0.000700 0.379658 0.429348 0.002633 -0.359884 0.490587 -0.001403 -0.042169 -0.005838 0.496501 0.300440 -0.012714 -0.000081 0.024827 -0.271701 0.126378 -0.008365 0.098241 0.464699 0.000664 -0.004242 -0.006061 0.380146 0.002364 0.130470 -0.443724 -0.222554 -0.003214 -0.244623 0.002917 0.347046 0.001551 -0.002677 -0.001812 -0.123615 0.005577 -0.054342 -0.010547 -0.306790 -0.343999 -0.001542 -0.012044 -0.028938 -0.037331 0.003213 0.129324 0.028933 -0.000339 0.002911 -0.252834 -0.254287 -0.044770
-0.011286 -0.649153 0.092766 0.209402 -0.001126 0.262530 0.314596 0.260271 -0.415150 0.125125 0.092329 -0.318565 0.002389 -0.338963 -1.029450 -0.009272 0.029564 -0.001184 0.556513 -0.104291 0.085328 0.026368 0.093938 0.002529 0.503076 -0.453545 0.446613 0.000892 0.735229 -0.295516 -0.550641 0.629290 -0.584458 0.128080 0.838161 -0.000290 -0.292977 -0.361685 0.080987 -0.004970 0.003640 0.076257 0.004690 -0.023801 0.164206 -0.016685 0.270052 -0.671921 -0.453217 -0.062870 0.291589 0.004280 0.001072 -0.060306 -0.004907 -0.051641 0.537884 -0.000839 -0.018513 -0.176070 0.369192 0.000247 0.006650 0.349587 0.000484 -0.027494 0.281522 0.574609 -0.001554 0.358666 0.774762 -0.234467 -0.464755 0.195826 0.001265 -0.197099 -0.001867 0.789889 0.120453 -0.002361 -0.057097 -0.130001 -0.007260 -0.234861 -0.003190 0.339676 0.042110 -0.005626 0.006776 -0.626691 0.205041 0.240399 -0.016142 -0.859322 -0.444497 0.002232 0.031098 -0.008785 -0.255605 -0.000683 -0.026975 -0.010930 -0.098699 -0.013297 0.673350 0.013265 0.283178 -0.014990 -0.017048 -0.016452 -0.306654 -0.004090 -0.514390 -0.005280 0.710956 0.448394 -0.003801 0.004699 -0.029763 -0.449503 0.003549 -0.540863 0.197429 0.000154 0.012803 -0.428821 -0.725873 0.039393
0.017747 -0.316620 0.034299 0.521192 -0.005804 -0.271618 -0.610576 0.148827 -0.142615 0.117766 0.164474 -0.608209 0.003197 -0.121964 -0.165643 0.042520 0.443582 0.002588 -0.450852 -0.046934 -0.288264 -0.009288 0.321091 0.004993 -0.502726 -0.518345 -0.330319 0.000446 -0.401357 -0.134276 0.072556 -0.023046 -0.039012 -0.674277 -0.173650 -0.000630 -0.277843 -0.242437 0.386416 0.002649 0.000160 -0.009114 0.003922 0.008297 -0.566413 -0.006038 -0.119887 -0.017396 -0.271545 -0.209793 -0.194442 -0.002034 0.000274 -0.131724 -0.012476 -0.046657 0.009681 -0.000513 0.008367 0.130405 0.018606 -0.001194 0.022679 -0.342827 0.004063 -0.572452 -0.258149 -0.430270 -0.000418 -0.196516 -0.367057 -0.012127 0.037053 -0.334028 -0.000148 0.551578 -0.002684 -0.794930 -0.542941 0.005492 0.044843 0.091401 -0.003532 -0.830509 0.001706 -0.102418 -0.327181 -0.308406 0.004752 0.463449 -0.053359 0.255166 0.063655 -0.685583 -0.243618 0.002579 -0.036608 0.007584 -0.628017 -0.003724 0.226725 -0.522952 -0.375143 -0.008289 -0.430770 0.041682 0.193519 -0.007647 0.069652 -0.018250 -0.372560 -0.004037 -0.027800 0.010002 -0.738802 -0.014438 0.002025 0.018707 -0.024902 -0.433108 -0.002849 -0.490267 -0.659273 -0.004344 -0.007957 -0.515838 -0.182219 0.024781
0.005724 0.116047 -0.033609 -0.463950 -0.005622 -0.196773 -0.158582 0.454906 0.446354 -0.063251 -0.652426 -0.020858 -0.000537 -0.411854 -1.068424 -0.006522 0.223387 0.003443 0.355418 -0.021468 0.095514 -0.004147 -0.241335 0.004799 -0.518494 0.275733 -0.412370 -0.005551 -0.551542 0.122969 0.119670 0.106291 0.065334 -0.160281 -0.066156 0.002817 -0.318495 -0.696164 -0.398226 0.001815 0.003570 -0.823888 0.005781 0.018123 0.292406 0.001661 -0.361841 -0.173794 -0.067692 -0.415337 0.085759 0.002814 -0.000870 -0.257028 -0.003943 -0.037845 0.177837 0.002136 0.007051 0.075788 0.160184 0.003152 0.032541 0.498411 0.001874 -0.471116 0.563288 0.271639 0.000739 -0.516524 0.279204 0.060471 -0.406444 -0.733668 -0.001319 0.160299 -0.000997 -0.117620 -0.228469 0.000083 0.313553 0.072475 -0.008997 -0.230962 0.000718 0.083140 -0.041055 0.750116 0.004011 0.431655 -0.393493 -0.407864 0.037786 -0.920570 0.370103 -0.003860 0.026499 -0.006236 -0.292226 -0.005579 -0.303664 -0.378588 -0.443460 0.005273 0.467762 -0.063609 0.146166 0.020631 0.059893 -0.000226 0.114907 0.002125 -0.393094 -0.000147 0.048156 -0.493822 0.003627 0.000582 -0.020216 0.347385 0.002257 -0.077793 -0.447984 0.000928 0.000004 0.161506 -0.421207 -0.128651
0.013691 -0.129489 0.059057 0.085503 -0.000509 -0.022202 0.129560 0.521281 -0.346453 0.229559 -0.263878 0.102528 -0.002468 -0.555334 0.030059 -0.023210 -0.331848 0.001560 -0.060822 0.013962 -0.478977 0.014476 -0.253453 -0.001336 -0.097337 0.291861 0.241207 -0.002010 0.167319 -0.207085 -0.399733 -0.185990 -0.156491 0.270781 -0.196885 0.002363 -0.121325 -0.407946 0.409115 0.002624 -0.005456 0.070072 -0.000309 0.001773 0.083072 0.004007 0.050011 0.278166 -0.189108 -0.297447 -0.156461 0.001786 -0.001868 0.077356 0.000841 0.032171 -0.207895 0.002209 -0.013125 0.055108 -0.133495 0.000098 -0.022276 -0.010072 -0.001324 0.081999 -0.339382 -0.212526 -0.003094 -0.236709 -0.240565 0.303354 -0.290145 -0.112877 0.001627 -0.079475 0.001154 -0.053196 -0.200326 0.003000 0.062775 -0.189926 -0.023474 -0.301063 -0.003130 -0.011187 0.302657 0.322147 -0.015785 -0.350821 -0.192107 0.025172 0.003137 -0.177290 -0.117931 -0.005935 0.030077 -0.006523 -0.004249 0.001651 -0.200333 -0.328910 -0.341576 -0.005174 0.302715 0.003628 0.047541 -0.020152 0.019721 0.047084 0.029932 -0.000177 0.156090 0.001064 0.138009 -0.430445 0.002010 -0.007878 0.005692 0.383391 0.001227 0.067904 -0.317236 -0.001347 -0.006172 -0.071713 -0.153829 0.097442
0.001850 0.015602 -0.043361 -0.274143 0.000591 -0.096462 -0.018297 0.412039 0.182768 0.017887 -0.462528 -0.284909 0.004127 -0.097716 0.176856 -0.002733 -0.229904 0.000853 0.035780 0.074053 -0.541356 0.000293 0.246008 -0.004063 -0.301431 0.388022 -0.186050 -0.000331 0.412463 -0.028034 0.043406 -0.362224 0.327887 0.457755 0.036322 -0.000195 -0.171780 -0.034865 -0.121116 0.002799 0.000415 -0.361660 0.000611 -0.002505 0.033560 0.003417 -0.267384 0.135605 0.271131 -0.048831 0.509582 0.001000 0.000837 -0.384562 -0.004163 -0.035763 -0.153873 -0.004970 -0.005496 -0.028035 0.183263 -0.000093 0.004526 -0.691202 -0.003122 0.010955 -0.225355 0.165633 -0.001276 -0.162301 -0.067257 0.270210 -0.004644 0.006165 -0.000341 0.127154 -0.000787 0.606886 0.154204 -0.000086 0.115339 -0.294597 -0.014612 0.225053 -0.000368 -0.402847 -0.225438 0.001438 0.002413 -0.111187 -0.003006 0.466293 -0.012789 -0.283674 0.179394 0.000422 -0.021400 -0.010213 0.053689 0.000541 0.122799 -0.720354 0.099588 0.002255 -0.256506 -0.012809 0.007717 -0.012113 0.056919 -0.007274 -0.483333 0.000938 0.257394 -0.002921 -0.416297 0.072402 -0.000801 0.000785 0.003696 -0.078861 -0.000944 0.136534 -0.195753 -0.005562 -0.017663 -0.104165 0.267798 0.044219
0.003224 0.091435 0.031092 -0.115847 -0.000508 0.046594 0.453836 -0.151306 -0.095143 0.032643 -0.131041 0.061006 -0.000819 0.212940 -0.220576 -0.007462 -0.030840 0.001100 0.004384 0.060608 0.072834 0.001206 0.312304 0.000320 -0.310391 -0.083196 -0.073912 -0.001495 -0.063623 -0.109382 -0.141190 0.061706 -0.032237 -0.127621 0.040854 0.005511 0.030174 -0.179454 -0.479565 0.002649 -0.004554 -0.349354 -0.004657 -0.002443 0.375557 0.002123 -0.220860 0.001014 -0.219425 0.150817 -0.032406 -0.000189 0.000639 -0.351516 -0.003402 -0.015102 -0.198277 0.003574 0.001637 -0.167312 -0.043515 -0.001023 0.040172 -0.073398 -0.006224 -0.445022 0.168965 0.087719 0.005742 -0.202658 -0.236688 0.207633 -0.271988 -0.490733 -0.004514 -0.196163 0.004592 -0.072738 -0.218996 -0.000630 -0.002487 -0.079949 0.006949 -0.248742 0.000513 0.183636 0.100874 -0.199123 0.003833 0.049948 -0.104716 0.092779 -0.002069 -0.005367 -0.348818 0.000225 0.017506 -0.007483 0.074445 -0.000490 -0.021642 -0.213738 -0.105564 -0.000845 -0.011750 0.013947 0.048667 -0.023282 -0.003009 0.009822 0.052403 0.002851 -0.129433 0.006625 -0.077008 -0.004496 0.003892 -0.006616 -0.011634 -0.566055 -0.002482 -0.259491 0.337907 0.002846 0.001442 0.170287 -0.141026 0.022815
-0.000341 -0.010584 -0.000237 -0.057867 -0.001499 1.433044 0.267797 0.005765 -0.076449 0.214624 0.025832 0.059323 -0.003494 -0.024301 -0.509777 0.000472 -0.308014 0.001107 1.287473 0.005747 -0.351613 -0.003237 -0.170829 -0.002652 -0.266167 -0.291774 0.521544 0.000999 0.391754 -0.207247 0.334496 0.306859 0.452511 0.431354 0.574941 -0.005634 0.099063 -0.026793 0.139024 0.000162 -0.005706 -0.189683 0.003688 -0.004011 0.443899 -0.003405 0.042461 0.636074 -0.006992 -0.196333 -0.110511 -0.000417 -0.005179 0.092711 0.005756 -0.003227 -0.372593 0.003457 0.000365 -0.532196 -0.318397 0.000232 -0.004402 -0.236144 -0.002086 -0.511032 0.085020 0.310396 0.000841 -0.099311 -0.243803 0.179580 0.015125 0.021962 0.001976 0.150719 -0.000132 0.704737 0.290717 0.002891 0.061776 -0.045792 -0.004588 -0.034455 -0.004078 0.214042 0.507240 -0.263419 -0.004623 -0.313353 -0.074497 -0.168956 -0.000713 0.717594 0.162400 -0.005749 0.001369 -0.002719 -0.235121 0.004736 -0.190774 -0.649929 0.193229 0.000854 0.349884 -0.028458 0.328257 -0.000237 0.002072 0.001803 0.348730 0.003120 -0.165275 -0.005145 -0.275619 -0.090600 -0.003818 -0.002249 -0.048911 0.037256 0.001529 0.167335 -0.195376 -0.002962 0.000188 -0.134851 0.665329 0.053166
-0.000735 -0.076008 0.025126 -0.196441 -0.001005 -0.003463 0.008887 0.007126 -0.014252 -0.150146 -0.119411 -0.003958 0.001101 0.036577 -0.020059 0.002137 -0.264333 0.000195 -0.065806 0.024200 -0.093680 -0.000272 -0.071974 -0.000618 -0.017070 -0.248750 0.060154 0.000104 0.161657 0.046262 -0.189475 -0.031893 -0.005008 -0.012663 -0.042407 -0.000655 -0.042561 -0.026601 -0.179368 -0.002796 0.001471 -0.170176 -0.003084 0.018925 0.017364 -0.011526 0.022592 -0.104783 -0.125122 -0.053505 -0.078117 -0.002219 -0.001721 -0.103584 0.004502 -0.008157 -0.024176 0.003839 -0.008594 -0.130969 0.042186 0.005491 -0.003703 -0.163958 0.000489 -0.079092 -0.095484 -0.015357 -0.001900 -0.149942 -0.036455 -0.139245 0.004733 -0.130870 0.002880 0.084701 -0.000314 -0.104718 -0.033401 -0.002063 0.041449 -0.030219 0.003881 0.019327 -0.000121 -0.070940 0.044286 -0.088440 -0.007343 -0.088649 -0.244960 -0.014166 -0.000764 -0.015214 -0.048240 0.003919 -0.041265 0.002196 -0.011768 0.005351 0.013607 -0.109555 -0.006305 0.005105 -0.119626 -0.014490 -0.031448 0.021311 -0.046840 -0.003723 -0.017573 0.000822 0.052112 -0.010496 0.035810 -0.025511 -0.003982 -0.007480 -0.002121 -0.076262 0.000074 -0.064254 -0.038976 -0.003056 -0.011548 -0.034909 -0.088874 0.043545
0.005142 -0.004152 0.008155 -0.112430 0.002602 -0.038924 -0.060334 -0.000912 -0.022604 -0.044445 -0.019994 -0.016237 0.001358 -0.016650 -0.057830 -0.012397 -0.093787 -0.002760 0.001233 -0.007451 -0.096824 -0.017283 -0.055205 -0.002586 -0.004259 -0.139421 -0.060045 -0.001767 -0.006265 -0.034492 -0.009498 -0.022983 -0.080168 0.031583 -0.011721 -0.001409 -0.059080 -0.094664 -0.028797 0.002011 -0.000317 -0.085951 0.000186 0.006110 -0.071432 0.000245 -0.038710 -0.030446 -0.092365 -0.066128 -0.092280 0.000214 -0.003235 -0.030357 0.002520 -0.019979 -0.074358 0.001317 0.015236 -0.179717 -0.053172 0.000743 0.002439 -0.070507 0.006589 -0.062333 -0.087191 -0.004058 -0.000753 -0.085963 -0.123412 -0.076192 -0.094944 -0.070672 0.001268 -0.009069 -0.003433 -0.031461 -0.045797 0.002343 -0.053207 -0.026654 -0.020085 -0.048816 -0.002013 -0.027183 0.006367 -0.010078 -0.005914 -0.122937 -0.069678 -0.033792 -0.014523 -0.015725 -0.039616 0.016389 -0.017132 -0.012420 -0.018597 -0.003242 -0.041270 -0.085318 -0.021159 -0.004687 -0.031516 -0.019936 -0.009347 -0.010303 -0.001499 0.013482 -0.028407 0.001994 -0.054920 -0.001923 -0.046001 -0.007502 0.000758 0.002790 -0.008850 -0.024338 -0.000848 -0.051135 -0.016041 -0.002086 -0.007059 -0.107300 0.076087 -0.000853
-0.000778 -0.003754 -0.000558 -0.014799 -0.001139 0.001835 -0.009643 -0.014972 0.008196 -0.007962 -0.006330 -0.001458 -0.001417 -0.006071 -0.006714 -0.004776 -0.104965 -0.004197 -0.006188 -0.003957 0.000738 -0.005760 -0.015229 -0.002016 -0.007847 -0.011853 0.003013 0.000700 -0.003156 0.005699 -0.004183 -0.006330 -0.013300 -0.006924 -0.009191 0.002585 -0.000888 -0.002792 -0.008606 0.000276 0.000307 -0.011050 -0.000072 -0.008526 -0.009340 0.003648 -0.017179 -0.014075 -0.010543 -0.001604 -0.000712 -0.000262 -0.004629 0.000968 0.002794 0.007999 -0.018588 -0.003858 -0.005493 -0.094620 -0.011298 -0.001949 -0.011552 -0.014338 -0.003275 -0.004091 -0.012463 -0.005435 0.002892 -0.013904 -0.011591 -0.013664 -0.019966 -0.007523 -0.001667 -0.013955 -0.005473 -0.026367 -0.006885 0.002655 -0.007806 -0.027548 -0.007942 -0.001740 -0.000920 -0.008162 -0.000445 -0.012092 -0.010223 -0.006044 -0.002493 -0.000978 -0.005315 -0.001499 -0.003450 -0.001227 0.002796 -0.021034 -0.003582 -0.002914 -0.019798 -0.013863 0.000115 0.003344 -0.025685 -0.010237 -0.082171 -0.017537 0.004231 -0.003390 -0.010555 -0.000683 -0.009416 0.000236 -0.005619 -0.003194 -0.000881 -0.007934 -0.001253 -0.014348 -0.002215 -0.016656 -0.025307 -0.004221 -0.011503 -0.011475 -0.007280 -0.003303
-0.005111 0.060021 0.026138 0.229983 -0.005494 -0.048717 0.178329 0.329843 0.337737 -0.195938 -0.044694 0.132711 -0.004599 -0.183493 -0.329885 0.000270 -0.449833 0.002339 0.295198 -0.012668 0.204510 -0.005384 -0.551533 0.002616 0.104957 0.155228 -0.071700 -0.002775 0.339227 -0.133775 -0.719757 -0.175307 0.023402 0.195451 -0.173254 0.005294 -0.032352 -0.013828 0.053994 -0.003292 0.001763 -0.273219 0.001659 0.006321 0.413222 0.006678 -0.122310 -0.069314 -0.127552 0.343218 -0.301635 0.008519 0.001350 0.648521 -0.004634 -0.002771 -0.200830 0.002386 -0.007730 -0.071325 -0.148115 0.000219 -0.004801 0.439397 -0.004953 -0.159304 -0.026528 0.037401 0.002227 -0.229097 -0.586196 0.125488 0.060384 -0.043454 0.000454 0.135740 0.000703 -0.167098 0.113238 0.004600 0.261140 0.508367 -0.002694 -0.093478 -0.005505 0.577751 0.079449 -0.015238 0.000467 0.213250 0.025875 -0.058132 -0.000532 -0.564102 0.385368 -0.016125 -0.001079 -0.000410 0.352443 -0.000989 -0.044752 -0.118269 -0.241481 0.010775 -0.210051 -0.010277 0.056369 0.019402 -0.001489 -0.001413 0.741322 0.000825 -0.266759 -0.000372 -0.462980 -0.314538 -0.001487 -0.020671 0.005469 -0.222017 0.002744 0.399570 0.040853 -0.002658 -0.005121 -0.647061 -0.095662 -0.007745
-0.003122 -0.010787 0.008467 -0.085836 0.002006 0.006744 0.002218 -0.003015 -0.062078 0.025148 -0.004650 0.004143 0.004325 -0.000382 -0.035737 -0.005080 -0.090314 -0.001246 0.025491 0.002152 -0.041546 -0.009267 -0.013063 0.005812 -0.053501 -0.066663 0.003811 -0.001980 -0.003361 -0.004694 -0.001900 -0.051733 -0.014228 0.034584 -0.054791 -0.002527 -0.014839 -0.089243 -0.076767 -0.000711 0.000401 -0.106464 -0.001011 -0.000817 0.022603 -0.010132 -0.002677 0.028642 -0.053637 -0.051962 -0.000392 -0.002749 0.005273 -0.041287 0.001736 0.008308 -0.052656 0.001609 -0.003740 -0.090188 0.010011 -0.002532 -0.000205 -0.024283 -0.000927 -0.035703 -0.051874 -0.005083 -0.003622 -0.044789 -0.015285 -0.015227 -0.051895 -0.077092 -0.000004 -0.037703 0.004424 -0.012901 -0.042217 -0.001401 -0.017511 -0.063444 -0.000573 -0.051445 0.003384 -0.094372 0.034150 -0.014700 0.000135 -0.005887 -0.058904 -0.021036 -0.005811 -0.002371 -0.013405 0.004052 0.000325 -0.005056 -0.033251 0.005415 -0.041708 -0.037845 -0.045079 0.005014 -0.053907 -0.003110 -0.005737 -0.005693 -0.000131 0.005512 -0.010024 0.001161 -0.086187 -0.005099 -0.041990 -0.016038 0.003536 -0.001289 0.011506 -0.070696 0.003652 0.014220 -0.006126 0.003176 -0.006487 -0.007639 0.008257 0.007059
-0.003016 -0.013308 0.008456 -0.000815 0.002267 0.005306 -0.014794 0.005075 -0.010416 -0.011600 -0.024626 0.004026 0.004558 -0.008899 -0.004245 0.009823 -0.041781 -0.000320 -0.012827 0.010186 -0.020587 0.005775 -0.017879 -0.001874 -0.005858 -0.050128 -0.004999 0.005565 -0.006530 0.000880 -0.015311 -0.010584 0.010270 -0.010941 -0.004895 -0.004791 -0.017518 -0.023060 -0.004440 -0.001561 0.001134 -0.047965 -0.002135 0.010523 -0.000113 0.005486 -0.009953 -0.006865 -0.012993 -0.008190 -0.023868 -0.005405 -0.004241 0.000338 -0.001599 -0.004049 -0.063286 -0.003514 0.001964 -0.058782 -0.002252 0.002208 -0.003435 -0.070549 0.000158 -0.050873 -0.066233 0.001349 0.004407 -0.062440 -0.024771 -0.017707 -0.019179 -0.008783 0.001357 -0.014778 -0.004694 -0.009857 0.000590 -0.001078 -0.044006 -0.020204 0.001396 -0.014859 0.001076 -0.017396 -0.000799 -0.021731 -0.000830 -0.018114 -0.078739 -0.018423 0.010283 -0.019060 -0.002642 0.007114 0.001505 -0.006873 0.004430 -0.001037 -0.014471 -0.009120 -0.025757 -0.002697 -0.020833 -0.005547 -0.000167 -0.017038 -0.000552 0.001676 -0.004928 0.008033 -0.007386 -0.003223 -0.016784 0.000475 -0.002795 0.002167 0.005530 -0.016550 -0.001428 -0.037562 -0.011326 -0.000920 -0.005023 -0.007515 -0.008837 0.001989
0.003748 -0.307184 -0.000393 -0.024839 -0.000640 0.618859 0.138085 -0.025312 0.519213 -0.012896 0.044498 -0.466414 -0.001108 -0.284306 0.073225 -0.011488 -0.255852 0.003727 0.133359 -0.003747 0.031350 0.026259 0.233135 0.004468 -0.189158 0.012445 0.279011 -0.002409 0.152766 0.062103 0.179963 -0.062593 0.027161 0.186865 0.364787 -0.002369 0.094419 -0.222092 -0.000160 0.002414 0.002491 0.052709 -0.001074 -0.002359 0.048217 -0.003705 -0.255963 0.448879 -0.094520 -0.105331 0.034806 0.001972 -0.002803 -0.053863 -0.005672 0.016284 -0.363747 -0.001999 -0.001506 0.034074 0.151201 0.004348 -0.005794 -0.265380 0.000719 0.004366 -0.273164 -0.047946 -0.000360 0.120406 -0.325282 0.019540 -0.148454 0.151130 -0.001169 -0.159264 0.002921 0.045545 0.376799 -0.000836 -0.123988 -0.180611 -0.003521 -0.277856 0.003921 0.110104 0.164328 -0.368376 -0.000972 -0.163517 -0.380773 0.020128 -0.000267 0.384014 -0.000192 -0.001768 0.001725 -0.014542 0.023150 -0.003194 -0.058828 -0.248805 -0.064826 -0.000370 0.055907 -0.010657 -0.027264 -0.000348 -0.003489 0.002104 0.249242 -0.000222 -0.582341 0.007878 0.374036 0.125493 0.001420 -0.007314 -0.008839 -0.279447 0.003012 0.120221 -0.036654 -0.000020 -0.003671 -0.201729 0.476854 0.020579
0.011201 0.026315 0.000485 -0.102364 0.002602 -0.300812 0.028788 -0.004255 0.883269 -0.083926 -0.168306 0.174709 -0.001141 0.313301 -0.444833 0.000564 -0.524304 0.001932 -0.138785 0.006019 -0.249577 -0.018729 -0.055482 0.003984 -0.099904 -0.060274 0.042997 0.002300 0.390645 -0.157845 -0.357956 0.145232 -0.123781 0.151228 -0.051500 -0.000274 0.012846 0.289596 -0.319499 -0.003031 -0.000054 -0.265352 0.000983 -0.002669 -0.147306 -0.001658 0.248845 0.060482 0.137394 0.381078 0.084622 0.003879 -0.001987 0.359996 -0.003793 -0.001068 -0.142235 0.003445 0.004414 -0.272472 0.045535 0.004662 -0.008023 -0.309461 0.002097 0.007053 0.244786 -0.108551 -0.000070 0.436314 -0.193405 -0.151499 -0.202682 -0.236454 -0.001966 0.279463 -0.000373 -0.080642 0.441201 0.003035 0.408340 0.168493 -0.011292 0.125677 -0.000487 -0.305804 0.116981 0.163393 -0.004107 -0.118144 -0.446040 0.699669 0.014020 -0.390362 -0.026588 0.003343 -0.004286 -0.000942 -0.326493 -0.001786 0.349263 -0.112630 0.565957 -0.004481 -0.198689 0.002334 0.137390 -0.024982 0.002096 0.004793 0.159513 -0.003929 -0.118117 0.004264 0.233171 0.436927 -0.002822 -0.015811 -0.003864 -0.271615 0.000724 0.062336 -0.397584 0.001872 0.001003 -0.051838 -0.239768 -0.007771
0.012349 -0.121959 0.005696 -0.049542 0.001518 0.021357 -0.239723 -0.082044 -0.307580 0.172816 -0.292976 0.090229 -0.000275 -0.277921 -0.395766 -0.012954 -0.098714 -0.002881 -0.108538 0.006516 0.100838 -0.000108 -0.254718 0.000130 -0.222172 0.124125 0.414935 0.002806 -0.165603 -0.023747 0.355751 0.151685 0.071991 -0.353203 0.099496 0.000638 -0.188107 -0.261017 -0.339059 0.002789 -0.001437 -0.290135 0.000811 0.011886 0.049338 0.004166 0.657105 0.035468 -0.112894 -0.217842 -0.054286 0.005374 0.004524 0.170573 0.000280 -0.013057 -0.311891 -0.004564 0.004854 0.004438 -0.041101 -0.000757 -0.006855 -0.218617 -0.000703 -0.138903 -0.336153 0.069315 0.003033 0.138869 -0.359772 -0.210040 -0.157740 0.009460 -0.000428 -0.159279 -0.002861 -0.236167 -0.022429 0.000549 0.094945 0.102310 0.004831 0.123835 0.001149 -0.349970 0.366618 -0.193106 -0.004483 -0.087781 -0.429395 0.042652 0.000503 -0.226666 0.306010 0.000461 -0.005662 -0.013841 0.000861 0.003302 -0.467948 -0.141005 -0.397172 -0.004325 0.063819 -0.006620 0.159821 0.013184 -0.004677 -0.000370 0.195469 0.005551 -0.329146 -0.003292 0.111280 0.018679 0.000478 -0.001873 -0.009617 0.467278 0.000458 -0.034220 -0.251729 0.004655 -0.000879 -0.197838 -0.384014 -0.001087
-0.001831 -0.390507 0.065672 0.102130 0.005803 -0.134502 0.375270 0.010825 0.905205 -0.060729 0.062225 0.330146 0.005018 -0.312526 -0.002269 -0.005783 -0.195043 0.004915 0.028082 -0.060284 -0.266260 0.005226 -0.245299 0.005640 -0.228707 -0.199189 -0.322121 0.005280 0.024049 -0.159338 -0.281263 0.275686 0.423753 0.522264 -0.160667 0.000874 -0.013164 0.263408 -0.037620 -0.006510 0.001524 -0.125776 -0.000026 0.024557 0.039055 -0.012679 -0.374541 0.457580 -0.419472 0.156175 0.773784 0.003615 -0.001757 -0.255202 -0.004032 0.010193 -0.374016 0.004565 -0.002833 0.142879 0.169793 0.002681 0.010297 -0.240748 0.009226 -0.025059 -0.142459 -0.285880 -0.001498 0.119567 0.240218 -0.132692 0.440934 -0.450551 0.004307 0.304671 0.000056 -0.259353 0.024063 -0.001826 -0.203187 -0.106951 -0.005445 -0.317582 0.005704 -0.145480 0.043104 0.100055 -0.001843 -0.043104 -0.540060 0.539605 0.001223 0.362187 0.289570 0.003013 -0.005906 0.000556 0.350051 0.002370 0.270807 -0.347378 0.618495 0.000286 -0.124727 0.018069 0.259739 -0.003523 0.002018 0.005532 -0.227220 -0.004297 0.352658 -0.001465 0.090095 0.086119 -0.000030 -0.001445 -0.021288 0.595999 -0.001110 -0.354811 -0.156475 0.004133 0.002818 -0.440722 0.399854 0.029240
0.003683 -0.047173 0.015520 -0.301016 -0.003534 -0.211090 0.310031 0.137845 -0.126341 0.150928 -0.366406 0.514651 -0.000188 -0.183435 -0.182423 -0.003257 -0.523676 0.000021 -0.292701 0.003462 -0.894020 0.020734 0.396822 0.001487 0.107107 -0.238334 0.086228 0.005759 0.422704 -0.017890 -0.026897 -0.243952 0.417200 0.378558 0.016200 0.003196 -0.281895 0.483441 -0.121367 0.000250 0.002506 -0.137525 -0.000193 0.012505 -0.117600 -0.007127 0.206000 0.258048 0.070486 0.285359 0.099247 0.008675 -0.003047 -0.249965 -0.009424 -0.000685 -0.275666 0.001867 -0.014795 0.020222 0.105432 0.003536 0.022387 -0.445185 -0.000376 -0.011040 0.044411 0.262628 0.001896 -0.648618 -0.225719 -0.027070 -0.243364 0.036075 0.000220 -0.073227 0.001649 -0.355192 -0.167722 0.001088 -0.343152 -0.357117 -0.008275 0.026897 -0.000494 -0.197395 -0.121270 0.026409 -0.001425 -0.126005 -0.562431 0.361772 0.007700 -0.166886 0.436129 -0.011401 0.005330 0.001803 0.204369 0.005985 0.064746 -0.014607 -0.070886 -0.000050 -0.150189 -0.018916 0.021313 -0.017017 -0.002143 0.001817 -0.007736 0.010102 -0.022006 -0.014253 -0.421070 -0.386192 -0.005171 -0.001220 -0.021925 0.107949 0.001329 -0.482364 -0.436969 -0.000777 -0.014817 -0.018983 0.262541 0.000842
0.020522 -0.083556 0.003350 -0.141142 -0.000192 0.148528 0.300301 0.566511 0.290509 -0.117753 -0.299251 -0.065415 0.005108 0.299846 -0.172049 -0.014654 -0.365683 -0.002244 -0.007933 -0.013031 -0.266745 0.023725 0.190233 0.001103 -0.009824 -0.314259 0.276256 -0.000937 0.383162 -0.094648 0.090104 0.152618 -0.082099 0.168533 -0.011541 0.001413 -0.226161 -0.448966 0.178376 -0.003239 -0.008587 -0.522794 -0.000146 -0.003098 0.349400 -0.004891 0.136382 0.342775 -0.092088 0.389599 0.066993 -0.001610 -0.004810 -0.237770 -0.000969 -0.003370 -0.128364 -0.001328 -0.025866 -0.497619 -0.008151 -0.002781 0.018939 0.392696 -0.001541 -0.106691 0.151466 -0.008698 0.001512 -0.354963 -0.229473 0.137020 -0.182240 -0.048629 -0.002204 -0.132861 -0.004926 0.142526 0.079235 0.000585 -0.142241 -0.213523 0.006109 -0.291356 -0.002605 -0.246237 -0.065088 -0.342933 0.001434 0.050063 -0.305925 -0.120405 -0.036004 -0.047288 0.034995 0.001075 -0.002000 0.001796 0.046910 -0.005180 -0.183432 -0.014932 0.246900 -0.023630 -0.171878 -0.004345 0.090663 -0.017542 -0.020916 0.027167 0.057178 0.000781 -0.073128 -0.022732 -0.021806 0.281693 0.001155 0.008379 -0.010160 -0.072491 -0.000382 0.272394 0.327413 -0.005334 -0.017185 0.003548 -0.062084 -0.007326
