-0.000090 -0.000837 0.000268 0.000908 -0.000279 0.000495 0.000322 0.000157 0.000728 0.000149 0.000811 0.000243 0.010549 0.026480 0.025848 0.010651 0.000499 -0.000532 -0.000839 0.000321 0.000275 0.000154 0.000763 -0.000696 -0.000142 0.000436 0.000456 -0.000058 -0.000871 0.000055 -0.000497 -0.000604 -0.000306 -0.000836 0.015260 0.019419 -0.002692 -0.003995 0.000080 0.004233 -0.010720 -0.127262 -0.220584 -0.062009 0.011332 0.134814 0.039068 0.043227 0.057691 0.035348 -0.005940 -0.006149 -0.000256 -0.000057 -0.000267 -0.000672 -0.000699 0.000745 -0.000874 0.000427 0.000249 0.001653 0.012958 0.103804 0.111352 0.253679 0.220871 0.128879 0.106009 -0.272259 -0.025282 0.281519 0.346322 0.390760 0.562952 0.385688 0.226124 0.241206 0.157900 0.012264 0.029854 0.007980 -0.000103 0.000402 0.000865 -0.000899 0.002200 0.000233 0.001648 0.208014 0.380034 0.444877 0.467450 0.533164 0.278717 0.242709 0.061453 -0.177021 -0.296095 0.045678 0.193986 0.281345 0.409875 0.540646 0.554537 0.942552 0.645565 0.255989 -0.046725 0.070423 -0.012046 0.000899 -0.000668 0.001404 0.073095 0.031705 0.050543 0.188178 0.274167 0.237632 0.202277 0.391404 -0.104780 -0.284484 -0.368240 -0.187631 0.109936 0.421566 0.619258 0.865945 0.960900 0.752653 0.569466 0.462554 0.036778 0.106906 -0.417654 -0.205779 0.006153 -0.007300 0.000095 0.000910 0.089830 0.055714 0.260694 0.057346 -0.019917 0.237534 0.196785 0.011262 -0.120938 -0.002110 -0.060299 -0.104670 -0.070431 0.233515 0.256860 0.391563 0.471502 0.645620 0.586463 0.423720 0.255739 0.269954 -0.361933 -0.188488 -0.088437 -0.008455 0.000659 -0.000094 0.008669 0.048891 0.364840 0.126794 -0.033700 -0.034767 -0.041181 0.085116 -0.060423 -0.236329 -0.064382 -0.175318 -0.055741 -0.030931 -0.207513 -0.042361 0.148671 0.325040 0.075177 0.095348 0.380664 0.496125 0.066269 -0.115322 -0.113482 0.001896 -0.000322 0.002576 -0.001689 -0.037493 0.191667 0.257677 -0.077176 -0.288327 -0.066380 0.064949 -0.263504 0.162829 0.045795 -0.013588 -0.054420 -0.238736 -0.570663 -0.376594 -0.048590 0.035309 -0.042047 0.031476 0.316011 0.278402 0.151040 -0.199211 -0.134431 0.004116 -0.000561 0.010316 -0.013467 -0.067769 0.226322 0.143882 0.000815 -0.323948 -0.062897 -0.063370 -0.125475 0.069735 -0.092646 -0.229975 -0.153112 -0.464029 -0.599653 -0.287329 0.044967 -0.062656 -0.191754 -0.119764 0.184754 -0.127907 -0.022712 -0.089970 -0.038171 0.008397 -0.000001 -0.002728 0.008982 0.068110 0.206629 0.191353 -0.265814 -0.452352 -0.233664 0.048830 0.146612 -0.032638 -0.336913 -0.327380 0.058982 -0.407217 -0.706881 -0.214058 -0.105082 -0.035334 -0.259362 -0.127699 -0.081501 -0.032427 -0.007836 -0.046871 0.005067 0.009735 0.000325 -0.002393 0.005666 0.052178 0.117588 0.124902 -0.204936 -0.352324 -0.212872 0.040742 0.148996 -0.081009 -0.396581 -0.256688 -0.363399 -0.555009 -0.409019 -0.414771 -0.176543 -0.203575 -0.224771 -0.175967 -0.137178 0.146896 -0.008074 0.075170 -0.003003 0.006531 0.002599 0.003385 0.007933 0.022140 0.110137 0.173953 -0.350387 -0.262756 0.075704 0.214289 -0.203048 -0.668668 -0.353991 -0.388994 -0.442529 -0.524698 -0.567581 -0.761074 -0.334916 -0.252424 -0.105705 0.017468 -0.230096 0.031520 0.174454 0.173179 -0.007501 -0.007255 0.003606 0.002545 0.002565 0.131196 0.102029 0.035953 -0.324252 -0.261601 0.236998 0.081904 -0.440282 -0.573920 -0.206747 -0.342050 -0.261704 -0.375155 -0.496104 -0.400533 -0.304276 -0.269625 -0.187104 -0.024026 -0.415522 -0.104792 0.033194 0.162260 -0.018094 -0.006394 -0.002834 0.000878 -0.006617 0.053207 0.237283 -0.225381 -0.353471 -0.233514 0.256921 -0.012324 -0.302586 -0.139623 0.053965 -0.120314 -0.314156 -0.322032 -0.479789 -0.614077 -0.368421 -0.290307 -0.251847 -0.241712 -0.754823 -0.260209 0.001378 0.200504 0.071671 0.000777 0.000497 0.043877 0.046394 0.012391 0.275738 -0.344135 -0.211751 -0.069594 -0.059020 -0.244040 -0.282173 -0.223954 -0.441294 -0.406542 -0.431291 -0.492402 -0.446303 -0.522167 -0.318868 -0.137157 -0.337547 -0.480170 -0.711394 -0.286492 0.301372 0.184572 0.069425 0.008996 0.000193 0.037260 -0.191800 0.036391 0.292803 -0.174828 -0.307611 -0.059206 -0.095090 -0.032168 -0.196495 -0.334403 -0.372354 -0.170191 -0.200639 -0.357539 -0.273430 -0.184141 -0.183069 -0.139764 -0.286481 -0.638862 -0.484015 -0.317466 0.192143 0.305380 0.022211 0.002561 -0.000036 0.042388 -0.106983 0.073811 0.358875 -0.058110 -0.286485 0.160673 0.495243 0.335580 0.240443 -0.065887 -0.144855 -0.029440 -0.015368 -0.225053 -0.123861 0.000818 0.126878 -0.084742 -0.386130 -0.302218 -0.071339 -0.090703 0.199991 0.245801 -0.077033 0.028641 -0.000118 0.045266 0.077900 0.285103 0.140552 0.133936 -0.159472 0.034077 0.447940 0.409622 0.105682 -0.284064 -0.291632 -0.028626 0.045930 -0.173112 -0.106747 -0.015259 0.077115 -0.011297 -0.117960 -0.380245 -0.275174 -0.035688 0.236860 0.375077 0.047293 0.026057 0.000220 -0.001882 0.258655 0.168657 0.040809 0.235721 0.063058 0.025442 0.194532 0.130157 -0.114075 -0.194279 -0.222507 0.127931 0.007404 -0.097766 -0.201589 -0.158857 0.153145 0.141632 0.048755 -0.394662 -0.234216 -0.033504 0.205243 0.558251 0.076876 0.007513 -0.000883 -0.002493 0.314307 0.115014 0.266938 0.280017 0.259087 0.066920 -0.079767 0.079516 -0.030277 -0.167476 -0.098064 -0.129980 -0.407995 -0.578352 -0.471324 -0.070641 0.281994 0.327640 0.140894 -0.014794 0.136947 0.088055 0.473262 0.392367 0.176834 -0.000858 -0.000586 -0.001256 0.187389 0.413042 0.351006 0.288089 0.076574 -0.170442 -0.346526 -0.041251 -0.064397 -0.198649 -0.225206 -0.401142 -0.538737 -0.692374 -0.606099 0.105778 0.270277 0.374252 0.258464 -0.017228 -0.083231 0.265854 0.408549 0.411105 0.095068 -0.002147 -0.000350 -0.000671 0.103840 0.488141 0.321455 0.219195 -0.032259 -0.242987 -0.364663 -0.118335 0.007427 -0.083082 -0.040132 0.019596 -0.169324 -0.190793 -0.028400 0.254314 0.206579 0.255586 0.056313 -0.037345 -0.039615 0.073330 0.053364 0.310523 -0.040204 -0.000546 -0.000281 0.000570 0.030005 0.588761 0.703216 0.628034 0.332991 0.057845 -0.241307 -0.443498 -0.324230 -0.123937 0.077200 0.230000 0.323288 0.255500 0.270079 0.233770 0.226376 0.179435 0.313371 -0.120381 -0.154807 -0.014077 0.006904 0.097276 -0.050385 0.000850 0.000891 0.000338 -0.009059 0.843750 0.656324 0.733144 0.259009 -0.063949 -0.320120 -0.645729 -0.619237 -0.307574 0.036756 0.273372 0.273131 0.164342 0.141955 0.106819 0.273929 0.099609 0.158287 -0.021801 -0.049893 -0.276886 -0.224438 0.039809 -0.066038 -0.000536 -0.000532 -0.000014 -0.060554 -0.001380 0.253497 0.353894 0.232072 -0.386415 -0.363776 -0.290698 -0.190441 -0.276244 -0.242970 -0.256936 -0.502462 -0.672338 -0.768980 -0.474607 -0.355501 -0.150456 -0.101327 0.155691 0.179215 0.091131 0.098939 0.002689 -0.008391 0.000541 0.000383 0.000115 0.001252 0.008170 0.027348 -0.055315 0.053211 0.083422 -0.034480 -0.088196 -0.001606 0.121104 0.245000 0.180589 0.303706 -0.088344 -0.224434 -0.280391 -0.141760 -0.110565 -0.108339 0.023580 -0.077884 -0.086212 -0.007744 -0.006792 -0.007394 -0.000513 0.000642 -0.000708 -0.000095 0.000249 0.005662 -0.004686 -0.116623 -0.118088 -0.204142 -0.131214 -0.051908 -0.079878 -0.052882 -0.089154 -0.008792 -0.002613 0.009896 0.003268 0.046751 0.046991 0.014142 0.022093 -0.060474 -0.082840 -0.000033 -0.000574 -0.000874 0.000266 -0.000548 -0.000353 0.000078 -0.000398 0.000717 0.000864 0.000035 -0.000508 -0.001753 0.000024 0.012845 0.009308 -0.001468 0.002685 0.008188 0.004714 0.013610 0.006490 0.002894 0.001129 0.001486 -0.001198 0.023721 0.000882 0.000909 0.000188 -0.000235 -0.000806
0.000802 0.000087 -0.000042 0.000085 0.000516 -0.000229 -0.000452 0.000838 -0.000190 -0.000599 -0.000485 -0.000346 -0.047900 -0.056380 0.000087 0.000603 -0.000431 0.000827 0.000100 -0.000170 -0.000410 -0.000728 -0.000583 -0.000572 -0.000282 0.000872 0.000278 0.000480 0.000294 -0.000234 0.000811 0.000669 -0.000598 0.000362 -0.000934 -0.000364 -0.011781 -0.010426 -0.020401 -0.039685 -0.077390 -0.078874 -0.009918 0.000524 0.000522 0.000862 0.000249 0.000105 -0.000724 0.000198 0.000141 -0.000361 0.000399 -0.000285 -0.000080 0.000347 -0.000818 -0.000712 -0.000775 -0.000566 -0.000892 0.000631 -0.001301 -0.177406 -0.220137 -0.134247 0.007181 -0.248515 -0.392908 -0.719013 -0.570228 -0.473523 -0.741957 -0.405501 -0.014778 0.037907 0.013708 -0.001830 -0.009262 -0.000461 -0.000429 -0.000434 0.000895 -0.000188 -0.000489 -0.000298 -0.001770 0.000133 0.107379 -0.026203 -0.025654 -0.005847 -0.174543 -0.019654 -0.422221 -0.553903 -0.429670 -0.627620 -0.909413 -0.494237 -0.044577 0.394607 0.951176 0.870729 0.552481 0.465959 0.003681 -0.166833 -0.066829 -0.008263 0.000455 0.000208 -0.000592 -0.008496 -0.001984 0.744832 0.753418 0.396438 0.208279 0.332191 0.170000 0.335747 0.127759 0.223067 0.120035 -0.002650 0.028141 -0.182311 -0.175150 0.258915 0.647597 -0.590782 -0.846198 0.223248 0.293377 0.437676 0.835041 0.235586 -0.184376 -0.174298 0.000750 0.000237 -0.150946 0.076768 0.647382 0.381278 -0.229723 -0.091828 0.113035 0.167983 -0.236427 0.148630 0.117066 0.232560 0.180350 -0.541320 -0.164818 -0.043942 -0.058360 0.001547 0.549366 0.327620 0.446382 0.333689 0.210151 0.568099 0.573239 0.214494 0.000569 -0.000620 0.468295 0.157742 0.270287 0.010747 -0.117650 -0.255890 0.162441 0.290663 0.478923 0.088025 0.056528 0.174128 0.397294 -0.268268 -0.424226 -0.010872 -0.108296 0.035389 0.603906 0.485615 0.520927 0.372695 0.563710 0.701952 0.531952 1.124842 0.000319 0.067884 0.442308 -0.368361 0.001528 -0.114928 -0.075601 -0.228081 0.062496 0.224385 0.168405 -0.232018 -0.010996 0.073212 0.352059 -0.123679 -0.142069 0.020354 -0.053897 -0.323954 0.163635 0.129112 0.131113 -0.006668 0.362918 0.766731 0.616579 0.928656 -0.000004 0.143250 -0.175355 0.073150 0.260970 0.189996 0.037347 0.050936 0.097575 -0.083039 -0.345620 -0.055296 0.102646 0.109860 -0.068365 -0.163040 0.157438 0.029732 -0.161599 -0.152304 0.016398 -0.195726 -0.084869 0.102786 0.486039 0.154880 0.248802 0.570036 0.000431 0.070956 0.528561 0.364726 0.125332 -0.009026 0.318116 0.213865 0.106487 0.059873 -0.134216 0.446759 0.079486 0.144672 0.106024 0.006657 0.143383 0.079461 0.125398 0.071937 0.035619 -0.277540 -0.494818 -0.359844 -0.036299 0.499273 -0.246728 0.159184 -0.000877 -0.054395 0.328218 0.550461 -0.128594 -0.374350 0.422512 -0.062360 0.131067 0.025236 0.148438 0.233689 0.359246 0.389715 -0.028032 -0.339657 -0.338569 -0.165575 -0.115477 -0.375965 -0.129594 -0.262645 -0.321368 0.051360 0.366045 0.399125 0.429947 0.141427 -0.041146 -0.009145 -0.629034 -0.189040 -0.048514 0.214339 0.302663 -0.086290 0.213472 -0.134941 0.033599 -0.018627 -0.289840 -0.322342 -0.604069 -0.064641 0.029796 -0.321105 -0.048360 -0.027647 -0.221140 -0.502401 0.194129 0.697066 1.007116 0.559471 0.252116 -0.033358 -0.040621 -0.283813 -0.494302 -0.234323 0.256287 0.004871 0.136883 -0.084400 -0.116232 -0.168582 0.374323 -0.225259 -0.306580 -0.007187 -0.063250 0.179807 -0.270070 -0.003927 -0.151698 -0.013454 -0.029052 -0.223328 -0.088062 0.513019 0.172085 0.367709 0.236483 -0.215918 -0.032955 -0.853207 -0.978795 -0.366497 0.181927 0.163063 -0.109093 -0.335744 -0.657166 -0.191611 -0.017659 -0.231636 0.348595 0.227667 0.379359 -0.257751 -0.207325 -0.338764 -0.326731 0.042751 0.220057 -0.351403 -0.768894 -0.230468 0.014727 0.298844 -0.350529 -0.016268 0.357887 -0.760031 -0.808319 -0.493683 0.473059 -0.466035 -0.135894 0.008862 -0.021577 0.225562 -0.018304 -0.067379 0.220988 0.419811 0.262606 0.147411 0.079041 -0.211112 -0.301376 -0.510895 -0.014271 -0.275159 -0.641711 -0.578169 -0.196074 0.069954 -0.620948 -0.015749 0.282368 -0.013136 -0.412460 -0.488060 0.421816 0.161997 0.170379 0.395225 0.711973 0.623081 0.354994 0.216376 0.347207 0.289206 0.207695 0.083430 -0.209009 -0.619803 -0.218086 -0.456838 -0.141532 0.075899 -0.192024 -0.677711 -0.479452 -0.390213 -0.230376 -0.000648 0.000013 -0.005833 -0.359267 -0.626675 0.606223 0.221500 0.057527 0.168706 0.271090 0.369404 0.660118 0.390810 0.520112 0.579462 0.085025 -0.119652 -0.509471 -0.447089 -0.193796 -0.386126 -0.004614 -0.417017 -0.285132 -0.573364 -0.458805 -0.102094 -0.253304 -0.063894 -0.000399 -0.005733 -0.345771 -0.450895 -0.770994 -0.159487 -0.432636 0.016089 -0.137504 -0.099143 0.739102 0.339949 0.418170 0.715175 -0.226806 -0.294777 -0.595988 -0.307053 -0.013849 -0.244517 0.418917 -0.301385 -0.401496 -0.112993 -0.601357 -0.426103 -0.309282 -0.259119 -0.004610 0.028827 -0.317335 -0.519948 -0.244081 -0.740570 -1.040945 -1.501833 -1.543865 -0.941785 -0.504155 -0.136168 -0.141769 -0.216575 -0.646944 -0.512454 -0.262363 -0.135060 0.038922 0.113673 0.935367 0.042326 -0.154333 0.151216 -0.813328 -0.976421 -0.149600 -0.247000 -0.000414 -0.058981 -0.030913 -0.449374 -0.345600 -0.588503 -1.096027 -1.687372 -2.122973 -2.662593 -2.592955 -2.156606 -1.465826 -1.215021 -0.803899 -0.463959 0.200714 0.178149 0.166335 0.069900 0.407400 -0.035135 0.081536 -0.108423 -1.185542 -1.159481 0.055705 -0.006776 -0.000255 -0.067278 0.407326 -0.331088 0.007384 -0.517226 -1.037799 -0.978959 -0.931286 -1.728139 -1.955892 -2.272408 -1.876362 -1.067387 -0.598401 -0.175275 0.120539 0.360533 0.289856 0.169825 0.355576 0.134567 0.387841 0.395306 -0.574579 -0.748385 0.121314 0.106145 -0.000050 0.037026 0.602094 0.065928 0.118565 -0.084291 -1.012583 -0.681322 -0.095509 -0.393599 -0.237057 -0.346368 -0.308895 -0.018739 0.039235 0.169384 0.087839 0.321084 0.104056 0.162284 0.288661 0.140670 0.361075 0.047589 -0.149245 -0.860761 -0.700828 0.000462 -0.000707 0.002192 0.407532 0.291729 -0.020878 0.244818 -0.727991 -0.565658 -0.175208 -0.013256 0.351447 0.717015 0.456853 0.480846 0.355374 0.068463 -0.242434 -0.030347 -0.338730 -0.327731 0.089127 -0.200711 0.205836 -0.091211 -0.028560 -0.392560 0.114176 0.000090 -0.000444 -0.000015 0.218439 0.736216 0.283157 0.620715 0.680103 -0.237162 -0.329315 -0.338035 0.552891 0.895200 0.845526 0.754985 0.589757 0.168468 -0.043682 0.178771 -0.416704 -0.607651 0.078158 -0.227532 0.168372 0.210648 0.104611 -0.331435 -0.075444 -0.000602 -0.000112 -0.000028 -0.059744 0.918841 0.127351 0.166601 1.139686 0.748421 0.520549 0.390442 1.043956 0.747903 0.876336 0.625317 0.737086 0.404924 -0.124127 -0.254772 -0.223010 -0.347298 0.374025 0.294298 0.501033 0.941670 0.461722 -0.378725 -0.294866 -0.000353 -0.000369 -0.000661 -0.008550 0.041510 -0.049935 0.961834 1.224626 1.389180 1.103870 0.452313 0.676578 0.228594 0.617174 0.575164 -0.163040 -0.194574 -0.099136 0.446564 0.605666 1.172797 0.761545 0.800805 1.033383 0.514520 0.521583 -0.093083 -0.138082 0.000421 0.000699 -0.000563 -0.000241 -0.000699 0.025601 0.756302 0.608223 0.599171 0.440744 0.029893 0.164990 0.445085 0.728627 0.844148 0.996408 0.598871 0.893649 0.722527 0.208481 0.536890 1.015276 0.766160 0.572045 0.760010 0.125393 0.000036 -0.000455 -0.000532 -0.000234 0.000637 -0.000643 0.000877 0.000361 -0.002005 0.473240 0.478132 0.479831 0.152822 -0.311994 0.380478 0.877313 0.594536 0.441281 -0.109012 0.524377 0.075894 -0.039167 0.205110 0.004929 -0.252238 -0.039017 -0.001035 0.000112 -0.000481 -0.000768 0.000239
0.000584 0.000038 0.000088 -0.000906 -0.000451 -0.000427 -0.000051 0.000581 0.000146 0.000046 -0.000202 0.000827 -0.000234 -0.000780 -0.000704 0.000218 -0.000755 -0.000157 0.000195 0.000381 -0.000042 -0.000432 -0.000024 -0.000753 0.000751 -0.000204 -0.000869 -0.000206 -0.000561 0.000362 -0.000296 -0.000411 -0.000490 -0.000279 -0.000658 -0.000154 0.000600 -0.000255 -0.000578 0.000646 0.000851 0.000757 0.000272 -0.000443 0.000049 0.000254 0.000136 -0.000158 -0.000794 -0.000710 0.000876 -0.000754 0.000534 0.000631 -0.000797 -0.000161 -0.000004 -0.000419 0.000822 0.000173 0.000325 0.000439 -0.000530 -0.000823 -0.000604 0.000515 -0.000745 -0.000001 -0.000860 -0.000642 -0.000417 -0.000621 -0.000534 -0.000831 0.000550 0.000460 -0.000419 -0.000115 -0.000655 -0.000509 -0.000739 0.000266 -0.000351 0.000108 0.000419 -0.000417 -0.000375 -0.000308 0.000580 0.000167 0.000522 -0.000194 0.000289 0.000180 -0.000903 0.000366 -0.001667 -0.002047 -0.001926 -0.000901 -0.000546 -0.001146 0.000090 -0.000544 0.000095 -0.000200 0.000190 -0.000578 -0.000745 -0.000602 0.000090 0.000721 0.000042 0.000694 0.000211 -0.000131 -0.000194 0.000074 -0.000628 0.000584 -0.000237 0.001686 0.001281 0.001206 0.001029 -0.000916 -0.001424 -0.001039 -0.001367 -0.001436 -0.000520 -0.001623 -0.001042 0.001060 0.002252 0.000629 0.000396 -0.000046 0.000903 -0.000709 -0.000343 0.000217 0.000178 -0.000484 -0.000441 -0.000080 -0.000272 0.001706 0.002713 0.001426 0.003364 0.002247 0.000858 -0.001123 -0.001096 -0.001084 -0.002354 -0.000839 -0.001656 -0.002503 -0.002454 -0.001832 -0.000174 0.000566 -0.000607 0.000461 0.000589 -0.000832 0.000640 0.000075 0.000300 0.000375 0.000596 0.000193 0.001920 0.002930 0.001566 0.002185 0.001344 -0.000353 -0.001793 -0.001829 -0.002241 -0.001473 -0.002450 -0.001547 -0.001888 -0.002510 -0.001502 -0.001374 -0.000159 -0.001013 -0.000469 -0.000178 0.000867 0.000686 -0.000749 0.000395 0.000191 0.000812 -0.000177 -0.000827 0.000649 0.000509 0.000887 0.001387 -0.000712 -0.001768 -0.001552 -0.001800 -0.001625 -0.002438 -0.001793 -0.000832 -0.002100 -0.001936 -0.001705 -0.000629 -0.000746 -0.000858 0.000903 0.001144 -0.000237 0.000014 -0.000285 -0.000176 -0.000497 0.000660 -0.000478 -0.002044 -0.000764 0.000535 0.000595 -0.001302 -0.003000 -0.001560 -0.001699 -0.001147 -0.001594 -0.001551 -0.002387 -0.002118 -0.002685 -0.001332 -0.000190 -0.000979 -0.002380 -0.000927 0.000704 0.002084 -0.000733 -0.000655 0.000454 0.000847 0.000222 -0.000101 0.000810 -0.001630 -0.000619 -0.001976 -0.000347 -0.000980 -0.001467 -0.002038 -0.001570 -0.002065 -0.001443 -0.000568 -0.001524 -0.001157 -0.001454 -0.002131 -0.000176 -0.000696 -0.001915 -0.001130 0.001717 0.001879 0.000641 0.000350 0.000637 -0.000656 0.000842 0.000765 0.000815 -0.002040 -0.002207 -0.002071 -0.001328 -0.001617 -0.002301 -0.002601 -0.002044 -0.001091 -0.002279 -0.000835 -0.000569 -0.001623 -0.002458 -0.002358 -0.000202 -0.000615 -0.001816 -0.002124 -0.000613 -0.000609 0.000126 -0.000148 0.000734 0.000276 0.000291 -0.000510 -0.000266 -0.000885 -0.002235 -0.002378 -0.001885 -0.001460 -0.002562 -0.001363 -0.001586 -0.000595 -0.002217 -0.000785 -0.000584 -0.002153 -0.000815 -0.001125 -0.000902 -0.002100 -0.000659 0.001775 0.001242 -0.000795 0.000576 0.000321 -0.000733 0.000076 0.000147 0.000198 -0.000009 -0.000974 -0.001543 -0.002568 -0.000931 -0.001189 -0.002481 -0.001983 -0.002187 -0.002171 -0.001256 -0.000658 -0.002074 -0.000730 -0.000201 -0.000641 -0.001708 -0.002779 -0.002925 -0.001837 0.001487 0.000387 0.000372 0.000876 -0.000177 -0.000261 -0.000742 -0.000019 -0.000406 -0.000715 -0.002136 -0.002263 -0.000609 -0.000215 -0.000454 -0.001195 -0.000208 0.000617 -0.001234 -0.000912 -0.002315 -0.001096 -0.000086 -0.000759 -0.002428 -0.002750 -0.002208 0.001442 0.000960 -0.000715 -0.000487 0.000320 -0.000657 -0.000736 0.000540 0.000113 0.000391 -0.001947 -0.000601 -0.001964 -0.000607 -0.000595 -0.000612 -0.000922 -0.001497 -0.001083 -0.000786 -0.001519 -0.001526 -0.000889 -0.000294 -0.002189 -0.001829 -0.002376 -0.001256 0.001222 0.002167 0.000730 0.000024 0.000890 0.000148 -0.000369 0.000053 -0.000102 -0.000679 -0.000599 -0.001058 0.000918 -0.001364 -0.000725 -0.001460 -0.000747 -0.002059 -0.001694 -0.001791 -0.000812 -0.001292 -0.000574 -0.001334 -0.002610 -0.001080 -0.002591 -0.002049 -0.001739 -0.000360 -0.000688 -0.000015 -0.000200 0.000783 -0.000280 -0.000177 -0.000760 0.000087 -0.001266 0.000449 0.001789 -0.000481 0.000093 -0.000322 -0.001823 -0.001613 -0.001519 -0.001660 -0.000374 -0.000707 0.000296 -0.001959 -0.002246 -0.002911 -0.001077 -0.001079 -0.000479 0.000368 0.000116 -0.000192 0.000655 -0.000908 -0.000237 0.000563 0.000514 -0.000641 0.000264 0.002555 0.001306 -0.001433 -0.001630 -0.001769 -0.000567 -0.001245 -0.000289 -0.000841 0.000044 -0.000293 0.001185 -0.000889 -0.001518 -0.002733 -0.002270 -0.001373 0.000539 -0.000394 -0.000042 -0.000536 0.000291 0.000419 0.000167 0.000328 0.000521 0.000727 -0.001626 0.000773 0.001537 0.000152 -0.001306 -0.000940 -0.001237 -0.002514 -0.002018 -0.000922 -0.000640 -0.000820 -0.000017 0.000366 0.000513 -0.002031 -0.002564 -0.001917 0.000365 -0.000332 -0.000426 -0.000156 0.000685 0.000542 0.000302 0.000513 -0.000736 -0.000241 -0.001505 -0.000471 0.001628 -0.001074 -0.001245 -0.001284 -0.001011 -0.002161 -0.001711 -0.001336 -0.001363 -0.002037 -0.000813 0.001682 -0.000576 -0.001585 -0.002448 -0.001650 0.000604 -0.000193 -0.000220 0.000891 0.000870 0.000489 -0.000241 0.000720 -0.000678 -0.001615 -0.001894 -0.001435 0.000958 -0.000265 0.000704 -0.001068 -0.002089 -0.001238 -0.002114 -0.001703 -0.001445 -0.002441 -0.001800 -0.000003 0.000957 -0.000294 -0.001814 0.001874 0.001711 0.002056 0.000814 0.000738 -0.000415 0.000433 0.000817 -0.000281 0.000397 -0.001738 -0.002082 -0.002145 -0.001796 -0.000657 -0.000088 -0.001319 -0.002617 -0.002389 -0.001060 -0.000925 -0.001636 -0.002020 -0.001872 -0.000582 0.000161 0.001520 0.001013 0.001503 0.002163 0.000768 -0.000474 -0.000525 0.000029 -0.000905 -0.000841 0.000014 -0.000686 -0.002291 -0.000766 -0.001628 -0.002706 -0.002325 -0.001053 -0.001388 -0.002844 -0.003029 -0.000809 -0.001752 -0.000854 -0.001817 -0.000565 0.000721 0.002529 0.001782 0.002333 0.000873 0.001150 0.001206 -0.000707 0.000545 -0.000310 -0.000762 -0.000490 0.000566 -0.000671 -0.001482 -0.001488 -0.001303 -0.001768 -0.001162 -0.001818 -0.001133 -0.002090 -0.000888 -0.001717 -0.000804 -0.000936 0.000065 -0.000336 0.000286 0.001857 0.001281 0.001149 -0.000095 0.000880 0.000833 0.000474 0.000134 -0.000009 0.000349 0.000734 0.000785 0.000516 0.000234 -0.000749 -0.000521 -0.000517 -0.002269 -0.000985 -0.002382 -0.001448 -0.001024 -0.001029 -0.002058 -0.000441 0.001232 0.000739 0.001923 -0.000369 0.000087 0.000604 -0.000631 0.000810 0.000760 -0.000542 0.000765 -0.000418 -0.000554 0.000354 -0.000199 0.000576 0.000773 -0.000575 -0.000552 -0.000236 -0.000744 -0.001298 -0.002147 -0.001873 -0.002126 -0.001059 -0.000872 -0.002213 -0.001816 -0.001512 -0.000143 0.000173 0.000765 -0.000346 -0.000590 -0.000649 0.000131 0.000775 0.000899 0.000002 -0.000161 -0.000665 0.000003 0.000610 0.000815 0.000293 0.000772 -0.000447 -0.000412 -0.000884 0.000676 -0.000031 0.000757 0.000803 0.000404 -0.001468 -0.002108 -0.000612 0.000040 0.000482 -0.000111 -0.000509 0.000575 -0.000431 0.000175 -0.000792 -0.000650 0.000084 -0.000177 0.000577 0.000736 0.000834 0.000786 0.000224 -0.000554 0.000321 0.000816 -0.000610 0.000603 -0.000877 0.000863 0.000076 -0.000361 0.000001 -0.000354 0.000781 0.000375 -0.000191 0.000431 -0.000244 -0.000550 0.000018 -0.000181 -0.000398 0.000109 -0.000433
0.000398 0.000016 0.000322 -0.000832 -0.000389 0.000411 0.000602 0.000200 0.000075 0.000037 -0.000321 -0.000061 -0.000357 0.000184 -0.000538 0.000489 -0.000529 -0.000653 -0.000429 0.000685 0.000305 -0.000848 -0.000789 0.000512 -0.000120 0.000343 -0.000260 0.000213 -0.000271 -0.000110 0.000261 -0.000909 -0.000841 0.000907 0.000096 0.000824 -0.000157 -0.040665 -0.051358 -0.055917 -0.056787 -0.046303 -0.097607 -0.539814 -0.644651 -0.683128 -0.148853 0.000860 0.000399 -0.000287 -0.000800 0.000189 0.000604 -0.000506 -0.000818 -0.000716 -0.000833 -0.000081 0.000502 -0.000755 -0.000061 -0.000636 -0.000648 -0.001386 -0.043080 -0.157177 0.134856 0.131038 -0.017173 -0.663337 -0.625115 -1.067162 -0.815107 0.252007 0.407281 0.486604 0.300953 0.186171 0.171737 0.212301 0.173379 0.113022 0.000418 -0.000657 -0.000482 -0.000304 0.770029 0.756319 -0.177651 -0.016298 -0.076714 0.424654 0.384261 0.331534 0.367159 0.202445 -0.496668 -0.703798 -0.533391 -0.644510 -0.522737 -0.150973 0.245486 0.053009 -0.725815 -1.174695 0.202356 0.124131 0.138492 0.093730 0.005537 -0.000005 -0.000644 -0.000508 0.773270 0.768253 0.052528 -0.155236 -0.192656 0.169897 0.119328 -0.421818 -0.535964 -0.355184 -0.805551 -0.215944 0.154622 -0.136601 0.485516 0.691614 0.107190 0.142759 0.410765 0.275776 0.673425 0.155619 -0.452486 -0.506713 -0.361303 0.000185 -0.000496 -0.000729 0.810782 0.789654 -0.111366 0.064848 -0.038743 -0.432704 -0.912533 -0.559682 -1.569885 -1.693127 -1.749951 -0.707219 -0.181366 0.191489 0.226991 -0.123446 -0.333737 0.361659 1.057433 0.791630 0.928166 0.250063 -0.271025 -0.139901 -0.151491 0.077540 -0.000357 -0.116632 0.171494 0.355282 0.060154 -0.189031 -0.387981 0.050309 0.100883 -0.740071 -1.809748 -0.952599 -0.822761 -0.858681 -0.098687 -0.030026 0.045767 0.229811 0.353467 0.389776 0.726988 0.325912 0.368882 0.512595 0.288689 0.385661 0.332269 -0.063761 -0.000854 -0.374619 -0.121197 0.040404 0.531752 0.413825 -0.227520 0.103806 0.254716 -1.007208 -2.386429 -0.944687 -0.314570 -0.262211 0.398014 0.328728 -0.003151 0.066720 0.024076 -0.074298 0.098967 0.607586 0.525889 0.652899 0.109013 0.450810 0.349061 -0.024571 -0.000405 -0.512709 0.014825 -0.464241 0.368931 0.310672 -0.150143 -0.254046 -0.101785 -1.333439 -1.328004 -1.752537 -1.373893 -0.260323 0.040929 0.194256 0.206785 0.040369 -0.290782 -0.473801 -0.247094 0.368068 0.081674 -0.133242 -0.827896 0.257646 0.410143 0.484805 -0.211428 -0.181852 -0.013451 -0.420655 0.326120 0.187742 -0.189640 -0.281613 -0.066328 -1.461049 -1.005787 -1.258962 -0.471890 0.225782 0.100381 0.322882 0.549490 0.116885 -0.036468 -0.291199 -0.562230 -0.245883 0.095471 -0.207373 -0.018633 0.689149 0.742093 0.151107 -0.222838 0.000384 -0.140618 -0.378960 0.473204 0.142336 -0.211128 -0.353872 -1.527740 -0.668902 -0.018859 -0.395092 -0.236488 -0.155646 0.185492 0.187910 0.313958 0.336144 0.020629 0.002517 -0.302392 0.009046 0.450810 0.760774 0.422910 0.920544 0.910845 0.550059 -0.076605 0.101128 -0.005895 -0.152586 0.998328 0.616874 -0.081449 -0.853381 -1.531940 -0.332278 0.309383 -0.226563 -0.676294 -0.100094 -0.011735 0.054761 0.149622 0.051876 0.339456 0.174151 -0.184815 0.171047 0.802622 1.056637 0.705324 0.459698 0.946243 0.676400 -0.000636 0.000329 -0.152290 0.047973 0.790133 0.290338 -0.181362 -0.887430 -0.740815 0.284053 -0.021790 -0.131290 -0.598340 -0.025393 0.636027 0.005159 0.031215 0.064888 -0.056772 -0.199377 -0.447101 0.550133 0.579227 0.416984 0.141850 0.151196 0.044095 0.368298 0.184540 0.000609 -0.404318 0.636049 0.477411 -0.074298 -0.276568 -0.486392 -0.553884 0.187414 0.139053 -0.110092 -0.392080 -0.104549 0.527638 0.102668 -0.036223 0.330944 -0.414736 -0.945474 -0.786407 0.141591 0.043918 0.050525 0.223596 -0.100243 -0.013083 -0.000451 -0.000171 0.000168 0.600272 0.701137 0.677203 -0.491732 -0.760073 -0.571456 -0.087395 0.100849 0.024011 -0.211873 -0.276124 0.012630 0.260571 0.034377 0.051920 -0.257787 -0.589657 -1.202301 -0.760946 0.035174 -0.103989 -0.199216 -0.182672 0.668938 0.640024 0.000343 -0.000254 -0.000670 0.763596 -0.257964 -0.454053 -0.304181 -0.604603 -0.297031 0.338153 0.431965 -0.114717 -0.128932 0.067647 -0.078766 -0.077675 -0.046365 0.218494 -0.358196 -0.392035 -1.235932 -1.398898 -0.368619 -0.653645 -0.619171 0.020288 0.642273 0.641221 -0.000173 0.000720 0.055223 0.769700 -0.170129 -0.085361 0.168553 -0.234007 -0.365482 -0.415393 0.374065 0.153763 0.087828 0.004664 -0.134369 -0.077919 0.052639 0.527470 -0.531350 -0.556697 -1.208992 -1.178211 -0.027498 -0.737777 -0.711141 -0.015515 -0.136539 0.100205 0.000794 0.000470 0.124448 0.041071 0.006538 0.487928 0.377123 -0.242560 -0.470329 -0.403109 -0.022663 0.011757 0.137991 -0.141197 -0.254520 0.116964 0.208923 0.418054 -1.284280 -0.755647 -0.699799 -0.349958 -0.334901 -0.723273 -0.600004 -0.047807 -0.085316 0.159712 0.032672 -0.567294 0.139943 -0.068267 -0.366365 0.506517 0.288575 -0.282039 -0.030435 -0.322338 0.094377 -0.295749 0.065550 -0.260489 0.172602 0.279477 0.109376 0.128268 -0.943498 -0.507067 -0.801251 -0.881396 -0.376177 -0.577441 -0.208321 -0.059844 0.177713 0.201962 0.876053 0.081359 -0.119600 0.477051 -0.917582 0.449416 0.302536 -0.142273 -0.390250 -0.585227 -0.486331 -0.128034 0.004542 0.065964 0.445184 0.207239 0.116678 0.292412 -0.258668 -0.315572 -0.844679 -0.600344 0.253493 -0.133592 0.251076 0.149083 -0.034496 0.102965 0.870068 -0.000316 -0.219845 0.434251 -1.362183 0.130056 0.063303 0.041646 -0.624857 -0.701291 -0.352202 0.255085 0.149670 0.316230 0.257179 0.414519 0.290130 0.167000 -0.459635 -0.132289 -0.553110 -0.261840 0.253913 -0.009908 0.072413 0.263149 0.529714 0.104289 0.048105 0.147359 0.071346 0.124353 -1.368704 -0.283790 0.226070 0.231811 -0.323648 -0.355705 0.442052 0.360603 0.190230 0.037102 0.220385 0.366445 0.161939 -0.301490 -1.159647 -0.715573 -0.267936 0.012519 0.236446 -0.158544 0.061985 0.500520 0.546042 0.471042 -0.000038 0.145105 0.071824 0.132125 -1.114222 -0.416699 -0.199986 0.314880 0.088042 0.092737 0.434948 0.317682 0.309912 0.097171 0.633323 0.368876 0.152102 0.116921 -0.722024 0.470816 0.088906 0.040692 -0.075383 0.365845 -0.300448 -0.217143 0.655194 0.793273 -0.000287 0.000499 0.000250 0.002602 -0.314425 -0.385958 0.250386 0.287969 0.059138 0.536205 0.626957 0.130849 0.122793 0.267423 0.458161 0.314331 0.467459 -0.075208 -0.433269 0.242703 -0.520421 -0.060057 0.411450 0.447490 -0.177255 0.613975 0.852559 0.904855 0.000331 0.000012 -0.000762 0.000847 -0.301008 -0.159517 -0.041458 0.059426 -0.054055 0.077882 0.519171 -0.257990 -0.263895 -0.149723 -0.255232 0.079968 0.684774 0.367280 -0.210983 -0.529979 -0.374758 0.092172 0.407911 0.367414 0.124254 -0.162047 0.099518 0.091256 0.000554 -0.000454 -0.000686 0.000641 -0.156328 -0.406753 -0.456092 -0.426178 -0.580266 0.166188 0.402344 -0.781569 -0.770217 -0.058610 -0.248506 -0.160338 -0.149065 0.469685 -0.720989 -0.100329 0.610620 0.320344 -0.005237 0.286975 -0.068024 -0.068079 -0.000538 0.000689 -0.000196 -0.000521 -0.000576 -0.000219 0.000491 0.096435 -0.416057 -0.590236 -0.555694 0.030557 0.156473 -0.245771 -0.680563 -1.178952 -0.945041 0.541688 0.609958 1.136463 -0.338500 0.552845 0.512586 0.241008 0.295442 0.053772 0.034056 -0.000284 -0.000352 -0.000299 -0.000496 -0.000174 -0.000764 0.000352 0.000022 -0.000873 0.000837 -0.000374 0.000088 0.016516 0.029143 0.045493 0.386061 0.410127 0.617750 1.117704 -0.044377 0.109120 0.510284 0.515663 0.417407 0.000064 0.000501 0.000061 -0.000494 0.000651 0.000207 0.000284 0.000498
-0.000649 0.000146 -0.000542 -0.000909 -0.000376 -0.000526 -0.000549 0.000342 0.000136 0.000173 0.000837 -0.000578 0.003856 0.004445 0.004366 0.004272 0.000045 -0.000461 0.000167 0.000906 0.000676 -0.000774 0.000213 0.000868 0.000139 -0.000800 0.000863 -0.000893 -0.000080 -0.000807 0.000215 -0.000028 0.000303 -0.000431 0.000854 -0.000348 -0.000635 -0.000689 -0.001552 -0.002153 -0.001004 -0.001245 -0.002881 -0.010519 -0.008514 -0.004987 0.002346 -0.007792 -0.008226 0.002028 -0.000339 0.000422 0.000006 0.000028 -0.000671 -0.000498 -0.000887 -0.000714 -0.000882 0.000797 -0.001793 0.000627 0.002218 0.001403 0.005941 -0.001236 -0.002812 -0.005998 0.004123 0.005323 -0.005111 -0.007769 -0.001339 0.009980 0.000749 -0.008663 -0.017738 -0.012096 -0.006107 -0.000140 0.000649 -0.000696 0.000298 0.000898 -0.000267 0.000705 0.001837 0.001991 0.001269 0.000840 0.000875 0.005353 0.008757 0.008007 -0.002634 -0.001751 -0.003569 0.001842 0.005941 0.016015 0.021772 0.014814 -0.000136 -0.005980 -0.008158 -0.006070 0.002940 0.007672 0.005702 -0.000606 -0.000227 0.000272 0.000680 0.000508 0.002138 0.005292 0.002805 0.000542 0.006917 0.005704 -0.004390 0.000103 0.006722 0.012053 0.019829 0.014719 0.011132 0.003065 -0.003401 -0.000684 -0.001430 0.001019 0.009176 0.016285 0.011801 0.000792 0.000325 0.005862 0.000268 0.000612 0.000798 -0.000236 0.000739 0.003752 -0.000146 -0.000166 -0.006020 -0.009092 -0.004156 0.002815 0.003841 -0.000763 -0.001974 -0.006565 -0.013576 -0.012546 -0.015507 -0.007831 -0.008394 -0.002992 -0.000521 -0.001974 0.001652 -0.001045 0.000785 0.005424 -0.007859 -0.000022 -0.000117 -0.000488 0.001741 -0.003465 -0.000826 -0.003624 -0.006813 -0.010156 -0.001854 -0.006442 -0.008943 -0.003432 -0.007212 -0.015814 -0.014959 -0.020473 -0.023037 -0.017421 -0.002512 -0.004293 -0.001493 -0.003329 -0.001335 -0.009641 -0.005136 -0.012539 -0.007332 -0.001535 -0.000456 0.000538 0.000885 -0.004456 -0.003944 -0.011978 -0.012943 -0.010817 -0.008515 -0.014710 -0.011639 -0.003280 -0.010984 -0.013068 -0.013709 -0.019241 -0.014983 -0.005528 -0.007847 -0.006078 -0.002212 -0.003812 0.001557 -0.000954 0.012363 -0.001007 -0.008926 -0.001054 -0.000640 0.000519 -0.008701 -0.005533 -0.012581 -0.012374 -0.017038 -0.011824 -0.007946 -0.007658 -0.005134 -0.007552 -0.014153 -0.016518 -0.022117 -0.020848 -0.010946 -0.011939 -0.015986 -0.008762 0.002992 0.003386 0.010950 0.015080 0.018656 0.001429 -0.011445 -0.002167 -0.000077 0.000340 -0.009178 -0.000930 -0.007734 -0.005209 -0.008053 -0.011609 -0.006867 -0.002584 -0.004093 -0.007661 -0.016340 -0.021605 -0.025303 -0.011388 -0.011171 -0.020917 -0.010269 -0.002052 0.006274 0.011912 0.014414 0.015474 0.005951 0.000007 -0.009151 -0.000386 -0.000345 -0.000306 -0.009016 0.010136 0.003106 -0.002268 -0.008784 -0.012657 -0.006842 -0.009097 -0.008901 -0.010470 -0.010597 -0.022228 -0.018839 -0.016224 -0.024656 -0.022082 -0.009355 0.003025 0.014662 0.017720 0.017427 -0.004850 -0.010476 0.004227 -0.008596 0.000685 0.000361 -0.000139 -0.007287 0.008609 0.004947 -0.012697 -0.009619 -0.018271 -0.021407 -0.021251 -0.018681 -0.007330 -0.006280 -0.017104 -0.007187 -0.014852 -0.018812 -0.019898 -0.007589 0.002119 0.011073 0.006687 0.003944 -0.005607 0.002948 -0.000097 -0.000427 -0.000422 0.000721 0.000797 -0.012128 0.008683 0.002422 -0.001680 -0.002795 -0.023330 -0.026333 -0.020628 -0.018229 -0.007767 -0.001009 -0.003899 0.008519 0.001812 -0.010283 -0.016955 -0.009895 -0.006964 -0.001696 0.003658 -0.007598 -0.007562 -0.000933 -0.002287 0.002367 0.000115 -0.000861 0.000448 -0.008641 0.000792 0.000831 -0.007817 -0.010854 -0.010828 -0.015152 -0.016047 -0.014002 -0.005620 -0.000215 -0.004734 -0.002580 -0.005436 -0.013059 -0.012914 -0.006896 -0.006897 -0.004957 -0.000792 -0.010899 -0.001123 0.003808 -0.000634 0.000536 0.000523 0.000685 -0.000317 -0.004218 -0.007109 -0.006458 -0.006533 -0.000795 -0.007734 -0.002830 -0.003973 -0.004195 0.007341 0.001133 -0.005266 -0.013581 -0.017059 -0.013289 -0.009999 -0.001254 -0.000963 -0.001131 -0.007903 -0.011242 -0.009616 -0.005453 -0.000746 -0.004461 -0.000563 -0.000883 -0.000708 0.001630 -0.004522 -0.004088 -0.005232 0.000460 -0.000300 0.000010 -0.004965 -0.009635 -0.003179 -0.010730 -0.016160 -0.023224 -0.017206 -0.010841 -0.008746 0.003407 0.010786 -0.001486 -0.019223 -0.022393 -0.008842 -0.006039 -0.004918 -0.005190 0.000457 0.000239 -0.000750 -0.004284 -0.009433 -0.010806 -0.006739 0.004889 0.006698 -0.000114 -0.014002 -0.020622 -0.015940 -0.019977 -0.008032 -0.010409 -0.013709 -0.012116 -0.009572 -0.008510 -0.001896 -0.004682 -0.011516 -0.012313 -0.007799 -0.004400 -0.003143 -0.005307 -0.000354 -0.000532 -0.000075 0.002897 -0.000498 -0.012081 0.001008 0.006735 0.013287 0.005128 -0.014502 -0.019407 -0.011213 0.000214 -0.002420 -0.000754 -0.008450 -0.015038 -0.014667 -0.020010 -0.008957 -0.008065 -0.007599 -0.004082 -0.003435 0.002271 0.001938 -0.005891 -0.000124 -0.000442 -0.000390 0.009870 0.014064 -0.002468 0.005222 0.011709 0.010922 -0.003030 -0.008785 -0.007203 -0.000526 -0.002615 -0.007864 -0.011968 -0.014706 -0.017362 -0.016618 -0.019308 -0.014275 0.000375 0.002322 0.010059 0.004373 0.003199 0.009034 0.006717 0.000636 0.000075 -0.000880 0.002936 0.011887 0.003974 0.009332 0.006059 -0.002948 -0.001404 -0.001909 -0.008343 -0.011215 -0.013753 -0.016436 -0.016244 -0.015678 -0.016648 -0.016205 -0.017241 -0.004854 0.005360 0.003266 0.003365 -0.001622 0.005632 0.007328 0.006691 -0.000159 0.000532 0.000278 0.002030 0.023484 0.012032 0.011443 0.005695 0.006575 0.000159 -0.000989 -0.011106 -0.014482 -0.016972 -0.019378 -0.022268 -0.017540 -0.012521 -0.013009 -0.007235 -0.001641 -0.004457 -0.001381 -0.001525 -0.005634 0.001615 0.001618 0.008387 0.000203 -0.000045 0.000452 0.004416 0.019974 0.008953 0.014587 0.007269 -0.006886 -0.009527 -0.008102 -0.011670 -0.015538 -0.020344 -0.021396 -0.020091 -0.023113 -0.011588 -0.002495 0.000396 0.004065 -0.012812 -0.014057 0.001425 -0.002173 -0.001314 -0.003061 0.001195 -0.000533 -0.000782 0.000464 0.008323 0.017142 0.018335 0.019986 0.017027 0.005991 -0.002749 -0.006792 -0.011001 -0.014082 -0.017269 -0.021129 -0.016138 -0.013092 -0.006794 -0.001669 -0.005004 0.000371 -0.014605 -0.014183 -0.007841 -0.007104 -0.003563 -0.002930 -0.003445 0.000025 -0.000842 -0.000341 -0.000193 0.011718 0.037238 0.031796 0.025796 0.015781 0.000083 -0.008568 -0.004849 -0.003629 -0.009045 -0.004162 -0.004684 -0.008644 -0.005777 -0.003839 -0.013387 -0.006950 0.004856 -0.007216 -0.008566 -0.009031 -0.003758 -0.002377 -0.004345 0.000629 -0.000635 0.000202 0.009873 0.010399 0.027252 0.021900 0.017558 0.001930 -0.000077 -0.007260 -0.013856 -0.012198 -0.009756 -0.009422 -0.008349 -0.017988 -0.021965 -0.009363 -0.004300 -0.001214 -0.000165 -0.002689 -0.008428 -0.006058 0.005141 0.003708 -0.000905 0.000253 -0.000800 -0.000589 -0.000722 -0.007242 0.021454 0.027276 0.016885 0.000220 -0.012890 -0.013762 -0.009926 -0.006490 -0.004497 -0.004251 -0.007537 -0.012192 -0.006973 0.002124 -0.010002 -0.020778 -0.012111 0.000769 0.000024 0.000710 0.000874 -0.000284 0.000623 0.000789 -0.000283 0.000806 0.000873 -0.000862 0.016228 0.015001 0.007691 0.005469 -0.001433 -0.000694 -0.000500 -0.000469 -0.001028 -0.000626 -0.001561 -0.003182 -0.004052 -0.001411 0.000420 -0.004045 -0.000342 0.001609 0.001499 -0.000007 0.000178 0.000175 -0.000682 0.000909 -0.000743 -0.000635 -0.000318 -0.000622 -0.000814 0.000563 -0.001099 -0.000302 0.000726 0.001455 0.001280 0.000157 0.002145 0.001013 -0.001512 0.001963 0.000660 0.000941 0.000269 -0.000785 0.000765 -0.000124 -0.000141 0.000047 0.000278 0.000446 -0.000292 0.000809
-0.000604 -0.000765 -0.000729 0.000099 -0.000651 -0.000635 -0.000192 -0.000388 0.000751 -0.000862 -0.000731 0.000064 -0.000839 0.000807 -0.000702 -0.000005 -0.000073 -0.000552 0.000245 -0.000358 0.000014 -0.000905 -0.000785 0.000193 0.000242 -0.000832 0.000660 0.000467 -0.000128 0.000121 0.000737 -0.000309 0.000757 0.000005 -0.000171 0.000430 0.000416 0.002423 0.002781 -0.000482 -0.001333 -0.004531 -0.003846 -0.002190 -0.000548 0.000536 -0.000882 0.000528 -0.000290 0.000071 -0.000047 -0.000281 -0.000114 -0.000229 0.000256 0.000626 -0.000849 -0.000335 0.000494 -0.000814 -0.000458 -0.001562 -0.001873 -0.002089 -0.001682 -0.000839 -0.002165 -0.002093 -0.001910 -0.003653 -0.004489 -0.002345 -0.001115 -0.000950 -0.002064 -0.003341 -0.003120 -0.003813 -0.000544 0.000672 -0.000702 0.000258 0.000342 -0.000579 -0.000233 -0.000008 0.000586 -0.000175 -0.001759 -0.001270 -0.002296 -0.002121 -0.002085 -0.002991 -0.001790 -0.002244 -0.003002 -0.004335 -0.002806 -0.002672 -0.004052 -0.003231 -0.001414 0.000309 0.001991 -0.000654 0.000714 0.000541 0.000787 -0.000189 -0.000759 -0.000404 -0.000179 0.000743 -0.000379 0.000895 -0.000671 0.001930 -0.000600 0.000487 -0.001741 -0.001560 -0.001885 -0.002863 -0.002801 -0.003330 -0.003815 -0.005096 -0.005250 -0.006259 -0.002732 -0.002311 0.000787 0.002509 -0.000644 -0.000738 0.003613 -0.000132 -0.002239 -0.000204 0.000288 0.000303 0.000113 -0.001972 -0.002398 -0.000021 0.001300 -0.000299 -0.002454 -0.003332 -0.004708 -0.004079 -0.005262 -0.006749 -0.004846 -0.005540 -0.005783 -0.006323 -0.005402 -0.003466 -0.002198 -0.001307 0.000115 0.002111 0.003087 0.002023 0.001469 -0.002554 0.000545 0.000425 -0.000779 -0.001541 -0.002233 -0.000867 0.000137 -0.000337 0.002097 0.002451 0.000036 -0.001587 -0.003378 -0.002695 -0.001417 -0.003458 -0.002592 -0.002360 -0.001522 -0.002237 -0.001632 -0.002679 -0.002822 -0.000459 -0.000188 -0.000333 -0.000576 -0.000525 0.000674 0.001263 0.001961 0.001839 -0.004379 -0.003381 -0.001203 0.004253 0.005578 0.003611 0.002387 -0.000998 -0.003116 -0.004683 -0.004140 -0.005703 -0.005973 -0.005361 -0.002355 -0.001885 -0.001179 0.000771 -0.000686 -0.000284 0.001434 -0.002890 -0.002342 -0.001105 -0.000399 0.002019 0.001603 -0.001540 -0.004222 -0.004146 0.003722 0.006443 0.002277 0.002651 0.001284 -0.001377 -0.002882 -0.003599 -0.000053 -0.002459 -0.001969 -0.005727 -0.002602 -0.004181 -0.003355 -0.001588 -0.001419 -0.001192 0.001519 -0.003047 -0.003658 -0.000673 -0.000235 0.002199 0.002557 -0.003357 -0.001380 -0.001623 0.002036 0.002362 0.001481 -0.002162 -0.005208 -0.004182 -0.000034 0.000030 -0.002229 -0.002582 -0.001068 -0.003879 -0.002570 -0.003883 -0.005457 -0.001842 -0.002959 -0.000070 -0.001184 -0.003346 -0.001154 0.000043 -0.000608 0.001575 -0.000155 -0.002196 -0.002744 -0.000386 -0.000872 -0.001153 -0.001498 -0.002280 -0.005378 -0.003424 -0.004448 -0.007621 -0.009282 -0.004166 -0.002234 -0.003667 -0.003572 -0.001450 -0.003195 0.001530 -0.000461 -0.004455 -0.002688 -0.001406 -0.000533 0.000280 0.002358 0.003982 0.001052 0.000316 -0.006063 0.000081 -0.000939 -0.001723 -0.001428 0.000424 -0.001462 -0.001741 -0.000182 -0.006763 -0.006198 -0.000973 -0.003331 -0.003971 -0.003327 -0.002032 -0.001237 0.000272 -0.001756 -0.006197 -0.001257 -0.000079 0.001481 -0.001651 0.003634 0.003802 0.000272 0.000919 -0.003757 -0.000153 -0.001163 0.000520 0.000072 0.002099 -0.000274 -0.001951 -0.006807 -0.010473 -0.008553 -0.003985 -0.004372 -0.004524 -0.001005 -0.000902 -0.001188 -0.000510 -0.001661 -0.003665 -0.002034 0.000170 -0.001768 -0.002242 0.000103 0.003867 0.006728 0.000546 -0.001395 0.001041 -0.002909 0.000411 0.000002 -0.000460 -0.001832 -0.003237 -0.007682 -0.010533 -0.005791 -0.002711 -0.002750 -0.001285 -0.001517 -0.000975 -0.002612 -0.002818 -0.002579 -0.003962 -0.004228 -0.001215 0.002721 0.000729 0.000897 0.005370 0.004273 -0.001703 0.000283 0.000536 -0.003178 -0.001482 -0.001971 -0.001271 -0.002936 -0.004816 -0.007363 -0.007911 -0.005972 -0.002904 -0.001288 0.001627 0.001402 -0.000862 -0.002300 -0.003035 -0.002942 -0.004399 -0.004624 -0.000793 0.002542 -0.000007 -0.000248 0.000177 -0.000087 -0.000173 0.001301 -0.000354 -0.002047 0.001525 -0.000683 -0.001531 -0.005647 -0.003858 -0.006985 -0.006673 -0.002664 -0.001429 -0.000553 0.003965 0.003044 0.000994 0.001899 -0.000429 -0.002642 -0.005580 -0.006628 -0.003197 0.002341 -0.000734 -0.000011 0.000606 0.000145 -0.000473 -0.003379 -0.001288 -0.000137 0.001564 0.001560 -0.001785 -0.002401 -0.004510 -0.003437 -0.003545 0.000099 -0.001397 0.000866 0.004988 -0.000661 -0.001316 -0.001613 -0.003030 -0.005387 -0.005191 -0.002683 -0.000935 0.002230 0.000676 -0.000072 -0.000859 0.001479 0.003408 -0.004568 -0.001248 -0.001498 0.000345 0.000548 -0.003482 -0.003759 -0.001906 -0.001365 -0.000798 -0.002615 -0.002615 0.002781 0.004251 -0.001817 -0.004109 -0.003823 -0.003609 -0.005276 -0.005686 -0.002750 -0.002310 0.000818 0.000175 0.000697 -0.000362 0.001114 0.002901 -0.007365 -0.004732 -0.002962 -0.002603 0.000223 -0.002947 -0.002183 -0.003913 -0.001828 0.000418 -0.003044 -0.001293 0.001020 -0.001838 -0.003189 -0.003688 -0.003104 -0.005433 -0.005525 -0.005592 -0.006128 -0.003293 0.001183 0.000241 -0.000806 0.000528 0.002562 0.000577 -0.006799 -0.005771 -0.004758 -0.003415 -0.005334 -0.003682 -0.004294 -0.004677 -0.001526 -0.003930 -0.003812 0.000098 -0.001389 -0.003523 -0.004119 -0.003833 -0.002157 -0.004335 -0.004639 -0.003115 -0.002324 -0.001467 0.002062 -0.000539 0.000136 0.000848 0.001106 -0.001558 -0.002812 -0.003768 -0.003151 -0.003985 -0.005188 -0.005609 -0.005229 -0.002895 -0.004969 -0.006945 -0.001847 -0.001673 -0.002983 -0.004525 -0.003855 -0.002047 -0.003955 -0.001933 -0.002667 -0.000794 0.002700 0.000421 -0.000771 -0.000545 -0.000013 -0.000109 0.001972 -0.002747 -0.001540 -0.001386 -0.003680 -0.004175 -0.003782 -0.005483 -0.005738 -0.002197 -0.004978 -0.006738 -0.003463 -0.002782 -0.004770 -0.005098 -0.003629 -0.002475 -0.003584 -0.002903 -0.001653 0.002735 -0.000316 -0.000867 0.000788 -0.000868 -0.000102 -0.000677 -0.000555 -0.001028 -0.003222 -0.002260 -0.002822 -0.001112 -0.002836 -0.004061 -0.003156 -0.003291 -0.007456 -0.006432 -0.004531 -0.004974 -0.005563 -0.003099 0.000013 0.001048 -0.001697 -0.002311 -0.001583 0.001378 -0.001507 -0.003358 -0.000862 0.000696 0.000817 -0.000573 0.000654 0.001211 -0.000842 -0.004643 -0.003065 -0.002348 -0.004725 -0.003648 -0.001928 -0.004925 -0.005839 -0.003051 -0.005142 -0.005358 -0.005392 -0.000327 -0.000341 0.002880 0.002010 0.000586 0.002172 0.002045 -0.000797 -0.005895 0.000397 0.000402 0.000166 0.000273 -0.000904 0.002766 -0.000538 -0.002299 -0.002402 -0.000435 -0.000287 -0.001128 -0.000780 -0.007047 -0.005698 -0.001825 -0.004577 -0.004304 -0.002136 -0.000972 -0.001756 0.006084 0.004362 0.003870 0.002631 0.002117 0.002694 0.000146 -0.000520 -0.000613 -0.000480 -0.000634 -0.000390 0.000391 0.003807 0.000344 0.002536 0.005311 0.008654 0.011436 0.003605 -0.005978 -0.001596 -0.001078 0.000501 -0.003360 -0.002270 -0.002278 -0.002929 0.003791 0.007768 0.004147 -0.000429 -0.003936 -0.001142 0.000153 -0.000670 0.000896 -0.000414 0.000679 0.000072 0.000210 0.001610 0.001127 -0.000588 0.001402 0.005273 0.005985 -0.000516 -0.006155 -0.002144 0.001649 0.001052 0.000920 0.008398 0.011106 0.004087 0.012555 0.014100 0.000206 -0.001155 -0.000562 -0.000418 -0.000377 0.000717 0.000797 0.000066 0.000332 0.000479 -0.000661 0.001522 0.002710 -0.000872 0.000138 0.000850 0.000457 0.003444 0.001911 0.002375 0.003428 0.004713 0.005436 0.004930 0.008950 0.002503 -0.000095 0.002537 -0.000422 -0.003697 0.000530 -0.000223 0.000595 0.000420 -0.000409
0.000565 -0.000184 0.000336 -0.000701 -0.000864 0.000388 -0.000379 0.000093 0.000648 0.000180 -0.000172 0.000561 0.000905 -0.000600 -0.000201 0.000499 -0.000395 -0.000221 0.000033 0.000884 -0.000340 0.000778 0.000154 -0.000676 -0.000494 0.000425 0.000407 -0.000883 0.000260 0.000680 0.000642 0.000902 -0.000122 0.000822 -0.000308 -0.000187 0.000059 0.000599 0.000176 -0.000007 -0.000341 0.001340 -0.000594 -0.000444 -0.001242 -0.001075 -0.000518 0.000678 0.000372 -0.000651 0.000242 0.000428 0.000555 -0.000174 -0.000125 -0.000542 -0.000307 0.000910 -0.000327 -0.000384 -0.000098 0.001168 0.003813 0.003129 0.002922 -0.002645 -0.001293 0.000141 0.004451 0.004902 0.001644 -0.002535 -0.000375 -0.000305 -0.000645 -0.000586 -0.001989 -0.001280 -0.000685 -0.000100 -0.000517 0.000550 -0.000033 0.000680 -0.000473 -0.000245 0.000634 0.000835 0.000597 0.002384 0.003523 0.007442 0.011085 0.008079 0.012315 0.011172 0.008269 0.006286 0.004700 0.004086 0.002697 0.001206 0.001216 -0.002665 -0.000282 -0.000903 -0.000557 0.001742 -0.000894 0.000517 0.000619 0.000508 -0.000247 0.000191 0.001898 -0.000216 0.002172 0.002531 0.002988 0.005209 0.008048 -0.010507 -0.012146 -0.014019 -0.014667 -0.013688 0.001389 0.006455 0.003598 0.003530 0.002320 0.002447 0.000650 -0.001131 0.000024 -0.000437 -0.000301 -0.000483 0.000752 -0.000811 0.000622 0.000274 0.001527 -0.000048 -0.000489 0.001894 -0.011633 -0.015611 -0.013988 -0.015676 -0.017311 -0.017677 -0.017120 -0.017667 -0.018442 -0.013606 0.003046 0.001719 -0.000232 0.001659 -0.001587 -0.002498 -0.001558 -0.001221 0.000002 0.002526 -0.000086 -0.000372 -0.000500 -0.000370 0.001246 0.002846 -0.002188 -0.019893 -0.014187 -0.012988 -0.018091 -0.018599 -0.017553 -0.015840 -0.018271 -0.018352 -0.020658 -0.018612 -0.007460 0.001074 -0.000501 -0.000409 -0.002937 -0.003899 -0.002840 -0.003783 -0.001585 0.001646 0.000183 -0.000635 0.000864 -0.000033 0.001178 0.002486 -0.000780 -0.015847 -0.013824 -0.015915 -0.018103 -0.013211 -0.010308 -0.005164 -0.009997 -0.013784 -0.019333 -0.018747 -0.015271 -0.001855 0.000073 -0.001413 -0.002262 -0.003003 -0.003226 -0.004503 -0.002918 0.000404 -0.000653 0.000753 0.000144 -0.001746 0.000723 0.001041 -0.008535 -0.015770 -0.017409 -0.018625 -0.002346 -0.001746 -0.000333 0.000241 0.000452 -0.001033 -0.018582 -0.017718 -0.017049 -0.012997 0.001564 0.001132 -0.003387 -0.004119 -0.003148 -0.004094 -0.002385 0.000815 0.000198 -0.000449 0.000361 0.000920 -0.001812 0.002013 -0.016005 -0.015948 -0.008818 -0.000360 -0.002278 -0.000770 -0.001740 -0.000542 -0.000301 -0.001030 -0.018264 -0.018464 -0.017048 -0.011945 0.004261 0.000574 -0.001701 -0.003438 -0.003086 -0.002457 -0.001573 -0.000305 -0.000418 -0.000802 0.000459 0.001085 -0.000624 0.002982 -0.007516 -0.008653 -0.000672 -0.002302 -0.003086 -0.001848 -0.003174 -0.002833 -0.002875 -0.001712 -0.017254 -0.022185 -0.017686 -0.010118 0.002411 0.000450 -0.001114 -0.002165 -0.001838 -0.001471 -0.005835 -0.002939 -0.000075 -0.000450 -0.000220 -0.000559 0.002964 0.004672 0.000632 -0.000759 -0.001575 -0.002165 -0.002605 -0.003147 -0.002687 -0.003101 -0.004530 -0.002396 -0.016114 -0.021638 -0.017174 -0.014487 0.001760 0.001380 -0.001889 -0.003973 -0.002651 -0.003076 -0.003458 -0.002898 0.000077 0.000834 0.000562 0.000766 0.000609 0.006068 0.000526 -0.002652 -0.002022 -0.003306 -0.003215 -0.002107 -0.003180 -0.003268 -0.003296 -0.005306 -0.016540 -0.020486 -0.017772 -0.010445 0.002035 -0.000568 -0.002958 -0.003500 -0.001879 -0.002264 -0.003013 -0.006152 -0.000349 -0.000014 -0.000058 -0.000374 -0.000221 -0.001856 -0.000838 -0.001944 -0.003697 -0.003497 -0.001592 -0.003289 -0.003557 -0.003752 -0.014462 -0.019829 -0.022011 -0.020691 -0.018537 -0.013432 -0.000118 -0.001107 -0.002921 -0.002193 -0.000717 0.001619 -0.003052 -0.006699 -0.000704 0.000227 -0.000137 -0.000895 0.000219 -0.000867 -0.001475 -0.001168 -0.002487 -0.003142 -0.001625 -0.002760 -0.002673 -0.008429 -0.021087 -0.019549 -0.020392 -0.018412 -0.019276 -0.019109 -0.010656 -0.002113 -0.002322 -0.001836 -0.001458 0.001383 -0.000484 -0.004813 -0.000601 -0.000629 -0.000403 0.000866 -0.000217 0.000408 -0.001315 -0.001706 -0.002142 -0.001849 -0.001887 -0.002537 -0.001269 -0.002758 -0.018376 -0.019018 -0.017925 -0.018395 -0.020161 -0.020360 -0.019941 -0.006910 -0.001793 -0.002509 -0.001358 0.001194 0.000359 -0.003341 0.000885 -0.000332 0.000503 0.000344 0.000797 -0.000690 -0.001748 -0.001532 -0.003323 -0.001623 -0.001356 -0.000378 0.000150 0.000032 -0.005238 -0.008281 -0.007815 -0.008329 -0.017440 -0.019234 -0.019955 -0.008517 -0.001209 -0.001644 -0.001445 0.000659 -0.002482 -0.002707 0.000617 0.000828 0.000269 0.000861 0.000256 0.000822 -0.000788 -0.000937 -0.002304 -0.000102 -0.001238 0.001138 0.000830 0.001993 0.001294 -0.000814 -0.001173 -0.001409 -0.004985 -0.017403 -0.019585 -0.018971 -0.008001 -0.000406 0.000016 -0.001082 0.000251 0.003315 0.001136 0.000110 0.000451 0.000495 0.000397 0.001550 0.001985 -0.000717 -0.001517 -0.000481 0.000626 -0.006984 -0.013704 -0.011471 0.001603 0.001194 -0.000886 -0.002024 -0.001678 -0.008654 -0.019828 -0.018539 -0.018718 0.002315 0.002482 0.003982 0.003327 0.007946 0.002119 0.000721 0.000264 -0.000335 0.000164 0.000825 0.004766 0.004582 0.001057 -0.000850 0.002257 -0.015070 -0.014863 -0.008877 0.002007 0.000910 0.001944 0.001127 0.000746 0.000539 -0.015162 -0.016061 -0.015692 0.005638 0.007169 0.006711 0.008474 0.010612 0.002882 0.000040 0.000638 -0.000161 0.001663 0.002503 0.008806 0.008660 0.003645 -0.000002 0.001719 -0.016181 -0.015636 -0.015155 -0.013163 -0.008874 -0.005371 0.002563 0.002884 -0.005662 -0.015249 -0.016153 -0.015736 0.003953 0.007388 0.014378 0.015841 0.013839 0.016931 -0.000503 -0.000280 0.000126 0.001470 0.002519 0.001563 0.004733 0.005163 0.001831 0.000172 -0.013097 -0.016177 -0.016382 -0.018507 -0.018168 -0.018551 -0.017717 -0.017342 -0.019448 -0.020452 -0.018909 -0.017120 0.004066 0.005051 0.006029 0.008609 -0.000044 0.004465 -0.000587 0.000150 -0.000874 -0.000026 0.001232 -0.001290 0.001412 0.002870 0.004152 0.002710 0.002642 -0.003595 -0.014082 -0.020542 -0.020753 -0.020722 -0.021372 -0.020146 -0.020643 -0.020818 -0.018776 -0.015166 0.001395 -0.000226 -0.000717 0.003007 0.000769 0.000743 0.000013 -0.000867 0.000229 -0.000461 -0.000196 -0.000017 -0.000486 -0.000087 0.001990 -0.000485 -0.001415 -0.002118 -0.002398 -0.002050 -0.012642 -0.020725 -0.020592 -0.022771 -0.023693 -0.021519 -0.004648 -0.001736 -0.001529 -0.001793 -0.003489 0.003123 -0.000846 0.000780 0.000205 -0.000295 0.000311 -0.000433 -0.000040 0.000859 0.000263 -0.000096 0.000346 -0.000579 -0.000363 -0.002196 -0.002179 -0.001896 0.000010 0.000012 -0.000918 -0.002759 -0.002992 0.000258 -0.002279 -0.001934 0.000016 -0.000754 -0.005403 0.000830 -0.000500 0.000208 -0.000674 -0.000196 -0.000780 0.000736 -0.000677 -0.001404 -0.002060 -0.001569 -0.000745 -0.000898 -0.000893 -0.000827 -0.002020 0.000258 0.002450 0.001094 -0.001774 -0.005038 -0.000443 0.001824 -0.001964 -0.002939 -0.001340 -0.001340 -0.007494 -0.002022 0.000636 0.000886 0.000435 -0.000873 0.000802 -0.000206 -0.000413 -0.001523 -0.001005 -0.000643 0.000553 0.001295 0.000409 -0.001432 0.000321 0.002608 0.000979 -0.000044 -0.001643 -0.001592 0.002306 0.003133 -0.000102 -0.001049 -0.002098 -0.001183 0.000344 -0.000517 -0.000539 -0.000672 0.000151 0.000096 0.000815 0.000663 0.000582 -0.000172 0.000221 -0.000806 0.001501 0.000462 0.001368 0.002316 0.000737 -0.000110 0.001268 0.001132 0.001837 0.001101 0.001923 0.000543 0.001534 0.002740 0.000889 0.000863 -0.000184 0.000315 0.000839 -0.000145 0.000587
-0.000291 -0.000180 0.000759 -0.000187 -0.000798 -0.000098 0.000468 -0.000052 -0.000611 -0.000564 0.000700 -0.000678 -0.000889 -0.000015 0.000909 -0.000735 0.000236 0.000227 -0.000364 0.000177 -0.000584 -0.000748 -0.000397 0.000609 0.000096 0.000698 0.000325 0.000633 -0.000464 0.000369 -0.000290 -0.000103 -0.000733 0.000693 -0.000269 0.000179 0.000888 -0.000133 -0.000013 0.000662 -0.000890 -0.000483 0.000731 -0.000624 -0.000539 -0.000548 -0.000834 0.000561 0.000715 0.000133 0.000788 0.000781 0.000843 -0.000229 0.000522 -0.000173 0.000162 -0.000471 -0.000683 0.000636 0.000648 0.000579 0.000317 -0.000292 -0.000848 0.000355 0.000761 0.000224 0.000178 0.000761 0.000504 -0.000415 0.000449 -0.000643 -0.000602 -0.000204 0.000587 0.000723 -0.000558 -0.000437 -0.000451 -0.000308 -0.000167 -0.000731 -0.000707 0.000888 -0.000115 -0.000549 0.000358 0.000531 0.000386 -0.000177 0.000694 -0.000204 0.000452 -0.000537 -0.001826 -0.002019 -0.002120 -0.000950 -0.000815 -0.002008 -0.001640 -0.001600 -0.001361 -0.001050 -0.000723 -0.000165 0.000587 0.000246 -0.000537 0.000400 0.000559 -0.000529 -0.000324 0.000456 -0.000708 -0.000406 -0.000130 0.000524 -0.001030 -0.001346 -0.000529 0.001029 -0.000441 -0.000129 -0.001066 -0.001495 -0.001121 -0.002012 -0.001868 -0.001294 0.000051 0.001465 0.001446 -0.000142 0.000029 -0.000582 0.000557 0.000536 -0.000737 0.000838 -0.000246 0.000861 -0.000726 0.000066 0.000675 -0.000711 -0.000579 0.000919 0.001403 0.001232 0.001298 0.000278 -0.000082 0.000134 -0.000497 -0.001013 0.000005 0.000786 0.001434 0.002653 0.002544 0.000468 -0.000102 0.000505 0.000441 -0.000140 0.000865 -0.000614 -0.000606 -0.000455 -0.000550 -0.000890 -0.001763 -0.000740 -0.002102 0.001288 0.000599 0.002319 -0.000712 -0.000125 -0.000827 -0.001276 0.000308 -0.001296 -0.000350 0.001286 0.002227 0.002187 0.001305 -0.000490 -0.000347 -0.000012 0.000116 0.000392 0.000143 0.000850 -0.000837 -0.000748 -0.000655 0.000788 -0.000869 -0.002509 -0.002480 -0.001011 0.000640 0.000619 0.000250 -0.000847 -0.002905 -0.002173 -0.001853 -0.000895 -0.000453 0.000368 -0.000765 -0.001497 0.001150 0.001844 0.001183 0.002324 -0.000258 -0.000027 -0.000234 -0.000008 -0.000653 -0.000527 -0.000222 0.000484 -0.002784 -0.002881 -0.002721 -0.001985 -0.001979 -0.000979 -0.001865 -0.001247 -0.001498 -0.002044 -0.000859 0.000339 0.000096 0.000944 -0.002827 0.000762 0.000636 0.000701 0.001329 0.001870 -0.000798 -0.000834 0.000904 -0.000127 0.000627 -0.000270 -0.000331 -0.001263 -0.001239 -0.001048 -0.002871 -0.001966 -0.001034 -0.000297 -0.002308 -0.002535 -0.002105 -0.000868 0.001585 0.000398 -0.001144 -0.001419 -0.002398 0.001278 0.002026 0.001465 0.001862 0.001956 0.000366 0.000062 -0.000782 0.000853 0.000616 -0.000735 -0.000510 -0.001336 -0.001833 -0.001966 -0.001696 -0.001678 -0.001764 -0.001307 -0.000949 -0.001539 -0.000543 0.001153 0.000535 0.000131 -0.002172 -0.001974 -0.003083 -0.000985 0.000333 0.001418 0.000586 0.000313 -0.000531 0.000712 -0.000756 0.000473 -0.000008 0.000364 -0.002401 -0.000949 -0.001231 -0.001606 -0.001514 -0.001230 -0.001873 -0.001635 -0.002227 -0.001522 -0.001153 -0.000185 -0.000326 -0.001875 -0.002073 -0.001795 -0.003140 -0.002249 -0.001907 0.000062 0.000216 -0.000209 0.000384 0.000571 0.000459 0.000400 -0.000446 0.000872 -0.002033 -0.002315 -0.001597 -0.001024 -0.001618 -0.001563 -0.001946 -0.001174 -0.001992 -0.001234 -0.001069 -0.002494 -0.000510 -0.001889 -0.002145 -0.001641 -0.001090 -0.001640 -0.001036 -0.001235 -0.000564 -0.000619 -0.000822 0.000384 -0.000796 0.000367 -0.000098 0.000411 -0.001653 -0.001878 -0.000905 -0.002156 -0.000650 -0.001377 -0.002261 -0.002649 -0.000272 0.001932 0.000033 -0.001227 -0.002431 -0.002006 -0.001844 -0.000854 -0.001614 -0.001165 -0.002092 -0.000967 0.000645 -0.000832 -0.000418 -0.000255 0.000736 0.000593 0.000862 0.000877 -0.001516 -0.001711 -0.002106 -0.002190 -0.001969 -0.002287 -0.001486 -0.002265 0.002463 0.000656 -0.001843 -0.001876 -0.001611 -0.000944 -0.001039 -0.001117 -0.001009 -0.002003 -0.001193 -0.001366 -0.000700 0.000692 -0.000795 0.000132 0.000368 -0.000479 0.000004 0.000008 -0.002135 -0.002228 -0.002141 -0.001369 -0.000737 -0.002068 -0.000598 -0.000131 -0.000839 -0.001181 -0.002152 -0.002231 -0.001849 -0.002045 -0.002107 -0.001070 -0.002325 -0.001281 -0.001252 -0.002669 -0.000689 0.000697 -0.000732 0.000788 -0.000830 0.000489 -0.000048 0.000173 -0.000750 -0.002326 -0.002466 -0.001413 -0.001444 -0.001849 -0.001991 -0.000424 -0.001085 -0.001060 -0.001171 0.001226 0.001060 -0.002297 -0.002542 -0.002489 -0.001236 -0.002209 -0.001819 -0.000735 0.000040 0.000801 0.000084 0.000105 0.000063 -0.000505 -0.000766 0.000040 -0.000921 -0.002396 -0.002562 -0.002130 -0.000666 -0.000392 -0.000925 -0.001385 -0.000859 -0.000754 -0.000443 -0.000229 -0.001636 -0.001323 -0.002415 -0.002220 -0.002435 -0.002756 -0.001736 -0.001222 0.000227 -0.000666 -0.000898 -0.000443 0.000692 0.000199 -0.000127 -0.000467 -0.002423 -0.001709 0.000108 -0.002140 -0.000816 -0.000608 -0.001499 -0.000935 -0.001652 -0.001718 -0.001801 -0.001772 -0.001556 -0.001229 -0.000780 -0.002090 -0.002470 0.000049 0.000913 -0.001724 -0.000766 -0.000061 0.000220 -0.000551 -0.000129 0.000291 -0.000204 -0.000293 -0.002212 -0.001547 -0.002914 -0.001618 -0.002168 -0.000169 -0.000623 -0.000591 -0.001062 -0.002209 -0.000821 -0.001904 -0.000680 -0.001156 -0.000534 0.000896 -0.000263 -0.000354 0.001658 -0.002014 -0.000110 -0.000344 -0.000757 0.000345 -0.000193 0.000373 0.000104 0.000210 -0.001134 -0.001256 -0.002614 -0.001702 -0.001071 0.000026 -0.001265 -0.001622 -0.000930 -0.000858 -0.000774 -0.001157 -0.000155 0.002294 0.002399 0.001567 0.000298 0.000834 0.000619 -0.000725 0.001864 -0.000451 -0.000341 0.000648 0.000158 -0.000675 -0.000459 0.000426 -0.001863 -0.000672 -0.001937 -0.002746 -0.000159 0.000336 -0.000804 -0.001439 -0.001627 -0.001267 -0.000599 0.000178 0.001306 0.002972 0.000904 -0.000594 0.000496 0.000295 -0.000424 0.001818 0.002151 0.000534 -0.000102 0.000503 -0.000476 0.000880 -0.000489 -0.000800 -0.002041 -0.000677 -0.001450 0.000951 -0.001521 -0.000515 -0.001976 -0.000229 -0.001809 -0.000425 -0.000797 -0.000830 0.001157 0.000527 -0.000586 -0.000560 -0.000409 -0.001793 0.000995 0.002154 0.000866 -0.000887 0.000637 0.000841 -0.000239 0.000634 0.000415 -0.000673 -0.001216 -0.002124 -0.001125 -0.000541 -0.001161 -0.002445 -0.002112 -0.001198 -0.000176 0.001171 0.001739 0.003078 0.002994 0.001659 -0.001684 -0.001095 -0.001777 0.000475 -0.000909 -0.000211 0.000844 0.000714 -0.000736 0.000405 0.000387 -0.000274 0.000423 0.000526 -0.000504 0.000838 0.000817 -0.001990 -0.001204 -0.001279 -0.001269 -0.002442 -0.001697 -0.000152 0.001028 0.000672 0.000224 -0.000264 0.000801 0.000866 0.000800 0.000616 -0.000672 -0.000730 -0.000381 0.000219 0.000869 0.000742 0.000858 0.000412 -0.000514 0.000905 0.000200 -0.000458 -0.000312 0.000892 0.000770 0.000061 -0.000314 -0.000878 0.000726 0.000322 -0.000672 -0.000847 0.000015 0.000054 0.000170 -0.000847 0.000020 -0.000372 0.000804 -0.000668 0.000357 0.000370 -0.000036 0.000604 -0.000584 -0.000408 -0.000566 -0.000726 0.000168 0.000035 -0.000082 -0.000208 -0.000798 0.000714 0.000812 0.000147 0.000152 0.000081 0.000421 -0.000719 0.000497 0.000213 0.000290 0.000086 -0.000406 0.000747 -0.000434 -0.000531 0.000251 -0.000816 0.000155 0.000124 -0.000288 0.000195 -0.000437 -0.000890 0.000822 0.000228 -0.000724 0.000546 0.000856 0.000566 -0.000334 0.000209 0.000614 0.000673 0.000866 -0.000334 -0.000186 -0.000084 -0.000348 -0.000275 -0.000698 0.000503 -0.000486 0.000816 -0.000728 -0.000071 0.000692 0.000399
-0.000806 0.000481 -0.000098 -0.000110 0.000581 0.000340 -0.000849 -0.000216 -0.000509 0.000745 0.000231 -0.000705 0.002929 0.042340 0.043012 0.002224 0.000220 -0.000681 0.000642 -0.000728 0.000470 -0.000138 -0.000737 0.000775 -0.000610 -0.000269 -0.000702 -0.000317 -0.000212 -0.000343 0.000329 -0.000801 0.000160 -0.000867 0.000383 0.029054 0.176826 0.214093 0.505940 0.502474 0.504503 0.758910 0.518275 0.581800 0.972104 1.460824 0.249380 -0.238150 -0.187617 0.000011 -0.000818 0.000336 -0.000896 -0.000275 0.000824 -0.000705 0.000501 -0.000710 -0.000285 -0.000150 -0.003326 0.212386 0.405542 0.337720 0.649825 0.419517 0.831374 1.105561 1.333561 1.000887 1.041072 0.897138 0.148697 -0.093439 -0.251434 -0.754407 -0.701801 -0.979710 -0.611286 0.666305 0.832628 -0.000033 -0.000250 0.000699 -0.000031 0.000826 0.156441 0.154308 0.078023 -0.161730 0.284293 0.421663 -0.064169 0.064211 -0.275995 0.119539 0.194675 0.396286 0.026398 -0.093962 0.096491 0.442107 -0.064012 -0.163299 -0.403978 -0.435510 0.155086 0.066765 -0.474805 -0.793085 -0.707491 -0.000107 -0.000879 0.000897 0.144790 -0.532973 0.385803 0.520642 0.769461 0.747540 -0.073414 0.206881 0.087060 0.334153 0.305845 0.352211 0.406620 0.027034 0.314453 0.326870 0.012747 -0.372496 0.231035 -0.593020 -0.178435 -0.382463 -0.683865 -0.877260 -0.794834 -0.665546 -0.000174 -0.000544 0.379043 0.839211 0.386485 -0.234825 0.021919 0.085304 -0.191461 -0.140550 0.024826 0.506966 0.107076 0.059383 0.173275 0.160079 0.369152 0.144798 0.191028 -0.241170 -0.042437 -0.006964 -0.039211 -0.479340 -0.808354 -0.596521 -0.787058 -0.665777 -0.000494 0.004110 0.393377 -0.217926 -0.143070 -0.444083 -0.278495 0.140074 0.122852 0.148194 0.259256 0.032472 0.182818 0.122915 0.494779 0.230366 0.367420 -0.160910 0.026793 -0.161328 -0.077076 0.006014 0.053813 -0.139854 -0.525529 -1.111271 -0.441953 -0.326064 0.000469 0.034450 -0.272868 -0.466884 0.003409 0.204904 -0.133152 0.035506 -0.058322 0.117008 0.025176 0.123694 0.089734 0.291619 0.328978 0.352742 0.433091 -0.124871 -0.063154 -0.134264 -0.468906 -0.167701 0.388216 -0.258929 -0.349182 -1.260182 -0.343611 -0.325084 -0.000497 -0.009067 -0.073911 -0.313118 0.493869 0.155490 -0.227859 -0.074849 0.107389 0.020951 0.417701 0.257520 -0.151254 -0.367201 0.009955 0.226472 0.249760 0.362949 -0.185763 -0.342069 -0.280378 -0.613872 0.132829 0.310531 -0.698268 -0.900211 -0.169653 -0.052889 -0.000668 0.049321 0.914711 -0.055998 0.246744 0.594196 0.017790 0.291302 -0.156007 0.036722 0.157856 -0.216282 -0.034475 -1.066118 -0.940250 -0.008741 0.340123 0.288029 -0.039394 -0.560377 -0.473019 -0.838819 -0.111921 0.802681 -1.288218 -0.680551 0.106622 -0.126663 -0.000694 0.056955 0.731973 0.135831 -0.300064 0.172277 0.357611 0.514997 0.255099 -0.285107 -0.190850 -0.946444 -0.916201 -1.244785 -1.077412 -0.010552 0.283221 0.291454 -0.122254 -0.379819 -0.599391 -0.463052 -0.099739 0.468294 -0.782531 -0.600235 -0.537647 0.139016 -0.012595 0.040982 -0.141064 0.629170 0.169123 0.121085 0.578744 0.434319 -0.122025 -1.255341 -1.288159 -0.901102 -0.561040 -0.809782 -0.754704 -0.036730 0.318024 0.023881 -0.000418 -0.139535 -0.144638 -0.007448 0.201930 -0.127739 -0.478467 -0.291412 -0.983460 0.077600 -0.013971 -0.008801 -0.093234 -0.067901 -0.142495 -0.482809 -0.206195 0.188469 -0.236599 -1.214199 -1.082112 -1.208829 -0.258530 -0.505582 -0.570654 -0.311751 0.264427 0.320895 0.055123 -0.222338 -0.269718 0.131665 0.096133 -0.187977 -0.263791 0.321625 -0.116078 -0.533312 0.009841 0.000864 0.534177 0.180318 -0.106375 -0.439062 -0.715854 -0.832358 -1.408675 -1.220474 -0.424704 -0.626362 -0.263796 0.066649 -0.401852 -0.616966 0.295742 0.411537 0.129964 -0.412239 -0.413682 0.422004 0.601855 -0.047799 0.052747 0.223113 0.308057 -0.055116 0.000078 0.000472 0.722851 0.272105 -0.237098 -0.969308 -1.346692 -1.635554 -1.978308 -0.532287 0.016496 -0.040647 -0.043367 -0.519189 -0.819262 -0.347260 0.373325 0.151371 0.098966 -0.252866 -0.394753 0.294613 0.316715 0.323380 0.264712 0.894956 0.950310 0.365622 -0.000212 0.000169 0.779169 -0.962951 -1.194018 -1.243104 -1.159028 -1.258454 -0.673884 0.365775 0.646172 0.339708 -0.226003 -0.498936 -0.658353 -0.062111 0.264555 0.020224 -0.822924 -0.857260 -0.775768 -0.278940 0.104281 0.502686 0.731816 0.633286 1.278173 0.369130 -0.000446 0.068647 0.996087 -1.052366 -0.899169 -1.054013 -0.562334 -0.940448 -0.456980 0.354523 0.649078 0.306514 -0.183292 0.023725 -0.069592 -0.010730 0.315644 -0.525142 -1.239863 -0.822709 -0.530542 -0.060654 -0.101962 0.269059 0.268805 1.018448 0.619590 0.361366 0.000199 0.118119 0.515355 -0.233943 -0.789877 -0.510015 0.084618 -0.023126 0.114432 0.357941 0.565300 0.295634 0.029783 -0.106978 0.151184 0.311343 0.052222 -0.746261 -0.738571 -0.730731 -0.419274 -0.425141 -0.330933 0.145339 0.133970 1.288853 0.722061 0.869722 0.010444 0.104233 -0.350982 0.118330 -0.432510 -0.690735 0.102979 0.359781 0.603485 0.507389 0.452161 0.338877 0.356494 0.108970 0.379678 0.188021 -0.733896 -1.027488 -0.369878 -0.517197 -0.440996 -0.459864 -0.164507 0.169407 -0.002558 0.613900 0.421607 0.509000 0.039301 0.315240 0.476812 -0.174952 -0.178023 -0.492578 0.209576 0.601880 0.316600 0.469393 0.522710 0.770338 0.659397 0.627353 0.005987 -0.214083 -0.247002 -0.560185 -0.280763 -0.261481 -0.176860 -0.024729 -0.119316 -0.058958 -0.455479 -0.380999 0.495669 0.496943 -0.000684 0.216863 0.354423 0.086824 0.006482 0.153413 0.385675 0.623194 0.486324 0.384254 0.701093 0.849726 0.915031 0.377284 -0.015984 0.127502 0.275549 0.134154 0.203107 0.003670 0.303750 0.263133 0.302438 0.445197 0.474950 0.086888 0.437007 0.049259 0.129981 0.223322 0.496433 -0.107105 0.072407 0.107347 -0.134525 0.000006 -0.091995 0.274257 0.165940 0.191175 0.200313 0.017001 0.059744 0.104355 -0.005140 0.372678 0.709964 0.474640 0.420759 0.267078 0.565278 1.345333 1.530592 1.069196 0.690706 -0.000669 0.128368 0.070104 0.568237 -0.064929 0.276190 0.092214 0.015581 0.303852 0.387680 0.049143 -0.052189 -0.115597 -0.351325 -0.401896 0.173446 -0.181714 -0.168780 -0.022991 0.781425 0.399427 0.662830 0.859322 0.995216 0.959462 1.079519 1.017115 0.368603 -0.000405 -0.000240 -0.000348 -0.262579 -1.245833 -0.671261 -0.333313 -0.270840 0.533140 0.403900 0.358983 0.060640 0.463909 0.433707 0.053268 -0.041446 -0.130447 -0.185751 -0.183417 0.206144 -0.102190 0.046286 0.533917 0.630446 0.401402 0.249003 0.783980 0.342964 0.000116 0.000427 0.000265 -0.388335 -0.973320 -0.454033 -0.801635 -0.548286 -0.699997 -0.101546 0.038901 -0.535373 -0.070685 0.664535 0.340245 0.224258 0.011488 -0.206330 -0.005639 0.542222 0.347558 -0.288427 0.364888 1.136981 0.387173 1.432609 1.147092 0.570954 0.000723 -0.000042 -0.000750 0.000175 0.290463 0.350371 0.048092 0.514401 0.165794 0.138307 -0.414449 -0.513427 -0.349231 -0.367463 0.258609 0.729804 0.618346 0.041755 0.528387 -0.352979 -0.694901 0.295596 0.804116 0.609098 -0.697501 0.399678 0.569248 0.570878 0.000092 0.000771 0.000817 -0.000033 -0.000357 0.375584 0.422519 0.426430 0.680066 1.479033 1.345875 0.969713 -0.273225 -0.042990 0.211937 -0.079406 -0.289357 -0.594670 -0.621974 -0.692595 -0.046065 0.010457 0.037132 -0.105622 0.000887 -0.000861 0.068287 -0.000870 0.000545 0.000673 0.000735 0.000388 -0.000599 0.034377 0.050529 0.100967 0.078189 0.068318 0.063669 0.061007 0.470933 0.304670 0.168040 0.243757 0.170009 0.059464 -0.000961 -0.003595 -0.000178 -0.000666 -0.031377 -0.032016 0.000891 0.000286 -0.000565 -0.000373 0.000119
0.000765 -0.000332 -0.000783 -0.000054 0.000609 -0.000775 -0.000345 0.000039 -0.000087 0.000435 -0.000803 -0.000898 -0.000778 0.000895 0.000665 0.000774 0.000751 -0.000682 0.000253 0.000765 -0.000516 0.000779 0.000422 -0.000686 0.000855 -0.000587 -0.000171 -0.000831 0.000732 0.000477 0.000019 -0.000103 0.000525 0.000578 -0.003115 -0.004094 -0.000178 0.000828 0.000000 0.000195 -0.000558 -0.000037 -0.122081 -0.281553 -0.332338 -0.224291 -0.107784 0.000675 -0.000259 -0.000871 -0.000013 -0.000344 0.000378 -0.000025 -0.000171 0.000149 -0.000772 -0.000608 -0.000564 0.000689 0.000646 -0.098565 -0.087382 -0.093647 -0.005615 0.002230 -0.473357 -0.531614 -0.152217 -0.200990 -0.146047 -0.419393 -0.458367 -0.468373 -0.195882 -0.000360 -0.000689 -0.000791 -0.000287 0.000517 0.000816 0.000536 -0.000895 0.000687 0.000774 0.000746 0.000919 -0.000068 -0.093364 -0.081583 -0.169098 -0.165603 -0.089305 -0.040046 -0.324221 -0.244038 -0.423252 -0.392106 -0.461997 -0.343818 -0.331023 -0.083178 -0.123724 -0.352801 -0.307840 -0.291773 -0.240186 -0.003947 -0.000741 0.000728 -0.000866 0.000667 0.000244 -0.000211 -0.007375 0.122340 0.160882 0.111478 -0.318377 -0.851001 -0.712764 -0.865888 -0.817915 -0.713900 -0.871775 -0.991628 -1.055496 -0.982186 -0.767204 -1.054455 -0.789636 -0.670232 -0.217012 -0.125536 -0.428361 0.004838 0.055760 0.048177 -0.011094 -0.011513 -0.000640 -0.000910 0.001871 -0.348307 -0.233415 -0.772299 0.119858 0.212949 -0.293246 -0.568763 0.032220 0.489191 0.237765 0.031161 -0.217601 -0.249436 -0.614344 -0.132648 -0.082932 0.040276 -0.252600 -0.563749 -0.500425 -0.122983 -0.114742 0.147798 -0.012114 -0.011330 0.000727 0.000413 0.656673 0.098125 0.186944 0.564784 0.650201 0.217482 -0.376617 -0.215227 0.245543 0.480953 0.246409 0.074994 -0.044906 -0.046037 -0.040234 -0.312384 -0.228494 -0.427191 -0.196801 -0.880752 -0.594620 -0.650288 -0.320111 0.165355 -0.469278 -0.176702 0.000353 -0.030553 0.622236 -0.092628 0.187769 -0.149045 -0.027754 0.007427 0.267472 0.071303 0.340013 0.494117 0.167142 -0.163063 -0.041152 0.018633 -0.378682 -0.574285 -0.512125 -0.636525 -0.398136 -0.786362 -1.215492 -0.966340 -0.372317 0.218598 -0.206877 -0.177803 -0.001577 -0.158101 -0.413244 0.248378 -0.018072 -0.226628 -0.196590 -0.334407 -0.212430 -0.403757 -0.062543 -0.029827 -0.067591 0.051816 -0.014275 -0.045398 0.273415 0.166848 0.056273 0.001345 -0.085359 -0.550391 -0.761858 -0.376124 -0.068824 -0.183698 -0.689055 -0.082915 0.000680 -0.152446 0.634555 0.483781 -0.133285 -0.627126 -0.357980 -0.145549 -0.119616 -0.008330 0.000988 0.025540 0.108673 0.233628 0.075041 0.209501 0.284274 0.233657 0.075850 0.334384 0.641450 0.026950 -0.420849 0.024278 -0.402775 -0.966871 -0.477020 -0.079380 0.000325 -0.123785 0.494974 0.504200 -0.940745 -0.558171 0.127382 -0.022415 0.116984 -0.011857 -0.109463 -0.376101 -0.020387 0.154502 -0.305708 -0.190817 -0.116011 -0.069613 0.071654 -0.014399 0.415675 -0.174693 -0.095431 0.326946 -0.539284 -0.691556 -0.278190 -0.146478 0.025790 -0.050225 -0.429613 -0.574843 -0.569845 -0.289556 -0.056831 0.137951 0.419965 0.232753 -0.505856 -0.714706 -0.811342 -0.157798 -0.730888 -0.706492 -0.359399 0.240112 0.214496 0.324591 0.211008 0.049282 0.008171 0.166335 -0.042095 0.230999 0.212928 -0.105942 0.023256 -0.153752 -0.281292 -0.400962 -0.637229 -0.072607 -0.238261 0.065145 0.015939 -0.395296 -0.445447 -0.719764 -0.925401 -0.383586 -0.226485 -0.519013 0.129799 0.237576 0.559464 0.221554 0.250264 -0.253641 0.093296 0.253902 0.172582 0.020510 -0.092790 -0.115404 0.005505 -0.337551 -0.460421 -0.061128 -0.884654 0.017007 0.226509 -0.166926 -0.112783 -0.718599 -0.770679 -0.224096 0.058155 0.025345 -0.067857 -0.187807 0.328628 -0.035134 0.002245 0.000462 -0.065770 -0.603041 -0.292516 -0.010157 0.101466 0.250103 -0.181415 -0.002323 0.000778 -0.224182 -0.356405 0.064250 -0.697753 -0.119919 0.256390 -0.068520 -0.327367 -0.581005 -0.590003 0.137506 0.187826 0.748120 0.117416 0.001277 -0.196824 -0.513777 -0.657395 -0.908682 -0.272386 -0.412310 -0.075452 0.032108 0.416870 0.280064 0.134633 -0.003511 0.000454 0.004260 -0.042230 0.138751 -0.164709 -0.600474 -0.229514 0.096482 -0.669700 -0.514398 0.020562 0.316978 0.648620 0.860703 0.719718 0.236556 -0.085472 -0.806855 -1.229364 -1.063089 -0.658743 -0.536244 -0.261450 0.166850 0.194850 -0.103741 0.111124 -0.009367 0.000187 0.005220 -0.068971 0.080627 -0.453660 -1.174785 -0.825707 -0.069963 -0.269944 -0.003419 0.113617 0.160193 0.382356 0.478291 0.301837 0.152487 -0.308999 -0.613404 -0.691363 -1.253803 -1.269380 -1.233180 -0.778833 -0.363964 -0.312460 -0.367553 -0.112433 -0.010436 0.000387 0.005737 0.010126 -0.145429 -0.465009 -1.142045 -0.607426 -0.015882 0.256237 -0.110644 -0.207767 -0.048624 0.355953 0.790549 0.326857 -0.032972 -0.416200 -0.212626 -0.225978 -0.494105 -0.877069 -1.006419 -0.321282 -0.277536 -0.436393 -0.381767 -0.120254 0.000861 -0.000879 0.003850 0.004282 -0.395823 0.099684 0.126446 -0.132550 -0.173209 0.086309 0.222130 0.264550 0.912398 0.854472 0.532011 -0.075171 -0.042968 -0.429614 -0.311938 0.038556 0.128849 -0.060274 -0.694085 -1.144927 -0.894180 -0.751549 -0.728522 -0.212879 0.002285 0.000657 0.016458 0.247904 -0.437323 0.737379 0.455387 0.086004 0.122260 0.024867 -0.028984 0.016807 0.350583 -0.103125 0.031802 -0.171279 -0.273544 -0.448131 -0.403265 0.018099 0.260420 0.081395 -0.331789 -0.935454 -1.209756 -1.294895 -0.513516 -0.165002 0.002086 0.000272 0.013799 0.234805 -0.482355 0.217393 -0.211457 -0.228301 -0.669034 -1.113225 -1.705983 -1.731720 -1.645520 -1.411579 -0.162303 -0.027001 -0.077617 -0.173624 -0.238980 0.312820 0.526589 0.524924 0.094691 -0.431558 -0.969744 -1.195281 -0.722117 0.012703 -0.004649 -0.000210 0.009884 0.228274 0.568988 -0.004988 -0.259088 -0.090638 -0.322265 -1.119674 -1.818702 -1.999067 -1.924686 -1.694729 -0.628718 -0.267102 0.180584 0.099263 -0.196910 0.373483 0.428662 0.528827 0.669864 0.090305 -0.800464 -1.025009 -0.655759 -0.713931 -0.000279 -0.000282 0.001344 0.168182 -0.495236 -0.548546 -0.349989 0.461605 0.231060 -0.471678 -1.047146 -1.151564 -0.674516 -0.526242 -0.604618 -0.444870 0.069311 0.206689 0.353418 0.427680 0.180603 0.554086 0.572239 -0.024085 -0.539980 -0.162046 0.015349 0.008910 -0.000532 -0.000719 -0.000530 -0.064309 -0.044952 -0.468762 -0.138527 0.789766 0.976223 0.496987 0.262025 0.226038 0.354009 -0.145936 -0.007342 0.304148 0.457490 0.206752 0.764280 0.318350 -0.010224 0.352710 -0.058726 0.007355 -0.334779 -0.582795 -0.337081 0.048828 -0.000810 -0.000729 0.000252 0.005060 -0.324333 -0.498454 -0.237033 0.876141 1.151856 1.412133 1.143851 0.799085 0.677669 0.415873 0.707217 0.659229 0.195342 0.100636 0.238715 0.105939 0.307639 0.413241 -0.168112 0.150526 -0.346413 -0.701425 -0.549485 -0.595266 -0.000778 0.000146 0.000507 -0.006444 -0.356919 -0.656140 0.082291 0.310072 0.345164 0.750388 0.820545 0.668719 -0.241816 0.757229 0.614719 0.271358 -0.018868 0.266529 0.234941 0.315240 0.798941 0.168997 -0.423333 0.200481 -0.422420 -0.579324 -0.555631 -0.594923 0.000819 -0.000842 -0.000390 -0.000876 0.000194 -0.309967 -0.279967 -0.295199 0.403272 -0.511333 -0.703487 0.006768 -0.099509 0.638408 0.343633 0.174739 -0.002488 0.303441 0.827644 0.485144 -0.312736 -0.173067 0.077213 0.174018 0.000873 -0.000621 0.000855 0.000255 0.000827 -0.000025 0.000845 -0.000480 0.000086 -0.000081 0.000870 -0.001764 -0.007930 -0.007192 -0.185644 -0.544988 -0.939994 -0.451907 -0.327900 -0.551971 -0.655416 -0.476211 -0.539716 -0.577503 -0.168674 -0.084068 0.113065 0.107775 -0.000473 -0.000753 -0.000818 -0.000707 -0.000024
0.000794 -0.000155 0.000148 -0.000592 -0.000438 -0.000214 0.000757 -0.000194 0.000356 -0.000216 -0.000457 -0.000492 0.000605 0.000637 -0.000177 -0.000909 0.000370 -0.000505 -0.000662 -0.000090 -0.000854 0.000849 0.000862 -0.000462 -0.000361 0.000324 -0.000314 -0.000863 0.000808 0.000330 -0.000847 0.000763 -0.000488 -0.000246 -0.000134 0.000273 0.000754 -0.000355 0.000584 0.000527 0.000889 -0.000339 0.000374 -0.000441 0.000561 -0.000436 0.000109 0.000100 0.000736 0.000757 -0.000435 0.000901 -0.000724 0.000199 0.000595 -0.000904 -0.000278 -0.000301 0.000490 -0.000835 -0.000114 -0.000627 0.000201 0.000520 0.000038 0.000313 -0.000605 0.000033 0.000110 0.000599 -0.000756 -0.000330 0.000612 0.000072 0.000331 0.000699 -0.000900 0.000845 0.000027 0.000706 0.000012 -0.000422 0.000834 -0.000863 0.000106 0.000556 -0.000267 0.000909 -0.000585 0.000139 -0.000782 -0.000604 -0.000901 -0.000232 0.000185 0.000531 -0.000410 -0.000395 -0.001443 -0.001589 -0.001461 0.001398 0.000697 0.002339 0.001042 -0.000447 0.000385 0.000526 -0.000286 0.000910 -0.000061 -0.000218 0.000338 0.000511 -0.000022 0.000711 -0.000140 -0.000031 0.000129 0.000506 0.000393 -0.001110 -0.001248 -0.000719 -0.000644 -0.002169 -0.001214 -0.002114 -0.000776 -0.001501 0.002344 0.001212 0.002387 -0.000217 0.001650 0.001580 -0.000365 0.000896 0.000266 0.000098 0.000064 0.000321 -0.000468 -0.000066 -0.000180 -0.001364 -0.001714 -0.001350 -0.001508 -0.002338 -0.001446 -0.000624 -0.000766 -0.002013 -0.001729 -0.001760 -0.002001 -0.000929 -0.001834 -0.001260 -0.001294 0.000731 0.002123 0.000707 0.000693 -0.000219 0.000118 -0.000292 -0.000003 0.000233 0.000215 -0.000083 -0.000703 -0.002129 -0.001915 -0.000919 -0.001102 -0.001564 -0.001725 -0.002240 -0.002316 -0.001119 -0.001480 -0.001176 -0.000898 -0.001001 -0.000689 -0.000626 -0.002047 -0.001826 -0.001317 -0.001482 -0.002126 0.000085 0.000749 -0.000739 0.000310 0.000023 -0.000290 -0.000078 0.000752 -0.001537 -0.000709 -0.001714 -0.001989 -0.000995 -0.002065 -0.001713 -0.001014 -0.002179 -0.001642 -0.001695 -0.000790 -0.000796 -0.001866 -0.002024 -0.001200 -0.001323 -0.002390 -0.001439 -0.001244 -0.001056 0.000413 -0.000340 0.000067 -0.000096 -0.000089 -0.000400 -0.000605 -0.001811 -0.000702 -0.001977 -0.000820 -0.001668 -0.001356 -0.001043 -0.002247 -0.001263 -0.002253 -0.001555 -0.002176 -0.000901 -0.000723 -0.001475 -0.001826 -0.000782 -0.002362 -0.001782 -0.001978 -0.001478 0.000434 0.000214 -0.000617 -0.000753 -0.000084 -0.000258 -0.000155 -0.001901 -0.002266 -0.001635 -0.000827 -0.000964 -0.001502 -0.001752 -0.001661 -0.000848 -0.001310 -0.000969 -0.001877 -0.000730 -0.002391 -0.001620 -0.001446 -0.002292 -0.000918 -0.000831 -0.001781 0.001931 0.000150 -0.000324 0.000455 0.000810 -0.000465 -0.000812 -0.000122 -0.001723 -0.001716 -0.001313 -0.000905 -0.001607 -0.000640 -0.000701 -0.001059 -0.001681 -0.002434 -0.001303 -0.001231 -0.002358 -0.001708 -0.001868 -0.001951 -0.001795 -0.001993 -0.002144 -0.001110 0.001501 0.000751 -0.000727 -0.000008 -0.000445 0.000674 -0.000386 -0.000704 -0.001541 -0.001886 -0.001457 -0.000858 -0.001930 -0.001843 -0.000635 -0.002194 -0.001414 -0.001972 -0.001884 -0.002153 -0.001508 0.000737 -0.002373 -0.001696 -0.001242 -0.001158 -0.001021 0.000771 0.000661 0.000076 0.000726 0.000362 -0.000367 0.000260 0.000314 -0.001745 -0.001062 -0.002327 -0.001847 0.001554 0.000665 -0.001861 -0.001493 0.000897 0.000623 -0.001524 -0.002053 -0.001343 -0.002137 -0.002252 -0.000688 -0.002347 -0.001500 -0.001403 -0.002269 -0.000393 -0.000241 -0.000499 -0.000854 0.000312 0.000006 -0.000879 0.000660 -0.001357 -0.001507 -0.001457 0.001539 0.001103 0.001795 -0.000960 0.001594 0.000869 0.002162 -0.000919 -0.000738 -0.002323 -0.000735 -0.001855 -0.001008 -0.002369 -0.001005 -0.002388 -0.001575 -0.000801 0.000870 0.000519 0.000824 -0.000079 -0.000843 0.000450 0.000203 -0.002291 -0.001649 0.001421 0.002151 -0.000971 0.001329 0.000849 0.000941 -0.002284 -0.001359 -0.000691 -0.000643 -0.000775 -0.000828 -0.001325 -0.001338 -0.000665 -0.001555 -0.001527 -0.002386 -0.000172 0.000538 0.000768 0.000235 0.000231 -0.000205 -0.000034 0.000022 -0.001379 -0.001911 0.000914 0.002224 -0.001833 0.000653 0.001645 -0.002303 -0.002110 -0.001111 -0.002028 -0.001740 -0.000896 -0.000736 -0.002034 -0.001750 -0.001729 -0.001552 -0.001078 -0.001659 0.000199 -0.000661 0.000062 -0.000518 -0.000509 -0.000516 -0.000388 -0.000719 -0.001405 -0.001286 0.001669 -0.001181 -0.001456 -0.001794 -0.000669 -0.001731 -0.001759 -0.000881 -0.000733 -0.000804 -0.000960 0.001329 -0.001743 -0.001465 -0.001647 -0.002345 -0.001433 -0.002028 0.000559 -0.000356 0.000005 0.000648 -0.000607 -0.000723 0.000804 -0.000669 -0.002144 -0.002129 -0.002157 -0.001089 -0.001104 -0.001429 -0.000827 -0.001810 -0.000909 -0.001995 -0.002008 -0.001404 -0.002017 0.001447 -0.000807 -0.001013 -0.002302 -0.002406 -0.001338 -0.001657 0.000133 -0.000371 0.000325 0.000330 -0.000124 0.000119 0.000586 -0.000518 -0.001092 -0.002388 -0.000985 -0.001045 -0.001875 -0.001249 -0.001980 -0.000733 -0.000753 -0.001635 -0.001078 -0.001205 0.001056 0.001562 -0.002249 -0.001003 -0.002058 -0.000843 -0.001435 -0.000869 0.000385 0.000128 0.000394 0.000202 0.000744 -0.000053 -0.000173 -0.000125 -0.002147 -0.001026 -0.001409 -0.001077 -0.002396 -0.001123 -0.001407 -0.001942 -0.002314 -0.001719 -0.001591 -0.000725 -0.001345 0.001435 -0.001833 -0.001190 -0.001743 -0.002355 -0.001468 -0.001722 0.000508 -0.000742 -0.000285 -0.000821 0.000397 -0.000670 0.001794 0.001128 0.001097 -0.001076 -0.001038 -0.001330 -0.001471 -0.001384 -0.001573 -0.001191 -0.001426 -0.001359 -0.001248 -0.001823 -0.001239 -0.002099 -0.001068 -0.001415 -0.000648 -0.000639 -0.000984 -0.001987 -0.001360 -0.000131 0.000139 -0.000035 -0.000772 0.000482 0.001624 0.002264 0.002338 -0.002346 -0.002264 -0.002414 -0.001707 -0.002251 -0.000940 -0.000679 -0.002353 -0.000708 -0.001104 -0.001297 -0.001208 -0.000751 -0.000902 -0.001801 -0.000670 -0.001493 -0.002429 -0.001574 -0.001918 -0.002186 -0.000525 0.000176 0.000733 -0.000260 -0.000233 -0.000293 0.000648 -0.000814 -0.000888 -0.001031 -0.000636 -0.001340 -0.001070 -0.000923 -0.000804 -0.001193 -0.002085 -0.001810 -0.001555 -0.001111 -0.001663 -0.000729 -0.002266 -0.002354 -0.001442 -0.000835 -0.001704 -0.002173 -0.000005 -0.000640 0.000153 0.000874 0.000142 0.000489 -0.000226 0.000350 0.002129 -0.001061 -0.000833 -0.001451 -0.000986 -0.000844 -0.000765 -0.001924 -0.001885 -0.001364 -0.001647 -0.001628 -0.000987 0.001006 0.001214 0.000659 -0.001582 -0.001524 -0.001793 0.000295 -0.000190 0.000442 -0.000005 0.000589 0.000717 0.000154 -0.000059 0.000545 0.001130 0.001095 -0.001166 -0.001810 -0.002171 -0.001866 -0.000913 -0.002341 -0.001281 -0.001202 -0.001551 -0.001572 0.002087 0.002159 0.001428 0.000327 0.000344 -0.000072 -0.000049 0.000848 0.000830 0.000525 0.000558 -0.000141 0.000274 -0.000712 -0.000819 -0.000308 -0.000479 0.002290 -0.001480 -0.002129 -0.001076 -0.001541 -0.001591 -0.002371 -0.001307 -0.002342 -0.002309 -0.001540 0.000042 -0.000856 -0.000847 -0.000455 -0.000391 -0.000843 0.000226 -0.000430 -0.000679 0.000100 0.000505 0.000201 0.000322 -0.000453 0.000598 0.000688 -0.000756 -0.000773 -0.000018 0.002425 0.000853 0.002055 0.001535 -0.000807 -0.002159 -0.002061 -0.000960 -0.001612 0.000195 0.000168 -0.000473 -0.000284 0.000486 0.000367 -0.000313 0.000244 -0.000018 -0.000789 -0.000742 0.000880 0.000749 -0.000726 -0.000113 0.000622 -0.000871 -0.000253 -0.000068 -0.000013 -0.000630 0.000898 0.000397 -0.000261 -0.000351 0.000375 -0.000866 0.000040 -0.000477 -0.000636 -0.000100 0.000509 0.000911 0.000707 -0.000435 0.000289 0.000735 -0.000338
0.000849 -0.000475 -0.000338 0.000406 0.000069 0.000101 0.000905 -0.000201 -0.000857 0.000671 -0.000681 0.000076 -0.004047 -0.005199 -0.004886 -0.003556 -0.000203 -0.000478 -0.000702 0.000870 0.000597 -0.000742 0.000891 -0.000176 0.000876 0.000005 0.000476 0.000727 0.000573 -0.000685 -0.000041 -0.000844 0.000128 -0.000246 -0.012165 -0.033679 -0.027971 -0.019402 0.020098 0.005119 -0.045995 -0.049645 0.079903 0.100994 0.120242 0.010776 0.027038 0.005429 -0.061115 -0.057253 -0.059547 -0.056579 0.000723 -0.000590 -0.000751 0.000583 0.000750 -0.000114 0.000687 0.000449 -0.000793 -0.000503 -0.004502 -0.035600 -0.056718 -0.039109 -0.070371 -0.094647 -0.130687 -0.170920 0.004599 0.196895 -0.236076 -0.189491 -0.175715 -0.102550 0.045327 -0.046251 -0.053518 -0.119952 -0.056147 0.000744 0.000151 -0.000787 0.000837 0.000325 0.000182 -0.000204 -0.007770 -0.125639 -0.011814 0.006313 -0.126843 -0.264607 -0.183080 -0.380570 -0.350429 -0.245730 -0.301690 0.168687 0.340122 0.311456 -0.118322 -0.378921 -0.323228 -0.248116 -0.188997 -0.047606 0.008821 0.078846 -0.000596 -0.000270 -0.000257 -0.000204 0.000712 -0.048190 -0.215505 0.372202 0.696066 -0.079790 -0.468478 -0.691102 -0.435212 -0.450516 -0.584263 -0.765641 -0.585927 -0.055439 -0.138549 -0.089947 -0.389479 -0.292627 -0.270076 -0.012654 -0.002925 0.025057 -0.032487 0.097533 -0.002794 -0.000542 -0.000201 0.000876 0.000359 -0.206553 0.014135 0.449064 0.313185 -0.309804 -0.470361 -0.626461 -0.522360 -0.264341 -0.329895 -0.413028 0.095440 -0.006672 -0.014802 -0.144585 -0.458020 -0.414176 -0.303719 -0.160328 0.012741 0.153329 0.021301 0.082091 -0.000816 -0.001848 -0.000124 0.000519 0.408626 0.413267 0.113762 0.601316 0.414613 -0.259130 -0.061004 0.120788 0.334167 0.485580 0.106033 0.158767 0.078696 -0.012662 -0.038407 -0.052199 -0.088484 -0.437912 -0.493739 -0.375960 0.131923 0.692805 0.112542 -0.006916 0.001507 -0.001259 -0.000383 0.002313 0.096499 -0.218403 -0.001574 0.179762 -0.012244 -0.360881 -0.252759 0.177608 0.453443 0.758898 0.692264 0.581583 0.517109 0.110058 -0.255250 -0.267784 -0.474655 -0.452579 -0.723244 -0.479838 0.016944 0.540730 0.249336 -0.042534 0.009851 -0.001845 -0.000144 0.002859 -0.206822 0.193936 0.167486 0.046545 -0.204009 -0.139621 -0.055025 0.058250 0.414982 0.362259 0.298723 0.313207 0.260959 0.004011 -0.064763 -0.004708 -0.189248 -0.232091 -0.230355 -0.374039 -0.041885 0.137293 -0.070929 -0.119793 -0.037849 -0.003667 -0.001802 0.002297 -0.266819 -0.033700 -0.062166 0.124659 0.031364 -0.064903 0.149851 0.027013 -0.144387 -0.175661 -0.247523 -0.264343 -0.017702 0.021005 0.186754 0.313395 0.255117 0.178978 -0.085759 -0.292439 -0.177661 -0.412240 -0.274112 -0.111384 -0.030861 -0.000508 -0.002604 -0.000887 -0.262983 -0.006817 0.164517 0.360645 0.102599 0.029295 0.014572 -0.040951 -0.022706 -0.254836 -0.370328 -0.724587 -0.488223 0.136902 0.032888 0.027815 0.447266 0.318955 -0.087081 -0.159815 -0.043385 -0.062093 0.289672 0.118692 -0.028017 -0.000269 0.002320 -0.091903 0.015365 0.269852 0.559545 0.246879 -0.062737 -0.215365 -0.044136 -0.227812 -0.537185 -0.795553 -0.532422 -0.435862 -0.286370 0.027193 -0.114050 0.255892 0.189132 0.454188 0.260208 -0.027595 0.078193 0.338085 0.770926 0.250119 0.040819 0.002567 0.002880 0.028383 0.059630 0.742577 0.617453 0.444870 -0.071941 -0.590396 -0.571650 -0.834648 -0.936811 -0.599612 -0.559599 -0.276790 -0.092533 0.203416 -0.037103 0.004617 -0.175290 0.249811 0.184027 -0.058801 -0.180060 0.255888 0.593568 0.327777 0.029820 0.001333 0.000335 0.036728 0.051471 0.536656 0.562915 0.495413 0.012629 -0.371181 -0.745945 -0.745178 -0.706352 -0.609790 -0.453258 -0.137567 0.023911 0.328080 0.122266 -0.197523 0.034090 0.311393 0.035367 -0.068499 -0.439875 -0.003350 0.241835 0.011576 -0.001723 0.000863 -0.000129 0.031032 -0.185878 0.492644 0.231976 0.241875 0.216220 -0.062404 -0.430255 -0.264753 -0.297015 -0.488485 -0.500091 -0.200660 -0.152044 -0.244222 -0.325226 -0.095006 0.017145 0.105269 0.080602 -0.000123 -0.059245 -0.122670 -0.006459 -0.177928 -0.051661 -0.000509 -0.000282 -0.000241 -0.042349 0.471353 0.062031 0.196223 0.214764 -0.322285 -0.489659 -0.153714 -0.170762 -0.107416 0.123028 0.105059 0.035546 -0.325076 -0.185601 -0.056426 0.189618 -0.067719 0.028441 0.016625 0.120789 -0.339488 -0.204645 -0.085214 -0.009288 -0.000875 0.000600 0.104686 -0.503035 0.457516 0.309547 0.269657 0.104147 -0.379795 -0.707592 -0.607549 -0.253123 -0.010640 -0.084875 -0.201578 -0.217386 -0.505417 -0.331092 -0.167966 -0.145082 0.001294 0.031011 -0.187934 0.232430 -0.482017 -0.333216 -0.526563 -0.069942 -0.000464 -0.000667 0.023330 -0.531449 0.402541 0.235491 0.113650 0.205660 0.021003 -0.373382 -0.643279 -0.501697 -0.290093 -0.378090 -0.573399 -0.653276 -0.476189 -0.415070 -0.217222 0.068036 0.213473 0.124695 -0.102295 -0.010460 -0.467000 -0.183431 -0.660735 -0.107484 -0.000062 -0.000806 0.000540 -0.441401 0.105378 0.246786 0.213335 0.399516 0.320251 -0.084756 -0.037684 0.003785 -0.076773 -0.152670 -0.317232 -0.171914 0.063600 -0.101026 -0.015833 0.002925 0.054280 -0.004584 -0.019557 -0.121841 -0.281410 0.153322 -0.615752 -0.093561 -0.000776 0.000748 -0.000788 -0.061318 0.286590 0.325771 0.427222 0.203501 0.247566 0.262199 0.346315 0.629008 0.526967 0.267603 0.130379 0.248731 0.229680 -0.171069 -0.474371 0.088788 0.074516 0.091292 -0.057287 -0.009922 0.072985 0.210060 -0.234771 -0.156966 0.000244 -0.000488 -0.089917 0.124073 0.332043 0.098928 0.323184 -0.031726 -0.112866 -0.097039 0.064298 0.274930 0.133127 0.035853 0.028517 -0.069157 -0.342955 -0.598750 -0.543942 0.151120 0.242758 0.201984 0.053435 -0.091864 0.339211 0.325987 -0.330488 -0.175591 -0.000276 0.000751 -0.093186 0.036794 0.039818 -0.307715 -0.201126 0.157155 0.329581 -0.006075 0.033756 0.223770 0.098097 -0.183679 -0.023371 -0.279983 -0.535788 -0.749255 -0.524614 0.061258 0.372396 0.340550 0.084739 -0.039703 0.217129 0.532427 -0.197069 -0.093889 -0.000677 -0.000466 0.000663 0.141694 -0.385237 -0.439208 -0.681011 -0.742155 -0.162701 -0.064408 -0.114258 0.050203 -0.161308 -0.304989 -0.058105 -0.070679 -0.389393 -0.628229 -0.441703 0.001330 0.558008 0.432143 0.160757 0.359685 0.500178 0.727794 -0.012534 0.072921 -0.000540 0.000708 -0.000735 0.003446 -0.246575 -0.267958 -0.203317 -0.387731 -0.475829 -0.527649 -0.442739 -0.648035 -0.765724 -0.695928 -0.566577 -0.436017 -0.431197 -0.848829 -0.386363 -0.061790 0.428183 0.504540 0.310706 0.857846 0.983027 0.815205 -0.129500 0.078442 -0.000345 -0.000907 -0.000702 -0.000709 0.081791 -0.105843 -0.051815 -0.207543 -0.397018 -0.258030 -0.102706 -0.251742 -0.551475 -0.612955 -0.637468 -0.561108 -0.453432 -0.903223 -0.272448 0.049369 0.607540 0.964717 0.718310 0.930000 1.092439 0.835707 -0.131710 -0.000502 0.000424 -0.000764 0.000463 0.000717 -0.017331 -0.241185 -0.137759 -0.070047 -0.209463 0.039168 0.180571 -0.063668 -0.261570 -0.344256 -0.299557 -0.257641 -0.259812 -0.476707 -0.260741 0.140944 1.149154 1.466684 1.139054 0.940922 1.069232 0.417374 -0.000338 -0.000516 0.000005 -0.000768 0.000580 0.000112 -0.000808 0.007015 0.092364 0.026554 -0.038067 -0.052998 -0.084193 -0.230764 -0.241622 -0.257979 -0.306414 0.333616 0.370746 0.084959 -0.223008 -0.035460 0.666890 0.661447 0.603518 0.379761 0.335131 -0.000143 0.000013 0.000602 -0.000211 0.000304 0.000570 0.000763 0.000910 -0.049570 -0.049122 -0.051865 -0.042807 -0.026036 -0.028184 -0.087897 -0.076013 -0.013621 0.012850 -0.054567 -0.097469 -0.122009 -0.116255 -0.293685 -0.211084 0.370536 0.382310 0.353113 -0.196649 -0.000153 -0.000301 0.000569 0.000425
0.000060 -0.000317 -0.000670 -0.000183 -0.000071 -0.000167 -0.000708 0.000700 0.000504 0.000635 0.000375 0.000055 0.000896 0.000517 0.000231 -0.000654 0.000307 -0.000353 -0.000137 -0.000620 0.000201 0.000034 0.000265 -0.000585 0.000469 -0.000087 -0.000012 0.000620 0.000746 0.000661 0.000580 -0.000485 0.000707 -0.000624 0.000235 -0.000869 -0.000645 -0.000639 0.000559 -0.000341 0.000067 -0.000560 -0.000681 -0.000132 0.000006 0.000220 0.000619 -0.000658 0.000582 0.000187 -0.000105 -0.000412 -0.000722 -0.000290 0.000748 -0.000328 0.000868 -0.000904 0.000076 -0.000120 0.000801 0.000869 0.000191 -0.000838 -0.000293 -0.000837 0.000519 0.000845 -0.000033 0.000849 -0.000897 0.000188 0.000046 0.000781 0.000664 -0.000062 0.000089 0.000759 0.000447 0.000102 -0.000190 -0.000902 0.000839 0.000005 -0.000380 -0.000160 -0.000559 -0.000063 0.000082 0.000707 -0.000536 0.000392 -0.000065 0.000132 -0.000526 -0.000139 -0.000436 -0.000845 -0.000207 -0.000703 0.000701 -0.000887 -0.002152 -0.001308 -0.001888 0.000051 0.000728 -0.000191 0.000083 0.000645 0.000319 0.000203 -0.000411 0.000385 0.000583 -0.000101 0.000722 0.000660 -0.000181 0.000801 0.000608 -0.000762 0.000804 0.000234 0.000630 -0.000170 0.000414 -0.000771 0.000506 -0.000929 -0.001470 -0.000776 -0.001071 -0.001467 -0.001313 0.000145 -0.000888 -0.000610 -0.000574 -0.000400 -0.000146 -0.000756 -0.000507 -0.000868 -0.000166 -0.000431 0.000470 0.000711 -0.000641 -0.000749 -0.000308 -0.001375 -0.001376 -0.001059 -0.003170 -0.003068 -0.001580 -0.002060 -0.002095 -0.002990 -0.002234 -0.002195 -0.002056 -0.000357 -0.000292 -0.000314 -0.000447 -0.000452 0.000203 0.000885 -0.000156 0.000512 -0.000046 -0.000553 -0.000121 -0.000867 0.002154 0.001168 0.002146 0.001631 0.000483 0.000123 -0.000766 -0.000559 -0.002295 -0.002500 -0.002118 -0.000617 -0.000506 -0.001213 -0.001119 0.001361 0.001433 0.000233 -0.000536 0.000112 -0.000435 -0.000769 0.000015 -0.000289 -0.000669 -0.000534 0.000609 0.000191 0.001565 0.001971 0.002204 0.000843 -0.000997 0.000722 0.000433 -0.002541 -0.001036 -0.000695 -0.000851 0.001839 0.001585 0.000066 0.000133 0.001242 0.000974 -0.000665 -0.000117 0.000134 -0.000738 0.000615 0.000051 0.000578 0.000030 -0.000435 0.000583 -0.002424 -0.001474 -0.002272 0.000086 -0.000087 0.000210 0.000759 0.001222 -0.002356 -0.001446 -0.000898 -0.001377 0.001904 0.000770 -0.000694 -0.001236 0.002047 0.000226 0.000543 0.000622 -0.000003 0.000184 -0.000316 0.000449 -0.000566 0.000429 0.000269 -0.000284 -0.001977 -0.002213 -0.001561 -0.001717 -0.000966 -0.001035 -0.001535 -0.001463 -0.001493 -0.000690 -0.001194 0.000875 0.000611 0.000941 0.002191 0.001704 -0.002188 -0.001824 0.000159 0.000114 0.000072 -0.000852 0.000882 -0.000407 -0.000250 0.000075 0.000370 -0.000359 -0.000800 -0.001323 -0.002398 -0.003497 -0.001148 -0.001387 -0.001264 -0.001599 -0.001866 -0.000795 -0.002350 -0.001133 -0.001288 0.000744 0.000428 -0.000066 0.000049 -0.001312 0.000566 -0.000476 -0.000757 -0.000779 -0.000422 0.000538 0.000711 0.000164 -0.000521 -0.000414 -0.000888 -0.001433 -0.002177 -0.002024 -0.001219 -0.002865 -0.001773 -0.002010 -0.001716 -0.001971 -0.001171 -0.001936 -0.000652 0.000252 -0.000151 0.000399 -0.001621 0.000246 -0.000693 -0.000599 -0.000433 0.000601 0.000427 0.000718 0.000104 -0.000779 -0.000099 0.000300 -0.002169 -0.001126 -0.002097 -0.001560 0.000691 -0.001737 -0.002695 -0.002091 -0.002238 -0.001699 -0.001118 -0.003164 0.000311 -0.000923 -0.000229 -0.000034 -0.002397 -0.000704 0.000043 0.000515 -0.000355 0.000403 0.000737 -0.000365 -0.000652 0.000467 -0.000059 -0.000793 -0.001995 -0.001904 -0.002044 -0.000829 0.001773 0.000210 -0.001785 -0.002566 -0.001891 -0.001443 -0.001762 -0.002610 -0.000254 0.000224 0.000795 -0.002172 -0.001013 -0.000805 0.000738 0.000626 0.000533 0.000199 0.000109 0.000338 0.000029 -0.000490 -0.000881 -0.000207 -0.002377 -0.001038 -0.001371 -0.002439 -0.002099 -0.001521 -0.002789 -0.002910 -0.001468 -0.000815 -0.002823 -0.000884 0.002119 0.001903 0.000825 0.000972 -0.002203 -0.000150 -0.000080 -0.000144 -0.000464 0.000083 -0.000180 -0.000911 0.000214 0.000285 0.000334 0.000117 -0.000725 -0.001755 -0.000772 -0.001510 -0.002344 -0.001892 -0.001449 -0.001610 -0.001960 -0.002798 -0.002148 0.002004 0.001033 0.001056 -0.000638 -0.001508 -0.001986 0.000908 -0.000578 0.000382 -0.000761 -0.000794 0.000849 -0.000617 0.000247 -0.000784 -0.000635 -0.001801 -0.002374 -0.002325 -0.001458 -0.001918 -0.002850 -0.001629 -0.001435 -0.001926 -0.002082 -0.003377 -0.002185 -0.001088 -0.002048 -0.001247 -0.001833 -0.001677 -0.002253 0.000363 -0.000494 0.000299 -0.000881 -0.000139 -0.000450 0.000086 -0.000378 -0.000615 0.000787 -0.001478 -0.002511 -0.000300 0.000274 -0.000449 0.000130 -0.001026 -0.001079 0.001027 -0.001006 -0.001724 -0.001346 -0.001257 -0.002245 -0.000926 -0.000862 -0.002438 0.000767 0.000574 0.000372 -0.000772 0.000381 -0.000351 -0.000606 0.000349 0.000039 -0.000322 0.000822 0.001713 0.001601 -0.000397 0.000142 -0.000435 -0.002634 -0.001967 -0.002367 0.000832 -0.000731 -0.003098 -0.001506 -0.002038 -0.001249 -0.001774 -0.001670 -0.002221 -0.000128 -0.000652 0.000328 0.000726 -0.000640 0.000730 0.000124 -0.000041 0.000520 0.000039 0.001604 0.001425 0.000193 0.000048 -0.001359 -0.001953 -0.000725 -0.001966 -0.001362 0.002359 -0.001479 -0.001458 -0.001780 -0.001185 -0.002027 -0.000868 -0.001283 -0.000819 0.000200 0.000510 0.000582 0.000407 -0.000693 0.000674 -0.000297 -0.000545 0.000038 -0.000578 0.000972 0.001588 0.000233 -0.000338 -0.002453 -0.002150 -0.001112 -0.002159 0.000640 -0.000572 -0.000113 -0.000151 -0.001127 -0.001692 -0.001865 -0.000721 -0.002423 -0.000817 -0.000851 -0.000794 0.000362 0.000435 0.000909 -0.000120 0.000803 0.000250 -0.000431 -0.000627 0.000874 0.000720 0.000509 -0.000975 -0.002015 -0.001482 -0.002261 -0.002299 -0.001414 -0.002146 -0.001502 -0.000835 -0.001550 -0.002005 -0.001337 -0.002332 0.000492 -0.000276 0.000833 0.000143 -0.000189 0.000760 -0.000133 0.000137 0.000216 0.000793 0.000563 0.000038 0.000677 0.001808 0.000182 -0.002696 -0.001329 -0.002006 -0.001687 -0.001856 -0.001904 -0.000659 -0.000455 0.000631 -0.001219 -0.002405 -0.001876 -0.001021 -0.000836 0.000305 -0.000769 -0.000018 -0.000855 -0.000812 0.000366 0.000817 -0.000043 0.000591 -0.000861 0.000797 -0.000452 0.002355 0.002124 -0.001574 -0.002900 -0.002285 -0.000934 0.000460 -0.000589 -0.000969 -0.000100 -0.001725 -0.001129 -0.002247 -0.001787 -0.000765 0.000335 0.000420 0.000256 0.000085 -0.000754 0.000425 -0.000350 0.000397 -0.000550 -0.000377 0.000208 0.000517 -0.000334 0.000578 0.002260 -0.000131 -0.000457 -0.000700 -0.001227 0.000240 -0.000755 0.000299 -0.000780 -0.002091 -0.001893 -0.002058 -0.001613 -0.001479 -0.000529 0.000866 -0.000005 0.000287 0.000784 0.000051 -0.000588 -0.000086 -0.000654 0.000603 0.000197 -0.000239 0.000746 -0.000833 -0.000454 0.002423 0.002276 0.001165 0.002406 0.002178 0.000959 0.001306 0.000578 -0.000423 -0.000308 0.000486 0.000806 0.000030 0.000202 -0.000180 -0.000621 -0.000246 0.000235 0.000089 0.000713 -0.000339 0.000339 -0.000674 -0.000277 -0.000868 0.000641 -0.000267 -0.000509 0.000024 -0.001564 -0.001058 -0.000881 -0.001949 0.000908 -0.000177 0.000718 -0.000426 0.000414 0.000056 0.000471 -0.000255 -0.000420 0.000681 0.000624 0.000622 0.000413 0.000131 -0.000613 -0.000463 -0.000606 -0.000381 0.000182 0.000110 0.000025 -0.000853 -0.000072 -0.000042 0.000421 -0.000881 0.000022 0.000174 -0.000695 -0.000400 0.000435 -0.000653 0.000714 -0.000490 -0.000601 0.000838 0.000265 -0.000073 -0.000108 -0.000604 -0.000025 0.000493 0.000393
