0.130558 0.092959 -0.000009 -0.184799 -0.000679 -0.003338 -0.000588 -0.001918 -0.057964 -0.135223 -0.002486 -0.178150 0.001091 0.355064 -0.000967 0.085954 0.000005 -0.000509 -0.258847 -0.001724 -0.001380 -0.022743 -0.000754 -0.002925 -0.003663 -0.000218 -0.260451 -0.143635 0.000144 0.193082 -0.001928 -0.004721 -0.157068 -0.164302 -0.002408 0.065655 -0.004255 -0.002885 -0.000813 -0.139849 -0.013956 -0.002913 -0.004816 -0.236908 -0.002684 -0.001898 -0.003667 -0.253158 -0.226537 -0.059539 -0.004599 -0.000733 -0.069865 -0.000796 -0.386585 0.000043 -0.244672 -0.085438 0.000151 0.012673 0.009928 0.043862 0.002894 -0.307269 -0.050620 -0.001995 0.006422 0.051012 -0.000315 -0.001424 -0.359965 -0.000477 -0.001574 0.000804 -0.000464 -0.034820 -0.093249 -0.125672 -0.001625 -0.002740 0.001565 0.034900 -0.002688 -0.000977 -0.000333 -0.164558 0.002855 -0.000099 -0.004915 -0.007352 -0.096907 -0.001509 -0.000262 -0.010419 -0.068840 -0.001830 -0.001117 -0.029596 -0.003102 -0.001350 -0.001590 0.008372 -0.002773 -0.002478 -0.001046 0.376809 -0.001506 0.002440 -0.003034 -0.001334 -0.010601 -0.015845 0.017236 -0.007388 -0.008320 -0.061595 0.292101 0.000786 -0.000577 -0.000581 0.196848 -0.135395 0.006721 0.002105 0.002625 -0.007621 0.001341 -0.005989 -0.000687 -0.039762 -0.053916 -0.005081 -0.084432 -0.225742 -0.221224 0.001778 -0.001616 0.135694 -0.002213 0.161797 0.001264 -0.001757 -0.001650 0.000791 0.153194 -0.223987 0.001234 -0.011828 0.001659 0.168445 -0.000741 -0.034728 -0.002367 0.001557 -0.039962 0.002401 0.000818 -0.001923 0.429697 -0.024403 -0.000563 0.064550 -0.001695 0.095398 0.001986 -0.001369 0.007414 0.211250 0.001979 -0.100343 -0.000085 0.228809 0.068419 -0.000549 -0.003949 0.001122 0.002134 0.007856 -0.000222 -0.000351 -0.000171 -0.043922 -0.113763 0.002813 0.094790 0.002486 0.160490 -0.041590 -0.001553 -0.186978 -0.130758 -0.000656 -0.000760 -0.002993 -0.123753 -0.273296 -0.001597 -0.001687 -0.107784 -0.002660 0.007996 -0.000394 -0.003161 -0.000617 -0.000722 -0.002837 -0.000679 0.158139 -0.002789 -0.172264 0.053974 -0.001427 -0.085041 -0.001809 -0.011429 -0.001706 -0.001084 -0.002968 -0.002716 -0.014109 -0.003106 0.001164 -0.001830 -0.075255 -0.000340 -0.134382 -0.417558 -0.001012 -0.000679 -0.002058 -0.006044 0.006205 -0.000492 -0.213715 -0.002102 0.351420 0.000314 -0.432489 -0.001431 -0.116193 0.127896 -0.001324 -0.107914 -0.000621 0.351184 -0.024853 -0.143170 -0.001754 -0.007075 -0.077386 -0.000960 -0.000122 0.001029 -0.001273 0.141752 -0.056440
-0.002306 -0.000238 -0.001924 -0.000755 -0.002484 -0.001665 -0.000273 -0.000550 -0.001403 -0.000941 0.000770 -0.000474 0.000860 -0.002632 0.001810 -0.001891 0.002159 0.001701 -0.001479 -0.001155 0.001733 0.001656 0.000088 -0.002308 -0.000737 0.001338 0.000153 -0.000578 -0.000230 -0.001920 -0.001249 -0.001836 -0.000550 -0.000623 -0.002508 -0.000928 -0.001310 0.000414 -0.000960 -0.001833 -0.000509 -0.000661 -0.000454 -0.002536 -0.001942 -0.001375 0.000267 -0.001225 -0.000786 -0.000274 -0.000224 -0.002532 -0.001803 -0.001347 0.000917 -0.003092 -0.000086 -0.000176 -0.002740 -0.002989 -0.002465 -0.001360 -0.001192 -0.004116 -0.002074 0.001274 -0.003114 0.000125 -0.001048 0.001699 -0.003001 -0.002761 0.002793 0.000107 -0.003583 -0.002630 -0.002144 0.000054 -0.000568 0.002886 0.002837 0.000716 -0.001963 -0.000399 0.002412 -0.001136 -0.001124 0.001285 0.000169 0.001682 -0.001651 0.000626 0.000498 -0.000024 -0.002563 -0.001184 -0.002175 -0.002585 0.000246 -0.001344 -0.000222 0.001369 0.000614 0.000846 -0.001336 -0.001796 0.002354 -0.000863 0.001441 -0.000536 -0.002057 -0.000915 -0.003128 0.000442 -0.000923 -0.003696 -0.002730 -0.002622 0.000109 -0.000395 0.000157 -0.001420 -0.000263 0.000922 -0.001959 -0.001812 -0.004617 -0.003374 0.000751 -0.002946 -0.003054 -0.002736 -0.000323 -0.001195 -0.001129 -0.002511 0.000824 -0.001842 -0.000940 0.000242 0.000694 -0.001139 -0.000304 -0.001640 -0.002023 0.000298 0.000233 0.000324 0.001193 -0.000574 -0.000557 -0.002222 0.001042 0.002794 -0.002194 0.000731 -0.001546 -0.002406 0.000598 -0.002008 0.003048 -0.002325 0.001452 0.000743 -0.001506 -0.001067 -0.000125 -0.001949 -0.002090 -0.000780 -0.000156 -0.001042 -0.000781 0.000941 -0.004515 -0.001911 0.000483 -0.002493 0.003500 -0.000814 0.001184 -0.000686 -0.002476 0.000819 -0.000112 0.003122 -0.000947 -0.005808 0.001183 -0.001613 -0.002766 -0.000306 -0.000241 -0.001926 -0.001606 -0.000865 -0.002859 -0.002228 -0.001323 0.002040 -0.000571 -0.001773 -0.000957 -0.001406 0.000478 -0.000770 -0.001807 -0.002570 -0.000571 -0.003728 -0.002238 -0.001688 -0.001217 -0.001563 -0.002820 -0.003113 -0.000956 -0.001068 0.003279 -0.002929 0.002670 0.001418 0.001765 0.000076 0.000798 -0.002590 -0.003127 0.000272 -0.003287 -0.002306 0.001169 -0.002506 -0.000899 -0.002262 -0.001962 -0.000421 0.000024 -0.001696 0.000240 -0.000725 -0.005925 0.000034 -0.003336 -0.000867 -0.002384 -0.003416 0.000342 0.000263 -0.002512 -0.001112 -0.000461 -0.000307 -0.001937 0.000634 -0.000690 -0.001698
-0.260874 0.510724 -0.000547 0.420251 -0.009137 -0.004290 0.001352 0.002705 -0.279625 0.304602 0.002110 -0.359107 -0.001312 -0.147451 -0.001980 0.031452 0.001741 0.000294 0.111627 0.003092 0.001402 -0.181982 0.001107 -0.014747 -0.007971 -0.000180 0.601757 0.222701 -0.002577 0.452171 -0.002429 0.067217 0.592639 0.433194 -0.022061 0.129591 -0.005383 0.000948 0.000617 0.160357 -0.029199 -0.004603 0.005780 0.718653 0.000055 0.001716 0.028826 0.553949 0.699600 0.336126 -0.006028 0.004517 -0.692269 0.001783 -0.129303 0.002017 0.447868 0.051641 -0.000490 -0.239179 0.007776 -0.336612 0.002417 -0.108884 -0.306523 0.000232 0.002990 -0.110990 -0.001708 -0.000653 -0.062414 -0.014304 0.001774 0.122383 -0.000470 -0.045038 -0.000058 -0.253349 0.002062 0.000938 0.000872 -0.211561 -0.001419 0.001694 -0.002340 -0.173551 0.002288 0.001191 -0.002561 -0.012056 0.061863 0.002896 0.000844 -0.000926 0.095850 0.000771 0.019630 0.169582 0.036814 -0.000277 0.005127 -0.053002 -0.010704 0.000680 0.002428 -0.072970 0.002561 0.002569 -0.000878 0.001902 0.001511 0.079463 -0.635405 0.004569 0.014974 0.268836 -0.195047 -0.008070 0.001693 0.000813 -0.839436 -0.193866 -0.770740 0.000900 -0.027989 -0.003219 0.004983 0.039552 0.003390 0.440270 -0.191459 0.001486 -0.638014 0.505379 -0.636568 0.001845 0.000400 -0.069805 0.007744 -0.188265 -0.000309 0.002960 -0.003321 0.002011 -0.671609 -0.427397 0.008112 0.650562 0.009597 0.168380 0.002262 -0.177885 0.000884 0.001890 -0.509687 0.002783 -0.019762 -0.003784 -0.245269 0.051355 0.000013 0.071843 0.001809 1.298144 -0.001710 0.033525 -0.054402 0.680173 0.001115 -0.294023 -0.011199 0.643470 -0.530980 0.002019 -0.005472 0.006814 0.003329 0.013509 0.001480 0.002538 0.002988 0.240800 0.059909 0.001483 -0.118985 -0.000333 -0.334049 0.002614 0.000132 -0.482004 0.176616 0.001851 -0.034708 -0.004518 0.751999 -0.010021 0.002959 -0.002275 -0.532515 -0.002619 0.388665 0.002619 -0.000546 0.000854 0.002179 -0.000577 0.005237 -0.580315 -0.020554 0.550829 0.153275 0.002193 -0.137262 -0.289030 -0.129528 -0.010127 0.001783 0.005961 0.003412 0.009805 0.004833 0.006223 0.000554 -0.189965 0.002176 0.196018 0.213952 0.002223 0.005245 -0.001069 -0.283782 0.023098 0.000231 0.615367 0.001580 -0.588687 -0.002699 -0.111383 0.009507 0.502147 -0.728904 -0.000855 -0.260743 -0.002934 -0.010224 0.309251 -0.549834 -0.014108 -0.274810 -0.435190 0.002666 -0.003800 -0.000007 -0.000535 -0.733492 0.017192
0.008213 -0.000314 -0.000724 -0.034776 -0.001019 -0.002950 -0.002503 0.001574 0.000648 0.028129 -0.000490 -0.063647 -0.001754 0.010958 -0.000088 0.006489 -0.003035 -0.000633 -0.018285 0.010724 -0.000146 0.075409 -0.001903 -0.017229 -0.002436 0.000775 -0.014495 0.008535 0.001558 -0.008896 -0.003112 -0.016461 -0.058576 0.007602 -0.003041 -0.032399 0.002730 -0.000161 -0.001093 -0.062008 0.003906 -0.000314 -0.007351 -0.121338 -0.001681 -0.014892 -0.025190 0.076481 0.142679 -0.083760 -0.020256 -0.000503 -0.082839 -0.001364 0.009596 -0.000885 0.023373 -0.018591 -0.001585 -0.073335 -0.010740 0.006755 -0.001245 -0.086091 0.041605 -0.000219 0.028260 -0.002290 0.000872 -0.000589 -0.021263 -0.001465 -0.001063 -0.002453 -0.001325 -0.094788 -0.119287 -0.019445 -0.003043 0.000959 -0.003019 -0.030140 -0.002425 -0.002639 -0.003033 -0.088824 0.010887 -0.002258 -0.002094 -0.000301 0.038525 -0.000762 -0.001242 0.003442 -0.002836 -0.002235 0.017494 0.020161 0.001453 -0.002808 -0.012450 -0.000443 0.042379 -0.000925 -0.002046 0.031522 -0.000686 -0.000104 -0.002472 -0.000978 -0.025782 -0.079407 -0.084531 0.011508 -0.002125 0.023585 -0.088521 -0.023883 -0.002920 -0.000119 0.075477 -0.139919 -0.030847 -0.001768 -0.000415 0.008724 -0.003080 -0.001201 -0.000339 0.025712 -0.055614 -0.000053 -0.137601 0.035977 -0.018366 -0.007355 -0.000335 0.135995 -0.000530 -0.009972 -0.000669 -0.002842 -0.001457 -0.002634 -0.151097 -0.015097 -0.002835 -0.073615 -0.001235 -0.023698 -0.002557 0.026073 -0.002092 -0.003111 -0.032972 -0.000253 0.007049 -0.001778 -0.114101 -0.122554 -0.003077 0.010410 -0.000691 -0.046042 -0.000223 -0.003028 0.001295 -0.029832 -0.000344 0.152333 -0.002916 0.016680 -0.155162 -0.001535 -0.002454 0.008431 -0.000725 -0.000397 -0.001816 -0.001491 -0.000350 -0.025517 -0.148655 -0.000864 0.002152 -0.002790 0.116407 -0.005193 -0.003044 0.093938 -0.077942 -0.002621 -0.009032 -0.000824 -0.147096 -0.108394 0.000023 -0.002751 0.036183 -0.002345 0.088363 -0.000999 -0.012755 -0.002919 -0.000995 -0.000046 -0.016488 0.116624 -0.003096 0.017298 -0.022400 -0.001385 0.066504 -0.002367 -0.065757 -0.001031 -0.000439 -0.011035 -0.001013 -0.000451 -0.001630 -0.001590 -0.000725 0.038675 -0.000742 -0.025748 0.033294 -0.000371 -0.000662 -0.001009 0.034297 0.041151 -0.001317 0.001682 -0.002828 -0.004901 -0.002245 -0.268456 -0.000866 -0.008258 -0.035907 0.000135 -0.124128 -0.001193 -0.072482 -0.207687 0.058342 -0.001674 -0.074099 -0.065342 -0.002028 0.001920 -0.000364 -0.001837 0.021340 0.065417
0.012831 0.068996 -0.001115 0.035345 0.000765 -0.000082 -0.001646 -0.000405 0.051603 0.023673 -0.002852 -0.069926 -0.001033 -0.002038 0.001637 -0.004960 -0.000840 0.002738 -0.217997 -0.002655 0.002386 -0.028488 0.002989 -0.010277 0.012314 0.003047 -0.148472 -0.186832 0.001091 -0.019876 -0.002225 0.011587 -0.099565 -0.102239 -0.005587 -0.036235 0.002796 -0.002388 0.001718 -0.001552 -0.005626 -0.000532 -0.004884 -0.197453 -0.000988 -0.000293 -0.004416 -0.048748 -0.126159 -0.022277 -0.002204 0.001931 -0.062218 0.000123 -0.120204 0.000752 0.003221 -0.070204 0.000887 -0.008780 0.000165 -0.096559 0.000272 -0.060348 -0.049626 0.000112 0.001340 -0.002155 -0.001328 0.000689 0.038792 -0.000403 0.002865 0.004404 -0.002008 -0.030834 -0.142421 -0.150602 -0.002250 0.001273 -0.000673 -0.031233 0.000598 -0.002025 0.002946 -0.076740 -0.000481 0.000295 0.000154 0.002573 -0.174250 0.000531 0.002566 0.000867 0.002868 -0.002546 -0.000218 -0.153709 0.019312 -0.001170 -0.002715 -0.043860 -0.006367 0.000459 0.002563 -0.027730 -0.001425 -0.001249 0.001852 0.003020 -0.005324 -0.036343 -0.139049 -0.007646 -0.000549 0.098940 0.011368 -0.001558 -0.000800 0.000210 0.146822 -0.069181 -0.165661 -0.001565 -0.000547 -0.000160 -0.015525 -0.002865 -0.004116 -0.072481 -0.002901 -0.000203 -0.135954 -0.056031 -0.083040 -0.001624 0.000114 -0.023864 0.002000 -0.119667 -0.000760 -0.003352 -0.002146 0.000877 -0.042355 -0.112624 -0.000537 -0.050051 0.000224 0.041702 -0.001335 -0.109146 -0.002887 0.002248 -0.100053 0.000450 -0.001464 -0.002540 0.014194 0.127066 0.000342 0.004844 0.002968 -0.041577 -0.002071 -0.003354 -0.010404 0.049458 0.000025 0.046262 -0.001725 0.130726 0.001506 0.000919 0.000892 -0.001276 -0.001337 -0.002192 0.001380 -0.000257 0.001578 -0.107320 -0.295728 0.002806 -0.018902 -0.002723 -0.192553 -0.119232 0.001100 0.082079 -0.063902 0.002038 -0.004632 -0.001508 -0.256252 0.002077 0.002100 -0.000466 0.105143 0.000266 0.100629 -0.001862 0.002675 -0.000164 -0.001419 -0.000579 -0.000593 0.018371 0.000149 -0.060660 -0.035927 -0.002238 -0.072434 -0.008547 -0.188291 -0.003543 0.001639 -0.001032 -0.000800 -0.004665 0.002176 0.000066 0.001274 -0.085452 -0.000703 0.135454 -0.026627 -0.000104 -0.003545 -0.000795 -0.087144 -0.009857 -0.000511 -0.210854 -0.002292 -0.117426 -0.000593 -0.222811 -0.000564 0.087118 -0.069478 -0.000079 -0.143294 0.000767 -0.180532 -0.121531 0.016893 -0.001850 -0.051885 -0.126394 0.000211 -0.002173 -0.002249 0.001624 0.039324 -0.095664
-0.019387 0.019087 -0.002749 -0.017976 -0.023345 -0.000087 -0.001133 -0.002621 -0.063538 0.095897 0.001093 -0.018323 -0.000169 -0.002638 0.002286 0.005335 -0.001825 0.001390 -0.157991 -0.004382 0.001716 -0.021365 -0.001074 0.000329 -0.011237 0.001262 -0.031799 -0.105352 0.001199 -0.004583 -0.001410 -0.023423 -0.050973 -0.029761 -0.020593 0.018629 -0.004136 -0.002572 -0.002907 -0.003565 -0.000661 0.000057 -0.001514 -0.077165 -0.001004 -0.009992 0.044827 0.049166 -0.064597 -0.066083 -0.012928 -0.006217 -0.059517 -0.002900 0.028486 0.001916 0.068599 -0.051086 -0.001250 -0.028587 -0.001521 -0.082672 0.000724 -0.100365 -0.071497 0.000286 -0.016904 -0.021853 -0.001812 0.000823 -0.036677 -0.001459 0.000894 0.000044 -0.001867 -0.004576 -0.137460 -0.014330 -0.002956 0.000085 -0.001260 0.074978 -0.001387 -0.002742 0.001810 -0.001188 0.000056 0.000445 -0.010548 0.018429 -0.040308 -0.000382 0.001625 -0.008617 -0.006601 -0.001914 -0.020631 -0.024920 -0.005453 0.000874 -0.002091 0.000721 -0.008489 -0.001815 -0.000889 -0.024405 -0.000559 -0.000310 0.002223 -0.001370 -0.011524 -0.010256 -0.010174 0.000761 0.019924 -0.001913 -0.032048 -0.002274 -0.000497 0.011030 -0.044487 -0.084251 0.006845 0.000593 0.005915 -0.003077 0.015860 -0.024508 -0.001958 -0.007603 -0.008221 -0.002536 -0.052392 0.001004 -0.009982 -0.002807 -0.000209 0.020173 -0.005444 -0.002570 -0.001090 0.001370 -0.001942 -0.000622 -0.024406 0.016046 -0.002335 -0.001542 0.002225 0.037651 -0.002922 -0.079462 -0.001811 0.000858 -0.067171 -0.000399 -0.001319 -0.002333 -0.038884 0.020147 0.002829 0.025875 0.001188 0.086752 -0.001711 -0.000976 -0.020595 -0.010165 -0.002652 -0.122529 0.021085 -0.018331 -0.080876 0.000449 -0.004323 -0.000835 0.000309 -0.000244 0.000994 -0.002782 0.002589 -0.004559 -0.023777 0.002214 -0.036058 0.000241 -0.022456 0.060256 0.000548 0.039545 -0.133841 -0.000643 0.003629 -0.000919 0.019687 -0.031852 -0.002005 0.000219 -0.122105 -0.001426 0.088425 -0.001385 -0.012057 -0.000470 0.000843 -0.002455 -0.024118 0.028282 -0.001945 0.049472 -0.073669 -0.002064 -0.061237 0.000829 0.011572 -0.005230 -0.001424 -0.000747 -0.001771 -0.011781 0.009225 0.000344 0.001904 0.029081 -0.001448 -0.021846 0.017889 -0.000802 0.003947 -0.001466 0.025848 0.002788 -0.000319 0.084361 -0.009289 0.029068 0.000560 -0.124282 -0.001170 0.023899 0.001900 0.000868 0.000422 0.000840 -0.050059 -0.070901 -0.104766 -0.008474 -0.006342 0.005225 -0.001997 0.023492 0.000432 -0.000542 0.017418 -0.067477
0.326423 0.119771 0.000761 -0.081062 -0.007540 -0.004650 -0.002762 -0.002816 -0.262625 -0.075642 -0.000232 0.161903 -0.001342 -0.043126 -0.000335 -0.079769 -0.002207 0.001347 -0.118099 0.002309 -0.001084 -0.105268 -0.000137 -0.034033 -0.005311 -0.001346 0.050519 0.187023 0.001338 -0.043417 -0.001109 -0.004953 0.216750 -0.045450 -0.000929 -0.409881 -0.020734 -0.007101 -0.000492 -0.092511 -0.023869 0.000725 0.013644 0.080056 -0.000141 -0.000643 0.057773 0.401211 0.201309 0.373901 -0.011458 0.000135 -0.419217 -0.000463 -0.043123 -0.000048 0.134077 -0.457433 -0.001633 -0.118917 -0.004026 -0.538585 -0.002895 -0.245376 0.317450 -0.000048 -0.000310 -0.003755 -0.001973 -0.000860 -0.929687 0.000519 -0.000367 -0.002219 -0.005397 -0.247757 -0.050615 -0.098241 0.003120 0.001991 -0.003073 0.043317 0.002071 -0.003108 -0.001696 -0.180389 -0.002467 0.000060 -0.003115 -0.000499 -0.284168 0.000954 -0.001742 -0.004215 -0.000976 0.000386 -0.003090 0.067436 0.092022 -0.002179 -0.012991 -0.001883 -0.315180 0.001644 -0.001848 -0.081836 0.004526 -0.000247 0.002728 -0.000196 0.006036 0.747752 -0.269217 0.012688 -0.002175 -0.277379 -0.076360 -0.003045 0.000963 -0.003635 0.793834 -0.176976 0.070799 -0.000180 -0.000875 -0.007503 -0.007336 -0.006350 0.002538 0.214620 -0.398008 -0.004332 0.132792 -0.090327 0.114993 -0.002330 -0.001322 0.333690 -0.004848 -0.281963 -0.003117 -0.000519 -0.001083 0.003719 -0.009833 0.023058 -0.003038 -0.284428 -0.002326 0.105858 -0.000747 -0.297581 0.002345 -0.000661 -0.558139 -0.000932 -0.002134 0.003035 0.289864 -0.304727 -0.001064 -0.000822 -0.000712 -0.312835 -0.001739 0.001045 -0.010245 -0.094435 -0.000888 -0.063052 0.061927 -0.258799 -0.525598 0.000385 -0.004063 -0.004487 -0.001222 -0.023466 -0.000276 0.000473 0.002942 -0.114805 0.329594 -0.002258 -0.010463 -0.000143 0.284542 0.074580 -0.002474 0.670473 -0.141213 -0.000419 0.016053 -0.001095 -0.275948 -0.473167 -0.001886 -0.002270 -0.182360 0.001434 -0.174929 -0.002790 0.001038 -0.002644 -0.002942 0.002310 -0.002236 0.437156 -0.000385 -0.066440 -0.034152 -0.001937 0.345823 0.055039 0.398470 0.000736 -0.001533 -0.000439 -0.000061 -0.007539 0.002440 -0.002345 -0.002886 0.201483 0.001650 0.261093 0.058695 0.002751 -0.001178 0.000034 -0.127967 -0.004535 -0.001493 -0.195971 -0.004024 -0.243509 -0.000950 -0.266454 0.000612 -0.032632 -0.427312 -0.002092 -0.058163 -0.001620 -0.644327 0.118273 0.538489 -0.043317 -0.672736 -0.674202 -0.000127 -0.000600 -0.000114 -0.001753 -0.073010 0.086104
0.169469 0.330910 0.002020 0.225184 -0.003671 -0.000296 0.000564 -0.000682 -0.045789 0.059456 0.002455 0.007377 -0.000976 0.182959 0.004224 0.068630 -0.001287 -0.000596 -0.230904 0.001186 0.000847 -0.327532 0.000828 -0.000080 -0.002327 0.001387 -0.248772 -0.499555 0.000203 0.026026 0.002498 -0.007909 0.227602 0.061959 -0.008371 0.298684 -0.014782 -0.002574 -0.000014 -0.031348 0.007625 -0.001187 0.017890 -0.290726 -0.004013 0.008351 0.254798 0.144540 0.092479 -0.103301 -0.006471 -0.003995 0.116053 0.001161 0.191177 0.000064 -0.167141 0.433170 0.000610 0.012769 -0.018932 -0.314623 0.000513 -0.275024 0.820387 0.002592 0.012172 0.113802 -0.001672 0.001793 0.051575 0.010679 -0.000785 -0.004065 -0.001600 -0.124751 -0.415485 -0.186059 -0.001557 0.000401 0.001188 -0.170604 -0.001269 -0.001469 0.000193 0.154034 -0.000361 0.002212 -0.000997 0.022712 -0.153926 0.000897 0.000594 -0.017444 0.053644 -0.001193 0.016392 0.091734 -0.003913 0.002378 -0.006053 -0.005517 0.408914 0.000862 0.002535 0.508298 0.000446 -0.000044 0.002258 0.000371 -0.004022 0.886054 -0.251733 0.025329 0.007707 0.185418 0.228635 0.007419 0.003330 0.000074 0.032036 -0.310436 -0.035463 -0.000654 -0.006642 -0.006557 -0.010436 0.065296 0.002531 0.431288 0.351532 0.004334 -0.443207 0.461165 -0.316730 0.000544 0.001300 0.231391 -0.006177 -0.232261 0.001685 0.000816 0.009014 -0.000762 0.214767 0.206724 0.001159 -0.350356 0.008030 0.014273 0.000146 0.108215 -0.000372 0.002087 0.397825 0.000194 0.005268 -0.001448 0.420140 -0.228156 0.002235 0.066376 0.000809 0.216240 -0.000886 0.004300 0.051885 0.307200 0.000123 0.025668 0.006909 0.148933 0.167543 -0.000561 0.023749 -0.000806 -0.000298 -0.008594 0.004022 0.001494 0.000153 0.353159 -0.117186 -0.001984 0.195943 0.000580 0.401701 -0.195974 -0.002072 -0.133597 -0.233207 0.003071 -0.016195 0.015066 0.047031 -0.251294 0.001981 0.001001 -0.057444 -0.000946 0.192810 -0.000028 -0.015630 -0.001847 0.002642 0.000401 0.026256 0.008464 -0.003998 -0.028012 -0.008331 0.002217 -0.034765 -0.056439 -0.048354 -0.006628 -0.001808 -0.031136 -0.001159 -0.000340 -0.003996 0.005484 0.000335 0.044149 -0.000878 -0.026562 -0.189065 0.001090 0.006452 -0.003715 0.251034 -0.006437 0.002084 -0.047420 -0.000384 -0.359786 -0.000021 -0.531739 -0.003220 -0.006923 -0.249034 0.001311 0.001454 0.000744 0.533529 -0.223236 -0.065658 0.021919 0.310576 -0.421566 -0.002689 0.017898 -0.000119 -0.002856 0.092390 -0.386165
0.132046 -0.052715 -0.002527 0.427824 -0.001717 -0.000913 -0.000843 -0.000304 0.207116 0.206615 -0.001852 0.130239 -0.003062 0.463636 -0.001146 0.000229 -0.001089 0.000450 -0.378562 -0.002327 -0.001897 0.016563 0.001544 -0.028437 0.009255 -0.000608 -0.065186 -0.375499 -0.002709 -0.063117 -0.000477 0.007833 0.037425 0.636406 -0.016453 0.570455 -0.021313 -0.002958 -0.000030 0.038065 -0.015299 -0.010152 0.014154 -0.112766 -0.001037 0.036122 0.888850 -0.381693 -0.077999 -0.084256 0.017877 -0.001507 0.045880 -0.000913 0.077428 -0.000053 0.222003 0.674534 -0.001267 0.566086 0.042016 -0.163228 0.001504 -0.486903 -0.262382 0.001318 -0.021589 0.101221 -0.000580 -0.002274 0.098308 0.005894 0.001395 -0.004772 -0.002147 0.186445 -0.411318 0.055730 0.002398 -0.001799 0.000032 -0.134802 0.001082 -0.000870 -0.000881 0.195096 -0.000885 -0.001660 0.001832 -0.003504 -0.170526 0.001593 -0.001406 0.002610 -0.008932 -0.000529 -0.010893 -0.261903 -0.056224 -0.003072 -0.013966 -0.050905 0.051268 -0.000278 -0.000304 0.651565 0.010727 0.001805 -0.002177 -0.002853 -0.003542 0.294645 0.779693 0.014256 0.009921 0.058315 0.731777 -0.025572 -0.001323 -0.005698 0.092779 -0.122225 0.938001 -0.002026 0.004290 0.013344 -0.002877 0.014539 0.000028 0.054813 0.617662 -0.001667 -0.263981 0.329110 0.297937 -0.004357 -0.000121 -0.116581 -0.006525 0.099193 -0.000170 0.002815 -0.007342 -0.009211 -0.021456 -0.248613 -0.016206 -0.209561 0.000600 -0.089898 -0.002703 -0.742026 -0.002336 0.002368 -0.187946 0.002381 0.047104 -0.001149 0.179796 0.020993 0.001228 0.045615 0.001986 0.025413 -0.001891 0.001942 -0.020899 0.311930 -0.002002 0.176088 0.052579 0.112199 -0.379939 -0.001995 0.022809 -0.007609 -0.001506 -0.001082 -0.001549 -0.000033 0.000182 -0.055148 -0.671602 -0.001804 0.073394 0.001130 -0.266901 0.016317 -0.000545 -0.181356 0.138027 -0.000235 0.015609 -0.003080 -0.154131 0.205917 -0.002318 -0.000865 0.052645 -0.000268 0.227059 -0.001501 0.004695 -0.000556 -0.000462 -0.003017 -0.008191 -0.029150 0.004980 0.102652 -0.063963 -0.000881 0.211935 0.010268 -0.065687 -0.028072 -0.002071 0.007332 -0.001810 -0.001791 -0.010341 -0.000060 0.002947 0.308162 -0.001367 0.229701 0.149865 -0.001980 0.011874 0.002273 0.094616 -0.008087 -0.003065 0.332159 0.023025 -0.070672 0.002432 -0.637850 0.000022 0.403553 0.240803 -0.000783 -0.311958 -0.002503 0.171513 -0.176684 -0.353020 0.024337 -0.244856 0.176484 0.000853 0.013954 -0.001335 -0.001381 0.408119 0.295639
0.355714 0.552028 -0.001505 0.348237 -0.006275 -0.001345 -0.000205 -0.002884 0.063479 0.737778 0.002342 -0.009316 -0.002543 0.158345 0.000422 0.000712 0.000171 0.000727 -0.059213 -0.001950 0.000165 -0.082750 0.001666 0.000949 0.003830 0.000883 0.635541 -0.306768 -0.000597 0.276077 0.000201 0.006804 0.487126 0.736867 0.003567 0.075931 0.000895 -0.008880 0.000031 -0.124104 -0.010441 -0.000439 0.014444 0.165087 0.003752 -0.002992 0.613688 -0.123381 -0.098324 0.179984 0.003421 -0.003345 -0.000212 0.000552 -0.163309 0.002121 0.303821 0.613718 0.001246 1.308311 -0.016584 0.141447 -0.000114 -0.118503 0.182177 0.000644 -0.005468 0.004001 0.002601 0.000377 0.368327 -0.002781 0.000215 0.000853 0.000817 0.140540 -0.212290 -0.293190 -0.001356 0.000091 0.002465 0.248108 0.007184 0.000389 -0.002700 0.387835 -0.002111 0.001191 -0.001509 0.020742 0.313096 -0.000108 0.000186 0.006202 -0.098181 -0.002569 -0.004264 0.157457 -0.005246 -0.000387 -0.006605 0.080164 0.401438 0.002756 0.002289 0.226634 -0.002592 0.000062 0.002792 0.000069 0.006074 0.176822 1.170522 -0.008568 -0.017653 -0.560753 0.523927 0.018298 0.000344 0.008342 0.167959 -0.284256 -0.148969 0.001374 0.008549 -0.002190 0.020473 0.004324 0.001956 0.115442 -0.264723 0.006413 0.026935 -0.096650 0.166483 -0.003240 0.002371 0.258731 -0.002423 0.244566 0.000941 -0.003449 -0.000338 -0.007604 0.043172 0.070908 -0.009210 -0.167855 -0.000751 -0.069687 0.000357 0.319798 0.003041 0.001895 0.023901 -0.002726 0.030963 0.000444 -0.038924 0.219758 0.001824 0.015349 0.002382 0.074307 -0.002297 -0.001384 -0.011230 0.260115 0.003124 0.217296 0.015373 0.104204 -0.408512 0.004044 0.027645 -0.010638 -0.001944 0.002190 0.002285 0.000175 0.000699 -0.448159 -0.154654 -0.000487 -0.063690 -0.002125 -0.076951 -0.105335 0.000175 0.288367 0.518433 0.002048 0.001273 0.002649 -0.189128 -0.444447 0.000534 -0.000283 0.411933 0.001118 0.063404 -0.002398 0.000681 -0.001373 0.000340 -0.000234 -0.003969 0.296668 -0.014625 0.648535 0.093593 0.000801 0.518728 0.142497 0.597280 -0.018732 0.001779 -0.002794 -0.001092 -0.012813 -0.006270 -0.002192 -0.001418 0.379817 -0.000327 0.402208 0.002820 0.000863 0.004489 -0.002791 -0.018014 -0.003380 0.002035 -0.028388 -0.004539 0.101866 -0.000015 -0.741181 -0.001058 0.362529 -0.172466 -0.001075 0.199120 -0.000767 0.118426 -0.378600 -0.141887 -0.000209 -0.071261 -0.185644 -0.002467 0.021090 -0.000318 0.002127 -0.011841 0.078431
0.027602 -0.069183 0.000194 -0.034164 -0.002245 0.000038 -0.000542 -0.003463 -0.122704 -0.090325 0.002933 0.024402 -0.000644 -0.004285 -0.001096 0.004340 -0.001378 0.001201 -0.052312 -0.000097 -0.000205 -0.148181 0.000760 -0.008677 0.001292 0.000694 -0.076047 -0.166609 -0.001271 -0.051817 -0.002685 -0.013841 -0.083883 -0.022119 -0.012360 -0.000611 0.006530 0.001618 0.000769 0.077345 -0.010349 0.001651 -0.000033 -0.075359 -0.003187 0.002061 -0.005197 -0.168968 0.114917 0.065435 -0.012323 -0.003709 0.063627 0.001493 0.092889 0.002367 -0.025485 -0.002804 0.000792 -0.075294 0.015786 0.005597 -0.000230 0.011909 0.046718 0.001213 0.008074 -0.014983 -0.005714 0.002741 0.034523 0.000282 -0.001093 -0.000831 -0.001730 -0.009645 -0.090527 -0.076576 0.000631 0.001236 -0.001683 0.110804 -0.004214 -0.001209 0.001024 0.019051 0.001227 -0.000648 -0.002730 0.000023 0.069475 -0.000736 -0.000343 -0.017994 -0.012817 0.000022 -0.043189 -0.069332 0.049686 -0.001691 0.000252 -0.017015 0.164404 -0.000262 0.002117 0.187577 -0.000769 0.000377 -0.002231 -0.002215 -0.010970 -0.021580 -0.000143 -0.005244 0.002454 -0.000071 0.008146 -0.003490 -0.000948 0.004803 -0.098361 -0.065950 -0.006573 -0.000053 -0.011076 -0.005530 -0.005577 -0.002973 0.000900 -0.030842 -0.044591 0.003614 0.010195 -0.042058 0.002836 0.001265 -0.002790 0.071209 0.002723 -0.032025 0.002133 0.001167 0.000210 0.003457 0.067670 -0.047310 -0.002525 -0.053130 0.019987 0.027291 -0.002490 -0.003763 -0.001245 -0.001966 -0.032729 0.000627 -0.000844 -0.002694 0.040254 -0.226664 -0.001490 -0.007992 -0.001049 -0.040894 -0.000799 -0.001210 -0.002578 0.027454 -0.001503 -0.058529 0.002554 -0.056509 -0.031208 -0.001126 -0.000749 -0.002980 0.000870 0.009497 0.002009 0.002797 -0.003076 -0.001080 -0.121281 0.001872 0.006233 -0.001889 0.059610 0.083342 -0.002940 -0.072528 0.064511 0.002363 -0.003870 0.002145 -0.030117 -0.119728 -0.002024 -0.000054 -0.100473 -0.000451 -0.034538 0.002512 -0.000668 -0.000253 0.000200 0.000110 -0.014328 0.068804 -0.000160 -0.081944 -0.010923 -0.004679 0.060472 -0.007008 -0.037578 0.022802 0.001277 -0.009692 0.000341 -0.003443 -0.004075 0.001676 0.000334 -0.067789 -0.000307 -0.002912 -0.072032 -0.000241 0.002606 -0.003887 0.068303 0.046021 -0.000259 -0.070053 -0.001289 -0.000233 -0.000375 -0.226356 -0.003710 0.081703 -0.119719 -0.001563 -0.033618 -0.000631 0.017009 -0.090293 -0.068689 -0.004396 -0.052278 0.018230 -0.000371 0.005267 -0.000087 -0.002646 0.001526 -0.017700
-0.057412 -0.375833 0.002639 -0.824532 0.004931 -0.002365 -0.008760 0.002059 0.744244 -0.579251 -0.000284 -0.381909 0.000203 -0.100149 0.004221 -0.031562 -0.001317 -0.001282 -0.687644 0.000900 -0.000135 0.501522 -0.001562 0.005360 0.003582 0.002880 -1.154287 -0.396222 0.001961 -0.666737 -0.000013 0.045814 -0.623671 -0.664222 0.008110 -0.441238 -0.013990 0.002114 0.001051 0.042316 -0.010391 -0.016953 0.004365 -0.609345 -0.002359 -0.005239 0.067428 -0.021387 -0.986411 -0.352311 0.004342 0.002005 0.484531 -0.001182 0.348091 -0.001632 -0.950399 -0.249373 -0.002603 0.453635 0.015907 0.357927 0.000204 0.230935 0.441621 -0.002023 -0.003477 0.059568 -0.000552 -0.001685 -0.097275 -0.006188 -0.002491 0.027890 0.004412 -0.228670 0.240264 0.369620 -0.001835 -0.002411 -0.001549 0.451621 -0.005856 -0.000174 -0.000520 0.025900 0.004029 0.001615 0.004074 0.021006 0.388958 -0.000228 -0.001772 0.005184 -0.062905 -0.000339 -0.008112 0.058496 0.007427 -0.000346 0.010359 -0.052215 0.003558 -0.003106 -0.000008 -0.435445 -0.003101 -0.000042 -0.002246 -0.000552 0.003005 0.228402 -0.187391 -0.022897 -0.002910 0.927205 -0.532628 0.024049 0.000140 -0.006452 -0.228809 -0.232642 -0.557739 0.001249 -0.013213 -0.002341 -0.018015 -0.017625 -0.003015 -0.282346 -0.215086 -0.004723 0.099132 -0.170391 -0.848587 -0.001784 -0.002706 0.371555 -0.002188 0.241071 -0.000479 -0.000989 0.006729 0.001575 0.135330 0.609232 0.005503 0.262877 -0.005225 -0.129073 -0.002100 0.528692 -0.002303 -0.001958 -0.828997 0.001726 0.013107 0.001501 0.088890 -0.229795 -0.002875 -0.022344 0.005041 -0.532230 0.001596 0.039004 0.002401 -0.420489 0.001758 0.030746 0.012151 -0.929753 0.741172 -0.001269 0.021327 -0.028828 0.001420 -0.015449 -0.002412 -0.000537 -0.002236 0.108748 -0.552989 0.000046 0.064204 -0.002461 0.431193 0.990421 -0.001961 0.006677 0.048834 -0.000466 -0.001415 0.013819 -0.667000 -0.313441 0.000022 -0.000971 -0.745777 -0.002905 -0.016324 -0.000050 0.011093 0.000434 0.001739 0.001091 -0.071850 0.549565 -0.024652 -0.468288 -0.197756 -0.001234 0.629903 0.274221 -0.300186 -0.015814 -0.000201 0.008428 -0.002923 -0.006315 -0.003019 0.007654 0.000456 -0.251198 0.000364 0.798140 -0.522916 -0.001781 -0.000177 -0.000521 0.851406 0.019044 -0.001956 -0.585988 0.003266 -0.335802 0.001611 -0.044123 0.005561 -0.274986 -0.174526 -0.001636 0.378149 -0.000449 -0.592384 -0.157536 -0.369294 -0.025210 -0.370602 -0.271307 -0.001481 0.028897 -0.002935 -0.001625 0.751053 -0.609870
0.452636 0.223745 0.000947 -0.086796 0.004286 -0.003224 0.000481 0.001297 0.078794 -0.081150 -0.002785 0.331071 0.000538 0.242221 -0.004558 0.001245 -0.002539 0.000356 -0.026923 -0.000058 0.006049 0.160846 0.000652 -0.001131 0.000774 -0.001017 -0.040126 -0.311021 -0.002466 0.055552 -0.002935 -0.001363 0.016631 0.221978 -0.014031 -0.362728 -0.003885 0.000088 -0.002564 0.062180 0.003097 -0.001333 0.016985 -0.471978 -0.001931 0.009141 -0.032650 0.159576 0.042809 -0.095227 -0.030101 0.011685 0.232579 0.001905 -0.176476 -0.001545 -0.150016 -0.186862 -0.001179 0.130849 -0.014690 -0.479505 0.001358 -0.275954 -0.335522 0.002690 -0.000308 0.190364 -0.004200 -0.002807 0.096861 0.001982 0.000051 -0.013743 -0.000913 0.133999 -0.077739 0.033083 -0.001724 -0.001214 -0.001997 -0.232916 0.000934 -0.002781 0.002818 0.120681 -0.000656 -0.002724 -0.000708 -0.005915 -0.346874 -0.000001 0.001576 -0.004951 0.010536 -0.001439 -0.012159 -0.281854 0.059165 0.001693 0.022947 -0.005316 0.109644 0.000577 -0.001821 0.561769 0.001644 -0.002581 -0.002357 -0.000104 -0.014219 0.113937 0.284043 0.029258 -0.037747 -0.060353 0.654391 0.000058 -0.000753 0.003145 -0.019842 -0.069652 0.561979 -0.002579 0.007262 -0.008715 0.003070 0.049282 0.001490 0.065374 -0.069597 0.001806 -0.224347 -0.259735 -0.140426 -0.001026 -0.000373 0.228770 0.000462 0.134507 0.000159 0.000962 0.001279 0.002883 -0.088822 0.318704 -0.019403 -0.183787 0.015419 0.024180 -0.000098 0.107835 -0.001799 0.000409 0.006018 0.003205 0.011137 -0.003364 -0.030274 0.003815 0.001882 -0.005293 0.006668 -0.115798 -0.002704 -0.005749 -0.006341 -0.000447 -0.003096 0.170410 0.000828 0.092605 0.117087 -0.001131 0.001741 -0.000160 0.002063 -0.004933 0.000690 0.001113 0.000663 0.362547 -0.131407 0.001809 0.000403 0.001720 0.247514 0.383938 -0.000985 0.216165 0.202269 -0.000001 -0.047631 0.002109 -0.223151 0.225752 -0.001918 0.001079 -0.021808 -0.000154 0.042461 0.000937 -0.003628 -0.000501 -0.000986 0.001840 0.030650 0.058869 0.015790 0.324929 -0.026389 0.002096 -0.083367 -0.008050 0.190833 0.000314 0.001022 0.003660 0.001656 0.002053 -0.010723 -0.002720 0.000498 0.284635 -0.000368 0.350028 0.245099 -0.003015 -0.004118 -0.001872 -0.214473 -0.023180 -0.000225 -0.120122 0.001960 0.546990 -0.000277 -0.264256 0.000292 -0.037861 0.239921 0.000329 -0.140535 0.000316 0.445712 -0.291894 -0.012190 0.054186 0.161404 0.338034 0.002099 0.018165 -0.001815 -0.002117 0.409723 0.263563
0.132634 0.380330 -0.001341 0.543715 0.004522 -0.000165 0.000772 -0.001132 -0.003607 -0.042299 0.000722 0.096939 0.002330 0.267533 -0.000228 0.004528 0.001554 0.000115 -0.022314 0.001961 0.001185 -0.097942 -0.002669 0.023104 -0.013171 -0.000223 0.166401 0.230482 -0.000153 0.533650 -0.001236 0.008137 0.306389 0.047582 -0.007230 0.089893 -0.013525 -0.000433 0.001085 0.003206 -0.008434 -0.000192 0.012628 0.043903 0.001844 -0.003489 0.677806 0.214371 0.403124 0.105528 -0.006650 -0.000572 -0.325689 -0.001008 -0.310876 0.002657 0.571047 0.177537 0.001501 0.295709 -0.008135 0.368443 -0.000515 -0.477754 -0.083037 0.003032 0.006546 -0.016320 0.001364 0.001623 0.135664 -0.000382 0.000228 0.057783 -0.000008 -0.121368 0.082885 0.313930 0.000746 0.000398 0.000721 -0.026532 0.005084 0.002515 -0.001468 0.099727 0.000210 0.001669 -0.001703 -0.010105 -0.119092 -0.000690 0.000019 -0.008035 -0.042101 -0.001285 -0.011125 -0.131503 0.019233 0.002040 -0.000663 -0.022049 0.261935 0.000600 0.001763 0.231119 -0.001270 0.001978 0.000591 0.002841 0.017959 -0.165948 0.438901 -0.012632 -0.001412 0.571932 -0.189852 0.003736 -0.000792 -0.001717 0.168614 -0.326993 0.269530 0.002081 0.001930 0.004793 0.011829 -0.012859 -0.001582 0.542455 0.119433 -0.001039 -0.025794 0.300988 0.261962 -0.002631 0.000441 -0.064525 0.001346 -0.145870 -0.002025 0.000441 -0.011340 -0.000829 -0.035271 0.068608 0.026660 -0.364401 0.001797 0.011803 0.001381 -0.135368 0.000768 0.001832 0.141462 -0.002422 0.000954 0.001966 0.039579 0.674137 0.000471 -0.009642 0.003945 0.764045 -0.000786 -0.001312 -0.025121 0.506144 0.000177 -0.538922 -0.016106 -0.134813 -0.239220 -0.001834 -0.003166 0.007622 0.000367 -0.001235 -0.001291 0.001239 -0.002207 0.061812 -0.106686 0.000630 0.028359 -0.001234 -0.422318 -0.211960 0.000792 0.667554 -0.049732 0.002616 0.034245 -0.001250 0.348069 -0.022087 0.002216 -0.002983 0.063085 0.000833 0.623940 -0.000081 -0.000618 -0.001254 -0.001587 -0.000090 -0.025134 -0.136892 -0.007170 0.311368 0.119214 0.003305 0.163055 0.166325 -0.144768 -0.011255 0.000517 0.004087 -0.001632 -0.019193 0.003056 -0.003617 -0.001948 0.422292 -0.001518 0.213053 0.058529 -0.000347 -0.003097 -0.000864 -0.283066 -0.010268 0.001816 -0.357652 0.000791 -0.255474 0.001294 -0.340076 0.000129 -0.210780 -0.160944 -0.002731 -0.074898 -0.003086 0.406440 -0.142327 -0.150687 -0.002769 0.213384 0.070819 0.001621 0.013832 0.000029 0.002213 -0.026910 -0.516904
0.009021 0.097898 0.001981 0.334089 -0.000401 -0.001648 -0.002187 0.001887 0.125608 0.068188 -0.000439 0.168830 0.002890 0.297446 -0.001435 0.014087 -0.001760 -0.000873 0.314036 0.002197 -0.000031 -0.410896 0.001691 -0.023299 -0.000576 0.001784 0.222083 0.010560 0.001183 0.085815 -0.000052 -0.047870 -0.244697 -0.013186 -0.000793 -0.170566 0.000529 0.002329 0.000042 0.038776 0.026234 -0.000201 -0.012390 0.043850 -0.000890 -0.000614 0.115348 -0.041962 0.090376 0.105582 -0.010839 -0.000729 0.170208 0.000024 0.089475 -0.003013 -0.321628 -0.207845 -0.000441 0.121226 0.001760 -0.405047 0.001351 -0.376363 -0.268036 -0.001245 -0.001149 0.164240 -0.000715 -0.001290 0.344352 -0.002077 0.001726 0.003962 0.001604 -0.047611 -0.245316 0.203858 -0.000317 -0.000376 -0.002740 -0.059614 -0.002854 -0.003000 -0.000937 0.113185 -0.001768 -0.002080 0.001713 0.001124 0.104298 -0.002593 -0.000753 0.000640 -0.007399 -0.000378 -0.046009 -0.180796 0.057891 -0.001141 0.034458 0.088642 0.551235 0.000708 -0.001145 0.067695 0.001426 -0.001844 0.000010 -0.000063 0.020521 0.188152 0.106284 -0.015768 0.023387 0.051674 0.014553 -0.002626 -0.002777 -0.000858 -0.017824 -0.202759 -0.120099 -0.000811 -0.000020 -0.002325 0.025086 0.119107 -0.000274 0.069164 -0.166020 -0.002210 0.071249 0.272360 0.407815 -0.015310 -0.002418 0.031909 0.002575 0.232815 -0.002878 -0.002217 -0.002023 -0.000412 0.337384 0.131888 0.003225 -0.095257 0.001881 -0.075237 -0.002600 -0.056317 -0.001258 -0.002761 0.162769 0.002784 0.020131 -0.002994 0.223258 0.194858 0.001862 0.029917 0.001275 -0.038672 -0.002601 -0.001263 0.024113 -0.055199 -0.002473 -0.427459 0.023653 0.068783 -0.093272 -0.001513 0.021960 -0.001072 -0.001382 0.002500 -0.002449 -0.001032 -0.001120 -0.096758 -0.164726 -0.000171 0.042847 -0.000034 -0.092025 -0.077407 -0.000290 -0.365756 -0.345134 -0.002246 0.023579 -0.002928 0.138968 0.175146 -0.001288 0.002336 0.346686 -0.001227 -0.028723 -0.002853 -0.001062 -0.001437 -0.001112 0.000009 0.049034 0.178658 -0.000008 0.277248 -0.007173 -0.001470 -0.295679 0.086682 0.110354 -0.002417 -0.000496 -0.002287 -0.002946 0.044479 -0.003094 0.002869 0.002777 -0.431214 -0.000046 -0.219956 0.303839 -0.000482 -0.002386 -0.013712 -0.200097 0.046086 -0.000190 0.016821 -0.000885 0.312812 0.002155 -0.546467 -0.002895 0.045074 0.238181 0.002904 -0.218018 -0.001143 -0.376631 -0.154057 -0.101444 0.046199 0.879688 0.129416 -0.001001 0.000817 -0.002053 -0.001891 -0.182858 0.326534
0.150018 0.129105 0.001989 -0.184889 -0.012491 0.002019 -0.000826 -0.002548 -0.314485 0.116125 -0.001360 0.381177 -0.003621 0.292958 0.002170 0.200733 -0.000431 0.000138 0.072024 -0.006098 0.001097 -0.472086 -0.002229 0.104712 0.002457 0.002057 -0.234472 -0.165605 0.001733 0.239100 -0.000077 -0.024667 -0.282870 0.102820 0.004146 -0.129383 0.010846 -0.001212 0.001622 0.040354 0.042479 -0.000324 -0.002804 0.305649 -0.000072 -0.001504 0.147813 -0.005064 0.131392 -0.123736 0.001482 -0.009164 0.226648 -0.000823 -0.073396 -0.001527 -0.213599 0.161256 0.001438 0.413038 0.006290 -0.428335 -0.001480 -0.499806 -0.248223 0.000412 -0.004942 -0.025131 0.002258 0.000861 0.146273 0.007282 0.001531 0.003441 -0.002472 0.182972 -0.185699 -0.186438 -0.000174 -0.001877 -0.001857 -0.364455 0.001350 -0.001177 0.002388 -0.288195 -0.000294 0.002222 0.001251 0.001595 -0.333954 -0.001704 -0.001375 -0.014439 -0.134585 -0.001031 -0.035312 -0.212452 0.088099 -0.002518 -0.014254 -0.035584 0.192263 -0.002211 -0.000890 -0.132509 0.002032 -0.002530 0.001197 -0.001603 0.012471 0.056770 0.048015 0.039925 0.000043 0.075057 -0.444710 0.047855 -0.004778 0.003154 -0.225499 0.029372 0.210305 -0.000245 -0.002343 0.000009 0.006901 0.010703 -0.002151 -0.144932 -0.167376 0.003849 -0.126429 0.096634 -0.027377 0.002054 -0.000975 0.285071 -0.004325 0.097941 -0.000427 -0.000481 0.010328 -0.002450 0.102176 -0.344176 -0.004862 -0.541687 -0.006959 -0.125645 -0.002268 0.366876 -0.001389 0.001125 0.514683 -0.001198 -0.019563 -0.002862 -0.047113 0.231175 0.001983 0.004373 -0.000190 -0.057643 -0.000413 0.033597 -0.034976 0.194120 -0.002944 -0.629134 0.019581 -0.189037 0.371830 -0.001534 -0.000058 -0.008696 -0.000837 -0.014462 0.000371 -0.001468 0.001830 -0.159152 0.373031 0.001200 -0.007774 0.001274 -0.305738 0.004131 0.000736 -0.005978 -0.390833 -0.002087 0.006561 0.001074 -0.029725 0.034771 -0.000323 0.001266 0.090055 -0.002046 0.177357 -0.000408 0.033646 -0.000471 0.000033 -0.000247 0.080056 0.193525 -0.010172 -0.057907 -0.076967 -0.003986 -0.009620 0.005799 -0.144068 0.002611 0.000297 0.020239 -0.004294 -0.001499 0.007303 -0.003096 0.003102 -0.258393 -0.000345 -0.401017 -0.269791 0.002495 0.003418 -0.002776 0.249575 0.074066 0.000371 0.123614 -0.004637 0.489112 0.001364 -0.239783 -0.004508 -0.089946 0.075889 0.001181 -0.035717 0.002828 -0.167256 -0.064942 -0.264191 0.039931 0.519639 0.268348 0.002199 0.009946 -0.001758 0.001713 -0.360087 0.164973
0.219993 0.132196 -0.002865 0.140569 -0.004647 -0.005000 -0.004379 -0.000701 0.433234 -0.237229 0.001199 0.233644 -0.003017 0.158061 0.004216 -0.006342 -0.000568 0.002612 -0.123527 -0.003753 0.002615 0.112753 -0.003125 0.024064 0.000514 -0.001153 -0.070619 0.090029 0.000203 0.183574 0.001299 0.004493 0.102858 -0.137096 0.014699 0.399431 -0.004097 -0.005425 0.000235 0.021458 -0.019469 0.007490 0.001464 0.116066 -0.000557 -0.001890 0.010702 -0.061544 0.166758 0.105526 -0.016024 -0.009375 -0.294322 -0.001346 0.262366 0.000037 -0.095370 0.103444 0.001259 0.017614 -0.019989 0.071784 -0.000004 0.061607 0.048744 0.000016 -0.002159 0.043269 0.002996 -0.000252 0.259690 -0.018853 -0.001080 0.021651 -0.000431 0.137845 -0.076027 -0.034118 -0.001822 0.002232 0.001281 0.164820 0.001913 0.002847 -0.000900 0.314481 -0.002767 0.000703 -0.001055 0.001530 0.498112 0.001808 -0.000729 -0.000400 -0.006128 0.000840 -0.029602 0.039113 -0.044337 -0.000634 -0.001956 -0.040496 0.232531 -0.002599 0.000480 -0.013885 0.005186 0.002170 0.002795 0.001669 -0.005805 0.084833 0.489543 -0.033453 -0.008763 0.402227 0.192360 -0.005256 0.001610 -0.000734 -0.088782 -0.121489 0.210703 0.001068 -0.006841 -0.004060 -0.010994 0.000743 0.001148 0.050580 0.055344 -0.000585 -0.107350 0.114413 0.392356 -0.002293 -0.000048 0.540665 0.006115 -0.043292 -0.002930 -0.003095 -0.021676 -0.003286 0.374348 0.301175 -0.036453 0.151691 0.007813 0.205710 0.001018 0.090139 0.001437 -0.002743 0.279265 -0.002643 -0.000170 -0.000011 -0.047458 -0.189399 -0.001969 -0.012103 0.004764 -0.063523 -0.000339 -0.005153 0.009788 -0.022289 0.001987 0.406385 -0.007737 0.267538 -0.039254 0.002218 -0.018625 -0.003215 -0.000031 -0.009438 0.001726 -0.002151 0.002080 -0.062953 0.019534 0.002019 -0.016171 -0.002247 0.231204 0.486383 0.000263 0.186590 0.255907 -0.001869 0.003488 -0.002566 0.089640 -0.096777 0.001481 -0.000397 0.145257 0.002916 0.292739 -0.002344 -0.009888 -0.000665 -0.000913 -0.001582 0.023072 0.667595 -0.049687 0.109649 -0.017912 0.001089 0.861076 0.000698 0.001797 0.004571 -0.001635 0.001366 -0.003828 0.001071 0.000218 0.009179 -0.002833 0.339135 0.001168 0.178997 -0.020207 0.000473 -0.004599 0.001459 -0.012528 -0.017542 0.001471 -0.051104 -0.005636 0.146734 -0.001965 -0.221512 -0.000233 0.035995 -0.253270 -0.001857 0.134436 -0.000629 -0.023956 -0.352781 0.240605 0.008528 -0.041277 0.217293 -0.001674 0.005991 -0.001472 0.000166 0.205119 -0.147252
0.518031 0.157251 -0.002377 -0.025787 0.015989 -0.001815 -0.000998 -0.000159 -0.124590 0.053854 -0.002621 0.303097 -0.000722 -0.098229 0.000361 -0.041050 -0.001301 -0.001613 0.031714 0.003378 -0.000566 -0.120734 -0.001289 -0.014351 -0.002569 0.001107 -0.163076 0.182182 -0.000980 0.020654 -0.000390 -0.011553 0.215226 -0.219024 0.007353 0.070940 -0.012352 0.001484 -0.002129 0.039388 -0.015596 -0.003112 0.000278 -0.327044 -0.001250 -0.000870 0.002024 -0.073173 -0.167525 0.065169 0.009978 -0.002047 -0.120603 -0.000333 0.281352 -0.000543 -0.197528 0.195101 -0.000819 0.003866 0.007615 0.267348 -0.000610 -0.087603 -0.010819 -0.001822 -0.010525 0.020489 -0.001565 0.001578 0.098360 -0.001100 -0.000311 0.008837 0.011588 0.458944 -0.211511 -0.124152 -0.002667 -0.002911 -0.002128 -0.036028 -0.000296 -0.002314 -0.000246 0.215705 -0.000123 -0.001752 -0.000392 -0.002859 0.123497 -0.000856 -0.002521 0.002520 -0.011942 -0.001191 -0.006971 -0.037095 -0.003538 -0.000929 -0.003068 -0.002131 0.370113 -0.000796 -0.001472 -0.207350 -0.002956 -0.002569 -0.001138 0.000001 -0.027129 0.161340 -0.059985 -0.006215 0.002569 0.162351 -0.191082 0.008662 -0.002256 -0.000160 -0.075694 -0.206344 0.114186 -0.001905 0.056275 0.008952 -0.002734 0.016166 -0.000214 -0.123741 0.586547 -0.001094 -0.190900 -0.364151 0.444083 0.012234 -0.000038 -0.081569 -0.007081 -0.005346 -0.002698 -0.001343 -0.008126 0.001438 0.119247 -0.085604 -0.001125 0.131573 -0.001590 -0.102668 0.000056 -0.106915 -0.003032 0.001309 -0.452471 0.002045 -0.005739 -0.002901 -0.445371 -0.014822 -0.001177 -0.007481 -0.001057 -0.036590 -0.001862 -0.001076 0.007980 0.140617 -0.002394 0.365511 -0.000909 0.117453 0.161457 -0.000499 0.007259 -0.008019 -0.000344 -0.009287 -0.001317 -0.003122 -0.002399 0.190345 0.091911 -0.001123 0.061087 0.000248 0.100645 0.452147 -0.001127 -0.274329 0.142840 -0.000167 -0.005763 -0.002329 -0.118984 0.096072 -0.001235 0.000846 0.009607 -0.001202 -0.080771 -0.000408 0.009603 -0.002494 -0.001579 -0.002235 -0.028348 0.083855 0.014105 -0.127099 -0.010111 -0.000557 0.244243 -0.197146 0.257267 0.016926 -0.001956 -0.026034 -0.000026 -0.002824 0.000301 -0.001838 -0.001155 0.381157 -0.000139 -0.032692 0.077607 -0.002253 -0.001287 -0.002714 0.330172 -0.018952 -0.002417 -0.128790 -0.006586 0.207267 0.000710 -0.826911 -0.001736 0.116994 0.263875 0.000781 -0.092698 0.000804 -0.426068 -0.375700 -0.047742 0.009868 -0.278363 -0.260780 -0.001735 0.014709 -0.000311 -0.002522 0.334314 0.207261
-0.020683 -0.016597 -0.000097 0.001448 -0.008611 -0.001212 -0.001904 -0.001008 -0.012340 0.002030 -0.000708 -0.027457 0.000000 0.006208 0.000867 0.024001 -0.000004 -0.000740 -0.020287 -0.000379 0.001181 -0.009547 0.000257 -0.010351 -0.016931 -0.001129 0.000111 -0.029832 0.000416 0.007553 0.000079 -0.008436 0.012962 0.002304 0.015775 -0.005507 -0.005619 -0.000508 -0.000371 0.016157 -0.004790 0.001935 0.016015 0.001123 -0.001484 0.009643 0.002084 -0.019295 -0.015078 -0.001290 0.008631 -0.000030 -0.008458 -0.000246 -0.012969 0.000675 0.001222 -0.008016 0.000267 -0.014365 -0.003756 0.008592 0.000592 -0.013121 -0.011076 -0.001581 -0.001089 -0.001219 0.000810 -0.001042 -0.013654 -0.002168 -0.001383 -0.016670 -0.001970 0.028796 -0.047274 -0.023760 -0.000348 -0.000351 -0.001009 0.000467 -0.001381 -0.000417 0.001136 -0.024860 -0.001600 -0.000217 -0.002729 0.001286 -0.008679 0.000910 0.001247 0.003829 0.031384 -0.002234 0.026921 -0.030365 -0.017736 0.000083 -0.006112 -0.007286 -0.010858 -0.001185 0.000578 0.000071 -0.002190 -0.000694 0.000139 0.000893 -0.006200 -0.040467 -0.000454 -0.011779 -0.001978 -0.007512 -0.046391 -0.009472 -0.001183 -0.000391 0.010471 -0.024010 0.005716 -0.001384 -0.004743 0.016358 -0.013607 -0.011595 -0.000587 -0.011090 -0.022198 -0.000638 -0.036699 -0.013311 -0.028632 -0.013200 -0.000476 -0.000702 -0.001608 0.012596 -0.001012 -0.000832 -0.003270 -0.000815 0.020595 -0.030722 0.001437 -0.010007 0.005621 -0.011919 -0.000117 -0.013227 0.001473 -0.000875 -0.002898 0.001037 -0.031138 -0.001284 0.033630 -0.013144 0.001302 0.013770 -0.000350 0.001324 -0.001798 -0.001817 0.015212 0.025511 -0.000931 0.002439 0.000733 -0.020744 -0.031611 0.000518 -0.005656 0.000723 -0.000847 -0.000821 0.000015 0.000927 -0.001473 -0.016489 -0.023261 0.001283 0.002656 -0.001025 -0.006673 -0.006336 -0.001197 -0.007766 -0.022488 0.000422 -0.014374 -0.000010 -0.018751 -0.026283 -0.000260 0.000977 -0.009306 -0.000094 0.014053 0.001050 0.012591 -0.002509 -0.001015 0.000312 -0.002815 -0.001680 0.030022 -0.003681 -0.029744 0.000844 -0.023285 -0.001165 0.021533 -0.014777 0.000263 0.009376 -0.000702 0.005289 0.009642 -0.001283 -0.000940 -0.005587 0.000307 0.001989 -0.013104 0.000832 0.001470 0.000234 -0.008551 0.005850 -0.000060 -0.037488 -0.000205 -0.007469 0.001028 -0.039530 -0.001901 0.019191 0.014764 0.001022 -0.001307 -0.000739 -0.007803 -0.047848 -0.016655 0.001240 -0.032228 -0.035824 -0.001540 -0.014093 -0.000036 0.001441 0.017222 -0.046300
0.000684 0.003020 0.002570 0.067594 -0.006337 -0.001075 -0.002782 0.002258 0.019798 -0.059470 -0.000359 -0.032745 0.001256 0.002275 -0.001995 -0.004361 -0.000099 0.001003 -0.094335 0.002325 -0.000458 -0.034786 -0.001380 -0.027181 0.000033 0.001387 0.092712 -0.151964 -0.001224 -0.032311 0.000504 0.012015 -0.063612 -0.009838 -0.007467 -0.021692 0.000513 0.000003 -0.000278 -0.000806 0.013548 -0.000301 -0.001740 -0.118432 -0.005265 -0.006323 -0.008441 -0.074277 -0.020536 0.014046 -0.013659 -0.000937 -0.171696 -0.000498 -0.013363 -0.001129 0.055387 -0.000827 0.000636 -0.011240 -0.013543 0.055052 -0.001568 -0.057463 -0.052354 0.000503 0.001296 0.091916 -0.003271 0.000228 0.031544 0.012031 -0.001242 -0.001875 -0.000490 -0.022760 -0.157956 -0.017552 -0.001106 0.001040 0.000762 -0.001108 -0.001358 -0.001153 -0.000019 -0.066335 0.001029 -0.001038 -0.001211 0.010101 -0.155136 0.000392 0.000721 0.009260 -0.005356 -0.002030 0.040808 -0.096728 -0.014246 0.002548 0.001021 -0.048497 -0.028543 -0.001555 0.001284 0.032137 -0.003441 -0.001254 0.001018 0.001165 0.008447 -0.004077 0.017541 0.017748 0.017079 0.015828 -0.070704 0.003449 0.000080 0.006587 -0.040515 -0.202358 -0.001990 -0.001334 0.000431 -0.005130 -0.002297 0.006299 0.001838 -0.018990 0.011158 0.005321 -0.085213 -0.191908 0.003778 -0.004521 -0.001571 -0.004732 0.002232 0.036316 0.000463 0.000446 -0.000567 0.000500 -0.016385 0.040081 -0.000807 0.002389 0.011854 0.017950 -0.000043 -0.051524 0.001833 -0.000207 0.027409 0.001881 0.000957 -0.002661 -0.015848 -0.189817 0.000029 0.007730 -0.000902 -0.041916 -0.003080 0.003007 0.015542 0.059061 0.001765 -0.059282 0.001119 0.058116 -0.046874 -0.006354 -0.009968 -0.017015 0.000028 -0.001888 0.000499 0.001034 0.001533 0.025945 -0.155034 -0.001378 0.008113 -0.001342 -0.138564 -0.026461 -0.003687 -0.050984 -0.089792 0.000667 0.018737 -0.000223 0.017823 -0.205234 0.000418 -0.000218 -0.096100 -0.000999 -0.042150 0.002104 -0.006061 -0.001450 0.001125 0.002378 0.039191 0.124072 -0.003152 -0.131632 -0.015038 -0.004008 -0.146510 -0.003132 -0.092083 -0.003318 0.002477 -0.019063 -0.001926 -0.019009 0.010751 -0.002301 0.000501 -0.014633 -0.002924 -0.033665 -0.040846 0.002442 0.005319 -0.005295 0.039915 -0.013340 -0.000076 -0.110788 -0.001938 0.007056 -0.000364 -0.225609 -0.002657 0.093710 -0.042105 -0.000921 -0.071840 0.000141 -0.056261 -0.123274 -0.093301 0.032116 -0.198409 -0.075624 -0.001324 0.008383 -0.001448 -0.002329 0.003268 0.047225
-0.082315 -0.014307 0.001367 -0.110226 0.003688 0.000072 -0.001562 0.001764 -0.057557 0.046458 -0.000227 -0.024858 0.000807 0.006269 0.005984 0.003697 -0.000654 -0.000143 -0.066597 0.000911 0.000134 -0.010788 -0.000041 -0.005743 0.001494 -0.000510 -0.010647 -0.193411 0.000458 0.000336 0.001947 0.000943 -0.022407 0.021990 -0.002611 -0.009781 -0.010137 0.001016 0.002216 0.004896 -0.001167 -0.001068 -0.003229 0.018589 -0.001459 -0.008393 -0.029618 -0.121837 -0.183356 -0.013910 -0.003624 -0.000563 -0.202721 0.001291 -0.111867 -0.000192 -0.066245 -0.087084 -0.001171 -0.033367 -0.019286 0.039812 0.000860 -0.151768 -0.128568 0.000622 -0.001300 0.004869 -0.005005 0.000468 -0.019157 -0.002077 0.000112 -0.010014 -0.000042 0.048742 -0.052888 0.014565 -0.001154 -0.000014 -0.000107 -0.062302 -0.005807 -0.000396 -0.000105 -0.014653 0.001277 0.000408 -0.002035 -0.011338 -0.094789 0.001746 0.002382 0.011589 -0.016865 -0.003267 -0.017481 -0.010153 0.007376 0.001213 -0.009741 -0.012176 -0.004081 0.001144 0.000993 -0.055525 -0.003072 0.000917 0.002475 0.001468 -0.003622 0.007328 -0.036578 0.007442 -0.021829 -0.084277 -0.082442 -0.015962 0.001457 0.002526 -0.036471 -0.214309 0.084384 -0.001429 0.009205 -0.004775 -0.001237 0.038942 -0.000465 -0.057893 0.002938 0.002034 -0.098556 -0.069896 0.014588 0.000833 -0.000790 -0.039773 0.006233 -0.032105 0.001435 0.002837 -0.002308 -0.000047 -0.077154 -0.095243 0.004805 0.039872 0.001333 -0.029019 0.000290 -0.121601 0.001243 0.001682 -0.065201 0.000581 -0.001377 -0.001020 -0.076833 -0.041948 0.000915 -0.011063 0.006402 -0.048324 -0.001489 -0.003260 -0.037439 -0.014527 -0.002044 0.014286 -0.001091 0.011998 -0.200754 -0.004064 -0.000982 -0.000782 -0.001178 0.011530 0.002513 0.000197 -0.001365 0.047428 -0.045870 -0.000288 0.056635 0.002917 -0.119125 -0.045153 -0.002220 -0.102204 0.000082 -0.001160 -0.028180 -0.002500 0.027863 -0.094864 0.002490 -0.000411 -0.068534 -0.000706 -0.047923 -0.000080 -0.011042 -0.000138 0.000322 -0.001594 -0.030896 0.033852 0.000703 -0.076637 -0.001478 -0.000886 0.003150 -0.001239 -0.090852 -0.006243 0.000961 -0.015287 0.000558 -0.010300 0.011615 -0.007116 -0.001110 -0.035338 0.000225 0.073186 -0.093563 0.002540 -0.002968 -0.003317 0.063180 -0.039829 -0.001137 -0.035215 -0.001985 -0.011400 0.002470 -0.048887 -0.003501 -0.032398 -0.057384 -0.001129 -0.070330 -0.001016 -0.081030 -0.080636 -0.040741 0.031896 -0.042712 -0.109425 -0.001362 0.003223 0.001560 -0.002843 -0.000105 0.035650
-0.036240 -0.379070 -0.002753 0.539917 0.010053 -0.004007 -0.004945 -0.000011 -0.010321 0.810713 -0.002262 0.067004 0.002806 0.481443 0.000506 0.000308 -0.004298 0.001362 -0.026887 0.003719 -0.001799 -0.270851 -0.000759 -0.003193 -0.003473 -0.000852 0.122669 -0.206970 -0.000814 0.114240 -0.000925 -0.013406 0.177031 0.261711 0.005014 -0.110482 -0.001639 0.003155 -0.000441 0.086900 -0.003097 -0.002448 0.016547 -0.360064 0.003056 -0.002549 1.074386 -0.044009 0.063238 0.100548 0.002679 -0.002976 0.069425 0.001256 0.461873 0.001265 0.526995 -0.004560 -0.000894 1.519782 -0.022716 -0.021787 0.001697 -0.319637 0.130751 0.000974 0.006194 -0.003432 0.001451 -0.001055 -0.048381 -0.001269 -0.000660 -0.010541 0.000192 -0.054965 -0.208244 -0.058708 -0.000381 -0.001373 -0.003059 0.071110 -0.001543 -0.002868 -0.002797 0.059149 0.002057 -0.001678 -0.000539 0.010495 -0.192048 -0.001504 0.001866 -0.000977 -0.006238 -0.001835 0.004054 0.111827 -0.004488 0.001686 -0.016659 -0.015645 0.319059 0.000476 0.000031 0.282612 -0.009889 -0.000801 0.000070 0.002082 -0.019731 0.016500 0.098573 -0.015829 -0.011088 -0.060330 0.326056 -0.007425 0.001689 -0.000706 0.030843 -0.238651 -0.119849 -0.002759 -0.019713 0.002838 -0.009516 0.011900 -0.000189 0.148824 -0.181347 0.005347 0.041987 0.044132 -0.207654 -0.001333 0.000480 0.321411 0.000498 0.010877 -0.000541 0.000440 -0.002590 -0.000821 -0.123175 0.165522 0.005697 -0.185140 0.010149 -0.000537 0.002517 -0.196104 -0.001324 0.002715 -0.180471 0.002753 -0.004212 -0.001994 0.096275 -0.428577 -0.001161 0.012819 0.000214 0.153876 -0.000537 -0.002713 -0.006172 0.350634 0.002559 -0.007618 0.016810 0.051418 0.137373 -0.008600 0.001396 -0.003101 -0.000808 -0.021157 -0.002186 0.002078 0.001765 -0.062943 -0.172060 0.002039 -0.054063 0.002439 -0.289971 0.354053 -0.000333 -0.202259 -0.122773 -0.001936 0.007050 -0.007664 0.037309 -0.025513 -0.001910 -0.001108 -0.179552 0.000936 0.228498 -0.000289 0.002124 0.000065 -0.001082 0.000446 -0.009414 0.403241 0.011157 -0.279341 -0.048291 0.002246 -0.147309 0.026429 -0.167077 -0.001902 0.000848 -0.012064 0.000441 -0.001379 -0.008802 -0.004310 -0.001670 0.545187 0.001506 0.195151 0.014359 0.001458 -0.004733 -0.002575 0.265467 -0.049547 0.001595 0.031436 -0.001165 -0.072406 0.000011 -0.438531 -0.006106 0.577009 0.106953 -0.001181 -0.148102 0.002673 0.566836 -0.234073 0.189622 0.014170 0.468028 -0.099189 -0.001142 0.003332 -0.002851 -0.001278 0.137243 -0.017633
-0.005864 0.010480 -0.000594 0.026851 0.007220 -0.001973 -0.000642 -0.002476 -0.005774 -0.022175 0.001247 0.013949 -0.000900 -0.001326 -0.002493 0.001333 0.003321 -0.001543 -0.059886 -0.003000 0.001632 -0.049799 -0.002064 0.000793 -0.004698 -0.000214 -0.016808 -0.058632 0.001072 0.027139 -0.002952 -0.017672 -0.001109 0.014961 -0.003538 -0.019355 -0.008464 -0.002114 -0.000841 0.001024 -0.005267 0.002374 0.008502 -0.033873 0.000473 0.003986 0.000521 -0.008435 -0.019312 -0.008146 0.005721 -0.002037 0.006729 -0.001356 -0.020786 -0.002471 -0.004518 -0.021026 0.000664 -0.029192 0.003518 -0.012069 -0.000189 -0.024119 -0.050172 0.000672 0.013579 -0.014272 -0.001262 -0.001237 -0.011739 -0.002643 -0.000340 -0.022317 0.005312 -0.022832 -0.100497 -0.040475 -0.000933 -0.001148 0.000139 0.002922 -0.000672 -0.000203 0.000558 -0.063952 -0.000533 0.001603 0.003911 0.003238 -0.000730 -0.002607 -0.001696 0.018648 -0.001222 -0.002971 -0.017316 -0.080674 0.006849 -0.000623 -0.013564 0.003234 -0.005313 -0.001593 -0.002027 -0.020513 0.021066 0.000042 -0.001317 0.001208 -0.019279 0.008654 -0.002504 -0.003226 -0.000904 -0.070192 -0.043938 0.007554 -0.002271 0.000081 -0.068272 -0.034868 0.030836 0.001816 0.020663 0.007859 0.003196 -0.011259 -0.000367 -0.011733 -0.009613 -0.002095 -0.036455 -0.037989 -0.006491 0.000168 0.002655 0.007747 -0.000446 -0.032624 -0.000379 -0.000326 -0.001101 0.020871 -0.000222 -0.004538 -0.002269 -0.051338 0.002596 0.002260 0.002063 -0.048296 0.000665 -0.001852 -0.070793 0.003142 0.016963 0.000256 0.003131 -0.077389 -0.001868 0.008469 0.000014 -0.004123 -0.006083 0.003474 -0.027135 -0.003535 -0.000184 -0.052972 -0.002182 -0.001331 0.002609 -0.003518 0.018174 0.009443 0.000862 -0.004890 0.000284 -0.001808 0.000375 -0.036420 -0.058857 0.001834 0.007780 -0.000280 -0.055286 -0.036621 -0.000285 -0.090551 -0.071937 -0.003103 -0.003614 -0.001743 -0.045527 -0.077682 -0.003043 0.000749 -0.087623 0.000329 0.032558 -0.001830 -0.001590 -0.002992 -0.002434 -0.002748 -0.004824 -0.009450 0.001597 -0.028425 -0.052538 0.002753 -0.004682 -0.004223 -0.007905 0.024198 -0.000694 -0.004649 0.000405 -0.006973 -0.002465 0.002659 -0.001594 -0.034187 -0.000292 0.050449 -0.005744 -0.003050 0.004242 -0.005140 0.013538 0.002347 0.001332 -0.047219 0.010926 -0.027565 -0.002714 -0.144462 0.000314 0.004137 -0.027319 0.000466 -0.061928 0.000163 -0.031503 -0.058649 -0.074540 -0.003449 -0.083420 -0.025920 -0.002051 0.003345 0.002491 0.001992 0.002804 -0.009728
-0.003557 0.001089 0.002600 -0.002972 0.001568 0.000306 -0.001025 0.001769 -0.001378 -0.000285 -0.000856 -0.000170 0.001462 -0.000476 -0.000705 -0.000355 -0.002751 -0.001974 -0.001902 -0.002390 -0.000685 -0.001367 -0.001320 -0.003324 0.001260 0.001581 0.000447 -0.002576 0.001506 -0.002073 0.001940 -0.002635 -0.000579 -0.001351 -0.001477 0.000994 -0.001238 -0.001863 -0.000641 -0.001322 -0.002536 -0.002178 -0.000664 -0.002744 0.000701 -0.001512 -0.000755 -0.000688 -0.001122 -0.000119 0.001512 -0.001932 -0.004657 0.001548 -0.003124 -0.000422 -0.002071 -0.000080 -0.000916 -0.002719 -0.000584 -0.002678 -0.000929 -0.000845 0.001029 -0.002146 -0.000776 -0.001063 0.001158 0.000649 -0.002011 -0.000579 -0.002493 -0.002653 -0.000341 -0.000405 -0.002097 -0.002098 -0.000348 -0.001489 0.003050 -0.002665 -0.000976 0.002486 0.002185 -0.001920 -0.002565 -0.002043 -0.000769 -0.000279 -0.002191 -0.000043 -0.000965 0.000056 -0.001550 -0.003314 -0.002168 0.000305 -0.002383 0.002881 -0.000700 -0.002351 0.001506 0.000231 0.000388 0.000011 0.000691 -0.003027 -0.000558 0.000152 -0.002589 -0.001920 0.001358 -0.001609 -0.000514 -0.001679 -0.001076 -0.002346 0.001567 -0.002163 -0.000632 -0.002085 -0.000445 -0.002324 0.001489 -0.002197 -0.001408 -0.000917 0.000410 -0.002982 -0.002736 0.000465 -0.002058 -0.002520 -0.003189 -0.000810 0.001831 -0.000226 -0.002317 -0.003534 -0.002036 -0.001434 -0.002927 -0.002264 -0.000678 0.000003 -0.000779 -0.001529 -0.002198 0.001118 -0.002646 -0.003632 -0.002394 -0.000573 0.000535 -0.001589 -0.001757 0.000641 -0.003096 -0.002126 -0.000292 -0.001276 0.000015 -0.002073 -0.001628 0.001217 0.000415 0.001627 0.000055 -0.001332 0.000169 -0.002567 -0.002814 -0.002592 -0.002593 0.001400 -0.003097 -0.001926 -0.001220 0.000332 -0.000787 -0.002890 -0.002641 -0.001379 -0.000943 -0.001441 -0.001418 -0.000957 -0.002443 -0.001929 -0.000936 0.001988 0.001792 -0.002208 0.001244 -0.003463 0.002667 0.002646 -0.000470 0.002181 -0.001238 -0.002369 -0.001058 -0.000874 0.000961 0.000189 -0.001660 -0.002540 -0.001490 0.000108 -0.000851 -0.001125 -0.001472 -0.000393 -0.000713 0.001421 -0.001104 0.000070 -0.002721 -0.001719 -0.000641 -0.000225 -0.000795 -0.001715 0.002546 -0.002804 0.000019 0.002032 0.001829 -0.002537 0.001247 -0.000915 0.000316 -0.000720 -0.001007 -0.001032 -0.000933 -0.002587 0.000248 -0.002999 -0.002659 -0.001744 -0.001157 -0.000989 -0.002033 -0.004430 -0.000873 -0.001068 -0.002466 -0.000384 -0.001078 -0.001527 0.001167 0.002425 0.001224 -0.000775
-0.007556 -0.021799 0.002012 -0.005954 -0.001626 -0.000147 0.000825 0.001500 0.031085 0.046089 0.001336 -0.012142 0.000108 -0.017200 0.002416 -0.004196 0.001131 -0.002781 -0.189088 -0.000955 -0.000753 0.037072 0.002810 -0.000296 -0.005246 0.001418 -0.076811 -0.074651 -0.000136 0.152178 0.000192 -0.016518 0.004669 -0.019249 -0.014755 0.074936 0.012489 0.000814 0.000196 -0.009991 0.005412 -0.003816 0.000382 0.009292 -0.001881 -0.006645 0.003543 0.045915 0.035014 0.001285 -0.000121 -0.007794 -0.048781 -0.001589 -0.049155 -0.001669 -0.006701 -0.015004 0.001051 0.026849 -0.003072 -0.067756 0.000217 -0.019675 -0.016938 -0.002419 -0.001502 0.055902 -0.000794 -0.001202 -0.018893 -0.000140 0.000817 0.001662 -0.003067 0.173251 -0.134017 -0.007591 -0.000737 0.001150 -0.000830 0.030104 -0.000336 0.001015 0.000402 -0.056049 -0.002457 0.002807 0.000064 0.022712 -0.098379 -0.000086 -0.001118 -0.001145 -0.008535 -0.000559 -0.007445 -0.051900 -0.006409 -0.002080 -0.004665 0.007517 0.090261 -0.001069 0.002558 0.055833 0.001448 0.001298 -0.000911 0.002146 0.000946 0.022195 -0.035144 0.002141 -0.000770 0.027550 0.083574 0.013663 -0.001836 -0.002248 0.009712 -0.164299 0.051404 -0.002984 -0.008908 0.000231 -0.008370 0.002206 -0.000700 0.225426 0.130562 -0.003997 -0.130855 -0.081194 0.006196 -0.001007 -0.000970 0.055551 -0.002690 -0.047439 0.000744 -0.000743 -0.002983 -0.003459 -0.038128 -0.014097 -0.010872 -0.131508 0.001207 0.000218 -0.001505 -0.135626 -0.003127 -0.000336 -0.021078 -0.002610 -0.000266 -0.002896 -0.008376 -0.005557 0.001001 -0.000676 -0.003974 -0.012025 -0.002331 0.002260 -0.015962 0.108711 -0.001591 -0.032313 -0.001707 0.021359 0.004565 -0.003336 -0.001750 -0.004537 -0.001040 0.003494 0.001321 0.002781 -0.000072 -0.014478 -0.018029 -0.001920 0.002127 0.000633 -0.061544 0.009441 -0.002558 -0.087826 0.024148 0.000369 -0.002265 0.001495 -0.024607 -0.151911 0.001284 0.002760 -0.043829 -0.001493 0.047808 -0.002564 -0.008666 0.000769 0.000625 -0.001159 0.006196 -0.002185 0.005834 -0.014608 -0.045438 0.002126 -0.035973 0.000298 -0.015531 -0.003594 -0.001127 0.001013 0.000169 -0.003887 0.002667 -0.007123 0.001087 0.038173 0.002151 0.011036 -0.093514 -0.002686 -0.004395 0.000041 0.040102 0.000891 0.001111 0.041480 -0.005603 0.047667 0.001406 -0.212675 -0.004626 -0.008356 0.009417 0.001484 -0.118748 -0.002346 -0.069390 -0.136515 -0.066667 -0.000753 -0.053441 -0.109076 -0.000219 -0.002046 0.002185 0.002210 0.219376 -0.057011
0.013412 0.147234 -0.002176 0.207628 -0.003158 -0.001799 -0.000573 0.001413 -0.235027 0.375405 -0.001872 0.088178 0.002093 -0.020622 -0.000545 0.004874 -0.000187 0.001228 -0.191296 -0.002211 -0.000899 -0.220960 -0.001290 -0.034694 -0.000713 0.000220 -0.149709 -0.029881 0.000453 -0.167917 -0.001650 0.019502 -0.062457 0.201994 0.002524 0.067778 -0.008560 -0.006300 0.000988 -0.030433 -0.038131 -0.003000 0.027573 -0.276378 -0.002431 -0.002159 -0.003404 -0.047998 -0.197010 0.474258 0.020507 -0.001509 0.022998 -0.001695 -0.038069 -0.002310 0.276025 0.087725 0.002243 0.401593 0.007712 0.072656 -0.002487 -0.130058 0.119534 -0.002300 0.004854 0.060530 0.002904 -0.001469 0.023653 -0.001226 0.000843 -0.016555 -0.002503 -0.062368 -0.163826 0.129907 -0.001403 0.002915 -0.000610 -0.080601 0.000295 0.000040 -0.001725 -0.133131 -0.004416 -0.001813 -0.000628 -0.001520 -0.115830 0.000112 -0.002696 -0.001752 0.009960 -0.000549 0.039915 0.149684 -0.000586 -0.002441 0.061572 -0.011590 -0.101551 0.000685 -0.000453 0.024939 0.005549 -0.000721 -0.002455 0.000860 -0.004925 -0.018704 0.342777 -0.005275 -0.002603 0.162008 -0.142558 0.007576 -0.001171 0.006050 -0.232929 -0.096916 -0.053889 -0.000157 0.001407 -0.007010 -0.012987 0.024255 -0.000531 0.198946 -0.103815 -0.002832 0.023881 0.101001 0.016763 -0.002205 -0.001909 0.004077 -0.006719 0.027197 -0.003012 -0.002020 0.003913 -0.009305 0.009389 0.061060 0.002895 0.005110 0.000015 -0.040778 0.000662 -0.026063 -0.000528 -0.002840 0.044907 -0.002572 0.002231 0.002682 0.073323 -0.116919 -0.000125 0.009484 -0.002393 0.169866 -0.000677 0.003799 -0.011319 -0.147696 -0.002936 0.056282 0.030158 0.301369 -0.185084 0.000133 -0.009372 -0.001384 -0.000702 -0.002130 -0.001320 0.001252 0.000799 -0.175339 -0.068250 -0.003060 -0.023512 -0.000047 -0.464667 -0.031322 -0.002510 0.048319 -0.076286 0.002619 0.027473 -0.000918 0.333379 -0.084766 -0.001541 -0.003024 -0.144832 0.001632 0.011178 -0.001191 -0.008726 -0.001847 -0.002509 -0.002104 0.037306 0.126795 -0.002161 -0.019802 0.002514 -0.000864 0.044305 0.003635 -0.155174 -0.017462 -0.001139 -0.008721 -0.002524 0.009038 0.006047 -0.000653 -0.001242 0.272667 -0.000377 0.122497 0.026163 -0.000409 -0.001613 -0.001372 -0.005391 0.008422 -0.002338 -0.046023 0.002060 0.091402 -0.001561 -0.508338 -0.003113 0.173848 -0.205449 -0.000539 -0.080641 -0.000859 0.061745 -0.262988 0.088944 -0.001478 0.129150 -0.044568 -0.001945 -0.007258 -0.001850 -0.000441 0.010751 0.059656
-0.151752 0.096920 -0.001272 0.383683 -0.002478 -0.002913 -0.000019 0.002032 -0.303960 0.739339 0.001506 -0.431332 -0.000633 -0.131572 -0.005754 0.096468 -0.000010 0.000047 0.034692 0.003226 0.006762 -0.476700 -0.001499 0.038283 -0.004213 0.000002 0.851221 0.405299 -0.001897 0.212092 0.001082 0.025373 0.017397 -0.128937 -0.006400 0.058156 0.004667 0.003047 0.001120 0.235787 -0.032428 0.002503 0.025990 0.546130 -0.003001 0.002227 0.092833 0.161066 0.531027 -0.000470 0.002676 0.001441 -0.343354 0.000919 0.444973 0.003075 0.497615 0.244095 -0.000690 -0.283242 -0.007458 -0.676190 0.002586 -0.375327 0.103428 0.001819 -0.000889 -0.008503 -0.002300 0.002606 0.025406 -0.020709 0.002024 0.058959 -0.001130 0.028210 -0.637373 -0.303942 0.002886 0.002099 0.000707 -0.336347 0.003896 0.000451 -0.002038 -0.111150 -0.003584 0.003060 -0.009167 0.010748 0.057570 0.000743 0.002634 -0.019693 0.228743 -0.001507 0.018472 -0.470768 -0.014818 -0.002379 -0.004747 -0.049845 0.126705 0.000378 -0.002509 -0.090696 0.004670 -0.000473 0.001951 0.002148 0.008216 0.027419 0.217409 0.011101 -0.009925 0.546431 0.011045 -0.005793 -0.001207 -0.003556 -0.811461 -0.484494 0.238410 0.001300 -0.033068 0.001397 0.000208 0.017116 0.000023 0.669424 -0.071777 -0.003078 -0.667943 0.539804 0.039806 -0.007850 0.001894 0.225653 -0.001137 0.132463 0.000562 0.003162 -0.003057 0.006935 -0.417087 -0.237616 0.009310 -0.064775 -0.012113 -0.083130 0.002163 0.020129 -0.001451 0.000935 -0.212994 -0.000190 -0.023152 -0.009851 0.287324 -0.181937 0.002474 0.111575 -0.000714 0.072876 -0.002843 0.030481 -0.030433 0.439212 0.001151 0.088101 0.044965 0.136823 -0.001457 0.000148 -0.011551 -0.001296 0.001664 -0.017335 0.001510 0.001963 0.000056 -0.254251 0.119980 0.002200 0.170149 0.001341 -0.038084 -0.079511 -0.001403 -0.641777 -0.343521 0.001795 0.045565 -0.003881 0.501000 0.060413 0.000627 -0.005682 -0.171884 0.000397 0.465822 0.002321 -0.000569 0.000228 0.001560 0.003796 0.024562 -0.282888 -0.009697 0.328237 0.005243 0.001410 0.033636 0.039801 -0.066626 -0.013942 0.002170 -0.002911 0.003185 0.004251 0.016235 -0.008914 -0.000037 0.053841 0.004061 0.205900 -0.225647 0.001494 -0.005552 -0.002715 -0.031746 0.129375 -0.000925 0.092122 0.010412 -0.422645 -0.000444 -0.267799 -0.001211 0.496492 -0.379252 0.000618 -0.067286 0.001556 -0.555130 0.049377 -0.070353 0.035356 -0.092802 0.360734 0.000222 0.017978 -0.000945 -0.000993 0.027530 0.511833
-0.001165 -0.004365 -0.001329 -0.006732 0.001655 0.001813 -0.001719 0.000896 -0.013091 0.000622 0.001473 0.003446 0.002171 0.000479 -0.002342 -0.004997 -0.000604 -0.002584 -0.003336 -0.002738 0.001982 -0.021557 -0.001356 -0.006710 -0.004243 -0.000171 -0.003166 -0.019276 0.000957 -0.007065 0.000040 -0.003584 -0.003685 -0.000055 -0.000968 -0.004585 -0.006123 -0.002477 -0.000469 0.002655 -0.004568 -0.003594 -0.001027 -0.006639 0.000867 -0.001510 -0.003216 -0.006503 -0.002572 -0.002609 -0.002451 -0.004279 -0.005137 0.000943 -0.006859 0.000881 -0.006460 -0.003534 -0.000819 -0.005103 0.004250 0.003852 0.001230 -0.021098 -0.003310 -0.002397 0.000633 -0.001097 0.001574 -0.000758 -0.002498 0.002025 0.000668 0.004091 -0.001716 -0.002005 -0.015061 -0.012853 -0.001602 0.000948 0.000882 -0.008515 -0.000152 0.001988 0.000859 -0.002832 0.000887 -0.002492 -0.001659 -0.001323 0.002541 -0.001685 -0.000422 -0.003747 -0.006240 0.003165 -0.003564 -0.004570 -0.004468 0.000430 -0.004301 -0.005199 0.000176 0.002533 0.001859 -0.003791 -0.004148 0.000010 -0.001947 -0.002440 -0.002271 -0.001430 -0.003887 -0.003710 0.000716 -0.005398 -0.001201 -0.003915 -0.000664 -0.004847 -0.002706 -0.003731 -0.003841 0.002233 0.001715 -0.006881 -0.007401 -0.001052 -0.001042 -0.004373 -0.002034 -0.005014 -0.005340 -0.002206 0.000216 -0.000055 0.000856 0.001166 -0.002056 -0.008054 -0.001115 0.001762 -0.002768 0.002953 -0.002363 0.000821 -0.001894 -0.004651 -0.001644 -0.005436 0.002077 -0.016594 0.001657 -0.001010 -0.003113 0.000271 0.000075 -0.001606 -0.001984 -0.005685 -0.002348 -0.002112 -0.001933 -0.003054 0.001206 -0.002702 -0.001787 -0.003865 -0.002727 -0.006493 -0.002880 -0.004380 -0.019700 0.000464 0.001582 0.000975 0.000761 0.004932 0.001796 -0.000175 -0.000020 -0.006242 -0.009193 -0.001125 -0.006840 -0.001625 -0.005873 -0.001268 -0.002683 -0.000331 0.003685 0.002079 0.002952 -0.004186 -0.001405 -0.013397 -0.001460 0.000095 -0.004924 -0.001729 -0.000267 0.001792 -0.001838 -0.002243 -0.001884 -0.004403 -0.004653 0.001140 -0.000098 0.000638 -0.025069 0.003123 -0.000571 0.000974 0.003813 -0.000673 -0.000424 -0.002464 -0.003626 -0.004697 -0.002942 0.001393 -0.000098 -0.005835 0.000161 -0.002630 -0.008643 -0.002356 -0.004079 -0.001417 -0.002980 -0.006488 0.002383 -0.004598 -0.004368 -0.002250 -0.001767 -0.021975 -0.002409 -0.005428 -0.005010 -0.002003 -0.020537 0.000122 -0.003377 -0.007455 0.002090 -0.002235 -0.005685 -0.007260 -0.001819 -0.004922 0.000341 -0.002393 0.000448 -0.006425
-0.000263 -0.004977 0.000668 0.000934 -0.000997 -0.001264 -0.002554 -0.001789 0.000075 -0.000525 -0.000259 -0.004456 0.000224 -0.000134 -0.000572 -0.001751 -0.003717 -0.001661 -0.003021 0.000742 -0.000282 -0.000508 -0.002063 -0.003383 0.004029 -0.000314 -0.001942 -0.001429 -0.003087 -0.005396 -0.001981 -0.002929 -0.003524 0.000633 -0.000761 -0.002637 -0.005283 0.001233 -0.000843 -0.012351 -0.005495 -0.000197 -0.003651 -0.001821 -0.000711 0.000301 -0.001080 -0.002971 -0.003258 -0.003210 -0.003666 -0.005967 -0.006972 -0.000979 0.000366 -0.000043 -0.003212 -0.002871 -0.002143 -0.001195 -0.001218 -0.001208 0.002864 -0.002501 -0.007276 -0.002705 -0.000463 -0.000462 -0.001321 -0.003106 -0.001251 0.001084 -0.002599 0.000694 0.000245 -0.001329 -0.002484 -0.001005 -0.001263 -0.003037 0.002044 0.000049 -0.000446 -0.003026 0.002965 -0.006742 -0.000558 0.002101 0.000825 -0.002305 0.000790 -0.001555 -0.000354 -0.001010 -0.004968 -0.000589 0.001288 -0.002546 -0.001290 -0.000894 0.000729 -0.002513 -0.004695 -0.001998 -0.002086 0.000701 -0.000478 -0.001749 -0.000727 -0.002359 0.001140 -0.004498 -0.001020 -0.009250 -0.001757 -0.001646 -0.000784 -0.002148 -0.005592 -0.001466 -0.000188 -0.001895 -0.000611 0.002067 0.002740 -0.004274 -0.001767 -0.001042 -0.002152 -0.004603 0.000728 -0.002360 -0.004611 -0.001324 0.001116 -0.000891 0.000600 0.002658 -0.001857 -0.001805 -0.000487 -0.002091 -0.000042 -0.000879 -0.001295 -0.002102 -0.000487 -0.001585 0.000393 0.002829 -0.002247 -0.002894 -0.001128 -0.001820 -0.003307 0.002862 0.000757 0.000205 -0.002023 -0.000508 -0.000464 0.000708 0.000706 -0.006975 -0.001165 0.000304 -0.000599 -0.000994 0.002832 -0.003967 -0.000421 -0.000533 -0.000981 -0.001810 0.001535 -0.003404 -0.001358 -0.001167 0.001680 -0.001708 -0.002253 -0.001851 -0.003655 -0.000206 -0.002632 -0.002028 -0.002017 -0.000789 -0.000660 -0.002237 -0.001758 -0.000485 -0.000274 -0.002585 0.001585 -0.000249 -0.001072 -0.001631 -0.002830 -0.000034 -0.001878 -0.002080 -0.000488 -0.000381 -0.001890 -0.001600 -0.001106 0.000581 -0.003063 0.000428 -0.004295 -0.000959 0.001524 -0.000751 0.001676 0.000860 -0.002640 -0.001047 -0.002182 -0.006369 -0.002997 0.003254 0.000436 -0.002248 0.003092 -0.003481 -0.003964 -0.003069 -0.000320 -0.002447 -0.005055 -0.000608 -0.000662 0.002762 -0.000654 -0.002701 0.001735 -0.007359 -0.002206 -0.002683 0.000169 0.000294 -0.002718 0.000450 0.000279 -0.004394 -0.000371 -0.002552 -0.001815 -0.001625 0.000053 0.000260 0.002028 -0.001497 0.001601 -0.000538
-0.001234 0.000002 0.000233 -0.002491 -0.002735 -0.001078 -0.002191 0.000211 -0.001923 -0.002485 0.000039 -0.000987 0.000406 0.001855 -0.002788 -0.000925 -0.000613 0.002642 -0.000113 -0.001409 -0.001022 -0.000018 0.002017 -0.003042 -0.002056 0.001446 -0.001613 -0.000664 0.001501 -0.002158 -0.000425 -0.000709 -0.001790 0.001030 -0.002046 -0.002243 -0.001379 -0.002557 -0.001685 -0.003067 -0.002047 -0.002289 -0.002594 -0.000614 -0.000002 -0.002626 -0.002385 -0.007016 -0.001452 -0.001224 -0.000199 -0.000085 -0.001414 -0.000691 -0.001329 -0.002364 -0.002443 -0.001525 0.000935 -0.000839 0.000966 -0.001560 0.001476 -0.000598 -0.002879 -0.000250 -0.003012 -0.000901 -0.002923 -0.002425 0.003123 -0.002535 0.002354 -0.000695 0.001945 -0.001819 -0.002654 -0.000224 -0.002321 -0.002939 -0.002629 0.000344 0.002671 -0.000365 -0.000900 -0.005095 -0.002877 -0.000705 -0.002730 -0.001322 -0.002092 0.002879 -0.002493 -0.000232 -0.002346 -0.002554 -0.002851 -0.002762 -0.000252 -0.001392 -0.002421 -0.000921 -0.002942 0.001906 -0.000084 0.000010 -0.002808 -0.002642 0.000040 -0.001000 -0.002123 -0.000156 -0.001340 0.000051 -0.000162 0.001576 -0.002540 -0.001389 -0.001669 -0.002298 -0.001360 -0.003020 0.000012 -0.002710 -0.000514 0.000962 0.000767 -0.001447 -0.001382 0.000387 0.001910 0.003005 -0.001005 -0.002066 -0.000014 -0.002977 -0.000243 -0.003067 -0.003001 -0.002291 -0.001626 -0.001348 0.000007 -0.002729 -0.003866 0.002222 0.000559 -0.002890 -0.001003 -0.002978 -0.000267 -0.002127 -0.000239 -0.000388 -0.001527 -0.002728 -0.001244 -0.003056 -0.000858 -0.006812 -0.001387 -0.001915 -0.002086 -0.000223 -0.001904 -0.000557 -0.009172 -0.001346 -0.002286 -0.001517 -0.000251 -0.000266 -0.001866 -0.000266 -0.000810 -0.001196 -0.001138 -0.000462 -0.000294 0.001398 -0.001332 -0.002404 -0.002752 -0.000740 -0.008791 -0.002501 -0.001328 -0.000010 -0.002849 -0.002208 -0.001997 -0.001414 -0.001088 -0.000408 -0.004070 -0.002715 -0.001273 0.000002 -0.002826 -0.001963 0.001778 -0.000774 -0.001892 -0.001893 -0.001101 0.000908 -0.000889 0.002741 -0.000332 -0.000239 -0.008311 -0.001170 -0.000458 -0.002639 -0.002025 -0.000038 -0.001394 -0.002245 0.000002 -0.002859 -0.000576 -0.002114 -0.002665 -0.001502 0.002234 -0.006826 -0.001804 -0.000334 -0.000032 -0.002636 -0.002646 -0.001976 -0.002333 -0.001251 -0.000188 -0.000741 -0.002474 -0.010824 -0.000396 -0.002036 -0.001066 -0.001295 -0.008503 -0.002368 -0.000447 -0.001593 -0.001577 -0.000797 -0.000373 -0.003114 -0.000049 -0.001657 0.000000 -0.002403 0.002299 0.001688
0.005247 -0.031294 -0.001240 0.000840 -0.003146 0.000615 -0.001611 -0.000629 -0.003037 0.013826 -0.001428 -0.017590 -0.000939 -0.024382 0.003474 -0.003078 -0.001263 0.001220 -0.008939 -0.000824 0.000561 -0.027531 -0.001205 0.017189 -0.002811 -0.001461 0.022816 -0.018116 -0.000221 0.006084 0.000439 -0.010188 0.006148 -0.008690 -0.001411 0.019181 -0.000993 -0.000875 0.000151 -0.002546 0.016336 0.006232 -0.001274 -0.015665 0.000502 0.002239 -0.002774 -0.017466 -0.010450 -0.005903 -0.008658 0.004734 -0.005683 -0.000736 -0.015832 -0.000910 -0.001754 -0.019847 0.000392 -0.014469 -0.000383 -0.006962 0.001335 -0.012479 -0.000965 0.000619 -0.020521 0.000134 0.000761 -0.001457 0.000791 -0.000837 0.000369 -0.008427 -0.001603 0.001255 -0.035214 -0.012475 -0.000784 -0.000944 -0.001200 0.000122 0.002193 -0.000484 -0.000006 -0.007686 -0.002581 0.000106 -0.002407 0.000547 -0.023493 -0.000545 0.001223 -0.006496 0.003789 -0.000398 0.005862 -0.006797 -0.010082 -0.001369 -0.006499 -0.000293 -0.001178 0.000074 0.000173 -0.005228 -0.004952 -0.000783 0.000176 -0.000385 -0.010910 0.000277 -0.001361 -0.002628 -0.003324 -0.004832 -0.039094 -0.007262 0.000116 -0.001131 -0.027368 -0.049845 -0.002667 -0.000728 -0.001196 -0.004062 -0.005111 -0.013411 0.000215 -0.005259 -0.016722 -0.000429 -0.005994 -0.010840 -0.002746 -0.004038 0.001192 -0.003381 -0.003611 -0.009201 0.000054 -0.001084 0.002840 -0.009133 -0.006904 -0.005689 -0.000342 0.000964 0.001446 -0.002172 0.001574 -0.013258 0.001028 -0.000668 -0.022620 0.001543 -0.002278 -0.000652 -0.002453 -0.008430 0.000277 0.001492 -0.001555 -0.035370 -0.011483 -0.000419 -0.004174 -0.012210 0.000845 -0.002517 -0.023412 -0.009552 -0.001221 -0.000496 0.010542 -0.000316 0.000228 -0.006982 -0.000618 -0.001006 -0.001078 -0.008562 -0.008311 -0.001216 -0.009213 -0.000977 -0.024960 -0.020176 -0.000680 -0.031342 -0.021583 -0.000260 0.000065 -0.000096 0.009915 -0.016698 0.001093 -0.001428 -0.003093 0.001459 -0.001938 -0.000017 0.001385 -0.001007 -0.001143 0.000500 0.014020 -0.004322 -0.001462 -0.000488 -0.010840 -0.001311 -0.010535 -0.002322 0.008611 -0.002024 0.000000 0.005312 -0.001339 0.000291 0.000572 0.007614 0.000321 -0.009964 -0.000569 -0.002003 -0.020925 0.000539 -0.003637 0.019952 0.013080 -0.003225 -0.001054 0.007586 -0.002625 -0.023264 -0.000086 -0.022451 0.002182 -0.027218 0.003845 0.000989 -0.033917 -0.000503 0.017013 -0.058813 -0.019527 0.000113 -0.016229 0.003294 -0.001405 0.002060 -0.001163 -0.001571 0.010284 -0.012083
0.002247 -0.037455 0.001105 -0.005839 -0.012739 -0.000514 0.003416 0.000733 0.024586 -0.015749 -0.000613 -0.004834 -0.001742 0.007339 -0.005404 -0.006632 -0.002688 -0.000668 -0.014000 -0.010060 -0.001697 -0.024593 0.000009 0.000625 -0.006551 -0.000037 -0.052585 -0.071237 0.000786 -0.016992 -0.002077 -0.008803 -0.036240 0.019257 -0.013020 0.006128 -0.006967 -0.003447 -0.001637 0.009066 -0.023529 -0.003229 0.004577 -0.017840 -0.001508 0.003800 -0.016978 -0.041705 -0.055971 0.027359 -0.005437 -0.006483 -0.021820 -0.002047 -0.047262 -0.002680 -0.036196 -0.008179 0.000295 0.000175 0.041521 -0.048797 0.000953 -0.028674 -0.038700 -0.000149 0.002059 -0.001780 -0.001930 -0.001761 0.046960 0.030322 -0.001415 -0.004352 -0.002170 -0.017365 -0.082013 -0.013605 -0.002510 -0.000502 -0.001391 0.017535 -0.001205 -0.000068 -0.000252 -0.013235 -0.000994 -0.000979 0.002797 -0.004456 -0.077494 -0.002280 -0.001193 -0.057055 0.001217 -0.005349 0.011400 -0.065259 0.003713 -0.000385 0.002509 0.024437 -0.008436 -0.000448 -0.002168 -0.009438 -0.001239 -0.000574 -0.000315 -0.001430 0.006546 -0.003117 -0.018911 0.001693 -0.001970 -0.014046 -0.010665 -0.021571 -0.000251 -0.005345 -0.000069 -0.009124 -0.021575 -0.002887 0.024161 0.008023 -0.023242 -0.026096 -0.001834 -0.010086 0.015770 -0.002283 -0.051642 0.007224 -0.007706 -0.004438 -0.001099 0.009400 0.006849 -0.009644 -0.000116 -0.002564 -0.005670 0.005990 0.018152 -0.012413 -0.004267 -0.050473 -0.002041 0.019643 -0.000099 -0.037267 -0.002490 -0.000562 -0.006108 0.000816 0.011284 -0.002083 -0.007083 -0.025826 -0.000544 0.005201 0.001929 -0.008026 -0.003179 -0.012590 -0.014843 -0.029464 -0.002932 -0.023591 -0.005269 -0.028433 -0.053999 -0.000642 -0.006213 0.019621 -0.000379 -0.011734 -0.002700 0.001251 -0.001986 -0.006868 -0.112368 -0.002736 0.000893 -0.000404 -0.038091 -0.019127 -0.001580 -0.005160 -0.051374 -0.001959 -0.007236 -0.014187 0.020433 -0.009549 -0.003007 -0.000285 -0.038279 -0.000043 0.024385 -0.001260 0.001498 -0.000005 -0.003050 -0.001261 -0.009157 0.025368 -0.000757 -0.020278 -0.005579 -0.002744 0.005658 0.019958 -0.018579 -0.027442 -0.001182 -0.006677 -0.001385 -0.001396 0.001073 0.003219 -0.000317 -0.063413 -0.000559 -0.006083 -0.029890 -0.003086 0.011956 -0.007317 -0.006466 0.038051 -0.001742 -0.025244 -0.002720 0.007568 -0.000542 -0.043399 -0.003720 -0.024710 -0.000465 0.000704 -0.030399 0.000489 -0.008717 -0.019465 -0.021677 -0.010316 -0.023722 -0.008651 -0.001433 -0.004128 -0.000717 -0.001374 0.019651 -0.025267
-0.005833 -0.005253 -0.000935 -0.031634 -0.002611 0.002447 0.000500 0.000111 -0.037856 -0.000629 0.000133 0.000435 -0.000352 0.000483 0.000844 0.011835 0.002563 0.000048 -0.005128 -0.002265 0.000429 -0.030793 0.000577 -0.011055 -0.003863 0.000274 0.016763 -0.015459 0.003024 -0.030233 -0.001559 -0.009552 -0.027626 0.010309 0.017012 0.011344 -0.012874 -0.002537 0.002462 0.023689 -0.006594 -0.003449 0.003324 -0.018753 0.000169 -0.005279 -0.009778 -0.009810 -0.020338 -0.034472 -0.022039 -0.003135 -0.042615 0.001268 -0.014056 0.002509 -0.015758 -0.040728 0.000570 0.004327 0.014867 -0.014439 -0.001386 -0.007724 -0.032414 0.000950 -0.007203 -0.000008 0.002293 0.002580 -0.050150 -0.000670 0.003059 0.007443 -0.001251 0.009112 -0.060364 -0.027689 -0.000158 0.000632 0.001002 -0.014721 -0.001609 0.000061 0.001691 -0.043261 -0.000619 -0.000238 -0.009710 0.016506 -0.026638 -0.000468 0.001370 0.005334 -0.020104 0.000518 -0.007738 -0.051407 -0.002900 0.000315 -0.003141 -0.003052 -0.002021 0.002821 0.000112 -0.002658 0.005392 0.001781 0.002486 0.002546 -0.017843 -0.025229 -0.033490 -0.000848 -0.001751 -0.022790 0.009677 -0.000758 0.001872 -0.011989 0.029346 -0.013623 0.007676 -0.002458 -0.000546 0.000127 0.003982 -0.008737 0.003472 -0.002772 -0.002841 -0.003271 0.005666 0.023608 -0.017587 -0.000363 0.001363 -0.000254 -0.003593 0.007541 0.000202 0.000717 -0.006536 -0.002253 0.003165 -0.038561 -0.009766 -0.065256 -0.001979 -0.008615 0.000317 -0.003326 0.001096 0.000271 0.008743 -0.001639 -0.023571 0.000734 0.037271 0.006117 0.002326 -0.014602 0.000921 -0.013920 -0.002641 0.004009 0.000181 -0.007595 -0.000908 -0.024266 -0.001032 0.036378 -0.003907 0.002891 0.019785 -0.002626 0.001141 0.000252 0.000921 -0.000449 0.001426 -0.048050 -0.028687 0.002257 -0.039849 0.000315 -0.010231 -0.020746 0.003135 -0.058717 -0.019830 0.002726 -0.006269 0.002838 -0.003949 -0.009205 -0.000380 0.001351 -0.017370 0.000272 0.017374 -0.001744 0.022248 -0.000998 -0.001105 -0.000269 -0.021866 -0.002336 -0.009022 -0.024606 -0.058530 0.000248 -0.047406 -0.002278 -0.003624 -0.009748 0.001512 -0.000413 0.001610 -0.016431 0.002297 0.000170 -0.002217 -0.024789 -0.002308 -0.043307 -0.036348 0.002352 -0.004302 -0.000207 -0.003037 -0.006362 0.003123 -0.036280 -0.001905 -0.018910 -0.002250 -0.088569 0.001447 0.004056 0.022787 -0.002591 -0.064045 0.001571 -0.055351 -0.017825 0.009091 -0.001020 0.000319 -0.009064 -0.002047 0.017559 0.000535 0.000381 0.023823 0.006589
0.264070 -0.108094 0.001969 -0.734923 -0.010169 0.001601 -0.009495 -0.002633 0.615721 -0.226964 0.001671 -0.020847 -0.003351 -0.318883 0.005820 -0.004423 -0.000099 0.000033 -0.694433 0.001444 0.004065 0.341210 0.002020 -0.034301 -0.010129 -0.000657 -0.808134 -0.666194 -0.000863 -0.357551 0.002108 -0.044639 -0.272464 -0.912017 0.001036 -0.223676 -0.026446 -0.000810 0.000631 -0.007334 0.012296 0.001905 0.012844 -0.744641 -0.002224 0.003315 -0.086061 -0.319560 -0.728949 0.287364 -0.003555 -0.000418 -0.327684 0.003083 0.650392 0.001106 -0.447574 -0.283026 0.000037 0.135672 0.015119 0.034169 0.002327 0.086245 0.014741 0.002071 0.009230 -0.019663 -0.000116 0.000512 -0.226654 -0.009539 0.000178 0.020426 0.000852 -0.018291 -0.157201 0.333200 -0.000949 0.001906 -0.001633 0.430639 -0.000178 0.002683 -0.000928 0.208197 0.003161 0.002984 0.008401 -0.000682 0.171645 0.000976 0.001604 -0.009319 -0.027570 0.000988 0.021073 -0.337021 0.134422 0.000935 -0.000360 -0.013196 0.317314 -0.000527 0.000732 -0.146046 -0.007923 0.001211 0.002730 0.001401 -0.021609 0.412423 0.058072 -0.000089 -0.039304 0.171046 0.159357 0.009431 0.002647 0.003962 -0.251844 -0.316959 -0.256744 0.001755 -0.014343 -0.013626 -0.013670 -0.012435 0.000949 -0.226431 0.452388 0.004415 0.259829 -0.106114 -0.198690 0.002924 0.001326 0.304601 0.011757 0.454133 0.000939 0.001610 0.007647 0.002006 0.437371 0.462600 -0.022950 0.460522 0.002677 -0.085057 0.000103 0.640987 0.003174 0.002104 -0.898064 0.001661 0.027147 -0.002741 -0.044778 -0.336437 0.002822 0.114053 0.003550 -0.066350 0.001345 0.013489 -0.020943 -0.381204 0.000192 0.318334 -0.034360 -0.146722 0.410666 -0.000595 0.011695 -0.017816 0.000811 0.007612 0.001840 0.000016 0.001353 0.547361 -0.721134 0.001641 0.125470 0.000349 0.423036 0.436888 -0.002114 -0.717825 -0.069377 0.001570 -0.026404 0.006422 -0.523682 -0.465667 0.000383 -0.005291 -0.423111 0.000053 -0.519643 0.003074 -0.016613 -0.002256 0.000379 -0.001024 -0.018964 0.775009 -0.024433 -0.456741 -0.091753 0.002955 0.185584 0.302227 -0.398829 -0.025275 0.000034 -0.036348 0.001412 -0.005512 -0.009191 0.005299 -0.002117 -0.295693 0.000208 0.484116 -0.063797 0.000265 -0.000600 -0.003725 0.321336 -0.005351 -0.001314 -0.452255 -0.004988 0.058611 0.002203 -0.113900 -0.002561 0.167853 -0.795141 -0.001218 0.275847 0.002417 -0.091523 -0.334947 -0.287742 -0.039247 -0.078866 0.186208 -0.001917 -0.017576 -0.000812 -0.002751 0.209451 -0.467531
0.641662 -0.216616 -0.002587 0.382139 -0.009815 -0.002312 -0.000591 0.001605 0.047545 -0.152967 -0.001658 -0.055716 0.000766 0.083996 0.002356 0.059628 -0.001225 0.001878 -0.121654 0.001463 -0.001813 -0.022628 0.000604 -0.003784 -0.003075 0.000302 0.159227 -0.811893 0.000264 0.141772 0.001889 -0.054855 0.433607 0.357399 -0.008912 -0.158459 0.011917 0.004273 -0.002777 0.008231 0.011941 -0.000776 0.020502 0.129304 -0.001442 0.002699 0.311962 -0.515800 0.616560 0.061798 -0.023032 -0.004294 0.013993 0.001680 0.118788 0.000782 0.063458 -0.087429 0.002951 0.056519 -0.022625 0.034014 0.000868 -0.140488 -0.008706 0.003099 0.011103 0.082678 -0.000143 0.001963 0.289076 -0.003735 0.002189 -0.009654 -0.001560 0.219451 -0.000601 -0.083166 -0.000892 0.003059 -0.000355 0.019777 -0.002264 0.001450 0.000154 0.150249 0.001727 -0.001686 -0.006158 0.001896 -0.042669 0.001248 -0.000013 -0.008545 -0.013206 -0.002396 0.048980 0.121594 -0.003486 0.002578 -0.002160 0.029519 -0.185257 -0.002372 0.001914 0.290764 -0.004672 0.001835 0.000461 0.000127 -0.003269 0.158398 -0.288542 -0.001278 0.000164 0.380986 -0.122939 -0.009009 0.001715 0.001275 -0.092858 -0.291413 0.116078 0.000387 -0.007935 -0.002223 -0.005885 0.022455 -0.000583 0.033427 -0.187554 0.002815 0.056975 0.394772 -0.121913 -0.004469 0.000846 0.166803 0.010668 -0.292321 0.002441 -0.003314 0.011345 -0.000411 0.146927 0.038020 -0.002917 0.202762 0.011783 0.038669 0.000559 0.074701 0.003038 0.000922 0.287166 0.000532 0.002617 -0.000446 -0.138668 0.120990 -0.001133 -0.012452 0.000521 0.005659 -0.002252 -0.001193 0.007906 -0.039293 0.003123 -0.190553 0.040607 0.403041 0.178029 -0.002076 -0.007189 0.000969 0.001693 -0.018411 -0.001189 -0.000080 0.000526 -0.244534 -0.193876 0.001315 0.118933 0.001436 -0.096786 0.193753 0.000263 0.332796 -0.346381 0.003120 0.008606 -0.000767 0.172450 -0.053327 -0.000887 -0.002331 0.107918 0.002046 -0.028386 -0.001139 -0.000993 0.000782 0.000432 0.000446 0.027166 0.286275 0.010992 0.380511 -0.011523 -0.001491 -0.101141 -0.071456 -0.011080 -0.003349 0.001773 -0.014647 0.002509 0.001285 0.006544 -0.012401 -0.001060 0.229514 0.001451 0.361451 0.585307 0.002866 0.002012 -0.000399 0.110210 -0.067176 -0.002628 0.200162 -0.003708 0.205846 -0.000418 -0.353152 -0.002029 -0.004030 -0.199872 -0.001032 0.045447 0.002085 0.458799 -0.138823 0.127792 0.066755 -0.172372 -0.498311 -0.001531 0.010235 -0.002600 -0.003387 -0.263257 0.217044
0.039586 -0.084738 0.001161 -0.015391 -0.001404 -0.000970 0.000509 -0.000254 -0.011163 -0.019842 -0.000401 0.043497 0.000515 -0.134893 0.001823 -0.002475 0.001644 -0.001140 -0.041036 0.000952 -0.000660 -0.002995 -0.000969 -0.007431 -0.005746 0.001130 -0.018082 -0.124603 0.000282 0.091475 0.000500 0.007077 -0.011124 -0.066917 -0.010360 -0.072590 -0.001615 0.000971 0.000583 0.115463 -0.010811 -0.002787 0.002031 -0.023449 0.001246 0.003242 0.001120 0.010281 -0.091281 -0.025198 -0.001901 -0.004931 -0.099265 -0.002949 0.003509 -0.001855 -0.097736 -0.047914 0.000657 -0.003090 -0.015577 -0.078467 0.000910 -0.084854 0.107571 0.001011 -0.001385 0.038016 -0.002432 -0.001056 0.000944 0.000131 -0.001423 -0.001183 -0.001070 0.025166 -0.201873 0.120048 -0.001213 0.000881 -0.001869 -0.041768 -0.001438 -0.001259 -0.003074 -0.136760 0.000245 -0.000843 0.001503 0.002263 0.055232 0.001472 0.002762 -0.003208 -0.002084 0.000178 -0.017337 -0.017094 -0.000305 -0.000845 0.000426 0.041853 0.261186 -0.000330 0.000757 0.007901 0.000308 -0.002414 -0.001852 0.001870 -0.004227 -0.002381 -0.031365 -0.023120 -0.000182 0.129432 -0.052535 -0.002731 -0.000184 -0.000637 -0.114638 -0.135067 -0.015063 -0.000046 0.000339 -0.002976 -0.004121 0.009629 0.000869 -0.031211 -0.073320 -0.000727 -0.213053 0.001288 0.010383 -0.000458 -0.001198 -0.025796 0.000773 0.004134 0.000782 0.001849 0.000703 0.002193 -0.133902 -0.086327 -0.000412 -0.028740 -0.002645 0.065742 -0.001039 -0.042788 0.000841 -0.000385 0.016884 0.000837 -0.000432 0.001663 -0.126694 -0.094122 -0.002065 0.020473 -0.003084 -0.037940 -0.000614 -0.001470 -0.004853 0.034005 0.001399 -0.180912 -0.002570 0.022673 0.141709 -0.002077 -0.003204 -0.001041 -0.000727 -0.006644 -0.003251 0.002355 -0.000297 -0.048730 -0.190010 0.002823 -0.000083 0.000449 -0.141701 0.172394 -0.002203 -0.097797 0.065200 -0.002928 -0.000397 -0.002043 -0.148195 -0.217226 0.000920 -0.000840 -0.252320 0.000005 -0.041083 0.001666 -0.001342 0.000043 0.000783 -0.000416 0.004732 0.072956 -0.001724 -0.039055 -0.021112 0.000155 -0.099108 0.002738 0.094938 0.034601 0.000373 -0.001783 -0.000396 0.000364 -0.000307 0.001716 -0.002128 -0.062710 -0.002087 0.132115 0.034599 0.001963 -0.000697 -0.002768 0.033581 0.021840 -0.000805 -0.084231 0.002554 -0.000472 0.000029 -0.454673 0.000188 -0.066473 -0.153992 -0.001451 -0.091719 0.000973 0.016619 -0.145359 -0.244150 -0.001822 -0.027571 -0.171560 -0.000402 -0.003549 0.001354 -0.002476 0.000340 0.060714
0.020037 -0.026580 -0.001046 0.002025 -0.003447 -0.000475 -0.002502 0.002357 0.000552 -0.010577 -0.002702 -0.029542 0.001337 0.003109 -0.002268 -0.026617 -0.001025 0.002426 -0.000178 -0.000981 -0.002976 -0.033214 0.001520 -0.007067 0.007517 -0.000386 -0.012674 -0.039267 -0.000986 -0.006677 -0.000139 -0.005621 0.023379 -0.000284 0.002205 0.005838 0.011899 0.011424 0.000183 -0.026399 -0.011816 0.001431 0.009844 0.020791 0.000538 0.019928 -0.019222 -0.009118 0.000830 -0.012931 -0.012071 -0.001217 -0.024619 0.002743 0.004932 -0.002842 -0.006179 0.032500 0.000469 -0.020868 0.021927 -0.022888 -0.000140 -0.017763 -0.018825 -0.001052 -0.001158 0.002428 -0.001171 0.000335 -0.022598 0.024745 -0.000393 -0.010253 -0.000581 0.003047 -0.058425 0.018778 -0.002329 0.001282 -0.001279 0.011592 -0.001174 0.001352 -0.001308 -0.039955 0.001141 -0.000016 0.003338 -0.006120 -0.018749 -0.000608 -0.001700 0.014091 0.019047 -0.002775 -0.006221 -0.006165 0.011901 -0.000460 -0.005227 -0.003015 -0.011006 -0.000295 -0.000388 0.013046 0.000845 -0.000171 -0.000856 -0.002060 0.025136 0.014302 0.008965 -0.002971 0.024394 0.010944 0.003300 -0.010839 -0.000518 -0.001010 -0.006139 -0.018296 -0.010270 -0.000541 0.003116 -0.004081 -0.010008 -0.001919 -0.002369 -0.017398 -0.015368 -0.000766 -0.020888 -0.014125 -0.048396 0.017972 -0.000546 -0.007709 0.015316 -0.001495 -0.002504 0.002554 -0.002751 -0.002027 -0.000325 0.023934 -0.020150 -0.026675 0.000228 -0.026916 -0.000142 -0.024614 -0.001782 -0.001949 -0.001858 -0.000482 -0.001124 -0.002897 -0.001213 -0.048926 0.002254 0.005028 -0.001301 -0.047655 -0.007353 -0.006646 -0.002075 0.016283 -0.000349 -0.042777 -0.001613 0.008223 -0.005353 -0.000985 -0.004600 -0.006720 -0.001405 0.009677 0.001140 -0.000614 -0.000641 -0.006168 -0.073028 -0.002056 -0.022205 -0.000613 -0.021979 -0.010978 -0.002534 -0.021414 0.004485 0.001961 0.000997 0.007353 -0.037668 -0.016705 -0.002380 -0.000853 -0.030308 -0.002476 0.012982 -0.002147 0.006027 0.000776 -0.000590 -0.001712 -0.005483 -0.010394 0.003107 -0.009103 -0.031736 -0.001940 -0.016266 -0.011073 -0.003045 -0.010640 0.000485 -0.004699 -0.001481 -0.010229 -0.005102 0.005419 -0.002903 0.002372 -0.000511 -0.034294 -0.021715 -0.000905 -0.006815 0.002420 -0.001579 -0.009337 -0.002130 -0.012681 0.000367 0.005940 0.000441 -0.074391 -0.001413 -0.032069 0.009848 0.001062 -0.033023 -0.000539 -0.022812 -0.049537 -0.033959 0.012248 -0.028504 -0.024364 0.001522 0.003299 -0.002866 -0.000515 0.000585 -0.013644
-0.233675 0.036275 0.000398 0.428627 -0.004527 0.000213 -0.001266 -0.002280 -0.480576 0.382812 0.002692 -0.025553 -0.001729 -0.003849 -0.000794 -0.015363 -0.000663 -0.002477 0.241948 -0.001610 0.001792 -0.625421 0.001016 0.033897 -0.003997 -0.001508 -0.157631 -0.081763 -0.000689 -0.011142 0.000076 -0.054051 -0.010186 0.095256 -0.000454 -0.031837 0.009693 -0.000334 0.001890 0.035475 -0.009878 0.007110 0.002976 0.110731 0.001900 -0.008025 0.164137 0.242942 -0.580110 -0.248026 -0.009676 -0.005233 0.188183 -0.001648 -0.039121 -0.002041 -0.414294 0.322977 0.000019 -0.137564 0.024267 0.163555 0.000775 -0.844394 -0.063897 -0.000273 -0.009727 0.001724 0.000380 -0.000410 0.236333 -0.013892 0.001083 -0.027514 -0.001982 -0.033657 -0.105174 0.046780 0.000881 -0.001346 -0.000034 0.158106 0.000429 -0.000981 -0.002137 -0.023490 -0.000093 0.002026 0.001501 0.009497 -0.532446 -0.002063 -0.000076 0.007181 -0.011023 0.001191 0.018175 -0.436523 0.012023 -0.000833 0.006671 -0.018312 0.389696 -0.001002 -0.002710 0.016270 -0.000481 0.001211 -0.001092 0.002957 -0.001838 0.012911 0.236643 0.033921 0.000865 -0.686396 -0.229264 -0.004651 0.000966 0.003100 0.206057 -0.057076 0.328536 -0.002786 0.007471 0.006155 0.006945 0.032225 -0.004251 -0.230187 0.000256 0.003187 -0.344465 -0.144671 -0.097977 0.007448 -0.000898 0.239311 -0.006326 -0.201680 -0.002332 0.002735 -0.001584 -0.006294 0.482493 -0.027888 -0.022856 -0.431378 -0.001740 0.035067 -0.000521 0.128983 0.001040 -0.002481 0.001811 -0.001214 0.004212 -0.001678 -0.121356 -0.005174 0.000006 0.100390 -0.000664 -0.196377 0.000367 0.052702 -0.079906 -0.237659 -0.002166 -0.796563 0.014418 0.189750 -0.270207 -0.003788 -0.004248 -0.008823 0.001334 0.013478 0.001020 0.001427 -0.001534 -0.074268 0.156595 -0.000849 0.190268 -0.000061 -0.219830 -0.307405 0.000313 0.209605 0.069536 0.002104 -0.027841 -0.005413 0.054159 0.082274 0.001512 0.003564 0.306563 -0.000357 0.182875 0.000958 0.009404 -0.001689 -0.003480 0.001611 -0.021346 -0.200890 0.015900 -0.059264 -0.110509 0.000228 0.300603 0.568719 0.261325 -0.008453 -0.001696 0.024093 -0.002241 -0.010800 0.009879 -0.012336 0.000949 0.282916 0.000723 -0.542599 0.166487 -0.002690 0.002762 0.008563 -0.554745 0.092543 0.005289 -0.030687 -0.004305 0.408320 0.001738 -0.445703 0.002345 -0.257103 0.039105 0.001776 -0.057170 -0.000078 0.105955 -0.397539 -0.122168 0.024576 0.079795 0.444948 -0.000422 0.016084 0.000415 0.002448 -0.369329 -0.242718
0.030000 -0.151071 -0.000932 -0.039482 -0.009363 -0.005061 0.004797 0.001368 0.090876 0.000127 -0.002138 0.052572 -0.000015 0.062294 -0.002010 0.051662 0.001215 -0.001366 -0.127210 0.004241 -0.000901 -0.137255 0.001962 -0.012336 0.002904 0.001205 -0.024597 -0.088108 -0.000646 0.125208 0.002212 -0.028574 -0.074404 0.065595 -0.008775 -0.109309 -0.008962 -0.000127 -0.001053 0.014371 -0.010339 0.001528 0.005806 -0.089984 0.002251 -0.008561 -0.008635 -0.077316 -0.068199 -0.101999 -0.005645 -0.002480 0.060491 -0.001285 0.142885 0.002713 0.038358 0.068969 0.001040 0.108624 -0.009936 0.003286 -0.001486 -0.073612 -0.065506 -0.002746 -0.002045 -0.002433 0.001276 0.000546 0.002081 0.000060 0.001300 -0.006527 -0.002066 -0.038545 -0.086960 0.012809 -0.000760 -0.000803 0.002305 -0.013448 -0.001286 0.001472 -0.002788 0.071344 0.004663 -0.001024 -0.006118 -0.000941 -0.018029 0.000783 -0.000291 -0.002777 -0.006326 -0.003592 0.029279 -0.152701 -0.005642 0.000142 0.002179 0.018458 0.181957 -0.001437 0.001129 0.146755 -0.007715 -0.000595 -0.000226 0.000342 0.004004 -0.034005 0.262459 -0.019162 0.004552 0.129848 -0.007715 -0.006728 -0.001967 0.000891 0.040506 -0.090887 -0.064603 -0.000322 0.036827 -0.014927 -0.007979 -0.007849 0.002324 0.083688 0.002433 -0.001476 -0.148311 -0.203838 -0.031920 0.001241 -0.000843 0.076999 0.003871 0.007998 -0.001150 -0.000598 -0.000967 -0.001443 0.011840 0.017306 -0.008827 -0.166861 -0.021808 -0.016984 0.002332 0.098780 0.000602 -0.001471 -0.019155 0.001145 0.000738 -0.002605 -0.011050 -0.094319 -0.002198 0.002880 -0.002706 -0.039797 -0.004227 0.052037 0.007898 0.032315 -0.001153 -0.102126 0.002187 -0.104425 -0.096876 0.005445 -0.003254 -0.012174 -0.000298 -0.009217 -0.001218 0.001292 -0.000481 -0.047014 -0.164168 -0.001472 0.115598 -0.001077 -0.031571 -0.048724 -0.001452 0.119961 0.001951 -0.000478 -0.005202 -0.000481 -0.054417 0.064285 0.000644 -0.000924 -0.025850 -0.000749 0.042442 -0.002035 -0.000958 -0.002065 -0.002250 0.000321 -0.025524 0.042884 -0.011984 0.009627 -0.090241 0.001959 0.089203 0.000163 0.053043 0.000534 0.001192 -0.004414 0.011127 -0.003063 -0.000215 0.002992 -0.001166 -0.059032 -0.002058 -0.056545 -0.125914 0.001336 0.002358 -0.002472 0.122099 0.044765 -0.001295 -0.135480 -0.005190 0.063903 -0.001149 -0.222407 -0.001666 0.035918 0.023805 0.001148 0.000154 0.000139 -0.018230 -0.156887 -0.154215 -0.036238 -0.015445 -0.032150 -0.000074 -0.010942 0.001931 0.000013 -0.003062 0.167916
0.188777 -0.024004 -0.001547 0.160376 0.015961 0.003115 -0.001499 -0.001574 0.058214 0.304293 -0.000386 0.233909 0.000821 0.163014 0.009300 0.008317 -0.000847 0.000406 -0.187055 -0.001539 -0.004020 0.081848 0.000774 0.003041 0.001936 -0.000508 0.259603 0.117828 -0.001420 0.393605 -0.000487 -0.011869 -0.065160 0.086332 0.005045 0.339675 0.002016 -0.004363 -0.000250 -0.116066 -0.022815 -0.000102 0.010264 0.316770 0.000490 -0.006445 0.004744 0.119389 0.049219 0.145688 -0.017362 0.004894 0.359434 0.011439 0.021862 -0.000656 -0.180382 0.092623 0.001460 0.016304 0.212295 -0.071167 0.001570 -0.034524 0.318863 -0.001498 -0.001562 -0.033224 -0.000919 0.001491 0.166494 -0.002113 0.000058 0.001057 -0.002385 0.020011 -0.161616 0.588841 -0.002369 0.000451 0.001168 0.068725 0.004285 -0.000685 0.000990 0.169694 -0.006422 -0.000045 0.000271 0.004074 0.041188 -0.000525 0.000480 0.006396 0.069911 -0.004167 0.030260 -0.153954 0.010972 -0.000662 -0.005232 -0.007840 0.062954 0.001259 0.000532 0.070166 -0.002320 0.000435 0.001468 0.001017 0.000778 0.059294 -0.036472 -0.008148 -0.008214 -0.028763 0.212278 -0.004042 -0.000542 -0.000669 0.164159 -0.023371 0.124106 -0.001065 0.004286 -0.001888 0.010457 0.013504 -0.000123 0.355410 0.316516 -0.002262 0.086129 0.187642 0.167427 -0.003640 0.000847 0.064107 -0.000076 0.026643 -0.001333 -0.000148 0.001660 -0.002940 0.038721 0.018414 0.008694 0.086040 0.009295 0.191673 -0.001518 0.074772 -0.001225 -0.000364 0.015796 -0.000157 0.003848 -0.001007 0.008914 0.068059 -0.001269 -0.001262 -0.001216 0.328823 -0.002169 0.030711 0.008975 0.362298 0.000045 0.185201 0.004326 0.102977 0.025607 0.002502 -0.015183 -0.004867 0.001183 0.011944 0.002000 -0.001009 0.000980 0.003341 0.096330 -0.000407 -0.014943 0.001081 0.493708 -0.296642 -0.001223 0.044885 0.206042 -0.000434 -0.008715 0.003184 0.271908 -0.022763 -0.000342 0.000772 0.148232 -0.000919 0.268980 0.000212 0.009589 -0.000089 -0.000786 0.003390 -0.006685 -0.061832 -0.000212 0.202120 -0.040504 0.001068 0.033964 0.002752 -0.091243 -0.006476 0.000343 -0.002750 -0.000348 0.013067 0.013839 0.012832 -0.001371 -0.063392 -0.004413 0.102461 -0.105880 -0.000881 -0.012614 0.003910 0.076747 -0.000569 -0.003592 0.049730 -0.002253 0.340687 0.000197 -0.223114 -0.000050 0.070400 0.243492 -0.001379 -0.059032 0.001483 0.117566 -0.121003 0.260876 0.002977 0.067072 0.047425 0.001023 -0.009955 -0.000922 -0.001480 0.211832 -0.137754
