0.076807 -0.001424 -0.079292 -0.012225 0.094712 0.005123 0.070626 -0.162577 0.035946 -0.146792 -0.034539 -0.157179 0.250407 0.165045 0.348725 -0.123980 0.152295 0.013534 -0.009512 -0.045075 -0.024561 0.299597 -0.016591 0.003733 -0.023842 -0.309851 -0.366366 -0.002306 0.001898 0.005088 -0.000427 0.005708 -0.006713 -0.006453 0.487962 0.023638 -0.000857 -0.138639 0.011218 0.123164 -0.006198 0.015380 0.001382 0.353853 -0.523021 -0.054679 -0.002916 0.312623 0.002729 -0.004149 0.002945 0.002529 0.005109 0.055336 -0.025601 -0.201225 -0.007436 0.003338 -0.003729 -0.033682 -0.304610 -0.212691 -0.071084 -0.316924 -0.008581 -0.379740 0.013316 0.012709 -0.113848 0.017088 -0.028193 -0.061911 0.374374 -0.004394 0.002664 0.019781 0.076010 0.292917 0.000014 0.003798 0.382321 0.128651 0.017340 -0.001574 -0.007561 0.007103 -0.014800 0.039479 0.008765 0.150745 0.007047 0.003213 0.226213 -0.065550 0.039005 0.178804 0.009743 0.000843 0.051740 -0.001829 -0.004290 -0.278016 -0.000744 -0.096471 -0.000354 0.004310 0.010752 -0.045683 0.064450 0.004603 0.310717 0.281073 -0.003965 0.060058 0.807697 0.003334 0.023026 -0.017428 0.158161 -0.049903 0.038859 0.505572 -0.023728 -0.010205 -0.002814 -0.062366 -0.023362 0.272374
0.000221 -0.003669 -0.071795 -0.001745 -0.008233 -0.002336 -0.035647 -0.026163 0.015309 0.004353 -0.008505 -0.083335 -0.017326 0.005078 0.016621 -0.025462 -0.026240 -0.008307 -0.016242 -0.002050 -0.017794 -0.010724 0.012716 -0.001056 -0.006399 -0.007414 -0.035919 -0.005102 -0.003728 -0.000840 0.005124 0.004012 -0.016127 -0.052562 -0.036188 0.000190 -0.006567 -0.065366 -0.010490 -0.027975 0.001304 0.013076 -0.000175 -0.029657 -0.000656 -0.000164 -0.000066 -0.014379 -0.040598 0.003261 -0.006614 0.002283 -0.001260 -0.016762 0.013650 -0.102809 -0.004839 -0.011130 0.002036 -0.000020 -0.030350 -0.125451 -0.107536 -0.040511 0.000079 -0.121592 -0.000069 0.002017 -0.079488 -0.019851 0.018566 -0.002487 -0.004119 0.000832 0.002954 -0.007788 0.011427 -0.032667 -0.008445 -0.011389 -0.025276 -0.012534 -0.001289 -0.002008 -0.003624 0.008019 -0.006981 -0.037202 -0.002690 0.031144 -0.005513 -0.006815 -0.003201 -0.013369 -0.030220 -0.058293 -0.011946 -0.002009 -0.001797 -0.005383 0.006855 -0.014152 0.004528 -0.016296 0.021039 0.000539 0.003631 0.002612 -0.073041 0.003196 -0.014152 -0.069357 -0.000054 0.005384 0.000007 0.002904 -0.008741 -0.000233 -0.062194 -0.040898 0.021837 -0.019507 -0.026272 0.004754 -0.000319 -0.007672 0.004261 0.008873
-0.078764 -0.003701 -0.148881 -0.002132 0.078836 -0.002424 0.177553 0.111452 -0.311374 -0.158970 0.000098 -0.413210 -0.003370 -0.025377 0.221046 0.301955 0.137667 -0.152800 0.000416 0.000008 0.002990 0.017966 0.000264 -0.001152 -0.004337 0.340452 -0.176961 0.000672 -0.003225 -0.000228 -0.001747 0.001965 -0.005486 -0.053647 0.180363 -0.000593 -0.003544 -0.008167 0.019392 -0.172446 -0.000232 -0.001683 -0.003164 0.231850 -0.080119 0.214202 0.001552 0.122351 -0.003954 -0.000297 -0.002956 -0.003544 -0.003214 -0.010787 0.138824 -0.079217 -0.002284 -0.023096 -0.001177 -0.532536 0.369656 -0.229422 0.373460 0.084028 0.001354 -0.454385 -0.003742 -0.002094 0.511774 -0.000788 0.000221 -0.069507 -0.010915 -0.004552 -0.006888 -0.003808 0.234957 0.337507 -0.000076 -0.003604 0.064097 -0.116865 -0.000555 0.001398 -0.001056 -0.000162 -0.002610 -0.000005 -0.001855 0.086148 -0.002771 -0.001337 0.187386 -0.026111 -0.000459 0.425737 0.256533 0.002185 -0.000767 -0.000483 0.001325 -0.205172 -0.001645 -0.002915 -0.000427 0.001543 -0.002102 -0.025037 0.095560 0.001846 -0.043757 -0.398598 0.000475 -0.000280 0.247912 0.002126 -0.001785 0.000304 0.427513 -0.011411 -0.002707 0.362987 -0.003382 -0.001325 -0.002775 -0.118887 -0.000090 0.375668
-0.003731 0.002443 -0.230861 -0.052339 -0.031570 -0.000675 -0.007654 -0.091514 -0.071366 0.010112 -0.030173 -0.202431 -0.083148 0.007094 -0.088936 -0.008228 -0.031982 -0.114429 -0.008936 -0.001960 0.000710 -0.057779 -0.003250 -0.003110 -0.010524 0.036443 -0.110867 -0.001654 -0.000481 0.002163 0.000312 -0.012749 -0.019591 -0.094087 -0.032435 0.000281 0.000094 -0.122988 -0.027788 -0.028242 -0.000770 -0.009171 0.003795 0.017146 0.044918 0.009207 0.000185 -0.120957 0.050394 -0.001384 -0.002898 -0.002269 -0.030375 -0.184965 0.023221 -0.083935 -0.005700 -0.087293 -0.000205 -0.061543 -0.018486 -0.043270 0.001097 -0.249119 0.011854 -0.011016 -0.047720 0.009208 -0.119123 -0.040123 0.001972 0.015831 -0.062936 0.004510 0.007234 0.040251 -0.015863 0.033981 -0.005599 -0.009384 0.011713 -0.075793 -0.000342 -0.000657 0.000151 -0.002158 -0.014162 0.031491 -0.011504 0.026626 0.000298 0.004256 0.150966 0.165208 -0.041278 -0.057649 -0.062760 0.000376 0.043553 -0.000002 0.005656 -0.089469 -0.001007 -0.181126 -0.012397 -0.009326 0.000874 0.018242 -0.066450 -0.022435 -0.093732 -0.036424 0.003715 0.008032 -0.059295 -0.001867 -0.040507 0.013422 -0.035448 0.008660 0.004667 0.028328 0.007661 -0.021956 0.008044 -0.116666 0.018862 -0.022740
-0.143892 0.003376 -0.218314 -0.011333 0.053540 0.064851 0.016827 -0.146228 -0.015351 0.010685 0.010923 -0.087738 -0.020147 -0.123834 0.015860 -0.049273 -0.012777 -0.094874 -0.004262 0.039482 -0.013033 -0.005986 -0.023291 0.003742 -0.010227 0.034619 -0.102292 -0.002628 -0.004003 -0.003786 0.005296 -0.028978 0.007547 0.026365 -0.054109 0.077258 0.025879 -0.120775 -0.023416 -0.053932 -0.002298 -0.003279 -0.003365 0.028084 -0.011997 -0.012760 -0.001743 -0.240586 -0.022990 0.001728 -0.001963 0.000702 0.066202 -0.005645 0.102569 -0.092527 -0.003205 0.014620 0.001294 -0.031082 -0.110749 -0.206569 -0.145706 -0.062080 -0.010985 -0.160584 0.000371 0.031499 -0.052785 -0.024180 0.008057 0.009356 -0.019830 -0.007239 -0.023927 0.008888 -0.012323 0.010679 0.006677 -0.014150 -0.033344 0.015716 0.000443 -0.001606 0.002657 -0.012648 0.006796 0.039094 0.001102 -0.030932 0.015769 -0.001298 0.023525 -0.003179 -0.012675 -0.041892 0.020803 0.000345 -0.007717 -0.001512 -0.006883 -0.233083 0.002018 -0.005695 0.007340 0.028503 -0.002661 -0.026082 -0.121498 -0.028274 -0.001170 -0.009159 0.003628 0.003223 -0.197641 0.005554 -0.021152 -0.011560 0.005475 0.011517 0.000624 -0.008462 -0.068535 0.004463 0.001727 -0.040572 0.057720 0.001309
-0.054813 -0.001973 -0.163948 -0.001163 0.005679 0.003470 0.052361 0.002278 0.072790 0.002178 -0.009572 -0.336652 -0.018475 -0.084212 -0.105276 0.102760 -0.020849 -0.022813 -0.003496 -0.005548 -0.006448 0.045869 0.004109 0.001244 0.001916 -0.005881 -0.191003 0.001681 -0.001299 0.000187 0.002351 0.012964 0.000427 -0.152139 0.012799 -0.091934 -0.000919 -0.083912 0.049543 -0.032705 0.005267 0.008234 -0.004057 -0.035492 0.014489 0.153895 0.001737 -0.060031 -0.000840 0.000159 -0.007415 0.011450 -0.021654 -0.018523 -0.008468 0.132220 -0.001290 -0.096999 -0.005356 0.148453 -0.086758 -0.207902 -0.070592 -0.122069 0.005343 -0.151209 -0.009341 0.004507 -0.176236 -0.008113 0.000837 -0.002746 0.142416 -0.003912 -0.004728 -0.007897 0.258852 0.095033 -0.002143 0.011687 -0.005438 -0.017260 -0.001984 0.004312 -0.007222 -0.001616 0.008560 0.024142 -0.000238 0.018400 -0.005494 -0.005085 0.139134 -0.005336 -0.002135 -0.135407 -0.004697 -0.001305 0.367772 0.001575 -0.019539 -0.209532 0.000824 0.074698 -0.003100 -0.015532 0.003467 -0.004325 -0.087267 0.081512 -0.073700 -0.158534 -0.001024 0.004259 0.034882 -0.006419 0.039545 -0.007384 0.044426 0.009780 -0.000613 0.101963 -0.029288 -0.006007 0.003386 -0.178431 -0.020474 -0.063731
-0.015420 -0.007080 -0.046514 -0.003654 -0.005807 0.005892 0.004046 -0.001150 -0.003179 -0.008466 -0.009395 -0.021143 -0.017375 0.001993 -0.045844 -0.029636 -0.003681 0.004984 -0.003799 -0.007318 -0.012227 -0.030801 0.008350 -0.001808 -0.008464 -0.000944 -0.009881 -0.003459 -0.000608 0.002114 0.004048 -0.007166 -0.002384 -0.045092 -0.005645 -0.010083 0.018656 -0.072771 -0.000382 -0.005473 -0.000126 0.000768 -0.010738 -0.023447 -0.013304 0.003017 -0.002309 -0.012359 0.002792 0.003390 0.001158 -0.011907 -0.030556 -0.018346 -0.003977 -0.009949 -0.000957 -0.014502 0.000305 -0.021113 -0.030699 -0.042456 -0.032601 -0.051712 0.006732 -0.072228 -0.004879 -0.002391 -0.016785 -0.005481 0.003543 -0.020488 -0.009129 -0.000751 -0.009344 -0.013051 0.000459 0.003153 0.000380 0.002384 0.015232 0.001345 0.001430 -0.000454 -0.013604 -0.006659 -0.006059 0.015573 0.000863 -0.015422 0.016725 0.007565 -0.020655 -0.021797 -0.015450 -0.001808 -0.000122 0.001219 -0.004750 0.002482 0.016144 -0.058728 -0.000926 -0.012939 0.023615 -0.012397 0.010180 0.001173 -0.056919 -0.014693 0.001612 -0.058025 -0.001444 -0.007972 0.001610 0.001041 0.009650 -0.017836 0.000279 -0.058223 0.014259 -0.003238 0.006277 0.002548 -0.004820 -0.014553 -0.002932 -0.006474
-0.204689 -0.002065 -0.162663 0.003806 -0.047348 -0.007362 -0.146287 -0.265688 0.369492 0.108465 -0.034891 -0.178870 -0.131594 0.129953 0.061152 0.163566 -0.066761 -0.132572 0.013975 0.030001 -0.147599 0.032859 -0.012012 -0.002407 -0.031448 -0.013495 -0.005202 0.000823 -0.000293 0.002456 -0.002840 0.009229 -0.014155 -0.495118 -0.340057 -0.076364 0.007516 -0.181743 -0.004972 -0.118145 -0.006251 0.010138 -0.000769 0.007546 -0.419767 0.061016 -0.006620 -0.163343 0.019576 -0.009250 0.005613 -0.001968 0.000209 0.036218 -0.163356 0.481632 -0.004234 -0.071340 -0.006075 0.265719 0.098829 0.725465 -0.422201 -0.128716 -0.005048 -0.015451 -0.028661 -0.013331 -0.398233 -0.031557 -0.002072 -0.192967 -0.146584 -0.018976 -0.006901 -0.015899 0.108279 -0.182997 -0.007881 -0.039547 -0.014109 0.060342 -0.000308 0.006913 0.002577 0.008415 -0.038585 0.006996 -0.007785 -0.085764 0.016604 0.006190 0.196610 -0.013920 -0.021276 -0.035725 -0.082136 -0.003294 0.055281 -0.000327 0.002759 -0.330029 0.000635 -0.002141 0.014347 0.019586 0.003898 -0.025179 -0.287701 0.004100 -0.123632 -0.096230 0.004743 0.010939 -0.223294 0.001775 0.117918 0.001598 0.282227 0.285650 0.018769 -0.256218 -0.012531 0.009877 -0.000549 0.037846 -0.009115 -0.281945
0.019844 -0.002841 -0.019299 0.067218 0.012873 -0.004024 -0.290389 -0.005659 0.200215 0.323037 -0.002906 -0.366134 0.078730 0.128973 0.090645 0.107264 0.323018 0.330163 -0.009323 -0.016063 0.024369 0.443243 -0.035539 -0.003178 0.050232 0.151336 0.317694 0.004824 -0.000171 -0.003369 -0.020573 -0.019865 0.016480 -0.287594 0.307476 0.104771 0.060249 -0.090076 -0.183504 0.220094 -0.004019 0.000842 -0.010759 0.133298 0.322683 0.228652 -0.002891 0.194809 0.037153 -0.000290 -0.015280 -0.016973 0.021665 -0.004436 0.042767 0.254964 -0.000098 0.018524 0.001436 0.202388 0.363563 0.304917 0.357037 -0.308251 -0.001157 -0.188681 -0.065369 -0.007051 0.101553 -0.002721 0.019077 0.086717 0.295589 -0.002066 0.009142 -0.014309 -0.047901 0.282323 -0.006483 -0.079738 0.105690 0.120069 0.002513 -0.000888 -0.006350 -0.016598 0.022889 -0.030136 0.001261 0.141959 -0.016006 -0.003629 0.291483 -0.050467 0.012568 0.392925 0.097203 0.000704 -0.138974 0.001187 -0.009545 0.418249 -0.001409 0.063999 -0.026310 0.007402 0.004470 0.003355 -0.195818 -0.147610 0.167929 -0.586848 -0.001728 0.009046 0.067366 -0.004199 -0.010791 -0.012141 0.113449 -0.173339 0.009056 0.315510 -0.010172 0.000711 0.015238 0.020564 0.048231 0.069526
0.153691 -0.000694 0.109626 -0.001568 0.065420 -0.003168 -0.077534 0.063495 0.278331 -0.300673 0.000122 -0.198634 0.206292 0.134108 -0.117919 -0.099692 0.224005 -0.025557 -0.016807 -0.003560 0.100058 0.076759 -0.006944 -0.001592 -0.020223 -0.393664 0.144843 -0.001997 -0.000339 0.001821 -0.006538 -0.009807 0.016410 -0.338744 0.454875 0.042523 -0.000325 0.025419 -0.098322 -0.350036 -0.000450 -0.000899 -0.001545 -0.008567 0.186552 -0.055286 -0.001217 -0.083768 0.000241 -0.001252 -0.001886 -0.001478 -0.010532 -0.013973 0.102029 0.008092 -0.003603 0.014625 0.003767 0.332735 -0.146783 -0.223374 -0.140658 0.501939 -0.014461 -0.166536 -0.004838 0.000915 0.150775 -0.006399 0.001657 -0.427919 -0.064858 -0.004890 -0.017824 -0.009102 -0.175605 -0.375864 -0.000789 -0.006356 -0.003974 -0.097988 0.000658 -0.000999 -0.003074 -0.004363 -0.029878 0.003950 -0.005985 0.073205 -0.009190 0.004391 -0.051383 -0.064862 -0.000063 0.222763 0.061469 -0.001846 -0.015571 -0.005059 -0.001600 -0.072340 0.002213 -0.043920 0.019094 -0.001202 0.001011 0.000598 -0.364233 -0.025067 0.048222 -0.165326 -0.001253 -0.001150 -0.036176 0.000272 0.227823 -0.010659 0.121284 0.041972 0.028839 0.187352 -0.003663 -0.002264 0.000190 0.177741 -0.001753 0.162754
0.069821 -0.001833 -0.283930 -0.010343 -0.054592 0.051778 -0.376102 0.174198 0.330114 0.502587 -0.033871 -0.188406 -0.059664 0.234378 0.502589 0.468802 -0.021083 0.051680 0.020753 0.008021 -0.002084 1.200370 -0.048080 -0.002571 -0.007969 0.028967 -0.301299 0.000146 -0.002260 0.000267 -0.022759 -0.015745 -0.006823 0.103730 0.105689 0.000581 -0.004169 0.085664 0.038908 -0.007335 0.005057 0.000067 0.003496 0.226094 -0.130684 0.234717 -0.001569 -0.025346 0.002188 -0.002154 0.004393 -0.004898 -0.014271 -0.054695 0.036719 0.695048 0.006649 -0.054383 -0.000018 0.391048 -0.465371 -0.005738 -0.029910 -0.426290 0.000910 -0.232395 -0.020825 0.039687 -0.060107 0.027300 -0.049625 -0.301860 0.140806 -0.001082 -0.001216 0.002812 -0.190829 0.272688 -0.015979 0.001899 0.318820 0.084360 0.001646 0.004797 -0.003446 0.002543 -0.002399 -0.005776 -0.011193 0.235534 -0.001410 0.002490 0.133869 -0.037238 -0.003077 0.205091 -0.049529 0.003047 -0.020010 -0.000289 0.011914 -0.528460 0.001444 -0.204791 0.003459 -0.009375 0.010010 0.067258 -0.249941 -0.001539 0.076885 -0.238347 -0.004562 0.007036 0.052727 -0.003788 -0.015897 0.000970 0.135583 0.344952 -0.018383 0.003590 0.011942 -0.016569 0.009849 -0.128056 0.092269 0.087036
-0.002140 -0.000391 -0.135941 0.149835 -0.003394 -0.002092 0.027089 0.006344 -0.067809 0.006081 0.019070 -0.117586 0.001238 0.006827 -0.049866 -0.064605 -0.041723 0.000404 0.018970 -0.013427 -0.013985 -0.009793 -0.002094 0.000972 0.029599 0.007207 -0.109855 -0.004879 -0.002431 -0.000084 -0.010824 -0.010610 -0.018532 -0.040399 -0.055994 -0.000872 -0.000217 -0.040903 0.041996 0.002524 -0.000043 -0.006423 0.002761 -0.025695 -0.000500 0.007602 0.001420 -0.019089 0.001629 -0.008203 0.002206 -0.000350 -0.001850 -0.000044 0.000231 -0.091315 0.004385 -0.009037 -0.001608 -0.002241 -0.011793 -0.091299 -0.132116 -0.097218 0.009294 -0.095770 -0.010490 0.026791 -0.016111 -0.011137 -0.014479 -0.003246 -0.021449 0.001498 0.007840 -0.073563 -0.032011 -0.002769 -0.000766 -0.021436 -0.008529 -0.013557 -0.000426 0.001179 -0.005081 -0.003762 -0.005986 -0.003336 -0.007456 -0.001878 -0.008856 0.000834 -0.013365 -0.012818 -0.007685 -0.003118 -0.004312 -0.001988 -0.055741 0.001897 -0.005381 -0.018149 0.000687 -0.000162 -0.002854 -0.003276 0.001462 -0.017940 -0.047284 0.054729 -0.007235 -0.018651 0.001134 -0.004228 -0.105670 -0.000338 -0.010074 -0.007493 -0.003030 -0.005842 -0.004017 -0.003265 -0.012167 -0.021515 -0.006729 -0.074410 0.008843 0.002801
0.054846 0.000023 -0.132148 -0.023343 -0.007834 -0.000686 -0.000747 -0.067443 -0.011031 -0.000859 0.006533 -0.015630 0.004125 -0.035902 -0.001422 -0.022566 -0.031394 -0.003810 -0.000675 0.000435 0.013725 -0.026821 0.000098 -0.002500 -0.007340 -0.011492 -0.020598 -0.001864 -0.002209 0.001193 0.000233 -0.015228 0.000643 -0.030246 -0.003238 0.000092 0.005455 -0.028862 -0.001135 -0.017044 -0.000996 0.011824 -0.011500 -0.019259 -0.000244 -0.004514 -0.000920 -0.008830 0.000126 0.001019 -0.000940 0.000225 -0.009031 -0.003536 0.000910 -0.073991 -0.001048 -0.000266 0.008845 -0.014296 -0.100726 -0.018846 -0.024268 -0.012497 0.005916 -0.013611 -0.013305 -0.001029 -0.015676 -0.045411 0.009133 0.051115 -0.000511 -0.001752 0.009606 -0.000872 -0.021378 -0.007793 -0.000780 -0.013901 -0.000748 -0.001372 0.000624 -0.000614 -0.003640 -0.011529 0.000023 -0.001613 -0.015654 -0.013305 -0.000585 0.000375 -0.006720 -0.003461 -0.010557 -0.008616 -0.015058 0.002213 -0.011306 -0.003452 -0.000651 -0.082574 -0.001745 0.006072 0.011060 -0.022726 -0.001234 -0.010339 -0.127082 0.000991 -0.003477 -0.024420 -0.000248 -0.000422 -0.002584 -0.000243 -0.001263 -0.011664 -0.000001 -0.005339 -0.001446 -0.003103 -0.014794 -0.000136 -0.000303 -0.024143 -0.004743 0.000174
-0.093360 -0.000413 -0.260589 -0.042023 0.022294 0.030160 -0.124233 -0.138722 0.060547 -0.271628 -0.078279 -0.084184 0.105254 -0.090486 -0.457604 0.062368 -0.165542 -0.214774 -0.016886 0.015879 -0.056244 -0.070026 -0.047277 -0.001182 -0.024822 0.023577 -0.325773 -0.003421 0.001415 0.004129 -0.000428 0.004523 -0.007650 -0.143441 -0.491016 -0.003583 -0.005387 -0.428689 -0.052907 -0.114709 0.005204 -0.002605 -0.008950 0.004220 -0.062860 0.047812 0.001264 -0.046503 0.072966 -0.004395 0.003166 0.002238 -0.025963 0.061617 -0.235823 -0.160647 0.006492 -0.053063 -0.005090 -0.619370 -0.458200 -0.448862 0.025696 -0.400688 -0.010662 -0.198233 -0.058256 0.013580 0.041997 -0.005485 0.024777 0.037602 -0.110444 -0.000378 -0.005310 -0.069225 -0.159293 -0.109202 -0.003743 -0.025770 -0.024380 0.022629 0.017057 -0.000636 -0.000962 0.009059 -0.002367 -0.079058 0.006254 -0.574992 -0.012777 -0.003314 -0.088374 -0.016348 0.027995 -0.208166 -0.023564 0.000357 -0.211232 0.002388 -0.005405 -0.376023 0.003136 0.072408 0.006064 -0.003407 -0.002162 -0.003491 -0.203923 -0.016542 -0.105748 -0.069190 -0.008838 0.007207 -0.191798 0.000586 -0.220467 0.001060 -0.062275 -0.008499 0.054813 -0.103269 -0.001553 -0.033920 -0.009823 0.612372 -0.047229 -0.080730
-0.118001 -0.001561 -0.345735 -0.013619 -0.060147 -0.038388 0.074134 0.377998 -0.335742 0.053750 -0.032314 -0.258496 -0.248814 0.212771 -0.021262 0.037403 0.086154 -0.050662 -0.009969 -0.011505 -0.029512 -0.074788 -0.032218 -0.000517 -0.005868 0.244790 0.019266 -0.004028 -0.000653 0.002258 -0.019018 0.003815 -0.011640 -0.305389 0.153816 -0.014006 -0.008016 -0.378926 -0.096775 0.124267 0.000074 0.010948 0.000641 -0.182412 -0.067490 -0.055004 -0.005136 0.186751 0.014306 0.005044 0.000262 0.000549 -0.026646 0.020449 -0.215351 -0.081720 -0.000885 0.024866 -0.005474 -0.161435 -0.136673 -0.493249 -0.400763 -0.405313 0.006163 0.641359 0.044883 0.013075 -0.031158 0.027351 -0.022516 -0.290178 -0.200317 0.000698 0.019454 -0.045883 0.004829 0.075510 -0.006552 -0.049483 -0.168819 0.022685 0.015651 0.000214 -0.000571 -0.000240 0.037183 -0.014983 -0.011578 0.094791 0.006876 0.004726 0.030622 -0.062265 0.032633 0.119837 0.050628 0.003623 0.107318 0.002272 -0.000938 -0.183487 -0.002866 -0.043711 -0.002034 -0.008296 0.001561 0.004095 -0.300765 0.070666 0.182598 -0.502711 -0.009588 -0.010692 -0.057974 0.055140 0.007621 -0.008470 0.027062 -0.215608 0.042018 0.127363 -0.008076 0.013313 -0.003922 0.230890 -0.030582 0.002967
0.042829 -0.000533 -0.247748 -0.003777 0.230819 -0.037459 -0.012817 -0.155970 -0.042524 0.253326 0.055958 0.643546 -0.072697 0.016739 -0.282910 0.123198 0.374272 -0.021145 0.006359 -0.005734 -0.095515 -0.168459 0.036237 -0.002651 0.023480 0.163051 -0.306986 -0.011352 -0.001862 -0.000171 0.016649 0.006070 0.038599 0.427540 0.062623 0.078623 -0.009699 -0.152475 -0.031664 0.188315 0.000521 0.004496 -0.013707 0.033707 -0.022174 0.054076 0.004784 -0.055427 -0.021541 0.001575 -0.000375 0.001970 0.002612 0.042460 0.188010 -0.244507 0.002554 0.065237 -0.014011 0.099581 -0.516398 -0.122719 -0.342280 -0.178660 -0.028283 -0.080953 0.054618 -0.017971 -0.389161 -0.035601 -0.036009 -0.219378 0.002882 -0.000486 -0.023577 -0.109863 0.031974 -0.088679 0.006479 -0.036017 0.086069 0.157959 -0.002641 0.009044 -0.005088 0.015247 0.014671 0.024913 0.000222 0.265680 0.003237 -0.002181 0.166328 0.076143 -0.013587 -0.528687 0.126481 0.002653 -0.026520 0.003577 0.049440 -0.147011 0.000187 0.055615 -0.002660 -0.019635 -0.000235 -0.035463 -0.159911 0.002683 0.211001 -0.271201 0.012124 -0.016776 -0.134287 0.001488 -0.126812 -0.012264 0.046542 0.311990 0.000893 0.214229 0.000086 -0.025711 0.019349 -0.127169 -0.033252 -0.093301
-0.019732 0.001994 -0.283672 0.004861 -0.017939 -0.011348 0.006834 -0.015680 0.016463 -0.081999 0.002672 -0.132766 -0.015693 -0.078219 0.006908 -0.080974 0.001937 -0.007978 0.052250 -0.022310 0.025269 -0.003641 -0.002020 -0.000839 0.001028 0.005659 -0.053901 0.000626 -0.002854 -0.001270 -0.002900 0.008233 0.033267 -0.076747 0.064410 0.000563 -0.010022 -0.243842 0.107938 0.012997 0.000124 -0.001441 -0.002357 -0.012926 0.045045 0.001312 -0.000331 -0.018538 0.017152 0.000622 -0.007430 -0.001750 -0.023603 -0.014475 -0.025496 -0.006671 -0.002490 0.001691 -0.006398 -0.094926 -0.202602 -0.113050 -0.044382 -0.147185 -0.005590 -0.098078 -0.018267 -0.003358 -0.037651 -0.036086 -0.001432 -0.077324 0.004400 0.000257 -0.008736 -0.023821 -0.056236 -0.077610 0.000432 0.022166 -0.001103 0.062991 0.001284 -0.001683 0.003432 0.010811 -0.012944 -0.016269 -0.008790 -0.072242 0.007193 -0.000945 0.002684 0.047611 -0.025859 -0.066423 -0.003216 0.001081 0.016558 -0.003413 -0.001502 -0.181665 -0.001486 -0.010212 0.034103 0.033746 0.001799 0.017790 -0.075174 0.058153 0.055303 -0.051699 -0.001112 0.023933 -0.006104 -0.001280 -0.084833 -0.008133 -0.010085 -0.014134 -0.007574 -0.046369 -0.002188 0.038498 -0.001588 -0.072184 -0.006813 0.064411
-0.002591 0.001575 -0.014357 -0.003322 0.002856 0.001298 -0.001655 -0.011933 -0.023736 -0.009278 -0.009714 -0.001023 -0.013693 -0.009973 -0.001217 -0.013446 -0.011620 0.002202 0.001489 -0.001500 -0.000800 -0.005880 -0.010234 0.000384 -0.000325 -0.008172 -0.001242 -0.007470 -0.002956 0.000701 -0.000973 0.005182 -0.003503 -0.014407 -0.007629 -0.001476 -0.002129 -0.043184 -0.010804 0.005713 -0.001234 0.000595 -0.009104 -0.009785 -0.006839 -0.002482 -0.002078 -0.024655 -0.009123 -0.000691 -0.016133 -0.001551 -0.009922 -0.006130 -0.003683 -0.019954 0.008037 -0.009356 -0.010875 -0.009188 -0.019020 -0.048513 -0.018287 -0.025458 -0.009238 -0.053827 -0.019214 0.002644 -0.004984 -0.035365 -0.003704 -0.008123 -0.000205 -0.011660 -0.014258 -0.002190 -0.018573 -0.013443 -0.001719 -0.001843 -0.003716 0.001378 -0.003166 -0.001296 -0.002722 -0.002694 -0.008659 0.003513 0.003041 -0.013872 -0.001931 -0.003625 -0.031685 -0.006583 -0.013864 -0.006407 -0.001633 -0.001054 -0.003133 -0.003478 -0.000154 -0.018602 0.001291 -0.007488 -0.002295 0.002270 -0.000036 -0.014088 -0.013167 -0.001584 -0.026814 -0.009607 0.001104 0.003405 0.002720 0.002432 -0.002248 -0.006485 0.003079 -0.000651 0.000900 -0.007701 0.021398 -0.005568 -0.002319 -0.027177 -0.002939 -0.009848
-0.096212 -0.000576 -0.146623 0.011045 -0.052904 0.014800 0.248292 0.084526 -0.071190 -0.354712 -0.057843 -0.056690 0.202758 0.021928 -0.084088 0.159496 -0.119024 -0.052468 -0.005283 0.019458 -0.029098 0.158339 0.000562 0.000254 -0.041323 -0.017290 -0.357418 -0.003692 0.000932 0.003276 -0.007537 0.014130 -0.002887 -0.088129 0.370022 -0.001365 0.004084 -0.349397 0.055648 -0.076039 -0.004222 -0.000196 -0.002417 -0.219747 -0.185103 0.188996 0.006920 -0.152895 0.038005 -0.001348 0.001324 0.001547 -0.019050 -0.017248 0.090755 -0.240959 -0.011528 -0.014815 -0.008941 -0.219647 0.301975 -0.071882 -0.173305 -0.231542 -0.010095 -0.424043 -0.018226 -0.005445 -0.003831 0.036067 -0.017831 0.404934 -0.301955 0.001915 0.004641 0.000090 0.059927 0.081670 -0.007607 -0.003735 -0.031702 0.160201 -0.002432 -0.003661 -0.000163 -0.003492 -0.006043 -0.002799 -0.002411 -0.003368 -0.005915 -0.004124 0.111390 0.022739 -0.005489 0.247497 0.105265 -0.002185 -0.012352 -0.002145 0.013438 -0.158468 0.000283 -0.016630 -0.003388 -0.020353 -0.005362 -0.005461 0.010861 -0.027967 0.121142 -0.372080 0.003544 0.001100 0.160054 -0.000162 -0.010435 -0.013713 0.295237 0.089966 0.008140 -0.043612 -0.025607 -0.013423 -0.009162 0.048604 -0.031000 -0.032799
-0.002326 -0.001786 -0.013540 -0.000906 -0.002418 -0.000620 -0.000558 0.001592 0.000653 -0.008450 -0.003003 -0.000615 -0.004022 -0.008715 0.000714 0.000180 -0.003740 -0.002042 -0.012263 -0.009007 0.000659 -0.002907 0.000034 0.000168 0.000532 -0.000243 -0.003699 -0.003277 -0.001995 0.000387 -0.000568 -0.002332 0.000645 -0.012152 0.000135 -0.001387 -0.000466 -0.001780 -0.000748 -0.019806 -0.000987 -0.001683 0.000306 -0.000744 -0.001251 -0.000372 -0.001469 -0.003310 -0.002774 -0.000485 -0.001634 0.000541 -0.002889 0.000123 -0.002481 -0.006602 -0.000009 -0.002951 0.000344 -0.007051 -0.012727 -0.002849 -0.001319 -0.058620 0.000022 -0.002027 -0.001337 0.000497 0.001128 -0.000634 0.000707 -0.002168 -0.000031 -0.001699 -0.000078 -0.002549 -0.015130 -0.001361 -0.000334 0.000498 0.000366 -0.001054 -0.000030 -0.002828 -0.003766 -0.003338 -0.008532 -0.002710 -0.003074 -0.001698 -0.003607 -0.003165 -0.001421 -0.000385 -0.003549 -0.010667 -0.003144 0.001087 -0.000687 -0.002462 -0.001363 -0.009186 0.002005 -0.002486 -0.003699 -0.002008 -0.002174 0.000796 -0.002023 -0.006096 -0.001530 -0.010962 0.000506 -0.000277 -0.003154 -0.001722 0.000514 -0.010531 -0.001433 0.001246 -0.002221 0.000622 -0.003118 -0.000779 0.000587 -0.000022 -0.002200 -0.001823
-0.002026 0.002022 -0.037396 -0.000045 -0.002506 0.001305 0.001888 0.000508 -0.001243 0.000233 -0.002321 -0.004286 -0.000088 0.000515 -0.000941 -0.003359 -0.006279 -0.001380 -0.000373 -0.001280 -0.003620 -0.000682 0.000303 -0.001406 -0.001705 -0.001102 -0.028886 0.000199 -0.001453 -0.000145 -0.001075 0.000374 -0.001048 -0.007536 -0.001112 -0.002157 0.001483 -0.001367 -0.000462 -0.001762 -0.000043 -0.005347 -0.002298 -0.001694 -0.002716 0.001494 -0.001763 -0.000536 -0.002826 -0.000766 -0.000042 -0.001349 -0.001105 -0.002419 -0.001011 -0.009285 0.001851 0.000033 -0.000719 0.000474 -0.007638 -0.002995 -0.006499 -0.009224 0.000509 -0.007323 -0.002197 0.000231 -0.001414 -0.000791 0.001091 -0.001356 -0.001858 -0.000884 -0.003468 -0.001477 -0.006106 -0.001414 0.000275 -0.000508 -0.000438 -0.000992 -0.000728 -0.000455 0.000522 0.002119 -0.009429 0.000961 0.000633 -0.001174 -0.009425 0.000472 -0.003216 -0.000485 -0.003447 -0.000930 -0.000858 0.000652 -0.005949 -0.002976 0.000758 -0.007871 0.000271 0.000251 0.001005 0.001205 -0.001889 -0.016214 -0.007200 -0.002198 -0.002743 -0.006991 0.000559 -0.001256 -0.000970 0.000519 -0.000245 -0.009463 -0.000549 0.000795 0.002172 -0.001752 0.000596 -0.002346 0.000588 -0.035362 -0.001900 -0.000743
-0.003862 -0.001544 -0.015956 -0.027761 0.002437 -0.002496 -0.004421 -0.008000 -0.013960 -0.000882 -0.000772 -0.007815 -0.019456 -0.011381 -0.000873 -0.049678 -0.009932 -0.017737 -0.005242 -0.012119 -0.000806 0.004536 -0.004467 -0.000267 -0.000617 -0.008664 -0.109440 -0.002058 0.001609 0.002015 0.004257 -0.004034 -0.007272 -0.004715 -0.006369 -0.000163 -0.005470 -0.039303 -0.001361 -0.012380 0.000303 0.003903 -0.001974 0.000154 0.001215 0.003149 -0.007286 -0.019363 -0.005867 0.002610 -0.002435 0.000113 -0.001914 0.001455 -0.000000 -0.013830 -0.004349 -0.017319 -0.012984 0.003512 -0.030671 -0.016323 -0.039931 -0.020442 0.003246 -0.037397 -0.002777 -0.000833 -0.008839 -0.013781 0.002000 -0.023274 -0.006955 0.000194 -0.000423 0.005604 -0.020883 -0.020457 0.003720 -0.006358 0.001574 0.002467 0.000708 0.002160 -0.006338 0.011555 -0.016814 -0.002901 -0.003105 -0.010909 -0.005193 -0.001640 0.003874 0.006152 -0.005116 -0.025466 -0.089545 0.000024 -0.001641 -0.004541 0.012983 -0.035748 0.005081 -0.011092 -0.000900 0.010258 -0.002933 0.003823 -0.006334 -0.009126 -0.006697 -0.007483 -0.001004 0.005917 0.007858 -0.000561 0.001182 -0.005258 0.000848 -0.024601 0.002537 -0.001186 0.000306 -0.001226 0.000143 -0.012107 -0.002416 -0.004600
-0.198542 0.001560 -0.428471 -0.013696 0.076183 0.021402 0.118744 -0.103899 -0.004544 0.086948 -0.005114 -0.241952 -0.108859 -0.037592 -0.053684 0.323886 -0.080909 0.083116 -0.021665 -0.005727 0.025957 0.041782 0.039696 0.001315 -0.013699 0.075681 -0.234854 -0.003712 0.000469 -0.002411 0.009985 -0.007444 0.015738 -0.347954 0.144808 0.006521 0.006570 -0.181625 -0.083232 0.016562 0.000236 0.017039 -0.000379 0.209099 0.022838 -0.197965 0.000081 0.408419 0.000005 0.003404 -0.006059 -0.001940 0.046795 -0.033217 -0.091576 -0.026718 0.000764 0.095035 0.001604 -0.132980 -0.144170 -0.264583 -0.125190 -0.126003 0.007474 -0.101790 -0.002312 0.018066 -0.193097 0.014597 0.006505 -0.061551 -0.096304 -0.000516 0.009595 -0.046200 -0.249349 0.007796 -0.000209 -0.001836 -0.026926 0.112474 0.003651 0.000282 -0.001107 0.002879 0.000979 -0.001278 -0.031254 0.228837 0.006610 -0.000430 0.088260 -0.124362 -0.012677 -0.126934 -0.095049 0.003275 -0.141936 0.000303 -0.006021 -0.168978 -0.000554 0.065682 -0.027849 -0.011147 0.005271 -0.028486 -0.089229 -0.113186 0.038393 0.048124 0.000983 0.011043 0.068409 0.000372 0.182861 -0.006113 -0.047325 -0.129340 0.013878 -0.078798 0.030855 -0.003773 0.000579 -0.241670 0.017577 0.061984
0.001113 0.004082 -0.168561 0.012298 -0.006265 -0.003089 -0.026687 -0.028553 -0.002497 -0.009447 -0.008063 -0.140198 -0.004519 -0.027478 -0.104342 -0.047472 -0.021478 -0.053410 -0.014125 0.008213 -0.006248 -0.021241 0.011404 0.000215 0.015416 0.025498 -0.122679 0.010138 -0.000702 0.001420 -0.001809 0.087339 0.007509 -0.047992 -0.001971 -0.007040 0.039167 -0.058557 -0.026835 -0.091463 0.001331 0.008799 -0.011794 0.014735 -0.078537 -0.000905 -0.001079 -0.017995 -0.013701 -0.000196 -0.007615 -0.000500 -0.015489 -0.002545 -0.027509 -0.053711 -0.001394 -0.101761 0.012718 0.014014 -0.028413 -0.037542 -0.021816 -0.020102 0.041835 -0.111791 -0.023549 0.002049 -0.016710 -0.010373 0.001162 0.000246 0.032014 -0.001749 0.000124 0.035130 -0.037111 -0.013087 -0.004305 -0.008670 -0.040139 0.010138 0.001812 -0.001955 0.002009 0.014253 0.002341 -0.000925 -0.005112 -0.071211 -0.014728 0.006596 -0.016287 -0.018532 -0.016839 -0.022298 -0.000219 -0.001750 0.033205 -0.003217 -0.003457 -0.128027 -0.002277 -0.051215 -0.011337 -0.002254 0.001738 -0.000043 -0.031057 0.025152 0.006092 -0.064569 0.001231 -0.002789 0.008093 0.000574 -0.009580 -0.007730 -0.010882 -0.025543 0.010361 -0.000477 -0.005767 0.034174 0.008907 -0.025960 0.000042 -0.014385
-0.312394 -0.001038 0.255940 0.025819 -0.003931 0.001179 -0.362676 0.154432 0.325567 -0.006956 0.019968 0.303407 -0.047435 0.575005 -0.023765 0.270092 0.089180 0.290972 -0.005636 -0.004481 -0.008978 -0.017906 -0.001126 0.000149 -0.013750 -0.028801 -0.174191 -0.000859 0.000512 -0.003010 0.008106 -0.010274 -0.012713 0.189075 -0.037972 0.009234 -0.000208 -0.185096 -0.052948 -0.124908 -0.001393 0.001796 0.001300 -0.028931 0.275429 0.021179 0.001099 -0.124612 -0.084651 -0.000023 -0.014759 -0.000626 0.007832 -0.031085 0.091918 -0.045346 -0.011384 0.042482 -0.006739 0.176887 -0.182894 -0.365537 -0.348071 -0.492048 -0.000108 -0.417629 -0.062823 -0.002510 -0.057570 -0.011545 0.015528 -0.031639 0.203824 -0.006161 -0.019337 0.034827 0.092789 0.108182 -0.000576 -0.001792 0.163226 0.245404 -0.002168 -0.000421 -0.009256 -0.005814 -0.004024 0.000527 -0.002101 0.145806 -0.003890 -0.006237 0.064415 -0.002916 -0.013938 -0.267328 0.073363 0.000252 -0.036487 -0.012501 -0.001973 -0.139061 0.001415 -0.055511 0.000640 -0.012759 0.000108 -0.010083 -0.318028 0.002126 -0.290885 0.186682 -0.000021 -0.034476 0.111536 0.003184 0.005316 -0.001019 -0.021025 0.363483 -0.000203 0.688842 -0.000916 -0.009542 -0.000018 -0.302676 -0.007611 0.208811
-0.018563 0.001415 0.153481 -0.002637 0.031999 0.049361 -0.332874 0.005739 0.281463 0.365913 -0.011878 -0.172591 -0.031061 0.193310 -0.238700 0.001942 0.138402 0.157193 0.009574 0.028249 -0.033653 0.016147 -0.004807 0.003818 -0.002072 0.022970 -0.220975 -0.003068 -0.005172 -0.000576 -0.003628 -0.019404 0.000048 -0.234666 0.272531 0.158859 0.002602 0.042374 0.050028 0.112074 -0.000491 -0.000628 -0.002377 0.215025 -0.295918 -0.094503 -0.003880 -0.053776 -0.006783 -0.001678 0.001876 -0.007094 0.049309 -0.030354 -0.081276 -0.172874 0.006665 0.077271 0.002622 0.242949 0.076803 -0.021957 -0.083611 0.112115 -0.017589 -0.568293 0.138159 0.000428 -0.534002 -0.002339 0.030759 -0.034391 0.308266 -0.002120 -0.003297 -0.018757 0.094108 -0.101424 0.001618 -0.029795 0.314125 -0.018765 -0.000490 -0.005638 -0.004809 0.048014 0.009110 0.039290 -0.020586 0.116193 0.014517 -0.003545 0.202730 -0.037474 -0.017061 -0.173527 0.008736 -0.003158 -0.111351 -0.003758 0.006792 -0.141710 -0.000317 -0.012926 0.000768 -0.015541 -0.001982 0.040968 0.719412 0.013043 0.037129 0.380807 -0.001824 0.012602 0.258200 -0.003059 0.068756 0.009018 0.076869 0.297718 -0.044976 -0.147231 0.012451 0.021527 0.002765 -0.165309 0.011192 0.160483
0.109524 -0.001710 -0.306199 0.005799 0.005230 0.003549 0.133439 0.144485 -0.041451 0.140656 -0.008599 -0.134860 0.082150 -0.226683 -0.022758 -0.029143 0.220950 0.219625 0.000898 0.014832 -0.004500 -0.022922 -0.026800 0.000695 -0.001314 -0.063888 -0.472187 -0.002040 -0.000824 -0.003127 0.001978 -0.002372 -0.006652 0.516293 0.284365 -0.003053 -0.011541 -0.341061 0.015669 -0.139765 -0.001398 0.007108 -0.001102 -0.120462 -0.086085 -0.059804 -0.000942 0.112482 0.031008 -0.004020 0.002756 -0.002065 -0.003027 -0.070388 0.452238 -0.296553 -0.002993 -0.148099 -0.001497 -0.077308 -0.295921 -0.145892 0.206608 -0.080345 -0.000642 -0.175103 -0.029507 -0.004534 -0.123596 -0.009773 -0.009136 -0.010526 -0.174943 0.001230 0.011329 -0.005942 0.014549 0.151674 0.001381 -0.016315 -0.175297 0.091908 -0.001691 -0.002236 -0.006465 0.002331 -0.010904 -0.002839 -0.019487 0.187117 -0.013133 0.001067 0.141693 -0.011136 -0.008628 0.259744 0.104238 0.001043 -0.002171 0.000514 0.019885 -0.277755 -0.001764 -0.045488 -0.015314 -0.008825 0.001231 -0.029129 -0.039498 0.005880 -0.142861 0.076927 0.000140 0.002280 -0.011058 -0.003592 -0.003752 -0.016578 0.321242 0.297726 0.009204 0.099138 0.025393 -0.003315 0.004559 -0.040606 -0.002433 -0.367038
0.000135 0.001656 -0.009916 0.001545 -0.003247 0.000265 -0.068233 -0.000736 -0.008410 -0.002608 -0.004115 -0.011332 0.001011 -0.010660 -0.003281 -0.004592 0.001711 -0.001875 -0.013716 -0.013345 -0.005319 0.003253 -0.007523 0.002708 -0.001524 -0.010992 -0.015666 0.003960 -0.000614 -0.002216 0.004739 0.001324 -0.005607 -0.009856 -0.002053 -0.002239 -0.007470 -0.008047 -0.006328 -0.008533 -0.000852 0.004220 -0.001855 -0.004579 -0.002648 0.000360 -0.001848 -0.006446 -0.003192 0.001424 -0.001077 -0.000779 -0.012266 -0.002623 0.004714 -0.007028 0.000181 -0.006635 -0.000815 -0.001387 -0.007513 -0.011085 -0.012054 -0.000886 -0.003883 -0.017248 0.003074 0.000741 -0.009374 -0.001971 -0.001316 -0.013555 0.001831 -0.003821 -0.001662 -0.000520 -0.007243 -0.004308 -0.001573 -0.001576 -0.001159 -0.000208 -0.001483 -0.002673 0.001626 0.001424 -0.005164 0.000613 -0.018765 -0.003038 0.000021 -0.003045 -0.000081 -0.007258 -0.003930 -0.013912 -0.000646 -0.000401 -0.001159 -0.001415 0.003042 -0.008124 -0.001910 -0.005951 -0.026763 -0.009171 0.000536 0.000370 -0.005371 -0.008404 -0.003889 -0.008436 0.001684 0.001635 -0.002136 0.000050 -0.000301 -0.008503 -0.001161 -0.004831 -0.001004 -0.003766 0.000598 -0.003125 -0.001628 -0.001167 -0.001946 -0.000989
-0.027272 0.000076 -0.066995 -0.005068 -0.000507 0.069307 0.027183 -0.013121 -0.114514 0.125784 -0.031613 0.032420 -0.039610 0.063626 -0.037057 -0.081020 -0.178105 -0.003715 -0.001603 -0.000365 0.003127 0.004662 0.007421 -0.000089 0.006512 -0.006153 -0.132472 -0.003606 -0.001429 -0.000544 -0.000313 0.000609 -0.004315 -0.052094 -0.099176 -0.002613 -0.006722 -0.120669 -0.023214 -0.149925 -0.000447 -0.000465 -0.002776 0.071591 -0.046285 -0.049580 -0.001218 -0.017911 -0.008628 -0.000574 0.000588 0.002128 -0.040846 0.019281 0.068930 -0.154381 -0.003379 -0.020048 -0.000302 0.055819 -0.135782 -0.113064 -0.066740 -0.161201 -0.004535 -0.034083 -0.051547 0.000193 -0.071586 -0.006078 0.002235 -0.026911 0.021482 -0.003983 -0.011853 0.002271 -0.101117 -0.086858 -0.006469 -0.003964 -0.001794 0.077045 -0.000306 0.000222 -0.003751 -0.003778 -0.001346 0.025652 -0.009349 -0.034733 -0.003674 -0.011828 -0.003506 -0.036398 0.015227 -0.049839 -0.068732 -0.001285 0.010471 0.001684 -0.002278 -0.030541 0.001858 -0.012652 -0.000288 -0.002329 -0.001765 -0.007309 -0.069291 -0.001318 -0.023225 0.023801 -0.002167 -0.001160 -0.061899 -0.002851 0.000213 -0.011641 -0.073936 0.136585 -0.003276 0.063278 -0.013516 -0.003631 -0.000290 0.193859 -0.000420 0.014692
-0.000148 -0.003552 -0.100421 0.003984 0.004990 0.001723 -0.032964 -0.008825 -0.012275 -0.005629 -0.014352 -0.032447 -0.013422 0.001499 -0.003317 0.000076 -0.008757 -0.019309 -0.002512 -0.008099 -0.006315 -0.014414 -0.012972 0.000193 -0.002322 -0.013260 -0.074083 -0.002782 -0.002714 0.000281 -0.013861 -0.003123 -0.001425 -0.038132 -0.008722 0.001837 0.002219 -0.028292 -0.002965 -0.004310 -0.007069 0.008549 -0.002262 -0.025618 -0.004682 -0.000231 -0.000256 -0.026595 -0.007126 0.005051 0.011336 -0.002300 -0.000543 0.000681 -0.003502 -0.025032 -0.011794 0.002866 -0.001125 -0.015424 -0.015231 -0.032417 -0.010022 -0.042493 0.006712 -0.039402 -0.020107 -0.006841 -0.032457 -0.042913 -0.002755 -0.008498 -0.016378 -0.004706 -0.002834 -0.012485 -0.027135 0.001015 0.009274 -0.020338 -0.001074 -0.000553 0.002195 0.000607 -0.012021 -0.003185 0.001333 0.042888 -0.009199 -0.088904 -0.006577 -0.012886 -0.001384 -0.013044 -0.002644 -0.028978 -0.011533 -0.001171 -0.003794 -0.001838 0.003752 -0.048210 0.002231 0.002338 0.007819 -0.025445 0.001412 -0.003002 -0.011050 0.012804 -0.017122 -0.024598 -0.004892 -0.005651 -0.026505 -0.000815 0.013686 -0.014477 -0.002720 -0.000072 -0.007019 -0.009906 -0.013409 -0.013250 0.007689 -0.003836 -0.007916 0.007616
-0.155712 -0.001043 -0.194068 -0.014237 -0.003102 -0.005239 -0.024319 0.017028 -0.094865 -0.016683 -0.016183 -0.159611 -0.016284 -0.028444 -0.038230 -0.027963 -0.033565 -0.010945 0.000564 0.009764 0.001270 0.002970 -0.002571 -0.002196 0.000519 -0.017879 0.013780 0.008417 -0.001563 0.001978 -0.000651 -0.033648 -0.000478 -0.030779 -0.028169 -0.001133 0.008130 -0.096328 0.008486 -0.021292 0.000943 0.002260 -0.002427 -0.014746 -0.018278 -0.007665 -0.000573 -0.021401 0.011198 0.004422 -0.016796 -0.000481 -0.026051 -0.019497 0.009569 -0.031860 -0.003908 -0.005000 -0.011076 -0.014663 -0.050110 -0.025192 -0.161966 -0.080120 0.012734 -0.051001 -0.022322 0.043368 -0.017015 -0.013084 0.054505 -0.003201 -0.026500 -0.004674 -0.006972 -0.025244 -0.039399 -0.001327 -0.009000 -0.006346 -0.016489 0.001739 0.000156 -0.001065 -0.004031 0.011766 0.004820 0.030269 -0.008522 -0.093002 -0.007259 0.000234 -0.024781 -0.016227 -0.005184 -0.025919 0.016253 -0.001729 -0.004026 0.005512 -0.001505 -0.189939 -0.001849 -0.012234 -0.030971 -0.000143 -0.000967 0.000534 -0.105835 0.034729 -0.061082 -0.027498 -0.000849 -0.004156 -0.015099 0.000830 0.013964 -0.010637 -0.011835 -0.001244 -0.001072 -0.063645 0.012234 -0.023690 -0.002070 -0.054989 -0.027550 0.005180
-0.009137 0.003339 -0.008030 0.000221 -0.001364 -0.001985 0.000726 -0.002036 -0.001977 -0.001958 -0.000256 -0.029455 -0.002149 -0.002672 -0.002738 -0.020162 -0.002472 -0.001999 -0.001173 -0.002079 0.004999 -0.002645 -0.002599 -0.002030 0.000304 -0.000451 -0.017259 0.002432 -0.001384 -0.002076 0.009155 0.001981 -0.002582 -0.015751 -0.001542 -0.003284 -0.000069 -0.003763 -0.003935 -0.003824 -0.003281 -0.002684 -0.001096 -0.002741 -0.003828 -0.002967 0.004065 0.001588 -0.001462 0.005430 -0.000519 -0.002912 -0.007050 -0.000242 0.000663 -0.023024 -0.000429 -0.000776 -0.000599 0.000191 -0.016431 -0.005231 -0.001268 -0.003238 0.002811 -0.016004 -0.001870 0.000008 -0.006706 -0.009685 -0.003214 -0.003394 0.003960 -0.000416 -0.000272 -0.018463 -0.022569 -0.001752 -0.006581 -0.000372 -0.003595 -0.003772 0.002732 0.000617 -0.002694 0.003289 -0.000885 0.001836 -0.001788 -0.002483 -0.001181 0.002422 -0.004314 -0.001954 0.001289 -0.010696 -0.002494 0.001602 -0.006629 -0.001779 0.004514 -0.018122 -0.000068 -0.002490 -0.025976 0.000989 -0.002865 0.000057 -0.016451 0.006406 -0.003035 -0.007689 -0.001566 -0.008902 -0.009499 -0.003458 0.000488 -0.001184 -0.001571 0.001992 0.001864 -0.001333 0.001400 -0.005302 0.001310 -0.004010 -0.001313 -0.001732
0.006419 -0.000683 -0.077739 -0.003181 0.003443 -0.009884 0.011352 0.005553 -0.005306 0.000509 0.000105 -0.059384 -0.005522 -0.005323 -0.000638 -0.024761 0.000386 -0.008133 0.016442 0.004015 -0.003053 -0.013320 -0.002800 0.002159 0.003094 -0.037012 -0.019994 0.000541 0.003790 -0.000599 0.005342 0.004765 -0.000232 -0.007278 -0.010213 -0.007007 0.009569 -0.106813 -0.002774 -0.016270 -0.000606 0.004058 0.002816 -0.030196 0.002391 -0.000942 0.001437 0.002123 -0.001497 0.003093 0.006417 -0.000002 -0.000543 -0.010305 0.012330 -0.066250 -0.008370 0.060640 -0.007514 -0.001121 -0.031034 -0.055996 -0.006879 -0.049982 -0.006517 -0.041660 -0.011702 -0.002537 -0.012534 -0.004224 0.008333 -0.005902 -0.042898 -0.007042 -0.005079 -0.018579 -0.006153 -0.000861 -0.001395 -0.005797 0.001121 0.000488 -0.003058 -0.000724 -0.003022 0.005793 -0.003146 0.001344 -0.014131 -0.046730 -0.008497 -0.003114 0.000682 -0.006882 -0.004117 -0.019288 -0.001961 0.000516 -0.000069 -0.006097 -0.000285 -0.073624 -0.001938 -0.050902 -0.030626 0.002985 -0.003022 -0.014116 -0.002239 0.006263 -0.010067 -0.027390 0.003228 0.003259 -0.002551 0.000665 0.000744 0.001402 -0.001486 -0.011442 0.001346 -0.001990 0.006899 0.001519 -0.004535 -0.041784 -0.027118 -0.000449
-0.001288 0.001524 -0.403751 -0.007745 -0.030227 -0.039218 0.054307 0.328651 -0.346831 -0.071013 -0.021877 -0.424509 0.027754 -0.101409 0.231574 0.198944 0.267994 0.114039 -0.007329 0.002305 -0.024618 -0.041926 0.004609 -0.002054 0.021562 -0.110392 0.307218 0.000207 0.001962 -0.001464 -0.005298 -0.027103 0.007028 -0.244200 -0.249285 -0.001147 -0.008810 -0.303620 -0.083149 -0.057834 -0.002075 -0.000391 0.000590 0.204185 0.296495 -0.060512 0.007095 -0.162053 -0.002453 -0.000092 0.013703 -0.000678 -0.004385 0.070611 0.056238 -0.115103 0.002047 0.006048 -0.005493 -0.028420 -0.178016 -0.343014 -0.011657 -0.234851 -0.002594 -0.184861 0.018976 -0.002156 -0.071799 -0.007080 -0.022228 0.151457 0.036913 0.001401 -0.001467 -0.017726 0.021132 -0.007282 -0.004805 0.011446 -0.000508 -0.010660 -0.001646 0.001914 0.000565 0.004892 -0.000243 0.027339 -0.003125 -0.147486 0.002595 0.001305 0.262760 -0.016451 0.040781 -0.134299 -0.059120 -0.002438 0.064398 0.000431 -0.009082 -0.200652 -0.000249 0.023938 -0.059918 -0.001089 0.002732 0.025291 -0.031596 0.016324 0.204157 -0.098296 0.009251 0.007137 -0.079634 0.000922 0.012170 -0.015155 0.009118 -0.224143 -0.005258 -0.161890 0.015610 -0.006611 -0.000613 -0.183189 -0.017215 0.151269
-0.103163 0.001229 -0.377147 -0.002852 -0.003437 0.002253 -0.254234 -0.079732 -0.006850 0.756471 -0.000593 -0.223486 0.120585 0.421303 0.022245 0.115671 0.001423 0.047188 0.000101 -0.007424 -0.003212 -0.935153 0.008320 -0.001109 -0.001593 -0.462433 0.257175 0.001234 -0.000784 0.003671 -0.000798 -0.007428 -0.000458 -0.194325 0.097693 0.000056 -0.003178 0.147595 0.015769 0.226562 0.003257 0.000750 -0.002532 -0.269440 -0.019297 0.240738 -0.002521 -0.048739 -0.003529 0.014804 -0.008364 -0.000043 -0.002003 -0.018561 -0.025284 0.008563 0.000850 -0.003415 -0.006292 0.175471 -0.420899 -0.237278 -0.139977 0.151865 -0.004056 -0.399864 -0.007352 0.003423 -0.295206 0.000386 -0.016341 -0.117383 0.075678 -0.000992 -0.000995 -0.004621 0.434434 0.130943 0.001778 0.000712 -0.328890 0.068373 0.001537 0.000088 -0.000835 0.001142 -0.002354 -0.002449 -0.005330 0.037112 -0.001390 -0.000887 -0.119204 -0.008086 -0.002535 0.152470 0.201771 -0.000971 0.099533 -0.001268 0.001163 -0.207773 0.001853 0.184061 -0.002124 -0.002718 0.002515 -0.013738 -0.299000 0.001195 -0.037771 -0.220414 -0.000488 -0.001820 -0.034221 -0.000658 0.000521 -0.002391 -0.108122 0.152323 -0.015784 0.255986 0.002074 -0.005309 -0.000187 -0.135536 0.001232 -0.007833
0.119054 0.000928 -0.444276 0.112909 0.220687 -0.005059 -0.006666 -0.310408 -0.042728 0.216733 0.029246 -0.324333 -0.012026 0.086827 0.059093 0.069846 -0.008992 -0.047042 0.001631 0.109277 -0.083819 -0.029609 -0.004875 -0.000977 -0.052651 0.095189 -0.229556 -0.002590 -0.001542 0.001736 -0.005156 0.018153 -0.005414 -0.127691 -0.016400 0.043840 0.003784 -0.280470 0.380511 0.020655 -0.001748 0.003470 -0.000241 0.392369 0.112567 0.076049 -0.001426 -0.011082 0.063424 0.001281 -0.012281 0.006216 0.003838 -0.000306 0.004258 -0.019630 -0.012643 -0.019262 -0.000044 0.014286 -0.217063 -0.195075 -0.176507 -0.296771 0.000752 -0.345314 -0.011285 -0.009934 -0.279478 -0.027468 0.000707 -0.070897 0.116898 -0.001984 0.001488 -0.002973 0.004007 -0.050639 0.000418 -0.005937 -0.008558 -0.011104 -0.001567 0.000719 -0.006435 0.040374 -0.015500 0.000078 -0.012472 -0.000089 -0.014855 -0.000202 -0.051411 -0.037615 -0.001136 0.044040 -0.093034 0.001827 0.142558 0.000746 0.001915 -0.267843 -0.001940 0.005677 -0.001007 0.001592 0.008112 -0.017257 -0.202807 0.004205 0.171133 -0.059772 0.007937 0.005625 0.120348 -0.000044 0.044325 -0.008022 -0.135642 -0.005364 0.000678 -0.057062 0.000217 -0.011457 0.000440 -0.280984 -0.003313 -0.137736
0.276876 -0.000412 -0.395072 0.103903 0.010157 0.085334 -0.645345 0.316171 0.001684 0.200704 -0.047662 -0.401556 0.036106 -0.284384 -0.099504 0.321548 -0.105540 -0.287574 0.024365 -0.102331 -0.008207 0.609689 -0.017971 0.000307 0.063402 0.449176 -0.273006 0.002996 -0.001530 0.000680 0.000968 -0.023806 -0.001482 -0.212057 0.114611 0.008470 -0.000594 0.079107 -0.026993 0.136577 -0.001732 -0.006723 -0.001013 0.227898 0.166682 -0.106321 -0.001399 0.077508 0.009511 -0.000961 -0.002226 0.000552 0.071478 0.111641 0.080899 0.283536 -0.008639 -0.036118 -0.012050 0.269057 -0.184309 0.036244 -0.054329 -0.405872 -0.011616 -0.198659 -0.023988 -0.002149 0.269084 -0.002453 0.002225 0.023258 -0.242022 0.000687 -0.001944 0.043862 -0.236218 -0.067068 0.001269 -0.012665 0.658616 -0.067107 0.001348 -0.000468 0.007525 0.002324 -0.011921 -0.000642 -0.003825 -0.042645 -0.001682 -0.001160 0.109076 -0.013415 0.024481 -0.003507 0.109359 -0.001807 0.001275 -0.003961 0.003589 -0.392194 0.001357 -0.060919 -0.045856 -0.001220 -0.000127 -0.024031 -0.208083 -0.009635 -0.023106 0.081823 -0.000009 -0.015328 0.154115 0.002574 0.327374 0.007930 0.406227 0.234061 -0.003262 0.084246 -0.018674 -0.004009 -0.000383 -0.081492 -0.043830 0.050558
-0.025788 0.000964 -0.008209 0.000692 -0.042804 0.074079 -0.027215 0.021802 0.108028 0.100672 -0.064039 0.001917 -0.031994 -0.064513 -0.064485 -0.130170 0.118382 0.014880 0.002200 0.013929 -0.045404 -0.034331 0.004886 0.000845 0.006937 0.010103 -0.047499 0.005164 -0.002470 0.000241 -0.004788 -0.002119 0.000245 -0.177361 -0.005127 -0.003031 0.007507 -0.201884 -0.028622 0.176983 0.001495 -0.012008 -0.003875 -0.101360 0.043292 -0.003758 0.001811 -0.065623 -0.010834 0.005747 0.003700 -0.000628 -0.004769 -0.009566 0.044500 0.010388 0.020316 -0.025656 -0.015624 -0.067231 -0.035289 0.104377 -0.106849 -0.083385 -0.006936 -0.096111 -0.077033 0.001875 -0.039276 -0.032851 -0.001509 -0.007504 0.019226 -0.000963 -0.015596 -0.006196 -0.001210 0.008236 0.001680 0.008550 -0.002132 -0.055571 -0.000747 0.000167 -0.004589 -0.006730 -0.007823 -0.002650 -0.009948 0.050099 0.000018 -0.005100 0.002289 0.000109 -0.009045 -0.069306 -0.185945 -0.000075 0.025694 0.009149 0.016612 0.206054 0.001313 0.008537 0.001023 0.004775 -0.000039 0.050596 -0.023989 0.101152 0.062512 -0.023389 -0.000251 -0.001536 -0.001499 0.001728 0.018830 -0.014287 -0.085434 -0.135580 0.000733 0.186150 0.017392 0.002435 -0.008886 -0.033717 0.005770 -0.016269
-0.015543 -0.001582 -0.128269 0.005714 -0.006340 -0.012501 -0.051744 0.030689 -0.030408 -0.018310 -0.034090 -0.147340 0.006766 0.003112 -0.090036 -0.009924 -0.020320 -0.080818 -0.008378 0.031203 -0.026608 -0.017829 0.011051 0.000649 0.008687 -0.005655 -0.071098 -0.003111 0.004024 0.008051 -0.008269 0.000636 -0.013094 -0.060181 -0.000289 -0.024703 -0.007314 -0.032401 -0.002993 -0.022682 -0.000025 0.001664 0.000698 0.001517 -0.018855 0.002563 0.003004 -0.014259 -0.006696 -0.002783 0.004162 -0.003343 -0.007621 0.000119 0.003811 -0.016322 0.003316 -0.002574 0.003766 0.017057 -0.012094 -0.037991 -0.017731 -0.045510 -0.003314 -0.033719 -0.017821 0.025198 -0.020018 0.016569 -0.012121 -0.012615 0.009252 -0.000129 -0.004477 -0.008753 -0.015869 -0.025031 -0.009865 -0.015294 -0.014874 -0.001031 0.000043 -0.001400 0.000921 -0.000368 -0.006016 0.006009 -0.007224 -0.008634 -0.000283 -0.002477 -0.003023 -0.018537 -0.006712 -0.003443 0.005820 0.000152 -0.000761 -0.001233 -0.006932 -0.030531 0.002671 -0.004984 0.034230 0.019065 -0.004131 -0.004070 -0.002815 0.017314 -0.007345 -0.007585 -0.003124 -0.001272 0.012269 0.002132 -0.013673 -0.005611 -0.006969 -0.026270 0.014776 0.003950 0.004961 -0.007643 0.001689 -0.000826 0.001387 -0.005413
-0.013170 0.001267 0.363381 -0.008401 -0.064834 -0.025722 0.306031 0.117703 -0.022654 0.193998 -0.019735 -0.302696 -0.030850 0.312494 0.122391 -0.057465 -0.091464 -0.126466 0.020268 0.102389 0.072168 0.088921 -0.015311 0.000042 0.001348 0.080933 0.240449 -0.003079 0.000984 -0.000246 -0.001018 0.009666 0.024018 0.175054 -0.059526 0.028149 0.002715 -0.229262 -0.055214 0.186552 -0.000115 -0.004271 -0.014461 -0.288274 -0.154554 0.254795 -0.001369 0.003949 -0.049484 0.003576 -0.006523 -0.015431 0.029829 0.008355 0.115487 0.235718 0.000519 0.040968 -0.003894 -0.016744 -0.207344 -0.077224 0.125748 -0.133098 0.008317 0.200406 -0.009095 0.002999 -0.381009 0.023183 -0.011297 -0.161158 0.127831 -0.003949 0.018596 0.049878 0.596527 0.184926 -0.001564 0.001776 0.320252 0.003243 -0.002062 0.000449 0.004493 0.002678 0.029431 -0.020339 -0.028013 0.351453 0.019736 0.000496 0.097117 0.003155 0.036658 0.259034 0.320133 0.001074 0.044845 -0.002516 0.015699 -0.352641 0.003563 -0.043032 -0.021578 -0.016957 0.000601 -0.017290 -0.551547 0.020279 0.220693 -0.380934 0.003531 0.004199 0.207575 0.049371 -0.039069 -0.029990 0.092501 -0.208470 -0.003886 0.130643 0.077072 -0.025792 0.007650 -0.480968 -0.038916 0.080021
-0.009149 -0.000833 -0.111244 0.000124 -0.001398 -0.003634 0.000557 -0.002416 -0.006239 0.001011 -0.000312 -0.112016 -0.006185 -0.004884 -0.100581 -0.005985 -0.001976 -0.089252 0.001303 0.001303 0.000317 0.000341 -0.007133 0.000700 -0.011895 -0.002829 -0.019816 -0.002522 -0.000374 -0.002140 -0.005833 0.007618 -0.006002 -0.006998 -0.004877 -0.012251 -0.001819 -0.003961 -0.070782 -0.003735 -0.000317 -0.007263 -0.012488 -0.008598 -0.012466 0.004041 0.000580 -0.014827 0.009665 -0.001679 0.016871 -0.000347 -0.017356 -0.017320 -0.014133 -0.009124 -0.021150 -0.030331 -0.006133 -0.003229 -0.007288 -0.010681 -0.009319 -0.007192 -0.001772 -0.001980 -0.014923 -0.002694 -0.009760 -0.007548 -0.001727 -0.020054 -0.004874 0.001729 -0.003205 -0.005403 -0.010828 0.005923 0.019107 -0.007300 -0.004058 0.000294 -0.001990 -0.001335 -0.008221 0.000628 -0.008077 -0.000100 -0.011784 -0.005208 0.003623 -0.000453 0.002232 0.000730 -0.004829 -0.011428 -0.001830 -0.000366 0.003455 0.003283 -0.000747 -0.086406 -0.001848 -0.006671 0.000531 -0.001897 -0.001311 0.001184 -0.008784 0.007092 0.002367 -0.021785 0.000494 0.005137 -0.012865 -0.000245 0.007721 -0.008753 0.001379 -0.012501 -0.002426 0.003800 -0.002333 -0.010588 -0.001856 -0.007068 -0.008597 -0.068445
-0.003600 0.002866 0.090100 -0.071312 -0.083965 -0.052170 0.135349 0.019409 0.012369 0.057957 0.032497 -0.124254 -0.067126 -0.049587 -0.008364 -0.085138 0.089903 -0.000451 -0.005326 -0.018040 -0.001785 -0.000243 0.037911 0.000334 0.107725 -0.027389 0.251105 -0.003081 0.002103 -0.000161 -0.005828 -0.014955 -0.016163 -0.132427 -0.123093 -0.029851 0.002438 -0.179392 -0.131910 0.238964 -0.003307 -0.004535 -0.002291 0.032220 0.017798 -0.006583 0.005843 -0.006374 -0.026481 0.004101 0.002866 0.002344 0.010498 0.047381 0.035951 -0.023663 -0.001982 0.101710 -0.002990 -0.070430 -0.122364 -0.066759 0.010270 -0.090103 -0.004004 -0.132770 -0.022599 -0.002900 -0.026059 -0.001399 -0.018434 0.003898 -0.067219 -0.000469 -0.002268 -0.037633 -0.058085 -0.015583 -0.000865 -0.023046 0.006698 0.122689 0.000952 -0.001174 0.003959 0.002596 -0.003672 -0.078347 -0.005842 0.135260 -0.000523 -0.002185 -0.030683 0.002504 -0.004615 0.009571 -0.067795 -0.000705 -0.047998 -0.000722 0.007049 -0.134784 -0.002548 0.037649 0.049962 0.004708 0.002277 -0.001016 -0.120640 0.013251 -0.070009 -0.231764 0.005964 -0.004195 0.071100 0.001276 -0.044816 -0.001926 0.041667 0.014013 -0.002851 0.039311 -0.003170 -0.009345 0.003855 -0.070251 -0.006972 -0.020240
-0.124788 0.000314 -0.184377 -0.002917 -0.006096 0.004761 -0.211238 0.098660 -0.104369 0.017850 0.005110 -0.283881 -0.119060 -0.002112 -0.126124 -0.069391 -0.079308 -0.042354 -0.010138 0.007313 -0.021011 0.023052 0.047469 0.002553 0.099104 -0.033830 -0.037522 0.000966 -0.004575 -0.000111 -0.003108 -0.010492 0.001054 -0.035258 -0.022048 0.085243 0.020841 -0.078159 -0.001883 -0.030035 -0.004562 0.002853 0.001384 -0.029919 0.090470 -0.004676 0.005869 -0.051635 0.008704 0.011507 0.004193 -0.000539 -0.045159 0.000025 0.025628 -0.025575 -0.001582 -0.060113 -0.001905 -0.047161 -0.034436 -0.196798 0.001022 -0.205861 0.001687 -0.126735 -0.059697 0.004345 0.039480 -0.058389 0.029405 0.170834 -0.021756 0.000534 -0.000436 -0.000900 -0.058392 0.051708 -0.001588 -0.021583 -0.028738 0.045115 0.000806 -0.000451 -0.004617 0.003749 0.000439 -0.026479 -0.006921 0.013927 -0.000268 0.001936 -0.007036 -0.046876 0.030939 -0.168444 -0.038216 -0.001775 -0.003674 -0.000686 -0.011711 -0.007937 -0.000679 0.013237 0.039235 0.004507 0.000483 -0.012880 -0.271329 0.033912 -0.054596 -0.148356 0.001621 -0.010297 0.005209 -0.001967 -0.003420 0.005019 -0.324829 -0.037135 0.009827 -0.079908 -0.012090 -0.011557 0.010127 -0.077900 -0.012055 -0.055950
0.005294 0.000787 -0.193422 0.050574 -0.000434 -0.009728 -0.036240 0.025375 -0.064337 -0.017809 -0.019880 -0.188298 -0.008968 0.025978 0.000167 -0.027068 -0.007668 0.026505 -0.013311 -0.005731 -0.010399 0.038186 -0.004677 0.001197 0.011197 0.014498 -0.092067 -0.004300 0.005190 -0.003368 -0.005322 0.035983 -0.001024 -0.056259 -0.065260 0.041089 0.006673 -0.311045 -0.011426 -0.079457 -0.000314 0.011307 -0.006878 -0.088892 -0.110590 -0.024034 0.001239 -0.054633 0.020785 -0.003647 -0.001694 -0.000852 -0.015870 -0.016587 0.032632 -0.124113 -0.002636 -0.001576 -0.006417 -0.000655 -0.140566 -0.092066 -0.122900 -0.117314 -0.003743 -0.077366 0.052702 -0.005166 0.018976 -0.009137 -0.023976 -0.007827 -0.022503 -0.007590 0.003649 -0.010225 -0.027962 0.047820 0.004236 -0.017230 -0.004228 -0.042346 0.000044 0.003485 -0.009214 0.003355 -0.006627 -0.013570 0.000714 -0.015622 -0.002856 0.000506 -0.013609 -0.003274 -0.084760 -0.038637 0.059237 0.000392 0.004484 -0.005608 0.012753 -0.219542 0.002213 -0.006447 -0.014141 0.004310 0.001877 0.006056 -0.103469 0.001549 -0.002453 -0.005756 0.001333 0.003478 0.045369 -0.000564 -0.002053 -0.015317 0.008439 0.037645 -0.000904 0.013241 0.001343 -0.005568 0.001198 -0.077591 0.043674 0.006858
-0.100712 -0.000202 -0.347394 0.057527 0.117340 0.039144 -0.305667 -0.107682 0.115438 0.078357 -0.020121 -0.186220 0.258824 0.218208 0.158228 -0.057586 -0.208255 -0.004319 -0.022815 0.006837 -0.111977 0.054120 -0.013402 -0.000814 -0.033804 0.302519 -0.137968 0.002886 -0.000805 -0.001831 0.008610 -0.004417 -0.000262 0.155553 -0.324140 -0.110881 -0.004677 0.101690 -0.015633 -0.026422 0.004737 -0.012280 -0.005657 0.188473 0.145442 -0.001691 0.005544 -0.110938 -0.004058 0.003665 -0.011410 0.008613 -0.006347 -0.104902 -0.189483 -0.146214 -0.017481 0.075144 -0.000280 0.077617 -0.238630 0.051327 -0.083561 0.810401 -0.002803 -0.220535 -0.071491 0.002050 -0.205755 0.003250 -0.001554 0.226353 0.238661 0.000396 -0.007251 -0.030364 -0.272631 0.087891 -0.001162 -0.011436 -0.077570 -0.042588 -0.001264 -0.007771 0.005406 0.000998 0.028518 0.030798 -0.015615 -0.116735 -0.017291 -0.004363 -0.068993 -0.008493 -0.004681 0.040393 0.077696 0.001545 -0.108485 0.000541 -0.002028 0.050439 -0.000684 -0.111081 0.004636 -0.034985 -0.002461 -0.028532 -0.113833 -0.004578 -0.046279 -0.205837 -0.003122 0.028455 0.121080 0.008299 -0.110558 0.002629 -0.059023 0.018750 -0.016666 -0.140020 0.013252 -0.012060 0.026984 -0.165641 0.005633 0.276260
0.115300 0.001614 -0.309537 -0.000562 0.057288 -0.060909 0.029801 0.007422 -0.038546 -0.162358 0.007309 -0.264096 -0.012128 0.085490 0.026851 -0.072554 -0.031027 0.085260 0.002927 -0.023374 -0.011238 -0.005071 -0.019352 -0.001070 0.033320 -0.058634 -0.216016 -0.000551 -0.001923 0.000505 0.000265 -0.010657 0.025774 -0.086422 -0.067173 0.071480 -0.018791 -0.108621 -0.042601 0.042766 0.005794 -0.001843 0.000832 -0.032175 -0.017510 0.014662 -0.000391 -0.009967 -0.056856 -0.001362 -0.000961 -0.000849 0.032758 0.029475 0.064513 -0.111279 0.021941 -0.037893 -0.005225 -0.013091 -0.165901 -0.144638 -0.065005 -0.139271 -0.004422 -0.205767 0.004618 -0.011825 -0.108667 0.025056 0.067500 -0.029216 -0.119480 -0.020818 -0.014387 -0.066037 -0.106466 -0.002515 -0.001313 -0.016237 0.015330 0.052495 -0.002012 0.001758 -0.006026 -0.002801 -0.004025 -0.011216 -0.004602 0.001357 0.027582 0.000212 0.031175 -0.050976 0.004001 0.022683 -0.048952 -0.002587 0.035727 -0.000519 -0.003827 -0.102069 0.001381 -0.027650 0.019439 -0.018045 0.002346 0.022301 -0.064274 -0.022658 -0.011881 -0.079064 -0.001140 0.005609 -0.063636 -0.002224 0.073847 -0.015194 -0.056379 -0.004366 0.022358 -0.108336 0.043880 -0.029632 0.000100 -0.122374 -0.018913 -0.011655
0.078735 -0.001389 -0.314071 0.029865 0.006148 0.006208 0.202415 -0.064372 0.441486 0.293925 -0.004411 -0.299925 0.244057 0.290444 -0.174688 0.291584 0.277208 -0.171109 0.030943 -0.074736 0.086356 0.189323 -0.009341 0.003230 -0.006922 0.056682 -0.158910 0.002967 0.000936 0.002258 0.001460 -0.016765 0.020992 0.175654 -0.105134 -0.156774 0.004388 0.062979 0.095491 0.086252 0.004563 -0.002385 -0.004148 0.446224 -0.252173 0.021941 0.000033 -0.193155 0.001430 -0.004888 -0.006487 -0.001071 -0.017926 0.462240 -0.160492 0.592622 0.002938 -0.032685 -0.000079 -0.026117 -0.368182 -0.101281 -0.201073 0.316401 -0.004980 -0.567930 0.007959 -0.006186 -0.066318 -0.012975 -0.001914 -0.169667 0.469643 -0.006886 0.003589 -0.005355 0.138072 -0.040642 0.005109 -0.014961 -0.433140 0.117454 0.001463 0.001124 -0.007655 0.004716 -0.007831 -0.014871 -0.002952 -0.126965 -0.003517 -0.000737 0.022339 -0.055895 0.001191 0.263285 -0.217752 0.001555 0.194707 0.001542 0.002438 -0.187932 -0.002041 0.027067 -0.032793 -0.003950 -0.004495 -0.013970 -0.023870 0.001886 -0.248394 -0.166618 0.002000 0.010656 -0.045752 -0.005700 0.061752 -0.002853 0.112983 -0.058476 -0.008048 -0.108501 0.007393 0.011499 -0.004141 -0.106199 -0.012552 -0.097212
0.034527 0.002754 -0.277685 -0.001318 0.002379 -0.056367 0.357720 0.157844 0.100132 0.406466 -0.043585 -0.238281 -0.027249 0.169052 -0.043718 -0.081382 0.060763 0.035762 0.003543 0.016340 -0.013944 0.044859 0.025623 -0.000236 -0.090396 0.100139 -0.035789 -0.003443 0.002454 -0.001284 -0.021007 -0.022242 0.018296 0.039365 -0.114013 -0.020257 0.008183 -0.064203 0.009175 0.079556 -0.001303 0.010930 -0.002853 0.109497 0.012424 0.066834 -0.004401 -0.028976 0.010145 0.000380 -0.000644 -0.000232 -0.021928 0.204666 0.020325 -0.052587 0.000840 0.105715 -0.002863 0.162461 -0.090730 -0.246341 -0.023844 -0.204860 -0.003568 -0.183362 -0.015115 -0.000727 -0.119156 0.017017 -0.013858 -0.009144 -0.183234 -0.001533 -0.042265 0.012921 -0.015791 0.127779 0.001141 0.070460 -0.015194 -0.037442 -0.000241 -0.000918 -0.003538 0.003226 -0.012772 -0.017621 -0.021173 0.184362 -0.000473 -0.000928 0.000142 -0.063941 0.002642 0.049964 0.185065 0.001603 -0.037061 -0.003855 0.000977 -0.251727 -0.000211 -0.099776 0.028783 -0.000736 0.001484 0.049762 -0.191427 0.020596 0.304950 -0.052023 0.000570 -0.010185 0.276544 0.000642 0.074712 0.014049 -0.214577 0.020292 -0.001317 0.187373 0.021158 0.017534 0.001265 -0.280346 0.009578 0.120192
-0.000756 -0.001702 -0.028522 -0.006641 -0.009840 0.000037 0.013976 -0.003017 0.010609 -0.001781 -0.002410 -0.035544 -0.006081 -0.019989 0.002643 -0.013056 -0.007777 0.007204 -0.020164 -0.003484 -0.002072 -0.000041 -0.003639 0.001076 -0.004125 -0.005024 -0.034355 -0.000574 -0.002300 0.003302 -0.000247 -0.004629 -0.016037 -0.019330 -0.023914 -0.001701 0.005092 -0.055730 -0.000108 -0.014827 -0.002408 -0.006304 -0.006113 -0.016151 -0.010877 -0.017598 -0.001532 -0.004255 -0.007347 0.006344 -0.002417 -0.002542 -0.008279 0.000036 0.013198 -0.041223 0.002233 -0.005185 -0.005310 -0.009480 -0.003493 -0.014611 -0.018599 -0.001747 0.004268 -0.035134 -0.009119 -0.011086 -0.027898 -0.017627 -0.015073 -0.030247 -0.028066 -0.007759 -0.005630 0.003140 -0.019833 -0.003848 -0.000085 0.001409 0.001115 -0.000856 0.003778 -0.001134 0.000694 -0.002693 0.002167 0.000543 -0.016769 -0.038687 0.001663 -0.010583 0.003640 0.001033 -0.026424 -0.021428 0.004547 0.001234 0.005557 0.008305 0.004399 -0.037182 0.001478 -0.019600 -0.003657 -0.020237 -0.002430 -0.008090 -0.031443 0.004634 0.000950 -0.023700 0.002179 0.000645 -0.007190 -0.000810 0.001477 -0.007486 -0.013077 -0.001145 -0.004014 -0.002212 0.008648 -0.007131 0.014488 -0.006867 0.003897 -0.023679
0.007601 0.000352 -0.092941 -0.010112 0.012540 0.006368 -0.003317 -0.128048 -0.022283 -0.008242 0.005171 -0.038252 0.005401 -0.004995 -0.000894 -0.022557 -0.007479 -0.002505 -0.003099 -0.001119 -0.013536 -0.005868 0.014804 0.001658 -0.005649 -0.000446 -0.067959 0.002212 -0.001703 -0.000838 -0.000372 0.004621 0.006196 -0.068644 0.000297 0.032992 0.000768 -0.068282 -0.001923 -0.083137 0.000415 0.000454 -0.002095 -0.036959 -0.003364 0.001278 0.002010 0.031901 -0.000397 0.008352 -0.007985 -0.003670 -0.006117 -0.002310 0.009089 -0.110741 -0.007821 -0.007175 -0.013516 -0.000899 -0.073145 -0.081117 -0.120493 -0.035431 -0.003135 -0.061236 -0.003596 0.003411 -0.042810 -0.002606 -0.011648 -0.047571 0.002545 -0.005444 -0.000023 -0.005107 -0.029388 0.000446 0.009443 0.003153 -0.002551 -0.022655 0.000122 -0.001902 -0.002019 0.001644 -0.006586 -0.019645 -0.012607 -0.012382 0.016618 0.001089 -0.010176 -0.005319 -0.004398 -0.048310 -0.067334 0.001156 -0.009968 -0.009492 -0.012994 -0.031983 0.001877 0.005907 0.001968 -0.001976 -0.000540 -0.020226 -0.034196 -0.036055 -0.020330 -0.096087 -0.000326 0.001961 -0.011417 -0.000366 0.007535 -0.002087 -0.003655 -0.009465 -0.009796 -0.056298 -0.004497 0.001772 0.000424 -0.043320 -0.068307 -0.004968
-0.009019 0.001101 -0.073874 -0.000174 0.001913 -0.012219 -0.005236 -0.004469 -0.014529 -0.004145 -0.004062 -0.097929 -0.003468 -0.090150 0.004344 -0.011764 -0.032295 -0.001613 -0.005743 0.000866 0.005797 -0.001673 0.001530 -0.001312 0.001545 0.002481 -0.032969 -0.001764 -0.001901 -0.002190 0.004169 -0.011197 -0.002956 -0.004470 0.000186 -0.002056 -0.004319 -0.021206 -0.007847 -0.003743 -0.000770 0.006583 -0.001919 -0.023460 -0.059896 -0.090634 -0.004230 -0.026674 0.001117 0.002325 -0.001214 0.000559 -0.010025 -0.002122 -0.002980 -0.003790 -0.000872 -0.005870 0.001041 -0.023127 -0.015124 -0.008372 -0.007001 -0.028281 -0.003574 -0.092147 -0.003518 0.003648 -0.026092 -0.029090 -0.001457 -0.000884 -0.001436 -0.000625 0.000237 -0.000611 -0.003197 -0.027274 -0.005528 -0.003147 -0.002568 -0.001221 -0.001299 0.006256 -0.001703 0.004468 -0.007405 -0.028935 -0.006804 -0.031031 0.000114 0.002672 -0.000847 0.013990 0.001210 -0.011807 0.002983 0.000452 0.002643 0.000939 0.004558 -0.092288 0.001590 -0.006986 -0.002589 -0.005271 0.001891 0.004916 -0.042839 -0.058526 -0.014501 -0.064503 -0.000590 -0.004695 -0.004413 -0.004805 -0.010412 -0.004183 -0.001216 -0.004201 0.000223 -0.021449 -0.006849 -0.008021 0.020073 -0.046183 -0.001089 -0.003364
-0.009179 0.004195 -0.261778 -0.027300 0.005909 0.037795 0.205872 -0.057479 -0.265639 0.663481 -0.010631 -0.280337 0.155631 -0.180480 -0.048197 0.014296 -0.327388 -0.016822 0.006888 -0.014464 -0.010851 0.240049 0.004736 0.001396 -0.007581 0.120050 -0.546061 -0.001495 -0.000618 -0.001526 0.028619 0.013865 -0.002358 -0.396451 -0.076160 -0.004078 0.021488 -0.035755 0.036330 0.139318 -0.003068 -0.001409 -0.016302 0.030135 -0.109696 -0.129919 0.002387 -0.105151 0.032675 0.001001 -0.013660 0.001784 0.009471 0.007519 -0.032761 0.051703 -0.002236 -0.100034 -0.009048 -0.064363 -0.031211 -0.137095 -0.188574 -0.042346 -0.004725 -0.216270 -0.027932 -0.011891 -0.140754 -0.031948 -0.019772 -0.006631 -0.029584 0.001734 -0.006338 0.024945 -0.180058 -0.024593 -0.015727 -0.012191 -0.225872 0.149394 0.002147 0.002015 -0.002356 -0.059339 -0.020248 0.006204 -0.023505 0.051750 0.010879 0.000604 0.125365 0.027729 -0.021351 -0.638698 0.150056 0.000536 -0.011476 -0.000954 -0.009782 -0.266485 -0.001646 0.003038 -0.011470 -0.007650 0.001731 -0.021369 -0.168437 -0.024869 -0.048444 -0.183064 0.006607 -0.000783 -0.061706 -0.000745 -0.004713 -0.002416 0.192122 -0.012580 -0.016638 0.131923 -0.028428 0.009089 0.011827 -0.095456 -0.062080 0.260527
-0.138725 -0.001726 -0.219429 -0.036889 -0.012635 0.008478 0.363702 0.241719 0.219328 -0.103032 -0.027907 -0.308661 0.170675 -0.053600 -0.002525 -0.187598 0.119336 0.263920 0.006392 -0.017772 0.044155 -0.072548 0.031817 0.002276 -0.022049 0.236563 0.003910 0.005473 0.000638 -0.000958 0.020269 0.002719 0.018159 -0.495707 -0.281932 0.090075 0.014831 -0.296161 -0.019624 0.051573 -0.002282 0.007872 0.003924 0.103831 0.203621 -0.089838 -0.004328 -0.219044 -0.012041 0.008483 -0.007747 -0.004363 -0.032865 0.021032 -0.199506 -0.124069 -0.003727 0.161550 -0.011174 -0.210255 -0.292530 -0.063881 -0.232051 -0.443298 -0.006337 0.124364 -0.036251 -0.013103 0.053436 0.013093 -0.038856 0.342868 0.298926 -0.001758 -0.024273 0.034591 0.056547 -0.014914 0.004297 -0.080613 -0.055527 0.143942 0.000706 0.003746 -0.006648 -0.012287 -0.030841 0.015335 0.008831 0.409705 -0.006791 -0.007154 -0.052741 0.082362 -0.015347 -0.078276 0.152477 -0.001730 0.124948 0.003478 0.018225 0.642954 0.002253 -0.150841 -0.039647 0.001582 -0.002356 0.035243 -0.444088 -0.093429 0.018079 -0.249070 0.006969 0.014540 -0.296226 0.020875 0.008019 -0.009746 -0.115106 -0.101707 -0.027055 0.139855 0.003992 -0.030456 -0.011407 -0.306178 -0.037740 0.299049
-0.205234 -0.001875 -0.321340 -0.066857 0.174936 0.012221 -0.444391 -0.308431 -0.253057 -0.496396 0.028899 -0.362370 -0.080166 -0.059805 0.277020 0.137452 -0.114950 -0.204253 0.010471 0.011606 0.027631 0.400567 -0.026780 -0.000530 0.002110 -0.091393 -0.170102 0.001160 -0.001088 0.000542 0.000127 -0.025651 0.016747 0.050297 0.057530 -0.033042 -0.019456 0.097640 0.035320 -0.126933 0.006630 0.009845 0.012458 -0.004965 -0.244409 -0.000788 0.010227 -0.256410 -0.052959 -0.006432 0.015350 -0.005051 0.010852 -0.113268 0.048990 0.009817 0.000871 -0.047100 -0.000074 -0.433281 -0.084066 -0.019011 0.812607 -0.361757 -0.007205 -0.031322 0.006834 -0.007380 -0.203908 -0.026933 -0.019308 -0.107219 -0.051231 -0.005205 -0.014086 0.000308 0.194653 0.035586 -0.009914 0.061874 0.140900 -0.010400 -0.019600 0.001992 -0.001946 0.005804 -0.033286 0.026521 -0.014315 -0.147200 -0.011010 0.006123 -0.153670 -0.038511 -0.004654 -0.232474 -0.346272 -0.000640 0.104589 0.002529 -0.007749 -0.024641 -0.000179 -0.008862 -0.002253 -0.002582 -0.001024 -0.006591 -0.255524 0.135050 -0.189635 -0.374324 0.001730 -0.005176 0.044258 -0.005652 -0.395698 -0.013375 -0.522095 0.048936 -0.004985 -0.192895 -0.055790 -0.006199 0.004056 -0.240220 -0.035853 0.017793
0.000519 -0.000843 -0.222576 -0.059055 0.015058 -0.001943 0.197670 0.291267 0.162496 -0.215806 -0.009967 -0.309577 -0.119762 0.234109 0.063095 0.397631 -0.174396 0.044105 -0.017085 -0.053248 0.001690 -0.204505 0.006350 0.000083 -0.001502 0.094316 0.180775 -0.000654 -0.001871 0.000752 -0.000176 -0.013915 -0.012700 -0.070102 -0.220929 -0.059431 0.008521 -0.276456 -0.007584 0.060975 -0.005689 0.018209 -0.005561 0.054294 -0.069352 -0.032099 -0.008775 -0.023637 -0.003001 -0.001909 -0.004154 -0.001240 -0.011559 -0.099306 0.321423 0.093283 -0.000434 0.013088 -0.000569 0.023603 -0.430008 -0.396018 -0.182778 -0.249646 -0.016918 -0.404840 0.000753 0.000484 -0.145643 -0.050086 -0.004109 -0.000552 0.075091 0.001726 0.006215 -0.003707 -0.112857 0.327288 -0.002491 -0.005597 0.028092 -0.051202 0.002246 -0.002728 0.002915 -0.057293 -0.000867 -0.027120 -0.002743 0.015733 0.001631 -0.002370 -0.073165 0.001289 -0.006348 -0.134834 0.368748 -0.000100 -0.019576 0.002761 -0.006004 -0.393653 -0.001279 -0.059665 -0.000819 0.004228 0.006123 -0.023407 -0.170999 0.130637 0.039636 -0.304391 0.005503 0.039894 0.219203 0.001561 -0.069000 -0.006783 -0.140270 -0.038747 -0.001458 -0.159404 -0.049020 -0.032287 -0.003909 -0.345479 -0.005492 0.168769
0.056742 0.000261 -0.074849 0.003624 -0.003936 -0.003994 0.229930 0.003289 0.328478 0.255912 -0.002591 -0.131419 0.225287 -0.088874 0.026398 0.173786 0.063900 0.060898 0.017786 -0.021038 0.003348 0.374204 0.002792 -0.001761 -0.047228 0.135454 -0.249682 -0.004204 -0.001446 0.001941 0.005990 -0.002185 0.001525 0.149983 -0.016386 -0.089473 0.002844 0.191736 0.112886 0.156911 -0.000569 -0.005544 -0.000097 0.414241 -0.365037 0.015559 0.006817 -0.003605 0.001083 0.001977 -0.000533 0.000197 -0.008030 -0.000631 0.313493 0.069626 -0.006371 0.018679 -0.010880 0.283094 -0.451718 0.043339 -0.406024 0.158419 -0.004818 -0.451082 0.074716 0.003792 0.075735 -0.009753 0.008174 0.169748 0.294308 -0.003203 -0.003726 0.003417 -0.153946 -0.053769 -0.011764 -0.000246 0.469927 0.250887 0.000758 -0.000002 0.002318 -0.005429 -0.004980 -0.000202 -0.011851 0.226174 0.005353 -0.001667 0.048736 -0.008777 0.000208 0.376499 0.243690 0.000000 0.153279 0.001545 -0.007443 -0.046026 -0.002506 -0.212202 0.001678 0.000395 0.003631 0.023644 0.230032 -0.015612 0.203758 0.068725 0.000676 -0.007296 0.210730 -0.002887 0.025007 0.004474 -0.267575 0.471662 0.003372 0.258218 -0.000800 -0.004104 0.010063 -0.242450 -0.001320 0.070380
0.011163 -0.001151 -0.055498 0.017992 -0.009605 0.001244 -0.023530 -0.022682 0.003433 0.002594 -0.009920 -0.047361 -0.007766 -0.015353 -0.018860 -0.033573 -0.008878 0.012615 0.000144 -0.004580 0.015919 -0.015847 -0.005649 0.000433 -0.007607 0.007326 -0.036907 -0.000508 -0.002785 -0.000955 -0.004467 -0.019478 0.000054 -0.023810 -0.006308 0.001066 0.034632 -0.039108 -0.008387 -0.012481 -0.000822 -0.001496 0.001579 -0.038392 0.007013 0.011144 0.002215 -0.030571 -0.014007 0.000579 -0.001040 -0.000675 -0.006118 -0.007508 -0.000984 -0.029834 0.000715 -0.025281 -0.004379 -0.031801 -0.026832 -0.014896 -0.003991 -0.039704 -0.005112 -0.053871 0.001323 0.002106 -0.016118 -0.007019 -0.014345 -0.012085 -0.019289 -0.000280 -0.003318 -0.009004 -0.026460 -0.037571 0.012815 -0.036863 -0.008181 0.000685 -0.000404 -0.001535 0.012247 -0.013713 -0.018510 -0.026310 -0.025622 0.006880 -0.008721 -0.003209 -0.002585 -0.015369 -0.000981 -0.034086 -0.011403 0.000533 -0.014909 0.003115 0.002081 -0.063428 0.002141 0.007205 -0.001019 -0.001744 -0.005130 -0.002614 -0.004861 -0.002253 -0.035232 -0.020923 -0.000503 -0.002461 -0.017742 -0.002196 0.004366 -0.010498 -0.011388 -0.001495 -0.005557 -0.029877 -0.049742 -0.031563 0.000559 -0.040777 -0.029464 -0.016939
0.062352 -0.000446 -0.286522 -0.013565 0.000210 -0.001049 0.048473 0.099941 -0.132375 0.190323 -0.004704 0.013476 0.040399 -0.310865 0.014068 0.171168 0.004913 -0.157614 0.020580 0.001656 -0.019262 0.464048 0.001566 0.002170 0.002889 -0.012347 -0.114588 -0.002003 -0.004344 -0.003446 0.000544 0.002973 0.001026 0.333975 0.185236 0.000747 -0.016206 0.080839 0.016287 0.029037 -0.000319 0.017021 0.002783 0.077062 0.253000 0.228995 -0.006901 -0.147671 -0.001158 0.007698 -0.002105 0.001027 -0.008628 0.004490 0.002828 0.147692 0.002499 -0.024012 -0.001668 -0.012363 0.110737 0.165268 -0.135138 -0.167279 -0.004425 -0.044859 -0.006165 -0.005609 0.440155 -0.015052 -0.008037 0.085456 -0.035950 -0.002266 -0.000878 -0.015286 0.125686 0.368873 0.000088 -0.017524 0.036769 0.145406 -0.000559 0.003482 -0.004944 -0.000010 0.000523 -0.000313 -0.012436 0.131595 -0.003196 -0.001452 0.007155 -0.004645 -0.008875 0.119466 -0.172072 0.001868 0.008357 0.000519 -0.014170 -0.199061 0.000891 -0.004381 -0.000656 -0.011336 0.000863 0.024129 -0.204500 -0.009210 0.078482 -0.409958 -0.002929 -0.009756 -0.168759 -0.006818 0.001599 -0.003283 0.258294 0.186104 -0.004216 -0.211326 0.050336 -0.012692 0.003901 0.008852 0.007706 -0.235436
0.239170 0.001826 -0.183832 -0.024361 -0.010010 -0.023190 -0.294830 0.130219 0.133113 0.179857 -0.006045 0.339130 0.048814 0.125432 0.140131 0.051256 0.090712 -0.005802 -0.009810 -0.031171 0.062655 0.250622 0.034876 0.001346 0.009874 -0.154825 -0.281296 0.000019 -0.001604 -0.000598 -0.039727 0.028756 0.020377 0.287033 -0.033279 0.016599 -0.004188 -0.046857 0.010078 0.033968 -0.002877 0.007113 -0.002755 -0.085655 0.129007 -0.018178 0.008365 -0.184215 0.012581 -0.001729 -0.006057 0.001216 -0.043402 -0.038268 0.144060 -0.232784 0.001974 0.091081 0.000279 -0.159272 0.616666 -0.216731 -0.226476 -0.429234 0.003923 -0.323052 -0.001545 0.024189 0.103078 -0.019285 -0.039090 0.109728 -0.214455 0.003910 -0.013907 0.041499 0.030693 0.296618 -0.000408 0.009405 0.192887 0.038584 0.001468 0.001127 -0.005664 -0.001139 0.005720 -0.021558 -0.000779 0.022820 0.011702 -0.001221 0.032143 0.007109 0.047740 0.539095 0.059760 -0.001587 -0.129420 -0.001046 -0.001052 -0.301777 -0.001841 0.009468 0.035262 -0.011695 -0.000683 -0.029212 -0.059213 0.029184 0.278816 -0.508817 -0.001416 0.008815 -0.175351 -0.051353 -0.006075 0.012071 0.191786 0.176943 0.027370 0.049404 -0.008151 -0.016999 -0.009549 -0.016730 0.086327 0.089346
-0.031451 -0.001544 -0.032309 0.023268 -0.000608 0.006118 0.020073 -0.039693 -0.033830 -0.003188 -0.109731 -0.263497 -0.044737 -0.001960 -0.017849 0.013154 0.000106 -0.015968 0.058314 -0.034324 0.032048 -0.013818 -0.026273 -0.001477 0.005603 0.012468 -0.127883 -0.003161 -0.001746 -0.000603 -0.000566 -0.004766 0.060806 -0.113007 -0.009603 -0.048196 0.000201 -0.203941 -0.013825 0.047726 -0.000314 0.004299 -0.001022 0.003029 0.046610 0.044653 -0.000666 -0.114538 0.001534 0.002157 -0.008032 -0.000831 0.041804 0.101870 -0.019049 -0.127551 -0.000995 0.011380 -0.003104 0.006258 -0.017740 -0.135242 0.002751 -0.199801 -0.000139 -0.164070 -0.025740 -0.001169 -0.044631 -0.050655 0.031428 0.008061 0.027119 -0.000820 -0.002329 0.016165 -0.073733 -0.030438 -0.010653 0.023101 0.026263 0.051730 0.001005 0.000690 -0.003961 -0.035840 -0.005838 0.011919 0.004360 0.001590 -0.003390 -0.003237 -0.072260 -0.025889 0.015460 0.029198 0.014150 0.000118 -0.013973 0.001821 -0.001282 -0.193988 0.000202 -0.015224 0.038417 -0.004369 0.000018 -0.052177 -0.134670 0.007338 -0.091547 -0.108083 0.001607 -0.000764 -0.021452 -0.001187 0.255915 -0.002292 -0.010788 0.046754 0.007319 -0.050406 0.055715 0.003222 -0.005814 -0.170706 0.078487 0.000097
-0.130484 0.000292 -0.272302 -0.000047 0.004019 -0.023300 -0.083311 0.333834 0.107199 0.163440 -0.005204 -0.230501 0.217742 0.208631 0.012433 0.116377 -0.018729 0.202359 0.000083 0.002784 0.001527 -0.446246 -0.000701 0.001177 0.000196 0.041955 -0.071885 -0.002119 -0.000433 -0.001588 -0.001656 -0.006133 -0.003109 -0.357284 -0.586824 -0.004918 -0.001215 -0.250281 -0.133007 0.196927 -0.000415 -0.005671 -0.000042 0.085371 0.164914 -0.060266 -0.002047 -0.128193 -0.000628 -0.001807 -0.000131 0.000589 -0.018500 -0.002409 -0.099371 -0.114600 -0.002710 0.028484 -0.013457 0.144389 -0.231811 -0.190900 -0.224794 -0.201668 0.018672 -0.087842 -0.054136 0.000891 -0.034770 0.017824 -0.001050 0.086313 0.026639 -0.004858 -0.005875 -0.004171 0.090877 0.094116 -0.001996 0.062823 -0.189521 0.205111 0.001073 0.000304 0.012509 -0.002159 -0.014005 0.002003 -0.002029 0.141945 -0.001156 -0.007059 0.040135 0.023801 -0.002576 -0.091794 0.526263 -0.002039 -0.005045 -0.004988 -0.001050 0.381319 -0.002243 0.000515 -0.001978 0.000519 -0.000305 -0.104795 0.022438 0.006641 0.398656 -0.064336 0.001636 -0.002790 -0.429554 -0.000638 0.000069 -0.005655 -0.250713 -0.080153 0.001054 0.295491 0.078118 -0.004738 -0.000630 0.249662 -0.017246 0.389863
0.001167 -0.004161 -0.468876 -0.037181 -0.001851 0.007247 0.226096 -0.043424 -0.054607 -0.136897 0.105880 0.064416 0.043399 0.473420 0.377770 0.243642 0.082200 0.323493 -0.002130 0.000690 0.001968 0.428495 0.006193 -0.000339 -0.000074 -0.143910 -0.003651 -0.000314 -0.001801 0.001561 0.004495 -0.016845 0.005330 0.040775 0.094551 -0.053878 0.007103 -0.001611 0.070530 -0.005174 -0.003201 0.003257 -0.000813 0.226276 0.244268 0.048517 -0.000873 -0.053237 -0.004773 0.007447 0.002791 0.001915 -0.007208 -0.008452 0.035930 0.049548 -0.001181 0.014178 -0.003465 -0.105614 -0.203992 0.205244 -0.179490 0.096594 -0.004992 -0.248365 -0.011133 -0.001407 -0.170789 -0.002268 0.000832 0.371639 0.192152 -0.001402 -0.005255 -0.002294 -0.046467 0.041992 -0.004267 -0.006386 -0.046397 0.122281 -0.001119 -0.002127 0.005219 0.003173 -0.011785 -0.017652 -0.013867 0.080732 0.002714 0.006675 -0.104135 -0.034035 -0.005003 0.402360 -0.130662 -0.001297 -0.020052 0.001828 -0.010352 -0.161321 0.002018 0.015358 0.002004 0.017937 -0.004795 0.003609 -0.058661 -0.006219 0.019859 -0.287368 -0.001700 0.007618 -0.015161 0.000398 -0.084450 -0.003793 -0.034487 -0.153241 0.004331 -0.041928 -0.000571 -0.000175 -0.001787 -0.237438 -0.076448 -0.280390
-0.036940 -0.002692 -0.486193 0.002096 0.004269 0.012421 0.124395 -0.087429 0.076873 0.975027 -0.003516 -0.188790 0.287555 -0.017954 0.204130 0.200967 0.330540 -0.141889 0.029350 0.000601 -0.007269 0.436765 0.007430 -0.000514 0.002330 0.007709 0.045489 0.000051 0.000687 0.001389 -0.001023 0.002554 -0.005633 -0.176428 0.082296 0.000962 -0.009322 0.191745 -0.016604 0.095480 0.005203 0.004963 -0.000254 -0.114748 -0.077918 0.451832 -0.001978 -0.004292 -0.000631 0.000909 -0.001616 0.001657 -0.008851 -0.002329 -0.331513 0.247964 -0.001153 -0.002988 -0.000576 0.291757 0.101655 0.249245 -0.217621 -0.401292 -0.000240 -0.200630 -0.009617 -0.005015 0.176933 -0.001885 0.016822 -0.084228 0.456453 -0.002062 -0.002853 0.007459 -0.057182 0.073641 -0.009471 -0.013237 0.704075 0.076413 -0.002491 -0.002482 -0.002215 0.001656 -0.000591 -0.003201 -0.010031 0.136596 -0.004249 -0.002710 -0.008212 -0.019112 0.002000 0.338339 0.051882 0.000874 -0.028311 -0.000641 -0.003506 -0.174415 -0.000996 -0.001125 0.028958 -0.002097 -0.003693 -0.024747 -0.244062 -0.009343 -0.311129 -0.501761 -0.004649 0.008230 -0.025755 -0.003312 -0.002558 -0.003242 0.448391 -0.068989 0.054795 -0.311626 0.007987 0.003183 0.002031 0.048200 -0.001077 0.125786
-0.128800 0.001719 0.499662 -0.100789 0.019662 0.035820 -0.281435 -0.274494 0.394570 -0.143798 -0.031911 -0.209894 0.043721 0.167402 -0.162581 0.003741 0.253699 -0.156252 0.010609 -0.054609 -0.037604 0.002613 0.041640 -0.003792 0.025164 0.067930 0.308527 0.001632 -0.000842 -0.002123 -0.017442 -0.033305 0.026300 0.074572 -0.072248 0.033926 0.019569 -0.315965 -0.091127 0.059106 0.002610 0.000116 -0.004387 -0.042937 -0.011434 0.096211 -0.003801 -0.026539 0.050613 0.001071 0.000733 0.003647 -0.018953 -0.091701 0.279108 -0.028152 0.006642 -0.078221 0.000787 -0.319849 -0.564458 -0.308698 -0.135141 -0.165913 0.018504 -0.504314 0.081788 -0.003922 -0.023497 -0.015090 -0.001687 -0.245285 -0.108493 0.000100 -0.003421 0.021615 -0.005153 0.236286 0.000047 0.022528 0.165376 0.063147 -0.001739 -0.002586 -0.002371 -0.041933 -0.040914 -0.007742 -0.029318 -0.125293 -0.013158 0.000316 0.246027 -0.037182 0.029424 -0.259808 0.044835 0.000839 0.017925 -0.004225 0.015461 -0.379825 -0.001972 -0.029863 -0.013313 -0.017852 0.003661 0.009244 -0.146698 0.008525 0.047890 -0.185260 0.001052 -0.011881 0.091355 0.000600 0.090131 -0.012477 -0.057373 0.320421 -0.007460 0.004187 -0.014889 -0.023291 -0.003045 0.275841 -0.055902 -0.030431
